agua -0.20219047 0.026780901 0.45648462 0.59063244 0.728367 0.06731722 0.14119701 0.09541427 0.6644349 0.4324493 -0.18616901 -0.32093686 -0.38278162 -0.13426332 0.7492301 0.47157893 -0.22406372 -0.14809217 0.016200442 0.09058124 0.49922812 0.046215054 0.12654144 0.26805896 -0.70480454
niño -0.21050157 -0.09146419 0.31841472 0.46097445 0.005321485 -0.13605282 0.76006466 0.16334476 -0.23981066 0.0836532 0.290699 -0.42226043 -0.63632196 0.15803157 0.54968745 0.36762884 -0.4637547 -0.5034127 0.31230694 0.056974057 -0.37277475 -0.24743573 -0.5869839 0.32348713 0.25821617
computadora -0.70323324 -0.1610804 0.62172747 -0.001428627 -0.07302952 -0.5975071 0.6653032 0.3486877 1.0239367 0.76757437 -0.3752082 0.19146462 -0.21314344 0.38868582 0.10255865 -0.26202783 -0.70741856 -0.3958841 0.29031697 -0.24611315 0.47761267 -0.23992272 0.5803682 0.013916309 1.002017
camión -0.2766277 -0.23629794 0.55793625 0.07608002 0.04848701 0.38894954 0.39198628 0.20650102 0.613231 -0.4158284 0.13435599 0.5057885 -0.17962672 -0.11565472 0.86712205 0.41085294 -1.3874396 -0.16605176 0.27804253 0.24119554 0.09963567 0.26769677 0.120295234 1.0162404 0.35625055
casa -0.32235286 0.022243962 -0.31639412 0.53426284 0.14953178 -0.056319915 -0.2742879 -0.10074337 0.8298369 0.06445103 0.18973084 -0.7088797 -0.19676639 -0.058135137 0.23506257 0.11236992 -0.74929285 -0.45474723 -0.1708201 0.20091403 0.22836615 0.0954481 0.041727714 0.7343012 0.22665673
calle 0.20962735 0.42031053 -0.20962651 -0.24144447 -0.27568072 0.5916713 0.34892052 0.21095064 0.26653427 -0.0892249 0.18978053 -0.44078332 -0.11321895 -0.081650175 0.48487237 0.016367156 -1.107456 -1.3174367 0.22291842 0.3001817 0.0038081212 0.25765926 0.3556542 0.82810867 0.34872875
dulce 0.26011652 0.8334544 0.4074653 0.44244087 0.42072296 -0.24724615 0.5598129 -0.011720628 0.38107768 0.033022936 -0.09918592 -0.6603254 0.20293024 -0.22143269 0.39693987 0.67553097 -0.39504692 -0.18000956 -0.3981124 0.10255086 -0.44851187 -0.23815876 -0.55336905 0.45295933 -0.31328082
reja -0.803109 -0.2384344 0.09775021 -0.012031516 -0.13949257 0.35548487 0.5045041 0.14818597 0.95157015 -0.34894955 0.031744298 -1.0640068 -0.41760853 0.34438917 0.47968414 -0.52137005 -0.04456141 -0.30961558 -0.74065286 0.036241364 -0.19594795 0.12394405 0.28217444 0.66514206 -0.22879696
tierra -0.15540442 0.15843236 -0.21751493 0.21427983 -0.2016293 -0.5095814 -0.15556492 0.1807475 0.90556145 0.2846 0.04192837 0.13135472 0.22056915 0.054230295 0.83414745 0.1945794 -0.89698666 -0.491236 -0.3228674 0.36276117 0.7277613 -0.16876365 0.2627714 0.18991001 -0.730727
colores -0.20274235 0.8836948 0.6786268 0.41749525 -0.657198 -0.3136808 0.7268915 0.3737073 -0.05733312 0.03473733 0.5829258 -0.66682136 -0.100310944 0.0054661823 0.69482416 0.15978318 0.060711473 -0.041363582 0.12465512 -0.10699591 0.2843513 -0.04589444 0.57305104 0.32651216 0.19525306
grande -0.3672095 0.29436567 -0.16395758 0.18968701 -0.053350653 0.08280801 0.30178255 0.07121116 0.51583505 0.25160056 0.26381806 -0.08477561 -0.059712756 -0.08155214 0.3880677 -0.004431716 -0.47069594 -0.2728223 -0.1901239 0.101668164 0.15315147 0.13984108 -0.00077165954 0.4662933 -0.021543495
piedra -0.28029984 0.26259476 -0.3359902 0.5782138 0.07175214 0.18419148 0.16733895 -0.72957593 0.30589727 0.75925416 -0.24631083 -0.3983128 0.10921268 0.9247692 0.78134054 -0.27700102 -0.49745274 -0.759849 -0.33422235 0.29064927 0.7226535 -0.32183415 0.02299958 0.49867865 0.07971565
dinero -0.7953579 0.46061048 0.29379317 -0.07840824 0.18512884 0.089562595 0.09661325 -0.1389099 0.017868027 0.5681375 -0.41926956 -0.031249378 0.13382953 -0.38081908 0.8194011 -0.12670961 -1.1238558 -0.31558198 0.61276555 0.6016943 -0.8175648 0.1707572 0.5305685 0.4047102 0.57868934
burro -0.20049976 -0.41619852 -0.2602801 -0.005700231 -0.421158 -0.26842803 0.7645723 0.34742525 0.6789571 0.5980179 0.47644722 0.53293175 0.09792813 -0.038740132 0.77402574 -0.5701152 -0.2769702 -0.532551 0.25582436 0.43672484 -0.24689294 -0.20954087 -0.26384005 0.66266257 0.26767254
bebé -0.052101064 -0.32784534 0.41304904 0.5623174 -0.16284305 -0.34768027 0.48035413 0.09616801 0.36031276 0.14375441 0.47445476 -0.6970705 -0.088449545 -0.19469379 0.8028388 0.35404804 -0.49174666 -0.107425064 -0.06602464 0.6850647 -0.45454547 -0.17961653 -0.8121008 -0.18237488 0.29027748
mano -0.60128814 0.555186 0.3961858 0.055219054 -0.42858753 -0.8023974 0.33097336 -0.6528961 0.23557445 0.5554089 -0.31670138 0.121973164 -0.31957334 0.34183243 0.7874788 0.09080863 -0.64552706 0.34151292 -0.017392443 0.0448111 0.24488372 0.08006339 -0.19215612 0.4865846 0.516733
bolsa -0.5735481 0.26228368 0.036896925 -0.08533562 -0.16457543 -0.4007628 -0.05203447 -0.10659111 0.047148515 0.25377133 -0.31832173 -0.28200257 0.16420458 0.34792274 1.091102 -0.12463638 -0.7477615 -0.48228654 -0.26596698 -0.07732899 -0.6118414 0.47711897 0.5714534 0.53200233 0.46737456
escuela -0.40634748 -0.0133440755 0.53304285 0.2084475 -0.27267814 -0.17147094 0.46159717 -0.14769435 0.5308581 0.34733424 1.0607617 -0.26806915 -0.15556051 0.21549082 0.68196374 0.012892891 -0.7845748 -0.38512972 0.260176 -0.9245257 -0.17216219 -0.34416643 0.39716265 0.5431981 0.75565666
moto -0.4595706 0.121908195 0.46319526 0.20426087 0.024914676 0.6046753 0.93574435 -0.3131419 0.7532873 -0.4082549 -0.10532254 0.5343809 -0.20349325 0.45822692 0.41487518 0.2671378 -0.9977569 -1.0591611 0.23624068 0.16962893 0.048872408 -0.063851215 -0.31215984 0.4285421 0.17555505
policía -0.09871999 0.22619379 0.12493614 -0.5913387 -0.089221135 -0.029295275 1.2832404 0.13359915 0.3589888 -0.22361775 0.50788206 -0.11343732 -0.7016366 -0.21200527 0.016244898 -0.5462249 -1.6557206 -0.01891651 -0.08990004 0.14759392 -0.55172366 0.5258285 -0.077171095 0.4899221 -0.039332435
conejo -0.17090796 0.104551785 0.1591142 -0.18649511 -0.16793974 -0.28750136 0.8846874 0.750455 0.4534225 0.46189675 0.35959035 -0.12931089 -0.21490106 0.67513007 0.5427894 -0.11188478 -0.12574218 0.26864195 -0.6036437 0.8625027 0.08488827 -0.32434136 -0.46178633 0.19191623 0.017951274
familia -0.86809105 -0.01766307 0.12023151 0.32760546 -0.008712939 -0.13466176 0.21670124 -0.20337102 0.45674846 0.46173647 0.73187476 -0.5007644 -0.122810125 0.43157357 0.22271158 0.8055303 -0.8475994 0.30619282 -0.5585056 0.32918346 -0.02590673 -0.10953531 -0.30399984 0.6155505 0.9932786
león -0.5051121 0.25913095 -0.33573687 -0.07797772 -0.1909329 0.39636198 1.37311 -0.003590271 0.22513038 0.9486678 0.61319053 -0.11880984 0.2524699 0.47791016 0.7224058 0.63102996 -0.35774127 0.38559082 -0.30544662 0.41635197 0.06572016 0.4745357 -0.021211244 0.30733725 0.12735687
caballo -0.65489954 -0.40022805 0.21808288 0.13267179 -0.5350963 0.31462985 0.9738764 0.3049872 0.3146712 0.19630438 0.37301534 0.0970016 0.22948086 0.26757574 0.9869453 -0.1276485 0.2538659 -0.91835964 0.13790973 0.7736223 0.075383395 0.18422258 -0.11026492 0.42282474 -0.20452026
playera -0.9831899 0.3624538 0.6279644 0.23064838 0.19196516 -0.18203585 0.074578285 0.5199254 -0.0661603 0.35980257 0.41299585 -0.4609028 -0.9365168 -0.120940335 0.389242 0.22566923 -0.41026863 -1.0532502 -0.38764706 -0.12308566 0.09360872 0.18494232 0.106698856 -0.15437742 -0.018721398
pelo -0.4867119 0.377585 0.55832267 0.2788893 -0.639475 -0.28258628 0.9859132 0.020145923 -0.09668279 0.117593065 -0.38727438 -0.6175116 0.33471388 -0.11676876 0.5734684 -0.24945644 -0.43448916 -0.029417772 -0.25800014 0.72469604 -0.009891796 0.46612734 -0.70850843 -0.09099334 -0.04943128
cocodrilo -0.15716474 0.13458253 0.06798723 -0.38990754 0.3569047 0.2999378 0.9622787 0.20333125 0.7614277 0.7204826 0.19309123 0.2610791 0.23156007 0.31940377 0.76284796 0.4427166 -0.36186755 -0.3754009 -0.71975154 0.055703603 0.0027884918 0.6973464 0.23182298 -0.09843769 -0.20839864
oso -0.6470322 0.2910269 -0.6692732 0.30586314 -0.03831674 -0.18115965 0.8245955 0.528217 0.61820227 0.602911 0.46599782 0.07187934 0.10415402 0.17754894 0.5195912 0.6015829 -0.559278 0.13739958 -0.040688295 0.24829948 -0.31178817 0.12821949 -0.7309817 0.015987204 -0.3265471
mesa -0.72021395 0.5090919 0.03686728 0.314322 -0.30800185 -0.24466123 -0.1748386 -0.2430169 1.0475663 1.064698 0.0008147259 -0.52470183 -0.3123274 -0.12775762 0.23034105 -0.17056206 -0.008060694 -0.14860795 0.28849652 0.013115223 -0.12698674 -0.26435095 0.02918385 0.8757687 0.14097378
botón -0.9646526 0.72312737 0.5078999 0.45902142 0.3562418 -0.6910884 0.5451349 0.40892088 0.5190144 -0.24859078 -0.36605754 -0.30121562 -0.54267234 -0.098708004 -0.22825153 -0.41867977 -0.6626122 -0.19932874 -0.47202566 0.25469354 -0.20140775 0.41834632 0.015613545 -0.08547913 0.9364261
gato -0.35147935 0.54778665 -0.6136255 0.18810442 -0.20111835 -0.069259636 1.1285796 0.28437185 0.73006684 0.6031611 0.22897363 -0.28122962 -0.22057347 0.43417045 0.6390468 -0.110256135 -0.23730452 0.39403334 -0.04597273 -0.029404521 -0.48973465 -0.02928063 -0.5837538 -0.10994467 -0.15096837
carne -0.06885761 0.6700173 0.14049971 -0.30039805 0.14642458 0.2745165 0.87214553 0.29774716 0.15079089 1.1269014 0.021787541 0.064972974 0.020766316 -0.4496835 0.4411726 -0.21355014 -0.15836453 -0.26606777 -0.52797276 0.38536784 0.030611891 -0.43523237 0.43619475 0.60694915 -0.61314064
planta -0.17883833 0.08389175 -0.03267956 -0.10912277 0.045672018 -0.6394173 0.26611185 0.27245224 0.6703029 0.16691782 0.21248533 -0.7549843 0.6203546 -0.508835 0.71196127 -0.14155185 -0.7209443 -0.5532635 0.18720368 0.20011505 0.87779975 -0.5599327 0.2791853 0.13620727 -0.41976333
cara 0.18366754 0.13135208 0.20266041 0.4076591 -0.4830039 -1.1270596 0.2401969 -0.6052938 0.2817663 0.28959996 -0.29773995 -0.9583471 -0.21691477 0.5005965 0.615966 0.6592134 -0.3422499 -0.64047444 -0.0671886 0.6542929 -0.21058235 0.59728354 0.2530069 0.38355166 0.060581006
botas -0.87384593 0.10674574 -0.03557274 0.370336 0.7979764 -0.097958274 0.3399432 0.25688583 0.18569304 0.27060136 0.20204961 0.11496796 -0.053546242 0.8638268 0.46705616 -0.17687418 -0.6236377 -1.0233153 0.18331008 0.5764631 -0.17959335 0.72727466 -0.39861095 -0.043673716 -0.19480887
ardilla -0.43757287 0.048940368 -0.043314725 -0.59918624 -0.23651889 -0.116353154 0.75816584 0.25906363 0.4843041 0.45232788 -0.34216303 -0.5399952 0.26640284 0.6700538 0.2726373 0.33618483 -0.8496595 -0.25642517 -0.39554837 0.9201403 0.1312786 -0.57037467 -0.18698369 0.07677524 -0.046206295
televisión -0.09409793 0.05329581 0.2907857 0.42577907 -0.10094923 -0.75962335 0.43475518 0.48715428 0.986427 0.5815069 -0.264458 -0.24453409 -0.48868552 0.21811965 -0.4009804 0.5302408 -0.5101604 -0.79080176 -0.19449914 0.011334694 0.04458647 -0.04623639 0.47160238 0.58435225 1.1458633
víbora 0.20775592 0.45530182 -0.2771191 -0.47878343 -0.005179515 0.3515687 0.9214184 -0.4309363 0.85294706 0.5431347 -0.10340121 -0.24672247 -0.15173008 0.78618586 0.6560621 0.29634205 -0.69465023 -0.8030581 -1.1030477 0.01269736 0.16226794 -0.045989018 -0.020968966 -0.0524569 0.060871664
calzón -0.99181545 0.30509302 0.3528394 -0.28081235 0.31529087 -0.39184597 0.25543794 0.62818414 0.17116389 0.47916868 -0.049042076 -0.47947472 -0.3655474 -0.3105682 0.76529694 -0.33301598 -0.3297931 -0.58563495 -0.25067118 0.013698548 0.0016514242 0.4055737 -1.0410479 -0.011897075 -0.3271574
caja -0.7287312 0.7634534 0.14670084 0.1499885 -0.23725748 0.25195602 0.05604911 0.4970498 0.54743713 0.29822877 -0.57797426 -0.9176685 0.23972532 0.5032316 0.31912124 -0.28936476 -0.5480662 -0.26766035 -0.1566336 -0.20414679 -0.76508677 0.10211784 0.32799822 0.5505085 0.06828129
bicicleta -0.3443103 0.049842484 0.6509843 0.21037807 -0.30400613 0.018747216 0.892131 0.18744846 0.10698641 -0.2396709 -0.184544 0.14839348 -0.37345555 0.6515667 0.42185932 0.2990706 -0.86713165 -0.93746173 0.5113861 0.18236978 0.40760234 -0.48158097 -0.23777905 0.3963998 0.20529816
zapato -0.42631516 1.1241558 0.15140904 -0.14599043 0.47089413 -0.1803379 -0.087791264 0.22716792 0.28893378 0.12930663 0.30340588 0.19809587 -0.18471375 0.5084009 1.0798309 -0.18275544 -0.68888617 -0.45370984 -0.039696027 0.00651385 0.10397571 0.3465653 -0.41744193 0.101006486 0.25113332
tren -0.0778384 0.0747507 0.84429145 0.5603122 -0.32599148 0.65422064 0.413409 0.6316734 0.6738477 -0.00524745 0.5921296 0.39863354 -0.040329337 -0.10384554 0.7140021 -0.06920937 -0.977091 -0.27575257 0.4299059 0.8375057 -0.053303204 -0.14468391 -0.11811196 0.11786428 0.28921336
lobo -0.16940796 0.3291548 -0.24678196 0.16300026 -0.84307986 0.050672617 1.1770337 0.6148501 0.19420308 0.7049534 -0.0064844685 -0.022404492 0.07175741 0.28658912 0.70055354 0.08495365 -0.28585103 0.26078752 -0.25494447 0.12750885 0.14913972 0.4897561 -0.23333775 0.53212845 -0.30121183
gorra -0.6630593 0.40669605 0.22746794 0.11653341 -0.094627954 -0.31168538 0.48918205 0.9146541 -0.10543113 -0.110066 0.44606277 -0.058571525 -0.90978 0.31608897 0.6362403 -0.5270677 -0.6231107 -0.45818388 -0.18726322 0.024244372 -0.23799914 0.8626095 0.049348913 0.14251737 -0.3421955
mueble -0.76791143 0.32984838 0.3119453 0.38431984 -0.19035228 -0.36501178 -0.30569932 0.2688603 1.1668271 0.29673308 0.13728064 -0.47655272 0.6085598 -0.29247448 0.38292477 -0.112728216 -0.32522988 -0.6657567 0.22159012 0.12123073 0.07224566 0.3232622 -0.5072765 0.6182977 0.53527963
cacahuate 0.62704355 0.8474849 0.33506504 0.036018785 0.42730704 -0.36270794 0.7861627 0.4938923 0.42897245 0.445948 -0.6961044 -0.23657496 0.19015606 -0.0030313183 0.040447682 -0.0693852 -0.6375076 -0.34548882 -0.082060054 0.8434642 -0.35305053 -0.3557001 -0.26584592 0.46655235 -0.43890747
árbol -0.6272144 0.35803097 0.014079656 0.23744547 -0.05916815 -0.32757664 0.5741316 0.3344662 0.60446966 -0.2777709 0.10422262 -0.3906694 0.51272833 -0.06707163 0.28690287 -0.13629352 -0.36614364 -0.32434508 -0.19596323 0.19837394 0.8624817 -0.65933764 -0.36441824 0.60788417 -0.38065758
iglesia -0.2846023 -0.49530968 -0.43804613 0.74134797 0.1811724 -0.08840828 0.86437917 -0.7240429 0.60840154 0.77085716 0.35331607 -0.35223514 -0.040182736 -0.75660414 -0.13193975 -0.14959791 -1.2013686 -0.589819 -0.39318946 -0.15095165 -0.1089468 0.71944547 0.29006046 0.6765599 0.6479092
pato -0.43049204 0.17205118 -0.59606004 0.4625177 0.27189723 0.2485274 0.7025239 0.38719532 0.9171068 0.25546166 0.27228984 -0.12121928 -0.70377475 0.0073517603 0.9618456 -0.054170262 0.2213652 -0.09957415 -0.40880525 0.47031063 -0.4221435 -0.24552602 0.003375463 -0.17857215 -0.02746035
tigre -0.4780192 0.39339566 -0.25564727 -0.0006112483 -0.19995044 0.41319042 1.5411308 -0.31369108 0.36175662 0.61085147 -0.016089305 0.08624995 0.19741821 0.70988405 0.4962749 0.40792218 -0.22237441 0.108675614 -0.30020586 0.34261438 0.114151746 0.63478595 0.007349197 0.5414247 -0.0912629
comida -0.11250105 0.31090438 0.27140394 0.16278964 0.33957443 -0.1516397 0.43093833 0.24751444 0.4371123 0.52614164 -0.072714664 -0.20215383 0.22498448 -0.05786608 0.3795278 0.061265796 -0.11681154 -0.22716415 -0.40551668 0.4758639 -0.5667358 -0.27772826 0.12986755 0.55496955 -0.33944225
leche -0.14093539 -0.3997133 0.23975065 0.67291 0.47590545 -0.528103 0.106682256 -0.17467551 0.45690876 0.7366403 0.014639646 -0.6994645 0.2596486 -0.026448866 0.36351565 0.3073789 -0.5742526 -0.32171127 0.03067249 0.33994162 -0.6142385 -0.1707602 0.06259255 0.66454136 -0.74062955
pescado 0.37482998 0.16088846 0.07525722 0.33961633 0.68789124 0.4563305 0.90530837 1.0195191 0.6909388 0.8368878 -0.17412269 0.2951213 -0.11690972 -0.41856128 0.62552595 0.26112998 -0.28584725 -0.47755066 -0.28322428 0.14067541 0.008359153 0.01070307 0.47465563 0.13743952 -0.42256972
perro -0.45916912 0.74428284 -0.32090735 -0.2309225 -0.33597866 0.7416743 0.7404756 0.54854053 0.015896618 0.016415555 0.09987872 -0.62891 -0.18580408 0.08657351 0.6583973 0.2854964 -0.65686685 -0.06652623 -0.5864203 0.45946112 -0.58615154 0.11658744 -0.38846266 0.45168027 0.071654536
autobús -0.14353707 0.093420126 0.39114234 0.26095402 -0.011685782 0.6068737 0.43495694 -0.09631406 0.38674927 -0.35858253 0.3763484 0.3002446 -0.0041180183 -0.25858352 1.1339159 0.5273475 -0.9909849 -0.85388136 0.31134292 -0.06748017 -0.10747704 0.1788078 0.045228668 0.7018565 0.5247579
manzana -0.1814924 -0.03420667 0.57801384 -0.08751393 0.5118329 -0.3194554 0.7782364 -0.06213618 0.33873647 0.30482554 -0.08076128 -0.90544343 0.09717547 0.11981691 0.31178376 0.37647906 -0.39593777 -0.5867352 -0.39949188 -0.38219973 -0.15037139 -0.7098121 0.2962264 0.5651047 -0.860616
sombrero -0.7489235 0.6326631 -0.18199967 0.07490389 -0.33467612 -0.69009835 0.4544651 0.54714555 -0.18734713 -0.4352878 0.42763472 0.0292671 -0.6093527 0.15660104 0.787468 -0.407685 -0.36013222 -0.3998573 -0.3387858 0.29021126 -0.18694808 0.3547971 0.044186108 0.62825483 -0.10919815
mercado -0.1580544 0.57803947 -0.20841537 -0.52552587 0.54546714 -0.2146437 0.28813708 0.2768489 -0.063428655 0.22502246 -0.46381095 -0.31697127 0.15922377 -0.52540314 1.0280977 0.36637613 -0.4874501 -0.50419694 0.028358819 0.06900195 -0.050810333 0.42299324 0.45880586 1.1797434 0.48904872
vestido -1.1453613 0.80412555 0.12092121 0.19019474 0.61297107 -0.5852045 0.5074762 0.003962877 -0.43123806 0.2623451 0.40728483 -0.52031875 -0.04191029 -0.20146234 0.41954997 0.2628741 -0.35815924 -0.45988747 -0.06331933 0.4665816 -0.048553843 0.49558407 0.06729318 -0.26533842 0.035427243
libro -0.73209834 0.41598588 0.17156017 0.17517008 -0.04119075 -0.7922247 0.75295085 0.5579385 1.018846 0.2335512 0.5784196 -0.50695175 0.23200075 -0.09944993 0.44259185 -0.0324586 -0.27158248 0.03791831 0.38549244 -1.0935838 0.17678784 -0.114544295 0.14895703 0.23624301 0.46120024
ventana -0.2197349 0.52986073 -0.35556886 0.5625045 0.24954522 -0.20128392 0.5005023 0.45889124 0.95801985 -0.4569695 0.24887885 -0.744718 -0.35528493 0.05210665 0.23321328 -0.33471844 -0.18870017 -0.57752246 0.33829278 0.1460314 0.52288014 0.5314464 0.7357224 0.23096344 -0.098936714
flor -0.63857055 -0.010144014 -0.018688286 0.063623555 -0.43528387 -0.58220476 0.42336607 0.48943517 0.032085188 0.15058598 -0.12276583 -0.99664044 0.48925024 -0.25662774 0.9719028 0.31567648 -0.290519 -0.69527775 -0.5623477 0.43230897 0.42231598 -0.5107987 0.50283194 -0.14446792 -0.22981635
mono -0.7739949 0.02951971 -0.18305625 0.14177322 -0.086813696 -0.34642893 1.3013855 0.35520852 0.61393225 -0.061805174 -0.55969197 -0.1506865 -0.085487016 0.43944564 0.4545842 0.032298774 -0.36652955 -0.036574394 0.3184818 0.51483405 -0.11354262 -0.6366575 -0.6899064 -0.019831015 -0.23298572
aretes -0.092086844 0.38689488 0.35146457 0.16767891 0.26804018 -0.8952249 0.3969238 0.14422671 -0.4056836 0.37976974 0.05790093 -0.9705244 0.16345114 0.8882631 1.00974 -0.6537316 -0.5363096 -0.044850864 0.23787874 0.6893448 0.07279637 0.39491868 0.0816152 0.14964409 0.5846947
gelatina -0.19085652 0.02671365 1.0014982 0.5122 0.7179985 -0.6134588 0.74717754 0.3549804 0.38014826 0.43624964 0.031930976 -0.4286698 -0.13667943 -0.5927469 0.003376624 0.0805454 -0.5818489 0.25043938 -0.3014818 0.019585988 -0.22445309 -0.37192893 -0.16251092 0.17918412 -0.51429373
hipopótamo -0.43020287 -0.057426084 -0.18804538 -0.3215409 0.4399894 0.35205272 0.9667369 0.3521982 0.7411151 0.96622425 0.014467211 0.19633803 0.18161826 -0.0019331324 0.7735804 0.57903713 -0.17792515 -0.111944325 -0.10734681 0.2045171 0.28551495 0.48634565 -0.012032552 0.24071653 -0.18022922
papas -0.08607227 0.6214264 0.34317306 -0.33492804 0.81800073 -0.49490872 0.5125112 0.28159884 0.31963617 -0.07098687 0.4192577 -0.16428289 -0.22914693 0.034516506 0.042495135 -0.006129464 -0.66308117 -0.4040813 -0.4957406 1.1936194 -0.5627145 -0.46887344 0.87172365 0.8954648 -0.40244475
tractor -0.30490255 -0.70433605 0.16198255 0.33859238 -0.07013781 -0.39687502 0.5624668 -0.14149107 0.9000886 -0.30042776 -0.20569311 0.77143764 0.38847512 0.29514077 0.85936457 -0.309472 -1.2784525 -0.39072472 -0.10865956 0.53644264 0.43405095 0.11347049 0.12291259 0.6512019 -0.05887754
pan -0.06824756 0.36520314 -0.112512 0.90442896 0.49436653 -0.15489693 0.44424585 -0.3520001 0.17348874 0.6270939 -0.1519499 0.06979942 0.40074548 -0.34367412 0.3505197 -0.044479307 -0.78424865 -0.60255015 -0.20445594 -0.0010580961 -0.8508431 -0.56771016 0.20694688 0.7668511 -0.3974873
huevo 0.0386782 0.3101988 -0.5192809 0.6208617 0.864469 -0.3254404 0.3538889 0.3459182 0.4068848 0.56336045 0.6079598 0.0014721582 0.07426003 0.31853297 0.7905521 -0.12488248 -0.12923275 -0.4563958 -0.4127219 0.05495962 -0.59938186 -0.64647347 0.30903 0.48220697 -0.082817286
palo -0.25308064 1.0781039 -0.18808904 0.4280189 -0.14007993 0.07722585 0.4744999 -0.11168549 0.39572373 0.65902185 -0.24844469 -0.36290258 -0.017657261 -0.2808381 0.3044789 -0.7368707 -0.17088822 -0.15879239 -0.34607276 0.120191924 0.64881694 -0.20274754 -0.5498347 0.6994372 -0.005394629
chile 0.42461038 1.3132836 0.23463142 0.25923482 0.5139249 -0.49051797 0.5983798 0.072021194 1.0253575 0.10144454 0.27461576 0.13084948 -0.0059379567 -0.16477206 0.10540536 0.34465036 0.068331845 -0.32413128 -0.5984574 0.69258684 -0.07875699 -0.100491844 -0.09574971 0.8110055 -0.23038477
brazo -0.86045015 0.5758554 0.27871203 -0.15015009 0.5499298 -0.74898255 0.81643194 -0.3432931 0.08899589 0.61190194 0.09358961 -0.078953154 -0.12150612 0.06883226 0.51797366 -0.06340858 -0.73742056 0.82689977 0.27893966 0.32917553 0.9183454 -0.10674823 -0.6400452 0.6258269 0.13299413
falda -0.8452521 0.80418855 0.010841674 0.16544572 0.2655583 -0.21296692 0.16391502 0.25103962 -0.16647902 0.52720165 0.02256465 -0.6092333 -0.08703984 0.3734539 0.5024684 0.063305475 -0.74052805 -1.3123543 -0.30546802 0.18587868 0.06540271 0.14735231 0.039028645 -0.6537186 0.32761535
dientes 0.7596453 0.21231467 0.56408775 -0.043031927 0.19388437 -0.30368435 1.0572069 -0.12347524 0.29784733 0.69628525 0.22511463 -0.48353848 0.23522808 0.121038854 1.0650997 -0.18838182 0.03375313 -0.46752012 -0.010109067 0.24102585 -0.21481195 0.8829332 -0.3242113 0.06499098 -0.35147712
borrego -0.37609145 -0.09449054 -0.4898454 0.074844316 -0.52518106 -0.6815144 1.0085284 0.36372748 -0.04360842 0.58045536 0.036397662 -0.13014026 -0.19717516 -0.015442581 0.1873948 -0.12154674 -0.24811682 -0.41797015 -0.6418241 0.7501307 -0.1263482 0.11427605 -0.640642 0.72348934 -0.041429736
taco 0.30564317 0.8893719 0.16286933 -0.02466392 0.013202958 0.045904648 0.5683005 0.38801908 0.494523 0.59691143 0.17126119 -0.102202326 -0.17745303 -0.54665595 0.35130718 -0.3278294 -0.02655636 -0.54240495 -0.11348038 0.028767496 -0.568605 -0.39989275 -0.078532845 1.7785194 -0.3558042
canasta -0.6958312 0.36472297 0.25072005 -0.15164767 0.08091451 -0.31250325 -0.0618583 0.52948517 -0.2566078 0.27498928 -0.499475 -0.01976488 -0.13015845 0.39001387 0.95464015 0.13406119 -0.6322904 -0.52379274 0.15471634 -0.021899844 -0.13321482 -0.7132555 -0.051757824 1.5003443 -0.40127444
foca 0.06296684 -0.07334045 -0.3668664 0.8486325 -0.091852315 0.052362327 0.5055926 0.776989 0.26571724 1.1269166 -0.34810036 -0.06365202 -0.74335515 0.4307216 0.53164464 0.4526124 -0.4082282 -0.32934183 -0.21703307 0.293534 0.119103245 0.15875167 0.2662248 0.06463883 0.021040918
plastilina 0.15885209 0.30196053 0.28382203 0.53221744 -0.38337252 -0.36029446 0.63127357 -0.33368176 -0.07099076 0.5657002 -0.10565022 -0.6287193 -0.92197937 -0.2936575 0.90835315 -0.12600204 -0.6329255 -0.3016802 -0.36187923 -0.7313752 0.1075235 -0.9627236 -0.19741595 0.46583134 0.47932914
sol -0.35109004 0.4581468 0.39334458 0.51287496 -0.47539422 -0.54512894 0.5529281 0.64900506 0.17727502 0.04292258 0.54660815 -0.24373625 -0.2260024 -0.3788202 0.10055007 -0.14895806 -0.6740949 -0.18628013 -0.0059743295 0.1792914 0.83513474 0.18040413 0.7686799 0.43550178 -0.6088121
cocina -0.22581632 0.27521202 0.47123766 0.31856784 0.24026461 -0.40849245 -0.24687396 -0.12399091 0.9374254 0.9717772 0.33729625 -0.3057045 -0.37758344 -0.0073211584 0.1459824 -0.24736358 -0.39593413 -0.34927192 -0.025097024 0.2439489 -0.60742056 0.030527005 0.050683353 0.325933 -0.18057318
helado -0.2691608 0.6730295 0.31421316 0.7929178 0.22650129 -0.6759559 0.58526003 0.5532499 0.20963563 -0.2670712 -0.49928954 -0.26154026 -0.15705433 -0.22648868 0.2527038 0.36205247 -0.47492537 -0.296226 -0.32557055 -0.037143104 -0.4480955 -0.055603128 0.0068667536 0.6338699 -1.0446523
fresa -0.14758311 0.283106 0.6777914 0.57769036 0.7925861 -0.23380105 0.9927929 0.30159083 0.3429532 -0.14469089 -0.3132804 -0.49542636 0.41816315 0.052119307 0.2524083 0.51584023 -0.68562585 0.07471217 -0.53685135 -0.34231094 -0.19755097 -0.10311023 -0.15482134 0.40771076 -0.62261057
camisa -1.3617494 0.2925175 0.110280514 0.123218864 0.4594143 -0.33607006 0.45661137 0.1386093 -0.16621333 0.5579855 -0.25631183 -0.5758731 -0.6925034 -0.039629914 0.43965635 -0.066291794 -0.09759571 -0.8419025 -0.33346495 0.2701757 0.05000614 0.42021897 0.04493015 -0.21075691 -0.13995618
lentes 0.032397054 -0.21225812 0.061600015 0.45910642 0.11602616 -1.3084638 0.82295704 0.3834367 0.4711577 0.00021382075 0.5000279 -0.68125224 -0.16160734 0.42763343 0.92436296 -0.37576923 -0.09795218 -0.5053536 0.5912427 -0.39256266 -0.017901357 0.4986217 0.43855032 0.049683776 0.22218221
queso 0.41012958 -0.24376592 0.3942459 0.37423778 0.32083902 -0.61591893 0.7783642 0.33192733 0.0012048068 0.59580606 0.12058399 0.08505106 -0.02195766 -0.24019444 0.597307 -0.10414092 -0.24852258 -0.078235164 -0.8841454 0.5899769 -0.5787894 -0.12765956 0.3201917 1.3613199 -0.28385806
jugo -0.17471848 0.17785211 0.6490273 0.5919859 0.9231711 -0.27828512 0.6677142 -0.14587632 0.8345844 0.103539795 -0.19976376 -0.30572253 -0.22927435 -0.010284914 0.60967225 0.46660352 0.22929549 -0.18933924 0.12177576 -0.005222372 -0.027964083 -0.3422586 -0.040275704 0.82818425 -0.9860736
burbuja -0.36285442 0.4628703 0.43934855 0.3394128 0.0028255186 -0.11864166 0.4317697 0.15233386 0.17339714 0.27556634 0.15022898 -0.7724121 -1.204437 -0.5980518 0.38768116 0.10424372 -0.38795352 0.21633315 0.49040884 0.76630855 0.33075234 -0.38988057 0.35531932 0.21024956 0.029116616
ratón -0.16207986 -0.25587308 0.40468466 -0.5080093 -0.31265038 -0.2215441 1.1106739 0.5212891 1.0512543 0.33305836 -0.36538723 0.12544663 -0.11246114 0.5709048 0.79095894 -0.08992725 -0.26968002 -0.0130427405 -0.4576337 0.4199517 -0.37075338 0.16141653 -0.38011932 -0.07700682 0.43219063
guantes -0.4618087 0.16268437 0.31228605 0.23978563 0.17308117 -0.814048 0.7208165 -0.4552723 0.13343371 -0.41971758 0.41813576 0.1882849 -0.27828306 0.13983078 0.9787336 -0.28938854 -0.1901349 -0.671181 -0.53798157 -0.18832062 0.18658842 0.7813606 -0.38930455 0.441931 -0.04274298
barco -0.16944233 0.12549949 0.31286037 1.02944 0.1402745 0.8911055 0.82025987 1.1655412 0.46250343 0.51256406 -0.21509284 -0.038404264 0.43235412 -0.5393663 0.57614166 -0.077603176 -1.2642626 -0.4652936 0.63115305 0.07956282 0.5391758 0.22233847 0.32179815 -0.117136724 -0.17391847
globo -0.5083259 0.75689393 -0.26249105 0.9320259 0.5228796 0.07717232 0.8077632 -0.098412275 -0.3178088 -0.22463009 0.14916718 -0.31987718 -0.5571424 -0.33733657 0.4594633 0.1653989 -0.33579674 -0.5463035 0.7246129 0.52827233 0.16042101 -0.5522262 0.048870087 0.5295895 0.06922783
tienda -0.5579977 0.8985132 -0.065235555 -0.36048582 0.66225797 -0.09703072 0.03778419 -0.07920335 0.1588103 0.4142332 0.19754511 -0.45128125 0.48009166 -0.0242042 0.5682174 0.16020481 -0.41008627 -0.63272214 0.46729025 0.57389885 -0.09917752 -0.050152313 1.043474 1.275023 0.09536495
elote 0.60722226 0.29661235 -0.040811263 0.17553201 0.43204692 -0.9325461 0.72648185 0.058959026 0.6588222 -0.22164898 0.05348173 0.14324579 0.28718817 -0.1251709 0.8568451 0.20121258 -0.37333223 -0.16611245 -0.66042334 0.24632367 -0.07022931 -0.28193372 0.098382786 0.90376806 -0.43659067
comer 0.07293898 0.2250284 0.27971342 0.13428207 0.32949716 -0.22478034 0.64283895 0.19461446 0.4252395 0.39972883 0.06014274 -0.2571794 0.18614495 -0.08639744 0.542957 0.083924204 0.0060944683 -0.2549867 -0.5061088 0.4250198 -0.61244756 -0.23533277 0.09472944 0.4494105 -0.3784873
mantequilla 0.48007077 0.26053205 0.5789828 0.7214304 0.32910576 -0.21645564 0.59337586 -0.06967661 0.26018956 1.1882861 0.19806956 -0.021577328 -0.35839474 0.1609902 0.03297781 0.28437883 -0.59464955 -0.34501198 -0.54978323 0.5757347 -0.35362998 -0.777225 0.48607937 0.4398356 -0.4598762
luna -0.25205368 0.053000942 0.0011021404 0.41682172 -0.6524849 -0.36640584 0.13080111 0.7662735 0.2275537 0.78566134 0.63304275 -0.94281167 0.12803955 0.027913246 0.36290893 0.07486077 -0.8098829 -0.056094225 -0.019055353 0.44264856 0.053659853 -0.009388234 0.6327496 -0.027511403 -0.2479588
chocolate 0.28424498 0.71253556 0.35064867 0.7069348 0.00067945896 -0.40348196 0.59394217 0.2734983 0.449233 0.5172938 -0.5493324 -0.47626406 0.4390449 -0.08879655 0.4653037 0.31730774 -0.6295191 0.24547736 0.014246735 0.012514784 -0.7457679 0.4532956 0.041434076 0.5322878 -0.77081823
vaso -0.571679 0.3375995 0.3420275 0.664035 0.83254594 -0.11663605 -0.04296812 -0.10210646 0.86308074 0.41646415 0.17594185 -0.7504326 -0.37695298 0.2073804 0.7245861 -0.16132773 0.15268534 0.5335622 0.27842024 0.22999527 -0.31720066 0.38782987 0.12863305 0.8587141 -0.180268
pantalón -1.0563887 0.35263076 0.6116503 0.14996447 0.9459457 -0.4676063 0.2798077 0.4880058 -0.106214724 0.12650587 0.27846706 0.028766546 -0.50097114 0.036789086 0.38541836 -0.21449198 -0.4992786 -0.880088 -0.14647534 0.32265604 -0.3877832 0.37710613 -0.048077013 -0.1111725 0.22024928
venado -0.16825512 0.14665031 -0.037017133 0.4767342 -0.5051112 0.2840089 1.1825767 0.47713524 0.036360655 0.17748824 -0.21512112 0.27035818 0.13744916 0.355374 0.42308104 0.025122533 -0.29315424 -0.78677994 -0.7119617 0.733569 0.50656676 -0.14421472 -0.5194629 0.4444536 0.24549846
araña 0.0201164 0.51450735 -0.6271767 -0.37179476 -0.097924344 -0.40486008 1.1852927 -0.44958946 1.0403614 0.2158129 -0.50681186 -0.32455868 -0.50591505 0.67322576 0.8805292 -0.00051868416 -0.55302596 -0.28602344 -0.1026805 -0.11026643 -0.16853794 -0.24615452 0.16118538 -0.38979 -0.1504205
hamburguesa 0.4737818 0.605084 0.074558444 0.0022602174 0.36240497 0.040957484 0.8597969 0.073382646 0.25307474 0.31655523 0.5674981 -0.20829512 0.10516644 -0.4898338 0.21203166 0.025910238 -0.67395574 0.109834075 -0.34558037 0.7818699 -0.77699304 0.049766473 0.41826835 1.2168717 -0.21568319
naranja -0.6075843 0.13955598 0.4746466 0.4075148 0.45086604 -0.18505657 1.1299405 -0.2423501 0.5763253 0.23623633 -0.18654183 -0.27139768 -0.043311987 0.36258003 -0.03839078 0.11446783 0.013728726 -0.14068365 -0.6878344 -0.024036413 -0.021418324 -0.41156462 0.18908505 0.53362864 -0.82030106
calabaza 0.42958075 0.19180252 0.11792016 0.14086185 0.2503968 -0.6020894 0.57563263 -0.107487924 0.506316 -0.15175158 -0.20078179 -0.60756886 0.19113931 0.09369423 0.60715705 -0.23116782 -0.8474584 0.026363231 -1.0967863 0.37096867 0.061136283 -0.60965896 0.65844315 0.7068924 -0.51648706
ojos 0.33556786 0.41107428 0.17051412 0.5830542 0.10447933 -1.1058748 0.78732264 0.5189702 0.5159222 -0.043804325 0.23040646 -0.9861091 -0.011827065 0.97063345 0.50033665 -0.0985325 0.06871698 -0.7711556 0.33631426 0.05927473 -0.0069899764 0.51786363 -0.13455051 0.02081144 0.16545272
juguete -0.24061494 0.40627086 -0.05764512 1.0599068 -0.11981545 0.22231217 0.4237946 0.2716208 0.259862 0.08071155 -0.24448851 -0.40494716 -0.33394012 0.29291368 0.5826947 0.091520526 -1.0435759 -0.011442313 0.68298167 0.17244564 -0.22778581 -0.43765137 -0.53031206 0.12144854 0.7319828
río -0.25653246 0.1816193 0.24411823 0.596182 0.37823042 0.5227637 0.1511934 0.6242161 0.84041893 0.97409743 0.23755337 -0.0031646274 0.20922965 0.014312628 0.82178277 0.5253862 -0.60684615 -0.15123303 -0.33492762 0.57434905 1.2200941 0.35524794 0.07318115 -0.28637174 0.076003164
mariposa -0.50271285 0.2237679 -0.3347234 0.18424883 -0.27290967 -0.3133555 1.1406327 -0.07373132 0.094963714 -0.22404715 -0.012711303 -0.70227206 -0.02865485 -0.34989682 0.7228612 0.06604844 -0.6478506 -0.14983915 -0.14991409 0.70735866 0.27954873 -0.42726475 0.82165146 -0.47525862 -0.0975509
ganso -0.47041264 -0.09330187 -0.55945015 0.87551755 0.32130548 -0.17313209 0.5594932 0.51654106 0.6200107 0.04135723 0.0028291221 0.10892613 -0.029771449 -0.10591962 1.031554 0.12613197 -0.03948048 -0.005822328 -0.35413474 0.2658686 -0.33526516 -0.19510755 0.5294463 0.09064146 0.24047862
torta 0.5455607 0.6165535 0.16987869 0.1849208 0.56340736 -0.18041076 0.4192475 0.24025743 0.104814254 0.65770936 0.9551489 0.30646214 -0.059829418 -0.23075831 0.60752547 0.19259374 -0.6755509 -0.4390708 -0.48039734 -0.14068384 -0.23910815 -0.6623249 0.3145714 1.1824925 -0.027612071
pies 0.038896743 0.86911285 0.32186905 -0.6670257 0.4877864 -0.6380101 0.21370773 0.36636588 0.40685803 0.33518663 0.3727524 -0.10757942 -0.35551977 0.96916735 1.1265523 -0.0066467985 -0.25129235 -0.825639 0.5195246 0.50713617 0.51488817 0.16853353 -0.21146888 0.08840126 -0.013314295
cochino -0.5099565 0.08401323 -0.1506756 -0.5972589 -0.11245767 0.01918178 0.84670085 0.5378319 0.35036758 0.6603934 -0.28821236 0.2582973 -0.3913514 -0.91888255 1.1449157 0.17317982 -0.35522687 0.07470631 -0.67217064 0.41559234 -0.44151154 -0.43129462 0.02135375 0.33914474 -0.011484637
olla -0.20305447 0.46919253 1.0967948 0.34275195 0.12937668 -0.32431424 -0.40975937 0.17720947 1.2548171 0.5410927 0.32752374 0.12530826 -0.36969846 0.35934427 0.6367093 -0.6606928 -0.57010484 -0.074010104 -0.20312011 0.44006905 -0.5443044 -0.08878442 0.19153608 0.13582487 -0.5041936
ejotes 0.7577986 0.39999384 0.51928973 -0.0120245945 0.72542024 -1.0175666 0.40207186 0.56890076 0.78437406 0.3127203 0.27347538 -0.02969552 0.25387868 0.39327288 0.7626045 -0.5637764 -0.43454787 -0.5092853 -0.19976026 0.44788495 0.07532026 -0.6150306 0.033939347 0.3283686 -0.6368542
vela -0.43336776 0.21576989 0.34310672 1.505619 -0.6659504 -0.025074463 0.4026613 0.15763345 0.18546669 1.0011797 0.25490424 -0.6271102 0.54124165 -0.79249704 -0.042791564 -0.120924704 -0.7193467 -0.40825883 -0.37002754 -0.0175983 0.16674544 0.39951035 0.30821094 0.4325308 0.029939633
collar -0.46548885 0.70124197 -0.10172186 0.4674646 0.25005212 -0.33332264 0.50388336 0.26335937 -0.5453229 0.481907 0.09267801 -0.86036515 0.81863546 0.32565096 1.0195415 -0.46333048 -0.7617653 -0.24523087 0.11893916 0.13237047 0.2301106 0.2882281 -0.13193695 -0.1658462 0.42770955
techo -0.54053 0.7217726 -0.2996984 0.47348475 -0.5944938 -0.2884482 0.43773478 -0.15409198 0.77502567 -0.3617866 0.48230955 -0.5780485 -0.65409356 0.2969556 0.11615587 -0.4560247 -0.8129291 -0.19752656 -0.28596228 -0.0642527 0.6244006 0.5739087 -0.013555314 0.5285775 -0.30177727
hielo -0.42736223 0.75325304 0.079716474 1.3018295 0.33986938 0.06350194 0.40777558 0.6886402 0.40515256 0.30903634 -0.42977002 -0.0063178083 -0.43371594 0.3175653 0.07271374 0.064248726 -0.41913685 0.43502212 0.20095456 0.5761808 0.2008667 0.3400521 0.3767726 0.70801103 -0.3625182
escalera -0.40598473 0.6817911 -0.2586739 0.20209117 0.0042790137 0.33624405 0.41560847 -0.5464685 0.83933455 0.0011418916 1.087422 -0.88562495 -0.22788393 0.50199455 0.18271324 -0.7085615 -0.94955903 -0.38658577 0.40031785 0.1187718 0.36948684 0.16314307 0.07860058 0.52148014 -0.28846276
espejo 0.039217144 0.09027831 0.13161896 0.36825132 -0.4378359 -0.6171187 0.46374783 0.064832464 0.73081553 -0.1397843 -0.26301444 -1.1073847 0.14070247 0.035407417 0.65040743 -0.24553049 -0.34263408 -0.5576775 0.67767376 0.4049794 0.11907721 0.8910069 -0.0038113059 0.1526061 0.002408454
puerta -0.64516276 0.647405 -0.16999654 0.070416555 0.4295033 0.16399956 0.24304466 0.18612806 0.8603892 0.05708224 0.15470213 -1.3285602 -0.44964796 0.012440943 -0.056299362 -0.39914322 -0.4209915 -0.27595553 -0.120732546 -0.15323322 0.40214747 0.4259914 0.377897 0.6945478 0.535843
muñeca -0.26260284 0.5529813 -0.24168688 0.31922793 0.14755186 -0.7083993 0.5813497 -0.79779553 0.0019343692 0.45158398 0.04526071 -0.5970484 -0.5715196 0.26969284 0.54406184 0.015695715 -1.050883 -0.094107464 0.2938969 0.49977183 -0.11407078 -0.39158928 -0.23907506 -0.4046486 0.39183992
cajón -1.1985576 0.6794482 0.50694454 0.30716822 -0.4475544 0.16372697 -0.25167933 0.5217651 0.8570909 0.1415416 -0.4936352 -0.8067182 0.20730436 -0.082840815 0.30804572 -0.12166489 -0.4908113 -0.7598587 0.23122165 -0.0037669176 -0.30145493 0.27374777 -0.045101676 0.35081384 0.16897057
pingüino -0.52684504 0.5530399 -0.43825272 1.1713203 -0.06500599 -0.35195935 0.70809716 0.6891913 0.5075053 0.65570325 -0.22807068 0.49581853 -0.47557375 0.20429379 0.6783978 0.65254647 0.18721208 0.108465604 -0.15316917 0.6664779 0.051571336 0.11829078 0.024248589 0.09368391 -0.06695096
tambor -0.29705584 0.13555294 0.38488114 0.7182659 0.8053966 0.5379656 0.48511916 0.75847316 0.12216648 0.6504977 -0.2586902 -0.24645528 -0.75162107 0.13886274 0.2539636 -0.7829347 -0.7848172 -0.13080104 -0.18851563 0.6248018 0.23871905 -0.25316086 -0.6836531 0.59688395 1.125701
timbre -0.1766321 -0.2891081 0.27263936 0.39505827 0.5488202 0.20850383 0.950581 0.30596086 0.85391665 -0.37626338 0.17989609 -1.127134 -0.22356184 -0.0698527 0.12188179 -0.27861553 -0.42834938 -0.35516635 -0.38865188 0.4934554 0.6483575 0.47197425 0.1766742 0.49728847 1.3534664
triciclo -0.13987568 0.048829548 0.47045624 0.7036794 -0.038927484 0.04985355 0.5860676 -0.08954816 0.29545403 -0.5529483 0.3515958 0.0824709 -0.18596368 0.2122208 0.96537006 0.28748024 -0.7303633 -0.7865314 0.4075938 0.6984664 -0.17686312 -0.9085146 -0.4601255 0.2247873 0.5003566
botella -0.56325376 -0.28573558 0.28750464 0.44925916 0.6984822 -0.22193348 -0.12203927 0.10035536 0.31724128 0.31028876 -0.05819767 -1.3264719 -0.5183877 0.17373027 0.71041644 0.10991123 -0.46363702 0.26446286 0.3081785 0.32820806 0.015110569 0.2963085 0.56092006 1.1147841 -0.6255846
plumones -0.7634285 0.72961706 1.2770573 0.33439964 -0.5098681 -0.20424448 0.5833627 0.3269999 0.14586069 0.1912839 0.029288545 0.15615606 -0.12047672 -0.16037524 1.4199499 0.43853015 0.23154935 -0.30138573 0.07326859 -0.35967124 0.35878837 -0.30860096 0.5562334 0.25423148 0.25805283
helicóptero -0.8841533 0.2655839 -0.17216432 0.677301 -0.27198073 0.33552942 0.91509473 0.13029546 0.32705685 -0.46776724 0.3451554 0.24783541 -0.013336769 -0.036051318 0.43555805 0.0073413667 -1.2576673 0.070929185 0.5346627 0.93649924 0.08826222 -0.044140097 0.37841922 0.1751093 0.36796674
elefante -0.06723017 -0.12610957 -0.30253392 -0.3090397 0.32759342 0.44651932 1.0798353 0.5751212 0.79435426 0.7702851 0.3131604 -0.15995903 -0.15625234 0.56454927 0.6182696 0.16139154 -0.11409685 -0.25606105 0.44118232 0.37045425 0.37725353 0.36179686 -0.1461353 0.35577774 -0.11330218
paleta -0.017318211 1.2384673 0.5507502 0.59956586 0.2260704 -0.05145056 0.7745899 -0.026819041 0.16570674 0.40115917 -0.70474625 -0.5089126 -0.12203414 0.13243122 0.30425373 0.7714775 -0.53202724 0.025590243 -0.59856516 -0.3183284 -0.091267504 -0.17432667 0.24923304 0.16696171 -0.43113452
columpio -0.26170468 0.46913958 0.08371167 0.088357784 -0.018332493 0.4638976 1.0899469 0.10018243 0.37440106 -0.4547746 0.059931394 -0.6197987 -0.58861905 0.12746334 0.8945565 0.18087389 -0.5641885 0.1141874 0.40629816 0.21952859 0.91290665 -0.63647336 -0.4440337 0.23591807 0.094919495
muñeco de nieve -0.29894355 0.6044557 -0.11033909 1.4377297 -0.14616309 -0.26218644 0.78647476 0.36129555 0.121582724 0.07594453 0.03403893 0.13917623 -0.3875619 0.7669663 0.3018847 0.37245595 -0.107339166 -0.094866544 0.113499455 0.28772396 -0.00041125302 0.198898 -0.22720495 0.6436736 -0.22598228
zanahoria 0.57938325 0.42139804 0.6206368 0.18723169 0.3724843 -1.0055072 0.8555481 0.08635021 0.5546404 -0.005488574 0.17755824 -0.17699075 0.20262444 0.40340596 0.40219954 -0.015638525 -0.15601757 -0.3048048 -0.37471125 0.15346713 0.1718651 -0.54845816 0.2686507 0.71628565 -0.50479805
salchicha -0.17384021 0.7893373 0.27526593 -0.17294191 0.6085153 -0.12946734 0.38342628 0.13616468 0.035671305 0.91337043 0.49637777 -0.35171193 0.57497436 -0.4866778 0.37668607 -0.050571855 -0.81644285 -0.13814141 -1.135122 -0.014643113 -0.32317922 -0.49013576 0.26766598 0.7266099 -0.2518773
martillo -0.9013363 0.3575767 0.44262394 0.6692659 0.007910026 0.16198613 0.4682533 -0.52769095 0.49472788 0.4645189 -0.24295092 0.05335701 0.034947995 0.37747917 0.73633814 -1.2934403 -0.2726272 -0.028355699 -0.15537173 0.045716852 0.37917152 0.029313663 -0.067331165 0.6031346 0.41954938
bufanda -0.7404306 0.5525162 0.06895746 0.6538437 0.017690178 -0.5716201 0.39775562 0.33080655 -0.31620777 0.14432482 0.05469169 -0.3165718 -0.47974324 0.16360097 0.381404 -0.08998411 -0.568394 -0.7692031 -0.7579193 -0.49015906 0.01953181 0.484331 -0.40992895 0.39267665 -0.5266087
pastel -0.031481 0.16874905 0.72417134 0.8884482 0.08493698 -0.6644135 0.61439914 0.2251865 0.13137583 0.3051458 0.00649148 -0.2631003 0.24066238 -0.3596068 0.3582889 0.38744035 -0.40651682 -0.006203238 -0.70953363 -0.006720591 -0.8720339 -0.25124586 0.23353915 0.52018404 -0.22025044
cereal -0.019563457 0.16913417 0.49376222 0.3842574 0.7567921 -0.14262123 0.7800166 0.20101336 0.97303885 0.59176964 -0.50019383 -0.46655944 0.56476355 -0.26166195 0.1904696 -0.09902622 -0.51811546 -0.46932054 0.28513673 0.35438332 -1.0545073 -0.51319563 -0.055054918 0.1455844 -0.7294057
durazno -0.2114885 -0.053382136 0.61660486 0.42086956 0.42808232 -0.4367858 0.8418396 0.113380544 0.30943385 -0.0042135734 -0.03773665 -0.2389242 0.3216693 0.008719143 0.52945083 0.41212118 -0.11253712 0.002165507 -0.8303308 -0.01817102 -0.22769831 -0.3098514 -0.53107387 0.96632475 -0.429402
radio 0.18425615 0.141295 0.6079915 0.3734092 0.03305502 -0.65733516 0.7720822 0.8050756 0.7131938 0.44724163 -0.2551477 -0.22829957 -0.39651704 -0.014807756 0.29114515 -0.35717675 -0.5954506 0.1840351 0.38634735 0.7182848 0.55301946 0.08709953 0.6303689 0.7567426 1.684401
vaca -0.47975776 -0.8395864 -0.10049482 0.1428554 -0.30298305 0.15468606 0.8313898 0.5402588 0.21829936 0.88567543 0.3424585 -0.049854957 -0.35169882 -0.3237535 0.51294965 -0.28886184 -0.1422598 -0.6116263 -0.6314708 0.47998813 -0.28304222 -0.441857 0.18523067 1.0839322 -0.48491916
pájaro -0.52930045 0.77140933 -0.6999109 0.49722263 -0.040288936 0.17734958 0.920153 0.31043684 0.64058924 -0.3567452 0.19952211 -0.030351408 -0.077427305 -0.09123483 1.1026373 -0.24633296 0.061485164 0.04914334 -0.13472912 0.45309907 0.27332383 -0.11060194 0.5350105 0.007861069 0.1963798
refresco -0.52431446 0.26369315 0.4214 0.43450883 0.8374728 0.01766837 0.4801294 0.17164533 0.53307176 -0.0933363 0.025658894 -0.3490321 -0.49475592 -0.29497686 0.22740299 0.59486246 -0.5538406 0.5392737 -0.18835506 0.49012688 -0.25416777 0.45351535 0.42805967 1.0369248 -0.854844
plátano -0.03435104 0.14588042 0.6657129 0.33495802 0.6612473 0.077791706 1.0130097 -0.021435298 0.61014426 0.111445144 -0.3668868 -0.63107413 0.6836584 0.33324897 0.24098408 0.048784427 -0.36204305 -0.30046886 -0.23380351 0.14326589 -0.044840693 -0.43493286 -0.48977968 0.5502005 -0.80414253
galleta -0.2557115 0.9245957 0.3706601 0.2970812 0.1801944 -0.4828446 0.55648136 0.09170338 0.47754106 0.49015704 -0.20731747 0.06551984 0.13651861 -0.10315452 0.3269198 0.561668 -0.71753025 -0.028827066 0.19951463 -0.3290561 -1.0106302 -0.49035156 0.12988824 0.5932987 -0.6713667
patines -0.13098516 0.5947282 0.68038845 0.5051813 -0.027697776 0.3654803 0.4433989 0.2995579 0.17392868 -0.09007523 0.010547959 -0.008045137 -0.7039752 1.2430707 0.54216886 0.24786223 -0.9507074 -0.6226698 0.4464475 0.37469187 0.29054505 -0.42466584 -0.15193297 0.20776695 0.2843351
cuchara 0.039494418 0.39117727 0.51018167 0.2262085 0.1482876 -0.16018479 0.27589023 -0.0419006 1.1049796 0.5099454 -0.13114506 -0.59483784 -0.10406661 -0.10401694 0.49526626 -0.48504075 -0.43565917 -0.03168031 -0.21801168 -0.14096087 -0.7244793 -0.20514503 0.24361186 -0.14529945 -0.29403114
payaso -0.16100848 0.25498003 -0.069990255 0.19454506 0.058801226 -0.6751692 1.4812392 -0.23503171 0.030927239 0.12472349 -0.115934454 -0.22992289 -1.0072863 0.0043654656 0.28067046 0.39214912 0.041342117 -0.4429727 0.43191066 0.375965 -0.82674205 -0.0324586 -0.09901057 0.35885853 0.53770226
hospital -0.056850556 -0.13530347 -0.044729304 -0.18176031 0.6614473 -0.53838885 1.3403765 -0.44377202 0.53121126 0.98634493 0.092968225 -0.10047052 -0.550181 -0.84458 0.4964446 -0.010334017 -1.0565956 -0.07439154 0.6140917 -0.5571783 0.1650072 0.4487924 -0.31189525 0.25564083 -0.20945348
estrella -0.33941323 -0.14961068 0.045155566 0.3520087 -0.63223946 -1.0098113 0.855247 0.64910495 0.29922545 0.4249565 0.28103277 -0.8860293 -0.021556534 0.3125901 -0.22122465 -0.029358294 -1.0841765 -0.28923127 0.34400925 0.28949192 0.75026774 0.57507104 0.7171594 0.17094631 -0.36732402
refrigerador -0.51846385 -0.1076975 0.588945 0.75940514 -0.013148662 0.043190688 0.22604784 0.26717138 0.7871637 0.25684345 -0.7362452 0.038823724 -0.03243937 -0.16224143 0.27796787 0.17158332 -0.2121503 -0.2694563 -0.11739641 0.4046576 -0.21798117 0.2683542 0.6770599 1.0514781 -0.5952095
suéter -0.81575143 0.5258438 0.29861933 0.45871013 0.29847318 -0.621628 0.44939774 0.5240817 0.23194999 0.04614878 0.19738196 0.1671451 -0.5809215 0.15292887 0.19192955 -0.16085698 -0.5829584 -0.5541576 -0.8058834 -0.1320416 -0.03856055 0.63171 -0.3215251 -0.029303627 -0.46440193
azul -0.4315097 0.5626505 0.353578 0.28863952 -0.04021401 -0.21589121 0.4503001 0.4269488 0.025889145 0.19818532 0.10967538 -0.18495023 -0.39780128 -0.18279333 0.4298256 -0.044775013 -0.31078988 -0.18927191 0.037316896 0.19597104 0.32473335 0.25238627 0.10108967 0.09140104 0.1373245
pluma -0.969214 0.7375551 0.49296263 0.20490904 -0.20862143 -0.5944909 0.47510675 0.2574558 0.27345744 0.21162847 0.45813394 0.008017533 -0.22242004 -0.03803795 1.0573709 -0.14229038 -0.16001467 0.17286551 -0.23183331 -0.40354276 -0.11491509 -0.40010482 0.849582 -0.12120334 0.4504647
verde -0.30256924 0.35078326 0.19025649 0.28185847 0.53488046 -0.17592986 0.35438007 0.0041468977 0.34184474 0.036258493 0.10958114 -0.265373 0.06448854 0.045657072 0.46734774 -0.058695175 -0.43106562 -0.26517934 -0.49215543 0.054839503 0.5035291 0.029921582 0.21660116 0.14493139 -0.23213647
cubeta -0.266399 0.12001787 0.4767996 0.7802606 -0.19177902 0.3411094 -0.22158617 -0.31145328 0.42460045 0.3933968 0.10609596 -0.4552268 -0.4783231 0.08896809 1.524486 -0.46991706 -0.40582463 0.19727606 -0.42349994 -0.06504361 0.23010932 0.20492747 0.53004134 0.52990437 -0.14272258
shorts -0.7255025 0.571565 0.45074853 0.1299498 0.706722 -0.09943598 0.6432276 0.74990624 -0.24527651 0.0957581 0.005378083 -0.32735553 -0.6080101 -0.19360694 0.24427149 0.14005274 -0.3183049 -1.1178643 0.3401406 0.33439645 0.19367374 0.009095691 -0.3219527 -0.13338065 0.027484812
doctor -0.531296 -0.5637377 0.25644267 0.3498005 0.7118853 -0.50446415 1.4297173 -0.05497891 -0.11131863 0.82145613 -0.10398642 -0.51587886 -0.77332395 -0.13434902 0.45496923 -0.21487054 -0.33601096 0.009296345 0.5130792 -0.6870993 0.12552574 0.2944773 -0.0015595697 0.48467088 0.09718858
niña 0.08133564 -0.02293841 0.46384642 0.40044042 -0.07404782 -0.38691428 0.8115981 -0.13632262 -0.49227557 0.26841533 0.31829855 -1.0972258 -0.22847149 0.26299432 0.59244126 0.16057956 -1.0160254 -0.15951315 -0.37615207 0.82622737 0.35412562 0.2081348 -0.09232408 -0.47715026 0.20593801
dedo -0.41222203 1.0115227 0.74351066 0.2627694 0.3187869 -0.81342775 0.74673206 -0.24468757 0.5520056 0.35082236 -0.75465053 0.07596188 -0.07133876 -0.08135453 0.44266927 0.39072347 -0.7526743 0.5474215 -0.18234843 0.27663362 0.55875665 0.05962962 -0.32214093 -0.19744663 0.7372174
cama -0.4700686 0.7574415 -0.0005052791 0.26191336 -0.39418653 -0.78533846 0.24722913 0.16488124 0.9644631 0.6303139 0.7916731 -0.428722 -0.48053285 -0.6757847 -0.20695043 0.51564884 -0.37640852 -0.3453316 0.20215935 0.34011862 0.23837762 0.17800397 -0.48658606 0.27325016 0.10939961
sala -0.50652224 0.7634647 -0.1890947 0.24967885 -0.011182946 -0.22509229 -0.20543087 -0.39455032 1.080472 0.5354494 0.65018713 -0.43823537 -0.21681105 -0.2260714 0.1622436 0.3796244 -0.29052025 -0.6336095 -0.48634183 0.33988303 0.00957942 0.094287656 -0.41333473 0.5811511 0.837148
circo -0.30120036 0.00032955653 -0.14612958 0.19559737 -0.051153567 -0.022684775 1.7386365 0.081826754 0.23444863 0.31141534 0.16644965 -0.40060326 -0.342915 0.31226575 -0.1792807 0.6630529 -0.11215842 -0.49841082 0.78434634 0.38320288 -0.15798958 -0.13696626 0.5139555 0.6338401 0.12090528
plancha -0.8650874 -0.3411357 0.74258846 0.26263967 -0.008875447 -0.20075384 0.14979376 -0.37248868 0.2887313 0.7492195 0.17482738 -0.00272336 -0.8087988 -0.44893447 0.4178339 -0.59082496 -0.3151906 -0.8354623 -0.11524336 0.6755369 0.21845722 0.21026962 0.42580506 0.15968171 0.016736288
tortuga 0.09815883 -0.16031554 -0.32509848 0.68939215 0.40915263 -0.00817179 0.503683 0.63836074 0.38078672 1.0869464 0.60784185 0.061886698 -0.44968343 0.67639047 0.7410604 0.17652781 -0.8475643 0.09762618 -0.7170296 -0.3916569 0.5691726 0.03703459 0.27733833 0.19484027 0.09658639
hoja -0.64495295 0.3658836 0.62978274 -0.22871192 -0.40059966 -0.7209019 0.5600949 0.016219212 0.66127896 0.08220956 -0.056005552 -0.4149488 0.31144017 -0.37983534 1.0200711 0.078379415 -0.4729535 -0.30184236 0.14230318 -0.5233486 0.41175103 -0.7126325 0.88801426 -0.004665199 -0.012278598
boca 0.4931003 0.3309282 0.34961906 0.5277956 -0.014125495 -0.15238157 0.3820414 0.11112783 0.53505707 0.3858469 -0.22480232 -0.5197664 -0.019912662 0.2479052 1.2190721 0.5974443 0.12427438 -0.77458745 -0.25566822 0.026589992 -0.44072908 0.7886026 -0.13973066 -0.014916791 0.07215383
guajolote -0.4944169 0.43054238 -0.013173844 0.08291984 0.3952923 -0.2235768 1.3783646 0.48318774 0.6305204 0.06418587 0.32974494 0.45223176 0.29186717 -0.15628894 0.2966426 -0.1270052 0.1294846 -0.4213663 -0.375514 0.8797167 -0.5863314 -0.35820568 0.25001124 -0.067315966 -0.044147037
cuchillo -0.14209151 0.31245983 0.67329955 0.38315156 0.07623288 -0.16355573 1.0365299 -1.0226347 0.74475896 0.69338065 -0.0617879 -0.019726578 0.02176443 0.10037106 0.16765182 -0.6408858 -0.42106658 -0.33550307 -0.62208813 0.026588628 -0.3616026 -0.19124724 0.13508578 -0.13238077 -0.13205327
lavadora -0.5062587 -0.06970537 0.8143912 0.23421758 -0.11939868 -0.18468858 0.09758798 -0.23623428 0.80019563 0.33303553 -0.43108377 0.07057743 -0.4594054 -0.67967206 0.80681115 -0.12782356 -0.1069267 -0.24936686 0.36217716 0.9817349 0.32461667 0.51445806 0.26124233 0.5290557 0.09551172
tenedor 0.055047683 0.694439 0.9264043 -0.19742273 0.2597226 -0.32881075 0.4836625 -0.5090399 0.5966954 0.3790294 0.11247584 -0.3121998 -0.084289975 -0.18512766 0.9038221 -0.72200924 -0.015367768 0.20230694 -0.32098594 0.25899795 -0.6618172 -0.20772155 0.038055327 0.45049432 0.24797823
trapo -0.44490042 0.22348648 -0.022230724 0.56515515 0.6082388 -0.5551935 -0.07097064 -0.31519926 0.8880173 0.53854966 -0.077417485 -0.12042081 -0.5627526 -0.5626859 1.0914862 -0.42683807 -0.0734438 -0.3162758 -0.03934929 0.23009683 0.32765132 0.595611 0.19714995 -0.038860705 -0.10659645
abrigo -0.9651237 0.3291124 -0.072616845 0.62393093 0.044788565 -0.8771396 0.43643966 0.25100595 0.39585274 -0.1997737 0.45478243 0.0724986 -0.35169548 -0.09717005 0.37110072 -0.25222698 -0.7372823 -0.18668388 -0.9146317 0.08490533 -0.072113544 0.4853905 -0.751929 -0.017915545 -0.14043295
jabón 0.016832825 0.18372501 0.22996345 -0.05186299 0.33166444 -0.5762958 -0.022405712 0.14552654 0.3283226 0.50539726 -0.15354422 -0.5540189 -0.83469343 -0.7024632 1.2098966 0.18665595 -0.0865844 -0.05395559 -0.04517735 0.6502134 0.1085859 0.5126391 0.11484408 0.5541334 -0.5409264
pala -0.17973201 -0.06368766 -0.06130907 0.80541784 -0.3251704 -0.34538043 0.2755728 -0.38279134 0.92765373 0.2598306 -0.39295158 -0.058603756 0.11061166 -0.15517691 0.8736489 -1.1902397 -0.8018391 -0.5832661 -0.43649307 -0.021797357 0.43018457 -0.3405794 0.19383845 0.099578686 -0.26516354
pelota -0.11618829 0.71878546 0.05777517 0.5873461 0.13559721 0.047581553 0.6524701 0.44675884 -0.32129446 0.14596716 -0.21073231 -0.29272512 -1.2230449 0.34412566 0.5236712 -0.11134915 -0.56067246 -0.39417794 0.18338291 -0.06515095 0.5281709 -0.56132835 0.0075865975 0.4915498 0.25147158
tina -0.30415824 0.52369285 0.6723038 0.12522793 -0.15334043 0.20808686 -0.20745648 0.16349834 0.6474098 0.4571193 0.16750272 -0.89458 -1.0778133 -0.22673073 0.99777955 0.055963073 -0.3602229 -0.013251963 0.01450474 0.48900244 -0.022887291 -0.099038534 0.3128893 -0.07292694 -0.6363152
avión -0.5042267 0.4828872 -0.31510323 0.6995096 -0.027209576 0.40570673 0.9439505 0.23190999 0.60194844 -0.8309737 0.24588388 0.3726892 -0.2098392 -0.55133265 0.85312283 0.07570247 -1.2751615 -0.26191503 0.4187196 0.36134487 0.0053816084 -0.030615006 0.27748317 -0.07192767 0.28029504
cebra -0.6673737 0.10254949 0.078718595 -0.52716017 -0.5607185 0.54434496 1.1146679 0.26643765 0.3148762 1.2559255 -0.14084557 -0.41790202 -0.20126885 0.58007395 0.61855644 0.14134724 -0.017751597 -0.54300815 -0.1392177 0.5708538 0.16808115 0.21872644 0.1317561 -0.04913703 -0.023930576
uvas -0.5572777 0.3619409 0.9729144 0.4139969 0.9301419 -0.11960015 0.9999805 0.0118123 0.11473044 -0.13123734 0.2982364 -1.0077814 0.6480274 1.024055 0.8506347 0.06798272 0.5475465 -0.33939022 -0.45829582 0.61827964 -0.23779038 -0.4482408 0.3283026 0.84848905 -0.3800145
lápiz -0.89016396 0.86743414 1.0259811 0.29071933 -0.47434488 -0.31242263 1.1662195 0.14923501 0.514037 0.13038099 0.46271178 -0.22243497 0.24829304 -0.515874 0.8224063 -0.19668357 0.066199176 -0.049967404 0.1401001 -0.8197248 -0.011786887 -0.12587865 0.70361286 0.087025195 0.41413322
babero -0.58866334 -0.09217104 0.4114588 0.5502492 0.053704463 0.23412131 -0.039482813 -0.33657876 0.14927974 0.94698954 0.10040745 -0.35238877 -0.5776864 -0.2255373 1.2193179 -0.13888445 -0.3560217 -0.69603413 -0.36613816 0.3250924 -0.83030796 0.13320872 -0.68728155 -0.008751555 -0.31649572
melón -0.055489514 0.4040307 0.5447463 0.5473847 1.0344425 -0.2910948 0.8576461 0.42422026 0.7315436 0.15286557 -0.64836484 -0.36598986 -0.054608207 -0.23388994 0.044717833 0.14742605 0.16614601 -0.49962074 -0.6090193 -0.039710876 0.11302914 -0.36892477 -0.48884702 0.6335848 -0.12623912
osito -0.5659605 0.33059543 -0.45225328 0.3397724 -0.18802327 -0.38086268 0.6679405 0.28933576 0.3548441 0.15868187 0.53357553 -0.33402354 -0.06260449 0.42896873 0.5579495 0.46551156 -0.60321605 -0.18106502 0.0967371 0.18988577 -0.56128913 -0.3784154 -1.0713153 0.09650273 0.047674496
blanco -0.26129642 0.03379325 -0.06300177 0.40859652 0.22766165 -0.43580636 0.6400942 0.09472394 0.20995048 0.4316153 0.099423565 0.11873529 -0.17681424 -0.10693422 0.46656862 -0.1323711 -0.28746828 -0.03634382 -0.057535186 0.11855327 -0.14992684 0.6265624 0.054274894 0.41946647 -0.023378752
tijeras -0.91812044 0.7982098 1.2623292 0.22858189 -0.58265114 -0.09853137 0.8965376 -1.0512184 0.2797298 0.2998525 0.33807936 -0.5648322 0.19373983 0.2655565 0.6922426 -0.5635892 -0.28537595 -0.40897796 -0.50666887 -0.2217942 0.15248837 -0.37701267 0.20912577 -0.036675245 0.5965231
hot cakes 0.12897107 0.15256889 0.09035426 0.5193416 0.24331124 -0.5769177 0.254091 0.43300182 0.40341517 0.26689258 -0.07756249 -0.5120154 0.0919232 -0.28338784 0.27426416 0.39808792 -0.7948158 -0.63010216 -0.6931737 -0.083209544 -1.2065431 -0.4052319 -0.037747394 0.7467995 -0.37967384
búho -0.67656714 -0.10390939 -0.6089884 0.4196243 0.103129975 -0.8207772 1.0484987 0.88889116 0.6868102 0.4895322 0.30587187 -0.5922078 0.7117082 -0.05887996 0.7992613 -0.6179027 0.1916725 -0.22351754 0.4662912 -0.013156277 0.28371575 -0.19681168 -0.26186252 0.16637756 0.50651544
espagueti 0.31927663 0.6597476 0.46613747 0.539542 0.5963821 0.0133339055 0.87636507 0.02585061 0.25438777 0.69956976 0.16069932 -0.28199613 -0.13320486 -0.6845579 0.27102578 -0.26604035 0.19761594 -0.12877493 -0.77577025 0.586906 -0.14470163 -0.105448425 0.3949277 0.4550597 0.08174482
pollito -0.3765521 0.4315688 -0.331315 0.6447245 0.03174089 0.009273817 0.6002119 0.21290945 0.39833263 0.1342919 0.44063792 -0.23485042 -0.11709113 0.20613348 0.8056542 -0.4268839 0.04078137 0.094808586 -0.3918015 0.9894125 -0.44744617 -0.81095237 0.16453485 0.16499162 -0.09751267
animal -0.36947462 0.13409826 -0.50848246 0.0074873497 -0.20855117 0.14370339 1.0650568 0.41614783 0.62332696 0.5662316 0.055513564 -0.26121277 0.16211161 0.045354076 0.6988567 0.01942297 -0.020694815 -0.14147651 -0.3913851 0.16017203 -0.118254945 -0.39670545 0.13010484 -0.06898213 -0.06998215
escoba -0.28831425 0.378067 0.059458982 0.68865293 -0.19137791 -0.12557167 -0.006830956 -0.8420615 0.7488478 0.10301861 -0.56708837 -0.038415313 -0.25429404 -0.5844829 1.0881003 -0.54390794 -0.5567411 -0.4147625 -0.42420125 0.4653292 -0.12698364 0.22716835 0.21987051 0.23723696 0.005267129
bandera -0.34131086 0.9244727 -0.5203744 0.793453 0.67017204 -0.41670653 1.2182746 -0.54270965 0.06495792 0.32509887 0.796398 0.23055257 0.31219065 -0.7359483 0.8477744 0.22734587 0.20891242 -0.91051507 -0.6112189 0.05524405 0.84917486 0.08157229 -0.1958051 0.57103574 0.5097235
alberca -0.43364182 0.34386632 0.20470336 0.18497075 0.15048444 0.047641657 0.5834966 0.07581661 0.67985153 0.11477239 0.053306818 -0.43053374 -1.4042028 -0.45030317 0.52602804 0.9341335 -0.5329581 -0.23537776 0.18644582 0.06289952 0.46715158 -0.13206907 0.3023182 -0.08065832 -0.7487846
bacinica -0.24354474 -0.7178462 0.5701737 0.18576044 0.44936246 -0.40143293 0.09506124 0.58663225 1.0243427 0.5821307 0.0011041376 -0.8200309 -0.5872548 -0.31287515 0.83081764 -0.42664984 -0.732757 0.34530506 0.057769332 -0.14458315 -0.3145076 0.045680366 -0.6554404 0.23884031 0.31738043
rana 0.0059891976 0.23674174 -0.16178386 -0.017667778 0.21562384 0.16266695 0.89673525 0.2606577 1.0547177 0.47648013 -0.10764205 -0.532818 -0.50157046 0.4248649 0.76791674 0.77397746 -0.5232545 -0.08720242 -0.96140003 -0.08866264 0.30638492 -0.3016745 0.41303155 -0.63906103 -0.026342116
plato -0.140811 0.5967292 0.42229253 0.388665 0.6112841 -0.15624341 0.16861984 -0.09927051 0.98370194 0.4477998 0.15893327 -0.43874612 -0.19145855 -0.08564838 0.5575554 -0.75970995 -0.12093465 0.28448436 0.14384441 0.24084125 -0.7817085 -0.27854043 -0.09350016 0.37840772 0.06381117
jirafa -0.96364427 -0.06723542 -0.62051183 -0.28537083 -0.21847539 0.42931095 1.2164264 0.4124802 0.26475078 0.6962629 0.09003209 -0.557337 -0.020142796 -0.0011229558 0.21169466 0.58940065 -0.36779422 -0.6141624 -0.17849751 0.05981844 0.22540906 -0.23036085 -0.19967598 0.47268105 -0.5420335
pasta de dientes 0.42233124 0.67065656 0.6375551 0.32638174 -0.0026911963 -0.12089559 0.74831903 -0.31162855 0.18157466 0.8139422 -0.056650646 -0.4209054 -0.012985318 -0.46644768 0.8650249 -0.016425924 -0.02852736 -0.6071288 0.49474582 0.08386758 0.110822625 0.9241194 -0.030404156 0.2778591 -0.7227246
resbaladilla -0.16060981 0.34041408 0.22888076 0.17912644 -0.60788524 0.4469305 0.9425152 -0.6841311 0.533076 -0.21719316 0.3789981 -0.75253654 -0.8841739 0.3460789 0.2985308 0.23389108 -0.67177314 -0.6015089 0.3018771 0.4673193 0.044543725 -0.7589004 -0.15872398 0.45735452 -0.44206867
cepillo 0.36569583 0.59860915 0.6194464 0.49132395 -0.3563064 -0.3863776 0.69733983 -0.3394428 0.5587846 0.14194833 -0.41982105 -0.5849835 -0.02773321 -0.5694286 0.94756603 -0.6587093 -0.09394922 -0.28607297 0.44807437 0.61108303 -0.18940143 0.7529604 -0.37577507 0.1825272 -0.2883947
café -0.45502216 0.35615236 -0.14070466 0.23366061 -0.1423398 -0.18241031 0.2170739 0.2823362 0.5213094 0.46946862 -0.29675582 -0.2722493 0.13481674 0.21761762 0.41787174 -0.057518158 -0.33289874 -0.35764924 -0.07481948 -0.16772766 -0.34084457 -0.27294478 -0.34759665 0.648994 -0.29015884
silla -0.74516416 0.21075726 0.15787219 0.0901209 -0.20399529 -0.25500497 0.16295618 -0.24886404 1.0180981 0.74433213 0.76658326 -0.5697169 -0.2865806 0.19993216 0.1708765 -0.18393958 0.1350935 -1.1016339 0.26704296 0.1770668 -0.062975824 -0.2525868 -0.7140267 0.45885766 0.27354267
teléfono -0.021150734 0.10361585 0.8979094 0.34641168 0.3268056 -0.14750212 0.48926103 0.5021492 0.572423 -0.13038564 -0.15792048 -0.333411 -0.009748407 -0.068153486 0.7436565 0.14203246 -0.42798185 -0.26023352 -0.46931806 0.13605466 0.16941103 0.8238965 0.08262455 0.50844234 1.7133436
pijama -1.1397111 0.16460177 0.24342449 0.14417301 -0.01218757 -0.9596105 0.27184 0.49886465 0.24005798 0.6236619 0.93525624 -0.59345853 -0.47199672 0.07148929 -0.050985683 0.15295847 -0.16567451 -0.33811966 -0.07598676 0.36742947 0.19223729 0.426661 0.038793143 0.21377386 -0.17134638
aspiradora -0.11693947 0.18418574 -0.19349597 0.45637912 -0.24196114 -0.12395526 -0.082922734 -0.46203756 0.69699866 0.20751941 -0.54489213 -0.33232698 -0.08812923 -0.83911246 1.2191113 -0.098028734 -0.49232826 -0.4935668 -0.4031982 0.7627482 0.26382017 0.54935765 -0.082888596 0.34973523 0.5617608
palomitas -0.1589589 0.8092342 0.8447087 -0.029544096 0.3789257 -0.07094804 0.5450771 0.08153417 0.67893225 0.40215942 0.2183818 -0.44035375 -0.14870039 0.34105313 0.023345139 0.97921795 0.014742906 -0.32433552 -0.77652943 1.0715595 -0.45027187 -0.31444675 1.0774534 0.8852298 -0.32117802
cepillo de dientes 0.29852906 0.62332135 0.77323806 0.41195807 0.23322164 -0.23660262 0.85174817 -0.43385714 0.5486215 0.4523153 -0.19957252 -0.30196974 -0.14816932 -0.52778393 0.8710055 -0.3646731 -0.062251355 -0.35762954 0.5323179 0.06476854 -0.104862176 0.9302933 -0.1550977 0.011749026 -0.32187423
leña -0.5773652 0.9992886 0.43242046 0.05608854 -0.2384184 -0.11595646 0.27287072 0.11693794 0.7121067 0.61819583 0.29981282 0.3814597 0.578988 -0.5180009 -0.13546102 -0.73774576 -0.82483774 -0.47644353 -0.45942765 0.6580651 0.48859963 0.014367185 0.1522604 0.5664721 -0.39813945
taza -0.28346398 0.064740315 0.49310288 0.26672077 0.34233397 -0.6014106 -0.038647525 -0.13235867 1.0687097 0.7435404 -0.067516215 -0.35149863 -0.2267553 0.120201625 0.6397564 -0.00076826767 -0.44886506 0.22401597 0.33887926 0.1779621 -0.8214165 -0.06421367 0.03733389 0.3365874 -0.6123379
toalla -0.15254939 0.3151042 0.20322092 0.5078928 0.083247475 -0.6586104 -0.1808593 -0.015254658 0.69197893 0.64158607 -0.28579965 -0.40788567 -1.142283 -0.4378014 0.9682488 0.22187875 -0.2495548 -0.5488472 -0.40173864 0.37721652 0.78443885 0.51374984 -0.43433118 -0.0152138 -0.43989813
lavabo 0.06144745 0.15286559 0.5238352 -0.13123693 0.23117048 -0.002257519 0.21445252 -0.34980053 0.92569894 0.31069827 0.0575585 -0.52139074 -0.43362594 -0.46669516 0.7247764 -0.15963523 -0.49164084 -0.32161465 0.4032173 0.41089165 0.20964755 0.89994323 -0.32978606 0.24266554 -0.08103394
horno -0.67728245 0.76672804 0.9673995 0.7059646 0.034563106 -0.020326678 0.3966234 -0.19548908 0.53687143 0.6692626 0.41073942 0.6413643 -0.07210985 0.27745566 -0.05519591 0.047230117 -0.6102202 -0.11536508 -0.33636338 0.6140456 -0.7546116 -0.18588878 0.6596721 0.63089246 -0.80189
sandía 0.10559307 0.68429416 0.71005213 0.33047816 0.873682 -0.024008876 0.72093636 0.17224993 0.24974874 0.35492775 -0.08044181 -0.6117935 -0.1449629 0.1218224 0.04447334 0.29654166 -0.09527848 -0.43863872 -1.0192708 0.054519493 0.15096945 -0.097248666 0.082250044 0.49917123 -0.44090912
peine -0.25618058 0.5235625 0.7290983 0.26767632 -0.32171053 -0.5071368 0.7753382 -0.4835945 -0.33996898 0.20231779 -0.13747628 -0.5400553 -0.13966492 -0.34634423 1.1066226 -0.69388795 -0.24130768 0.015728373 -0.029862868 0.7764017 0.0529261 0.7267473 -0.3294551 0.20975463 -0.15652068
shampoo -0.015858294 0.22232287 0.47199437 -0.061916146 0.102274045 -0.5926439 0.12523898 -0.15665434 -0.048820306 0.4563018 -0.16816735 -0.7166624 -0.5476185 -0.71576345 1.1675035 0.0044617583 -0.42368352 -0.059420772 0.23543507 0.907519 0.028534003 0.52225405 -0.16807264 0.39408454 -0.42680904
lámpara -0.81494826 0.4044181 0.54969764 0.82241166 -1.0014962 -0.42899173 0.39089075 0.19339077 0.3607258 0.36293215 0.102626614 -0.6600924 0.088081755 -0.12667848 -0.26677582 -0.3055551 -0.31566527 -0.6478424 -0.25757647 0.34801412 0.24239883 0.37034568 0.5373897 0.36093125 0.39153317
gallina -0.94143194 0.020246033 -0.27542117 0.3221442 0.2818486 -0.41958794 0.75635844 0.5297282 0.58067876 0.10226215 0.30247188 0.10153375 -0.2002742 -0.29425725 0.5259064 -0.03711908 -0.09823483 -0.21092333 -0.5638421 0.54971254 -0.62892014 -0.7635725 0.38374752 -0.11487263 -0.22443692
rojo -0.7426012 0.7517205 0.15199395 0.4166728 0.25066087 -0.1661916 0.46365967 -0.10016314 0.17508464 -0.09358751 0.29775652 0.04229158 -0.10602091 0.077084996 0.3645808 0.22641051 0.016178468 -0.59652555 -0.15732564 -0.032839816 -0.014854767 -0.0481422 -0.14053349 0.5413408 0.16857168
cobija -0.38958627 0.72267866 0.5019027 0.50416875 -0.40840438 -1.270777 0.07400786 0.39781734 0.76267606 0.22238086 0.49415672 -0.09707868 -0.7305835 -0.5607191 0.2218254 0.55720943 -0.50137115 -0.39072382 -0.5125191 0.28198087 0.09564268 0.40031376 -0.7898835 0.014711364 -0.18836215
abeja -0.10681467 -0.20190382 -0.6032048 0.17136882 0.2658057 -0.44723293 1.0134336 -0.3931899 0.54368013 -0.18991505 -0.28553498 -1.0645835 -0.07014098 -0.5525199 1.1745882 0.20491777 -0.56200755 -0.1772532 -0.50098294 -0.12996173 0.06441371 -0.43280917 0.16168599 -0.31897193 0.3475752
pañal -0.24966425 -0.628238 -0.06384423 -0.22851905 0.70896745 -0.44941032 0.19183323 0.49804807 0.48427242 0.43509617 -0.6560137 -0.42942938 -0.7211694 -0.4279443 1.2521545 0.020250669 -0.5747311 -0.23259087 -0.6238821 0.03508252 0.0898807 0.3535089 -0.50141555 0.35856402 0.11447099
sillón -0.87835294 0.6851482 0.19597335 0.20347556 0.124199264 -0.49815273 0.020793013 0.27174944 1.1695652 0.13663809 0.33489674 -0.3292255 -0.06604771 -0.058447525 -0.15588543 0.34970203 -0.06473138 -0.93519926 -0.018988926 0.15234196 0.0052444804 0.03831964 -0.71551484 0.67074543 0.37140194
labios 0.49883914 0.4176578 0.88281775 0.52643895 -0.07985443 -0.28615293 0.48666325 0.4583307 0.1621851 0.16886579 0.4213161 -0.8727333 0.36055773 0.5430695 1.1909777 0.6584822 0.28581846 -0.85211074 -0.24172147 0.41438267 -0.36005273 0.3803876 -0.25429976 0.03750341 0.08501722
librero -1.0389807 0.15468101 0.36861184 0.035453133 0.09548876 -0.14448297 0.5619807 0.6224292 0.9697849 0.20145431 0.17206503 -0.18579283 0.3492151 0.008699002 0.50581044 -0.29587862 -0.29514915 -0.3074844 0.46325776 -0.9331151 0.0016196494 0.08405983 0.3589418 0.6287877 0.680685
rico 0.1367406 0.4084157 0.24009797 0.4781838 0.5268264 -0.53964144 0.53576726 0.3903672 0.41659865 0.28127784 -0.05580451 -0.13553551 -0.09954355 -0.37390554 0.26784953 0.21127146 -0.13946396 -0.2713541 -0.21980204 0.31317696 -0.5250673 -0.036145236 0.06676463 0.58398986 -0.5659667
llave -0.7646209 0.40581065 0.3772311 -0.034083337 0.3476735 0.40831786 0.59918034 -0.0047701737 1.2255867 -0.46080205 -0.2465353 -0.9995761 -0.32014072 -0.5718398 -0.14718422 -0.31146356 -0.83523357 -0.40836123 -0.01776699 -0.28258705 0.054145753 0.4582561 0.14972317 0.39571893 0.35406515
crayolas -0.4796614 0.5053033 1.0292399 0.57008415 -0.72683984 -0.27019703 0.73214996 -0.18801977 0.15116154 -0.025848413 0.38764805 -0.6307476 -0.14870846 -0.08457979 1.2017049 0.31765997 -0.06157538 0.114767924 0.15941826 -0.35648945 0.22503707 -0.5376973 0.4194043 0.26001278 0.5299575
rosa -0.35432813 0.3672594 0.39232752 0.26362064 0.023903344 -0.59120655 0.34125808 0.251808 -0.0372726 0.03200408 0.08214183 -0.48647842 -0.19722615 -0.29553443 0.5395869 0.33187866 -0.41999787 -0.46980047 -0.3945864 0.1288964 -0.0751083 -0.105079845 -0.07959011 -0.057756394 -0.23078522
sofá -0.7705681 0.6033181 0.23336229 0.16550049 -0.07861144 -0.373227 -0.078597814 0.20147048 1.0946039 0.3541403 0.52112484 -0.30706805 -0.08339641 -0.08066357 -0.0010263799 0.76047057 -0.057755616 -1.0567435 0.1112309 0.5260725 0.11389557 0.105432145 -0.8149797 0.75729346 0.5735192
alimento 0.31279764 0.2860777 0.17698582 0.036320046 0.54451144 -0.29585788 0.3520481 0.12387551 0.4263968 0.56101155 -0.0112846615 -0.1312071 0.18143064 -0.1201632 0.4595998 0.07740918 -0.5014287 -0.49191558 -0.28093326 0.2890741 -0.47991666 -0.51797295 0.3147296 0.9048824 -0.5588257
feo -0.14763422 0.028543593 0.1971997 -0.021480767 0.2243837 -0.2307158 0.76527226 0.57983327 0.6619613 0.15070318 0.06258745 0.21200827 -0.39978424 -0.03397846 0.40839446 0.1812686 -0.2986975 0.04069012 -0.28189415 0.1916676 -0.42432544 0.31076062 -0.2738518 0.3190128 -0.06793672
campo -0.29157874 0.13204947 -0.46219814 -0.16449478 -0.121410154 -0.2522602 0.67055094 -0.032536242 0.35372448 0.10981247 -0.11206293 0.026702622 0.24009971 0.27889997 0.6816351 -0.18058221 -0.40355003 -0.55312675 -0.38302058 0.6637626 0.21737109 -0.2530768 0.35310665 0.38518736 -0.2960003
cuna 0.04514313 0.2891387 -0.06500493 0.54390275 0.028429566 -0.82785535 -0.14206535 0.76492274 0.66216224 0.47308436 0.8225064 -0.9477219 -0.15758994 -0.49629378 0.6604349 0.60949546 -1.0224445 -0.19553506 0.37373218 0.66948164 -0.0039996346 -0.5365208 -0.692027 -0.16320434 0.4262558
chupón 0.4659147 -0.010153873 0.23690766 0.80517524 0.5804064 0.24296631 0.15221334 -0.19056197 0.5537836 0.4607825 0.51389617 -0.98529583 -0.21312243 -0.15389945 1.2133851 0.5471999 -0.68002164 -0.76511145 -0.41943687 0.5041971 -0.92805123 0.18053368 -0.8690039 -0.20082386 0.2537652
cámara 0.27114424 0.67011184 0.76735115 -0.15358745 -0.9985757 -0.7128096 0.6693877 0.62997043 1.0739737 0.073230304 -0.48864242 -0.2957206 -1.0561126 -0.43017888 0.054115746 0.8653011 -0.85921717 -0.54943746 0.11300068 -0.14653155 0.12460319 0.634936 0.14255741 0.33156863 0.39189047
persona -0.26145855 0.2784705 0.3645157 0.044016063 0.16880295 -0.60170543 0.3902337 0.107531466 0.42549938 -0.11525568 -0.0038601672 -0.6993887 -0.21057327 0.330542 0.53334266 0.29417378 -0.087155536 -0.49462166 0.24162127 0.5473709 0.25533906 0.46422157 -0.5404732 0.119375475 0.4427082
reloj 0.10280506 0.7919678 0.33671895 0.6709895 0.35053453 -1.3275436 0.49821857 -0.2578999 0.07279934 0.17501733 0.56972444 -0.03426442 0.058594562 0.5446355 0.28035665 -0.15847816 -1.3007058 0.22019087 -0.13390112 0.4872174 0.16977963 0.15960045 0.45658454 0.01135209 0.88865364
almohada -0.9374463 0.6553687 0.5932252 0.34965026 -0.5137485 -1.0332243 0.14575821 0.037083447 0.9045431 0.397272 0.63956267 -0.59060633 -0.23029639 -0.4762171 -0.013904542 0.37677765 0.16269948 -0.731671 -0.13702528 0.7668413 0.038331088 -0.13573402 -0.7613241 0.20370002 0.07042968
ropa -0.96332026 0.30229986 0.17574961 0.20563471 0.41447863 -0.49142888 -0.01839415 0.21165548 -0.1277714 0.4511635 -0.15783495 -0.08356088 -0.3177463 0.045073856 0.5522105 -0.60347813 -0.43308142 -0.69486237 -0.07609026 0.28271994 -0.114142574 0.5157479 -0.13480467 0.392446 0.1865561
caliente -0.3558849 0.3747863 0.50619435 0.4632336 -0.11090396 -0.5366985 0.08575196 -0.022378802 0.31029877 0.44032994 0.6312299 -0.043992955 -0.053186156 -0.19422138 0.113963746 -0.06311257 -0.69893897 -0.29425147 -0.32851145 0.1342643 -0.19622977 0.17126611 -0.119252175 0.47800654 -0.85381544
bonito -0.42767587 0.24773924 0.12943585 0.63868177 0.046553183 0.15153137 0.7260329 0.5517454 0.23770256 0.003293138 0.4466339 -0.16320826 0.40771258 0.3765531 0.8092646 0.14612871 -0.030419156 -0.07713847 -0.08779443 0.66422224 -0.1760737 -0.059905563 -0.44192135 -0.042451944 0.07110378
negro -0.8124349 0.7260025 0.22629803 0.1702392 -0.2617095 -0.090640694 0.837043 0.5368959 0.11832094 -0.19539465 0.20751493 0.02799855 -0.25773993 -0.2063576 0.7285212 -0.042576432 -0.04925226 0.02958651 0.009145893 0.2731392 -0.36902893 0.5431108 -0.076882824 0.066038296 -0.09562558
bat -0.14648479 0.7339046 0.26256746 0.3788311 -0.3808883 -0.093162954 0.7144974 0.38721344 -0.060513455 1.0241994 -0.5389 -0.0012693456 -1.0302604 0.3750333 0.35078552 -1.0034723 -0.60618633 -0.18173328 0.3062888 -0.054074302 0.628601 -0.35754186 -0.4293621 0.88580126 0.25212333
calor -0.8544073 0.70722705 0.37542674 0.5924884 0.10437676 -0.40678665 0.107375145 0.24258521 0.29437038 0.18050447 0.32445917 0.041479845 -0.45762825 -0.02956867 -0.12007824 0.05329107 -0.6040033 -0.54917747 -0.4300887 0.25889242 0.044170078 0.4762777 0.0839223 0.12849888 -0.6677035
trabajo -0.28577858 0.15764058 0.34757635 0.065602645 -0.13198084 -0.16245958 0.2145656 -0.103525914 0.2532669 0.2615041 -0.4138254 0.28604338 0.04913571 -0.21777709 0.99896914 -0.38668987 -0.27012578 -0.7747312 -0.002570757 0.07854383 0.25545248 0.36200878 0.36394325 0.6607714 0.3739219
maceta 0.07573861 0.019685414 0.034912076 0.21917234 -0.5747364 -0.16488647 0.33102548 0.5967001 0.7189675 0.23992622 0.19154361 -0.26094475 -0.06700914 -0.45477444 0.6948176 -0.5696965 -0.92389804 -0.80962193 -0.4956433 -0.31775984 0.3259379 -0.8613428 0.122783974 0.046215355 -0.5297537
mamila 0.07481915 -0.22377098 0.13354366 0.73965037 0.41980046 -0.18631703 0.2757009 -0.0900069 0.116100885 0.3941378 0.44704002 -1.1265564 -0.5610585 -0.08052156 0.5629885 0.6106968 -0.7474098 -0.051860858 0.16415355 0.54870373 -0.9198887 -0.29219908 -0.22293827 0.34979993 0.042774864
manguera -0.40559724 0.2225825 0.21672219 0.15268835 0.24216107 0.16355477 0.11620645 -0.3098768 0.5543265 -0.09129274 -0.3196518 -1.1000915 0.3725333 -0.6592412 0.9772749 -0.2608119 -0.38268942 -0.25932786 -0.7189263 0.38429752 0.9527487 0.24209796 -0.3154982 0.6439975 -0.30489048
limpio -0.36495015 0.19402738 0.28822675 -0.012727272 0.10553592 0.12523063 0.293014 -0.21985696 0.52865565 0.5682481 -0.29899952 -0.31357634 -0.552326 -0.5385892 0.96623594 -0.47779602 -0.40070763 -0.07218669 0.082166195 0.27201667 0.29188424 0.37951782 -0.24887174 -0.02203394 -0.05238352
frío -0.5840189 0.36799255 0.15241344 0.6723431 0.497943 -0.34964094 0.46199623 0.65336543 0.25057346 0.20280598 -0.011776544 0.0076772817 -0.34156328 0.113371484 0.2155776 0.33233917 -0.23870462 -0.21820715 -0.35198662 0.33995742 0.15335995 0.46076015 -0.22052398 0.09951892 -0.4155039
juego -0.29571712 0.21577913 0.036206666 0.48877 0.12525713 -0.34421608 0.7868704 0.10767063 0.01779821 0.036244325 -0.009679831 -0.2580793 -0.82897234 0.31405744 0.38295695 0.06393848 -0.4323986 -0.26269644 0.5062348 0.094030015 0.06183755 -0.8480581 -0.31473026 0.4754916 0.11632892
amarillo -0.26772574 0.20045078 0.20261088 0.60026336 0.23192483 -0.078754045 0.9611956 -0.38280976 0.1283635 -0.2791518 0.20921938 0.18504423 -0.0786616 -0.3008979 0.8615826 0.19208874 0.014737996 -0.064946815 -0.25176334 0.2588098 -0.10887327 0.06403527 0.18236709 0.48238072 -0.21160433
diversión -0.20122933 0.28361627 0.063658014 0.45420277 -0.32211277 0.0026061866 0.8227755 0.13765052 0.118629545 0.16186778 -0.04353206 -0.16454451 -0.9131208 0.2515995 0.24991329 0.57947445 -0.6631514 -0.5767961 0.5685047 -0.05783937 0.12496498 -0.57009625 -0.025687953 0.31440482 0.22162266
carriola -0.035887815 -0.12347949 0.37146464 0.6388432 0.0026704979 -0.03708145 0.030929975 -0.0966236 0.50090736 0.21716373 0.33267167 -0.21347603 -0.21672738 -0.034270857 0.7655145 0.13041137 -1.2974353 -0.81247044 0.21546543 0.4032521 -0.40726867 -0.4500497 -0.2671538 -0.49786463 0.56438875
madera -0.43742692 0.9069134 0.23800799 0.5429942 -0.41610304 0.23635703 0.3126823 0.07212501 0.8211581 0.3311471 -0.047755733 -0.5603217 0.20505932 -0.038694583 0.30955866 -1.0516707 -0.3355151 -0.37459922 0.31622982 -0.1651117 0.21211419 -0.0293874 -0.060644872 0.2119448 0.13620932
roja -0.26936427 0.5429181 0.31129912 0.53912985 0.008476319 0.021981448 0.11107255 0.41885757 -0.05051615 0.44101486 -0.028086105 -0.8013285 -0.2927344 -0.1302773 0.4478211 -0.06520981 -0.61577266 -0.49194947 -0.7421138 -0.4146316 -0.0046976847 -0.19528516 0.22255693 -0.00684461 -0.16889258
sucio -0.57475686 0.10766657 0.26466915 -0.039360892 0.4975319 0.2709899 -0.089191146 0.4471833 0.4821188 0.5401124 -0.32098174 -0.19701052 -0.3542238 -0.49457163 0.95541966 -0.02982889 -0.45251983 0.109182805 -0.09880951 0.47354263 -0.087469146 0.55389667 -0.5552677 0.48615888 0.29324967
correr -0.15568198 0.16434976 0.39235887 -0.5220147 -0.01334666 0.6424014 0.85334474 0.122145265 0.4008022 -0.13028917 0.014931931 -0.18466556 -0.38103077 0.53806204 0.5027477 0.31285787 -0.5714529 -0.7604307 -0.06544012 0.49584427 0.13184507 0.25893083 -0.3682493 0.38417032 0.1855085
fiesta -0.44420415 0.21815819 0.19524275 0.4888557 0.8128785 -0.4146153 0.43512085 0.32299706 -0.28694683 0.4263398 0.16010593 -0.58508086 -0.62382746 0.09084623 0.20211215 -0.32840732 -0.18484032 -0.11310051 0.2647653 0.60976714 -0.17047949 -0.0018442788 -0.059283294 0.47282252 -0.08699657
mamá -0.44587466 -0.35083818 0.24227831 0.5923503 0.39826578 -0.39266804 0.19327588 -0.23206562 0.26769623 0.064537756 0.30549365 -0.47862393 -0.37424368 -0.29937345 0.22351211 0.021219023 -0.97217375 -0.34433916 -0.5740724 0.46758685 -0.74661016 0.08632612 -0.11432422 -0.004441939 0.4567053
herramienta -0.57322407 0.532947 0.58564997 0.4239101 -0.29752284 -0.37446675 0.1831501 -0.7921812 0.569887 0.44319695 -0.06033157 -0.13286738 0.0629987 -0.0017995733 0.5496159 -0.69058704 -0.6731223 0.06365065 -0.20899323 0.30580765 0.87709475 0.092071585 0.23695254 0.20057838 0.39903137
mujer -0.48305023 0.2047078 0.4633358 0.29061997 0.069095746 -0.8545509 0.31824616 0.28554788 -0.27503878 -0.054058973 0.072065674 -0.90378946 0.11521307 0.30386788 0.712116 -0.008107989 -0.4595343 -0.5869856 -0.46502692 0.22693016 -0.35002574 0.5535646 -0.37420937 -0.090371504 -0.05496913
color -0.45422086 0.38873854 0.20863561 0.4824301 0.36096585 -0.74055284 1.1195325 -0.00803613 -0.24243513 0.14117022 -0.16043492 -0.2650663 0.18496571 -0.26774666 0.2528073 0.42644882 -0.0064047133 -0.41658697 -0.18500197 -0.33617324 -0.011671956 -0.10196722 0.19160554 0.38925582 0.16088955
baño 0.033658825 0.43841103 0.62539804 -0.07411273 -0.37012178 -0.25235984 0.29374292 0.16677123 0.5605854 0.67238116 -0.088948786 -0.62221843 -0.7595937 -0.3201686 0.5897792 -0.4768588 -0.27240813 -0.104166135 0.23190276 0.44707328 -0.025594778 0.4858291 -0.25705668 0.021662997 -0.36541477
blanca -0.7145252 -0.14857513 0.2339398 0.21790597 -0.31167886 -0.31454572 0.063996084 0.29084235 0.5406522 0.84429497 -0.0046464847 -0.9333543 -0.5298769 -0.09065941 0.1059423 0.26776668 0.103438586 -0.5196149 -0.4423173 0.38274482 -0.068286 -0.021379868 0.75391144 0.32272005 -0.15572062
lindo -0.25657377 0.45257625 -0.2005223 0.39214125 -0.10234129 -0.31171182 0.6494746 0.1978941 -0.13331144 0.21325289 -0.13977252 -0.24365453 0.14730902 0.36796355 0.88875455 0.08936314 -0.2510978 -0.22662194 -0.121536195 0.7439288 -0.254144 0.3668781 -0.6225077 0.107718684 0.12214517
sabor 0.29565525 0.7642173 0.625488 0.6429656 0.63583565 -0.30099982 0.7194112 0.24397264 0.3370194 0.44261327 0.090091005 -0.32537973 0.18634668 -0.076083526 0.45399237 0.43809116 -0.05963932 -0.31674448 -0.29937667 -0.30390355 -0.16421983 -0.5859241 0.117806256 0.50061536 -0.6286027
amor -0.117479734 0.18787993 0.101023346 0.16981584 -0.47387198 -0.33061868 0.5263051 0.40253663 -0.10376629 0.05454436 0.72650856 -0.71327156 -0.08810834 0.16841294 0.6678061 0.2553619 -0.32541838 -0.08646298 -0.24275085 0.91147554 -0.40334255 -0.3695715 -0.033777166 0.18874107 0.15469985
miedo -0.19451883 -0.07720257 -0.18234307 -0.37710604 0.26349017 0.02293787 1.5423099 -0.4142992 0.37714806 0.27940795 0.25349867 0.14536275 -0.57530177 0.1288188 0.45496115 0.5499238 -0.67257345 -0.023792641 0.087545685 0.23751262 -0.18064578 0.064822026 0.12805907 0.017091736 -0.078363486
fruta -0.24274324 0.24002813 0.40096962 0.032768816 0.6006514 -0.29389048 0.62570107 0.114439 0.5214478 -0.0816988 -0.6779608 -0.40456867 0.40397397 0.23915356 0.553013 0.16473319 -0.11837979 -0.19659908 -0.43533376 0.15725729 -0.20282869 -0.42332152 0.050563086 0.946042 -0.4695929
suave -0.11961473 0.10246609 0.45186967 0.50497544 -0.3290909 -1.0294197 0.45390832 -0.17979692 0.31704354 0.45613286 0.17103462 -0.30091947 -0.20307419 -0.12036016 0.26286432 0.3813219 -0.3290044 -0.16591229 -0.5999106 0.4008176 0.025580356 -0.21702111 -0.85973907 0.3736606 -0.315815
ruido -0.16405903 -0.159083 -0.08805568 0.45787278 -0.0065415916 0.11125516 0.57735664 0.34950304 0.75373155 -0.11169934 -0.34534177 0.31064418 -0.19919969 -0.24247812 0.52973783 -0.23037699 -0.55977374 -0.23553763 0.1719724 0.8076056 0.11566007 0.057068214 0.17281963 0.51858336 0.8817471
lavar -0.22908777 0.041176904 0.77421355 0.32818043 -0.09506217 -0.35164008 0.06933477 -0.27347943 0.46760547 0.5436613 -0.19128747 -0.3428991 -0.49556604 -0.47319528 1.2718788 -0.40615126 -0.26749396 -0.13470991 -0.032347523 0.31533659 0.09749642 0.7906883 -0.4992773 0.06533682 -0.24444054
amigo -0.17050597 0.23510468 0.11628207 0.08732037 0.33986488 0.3188504 1.1493472 0.21906342 0.11822619 -0.026146928 0.17200089 -0.48944572 -0.09776074 0.18225843 0.46831074 0.4733938 -0.29529172 0.26549804 -0.13341786 -0.24737273 -0.06745089 0.011860316 -0.07885753 0.6730257 0.6192863
gris -0.42482173 -0.38391215 -0.082780525 -0.19695495 -0.28351846 0.17167611 0.38234195 0.290404 0.6968423 0.61433077 0.120219216 -0.04267954 -0.1235861 0.26523614 0.7200744 -0.028560733 -0.5829356 -0.44271016 -0.06552265 0.4036917 0.1318688 0.08125277 0.10161308 -0.004443516 0.030116012
vida -0.2003944 0.26441863 0.55739075 0.13967231 -0.31650215 -0.3242195 0.10302258 0.57993865 0.70397377 0.53015035 0.36442438 -0.24298061 0.15766037 -0.49435008 0.4660023 0.48014206 -0.41582435 -0.25428298 0.24826533 0.4681924 0.81326914 -0.5800806 0.43580246 0.15818803 0.21142028
limpieza -0.0682994 0.2747854 0.72092086 0.32731426 -0.23446693 -0.20286575 0.08453793 -0.5016143 0.6142865 0.14616346 -0.034528274 -0.2698637 -0.334393 -0.6984255 1.4238311 -0.11275861 -0.21216407 -0.47720963 0.27638656 0.17466554 0.1416272 0.7173042 -0.11975397 0.17163935 -0.3303278
plástico -0.3210685 0.27307174 0.16269836 0.6751459 0.49053988 0.074994795 0.19563796 -0.29319358 0.04348039 -0.183593 -0.22140086 -0.87751234 -0.7411976 0.009082091 0.824486 -0.18395925 -0.45397747 -0.12792218 -0.14735822 0.10872839 -0.43891755 0.107407846 -0.26644576 0.28430283 0.33686045
divertido -0.24706908 0.14575255 -0.15725058 0.7210681 -0.3409728 0.21151988 1.2523756 -0.06333509 0.2601702 -0.23750338 0.18138644 -0.16449325 -0.79100215 0.30656177 0.35513732 0.2743152 -0.38048854 -0.35804075 0.45955434 0.7096615 -0.110741876 -0.58701694 -0.5184806 0.29948807 0.2117578
hombre -0.699111 0.034595206 0.09928324 -0.22150028 0.004949993 0.06566076 0.83574915 0.22406167 -0.19869232 -0.14918165 -0.09218356 -0.35197693 -0.42744267 0.15297356 0.51807594 0.03386674 -0.66056705 -0.63611764 -0.0308108 0.15694356 -0.37164947 0.26744625 -0.1892487 0.251048 -0.51910406
negra -0.8341949 0.33350715 -0.018683339 0.005319719 -0.30970782 -0.1423695 0.0857182 0.03938035 0.7179087 0.62602305 -0.29704946 -0.2703562 -0.34229478 0.7715961 0.40300313 0.008741766 -0.43703374 -0.690173 -0.4590597 -0.053165115 0.09103639 0.030835235 0.6196552 -0.1352249 0.28028008
crema 0.7059341 0.20798105 0.5689883 0.6226865 0.25468034 -0.8669876 0.59712905 -0.22972022 0.18716428 0.19484256 -0.47293484 -0.27173144 0.1859845 -0.17249699 0.6648616 -0.071405515 -0.40769187 -0.2794741 -0.46806952 0.63276684 -0.2835501 -0.1886866 0.101596296 0.69698 -0.566818
bosque -0.582384 0.35881567 -0.48362717 -0.062427543 -0.2527366 0.07123751 0.5460682 0.28081265 0.45381182 0.42836282 0.047160506 -0.2188421 0.66226155 0.19427168 0.7037394 -0.051670477 -0.49799934 -0.3129731 -0.1753041 0.7217312 0.8099148 -0.45365667 0.044857588 0.1206989 -0.08976101
postre 0.16422291 0.5821519 0.76286334 0.3396033 0.537055 -0.42007205 0.6509503 0.016126102 0.3634036 0.23916373 -0.28903848 -0.4641207 0.038200654 -0.0533743 0.20235346 0.20249623 -0.62286067 -0.013540375 -0.6479724 0.034147844 -0.6848796 -0.47771093 0.03884217 0.58471423 -0.53386694
aire -0.5785034 0.6733948 -0.42085117 0.56081694 -0.17034328 -0.37851524 0.56489974 0.10654518 0.23905875 -0.57204777 0.23113893 0.1116639 -0.27906406 -0.60081595 1.121963 0.091742374 -0.24691468 -0.32721648 -0.045495603 0.33506203 0.8612037 -0.2844898 0.31244227 0.16422434 0.058247495
noche -0.44812647 0.25246587 0.12909022 0.5612596 -0.48420283 -0.5825093 0.73175865 0.009834357 0.18089092 0.7898592 0.546635 -0.91669375 0.19217253 -0.388877 -0.07088391 0.35294783 -0.16083589 -0.40210238 0.467335 0.17362793 -0.21686201 0.25141296 0.13780256 0.17211565 -0.4811837
dormir -0.55584466 -0.12786455 -0.02306925 0.39825433 -0.29878125 -0.73512584 0.22564447 0.6715373 0.78988475 0.41189232 0.7614974 -0.60463285 0.28274688 -0.004619236 0.38279486 0.34372288 -0.23327386 -0.47744533 0.26326016 0.04862231 -0.1493285 0.060686506 -0.67395234 0.15294263 0.22486472
tela -0.9918043 0.3553775 0.25973213 0.33213446 0.07779302 -0.5794434 0.31362417 -0.15443559 -0.07368726 0.48218256 0.3094088 -0.23124602 -0.42681682 -0.47898304 0.7223758 -0.12492795 -0.118781544 -1.0894002 -0.8377977 0.11589655 0.29358461 0.16561091 -0.4925536 -0.33624464 -0.11466635
granja -0.45034435 -0.3086139 -0.37369108 0.29149923 -0.19125128 -0.28072318 0.6035115 0.6815742 0.46150997 0.051578265 0.3400807 0.20934555 -0.1445262 -0.09470368 0.7596616 -0.37191597 -0.12772976 -0.31354758 -0.7601827 0.7426151 -0.46024242 -0.30831295 0.31376082 0.6346385 -0.17259398
delicioso 0.41590005 0.43521312 0.4411335 0.62639445 0.43159175 -0.2750219 0.7811984 0.3205909 0.33260497 0.5868568 -0.2389622 -0.15917248 0.30497414 -0.49252972 0.35531288 0.19590828 -0.38422376 -0.1941387 -0.23363693 0.08881212 -0.78815985 -0.07626122 -0.016720409 0.7713243 -0.64274395
largo -0.5601815 0.5309491 0.7946153 0.20115985 0.59433705 0.16296713 0.8316945 0.3418839 -0.057884514 0.5553151 -0.049568858 -0.19359614 0.53307056 -0.2406559 0.45952907 0.0041463673 -0.5182825 0.039926644 0.049619786 0.3936677 0.6722718 0.35395858 -0.11327765 -0.381666 0.113349736
bonita -0.1462556 0.0043214904 -0.12855539 0.02749659 -0.41728422 -0.41738394 0.40401787 -0.081822954 0.15600576 0.63254565 -0.098378755 -0.83425075 -0.16574024 0.27767527 0.34537005 0.31147233 -0.85637283 -0.63086385 -0.077526815 0.742007 0.3128365 -0.087055475 0.5435656 -0.3693331 0.17188537
carro -0.45981175 -0.16652972 0.12915178 -0.094237015 -0.09027345 0.504575 0.53699094 -0.12122814 0.75272495 -0.11474354 0.2839514 -0.035546407 -0.05294296 -0.1700115 0.46479616 0.21975724 -1.3060384 -0.39603305 0.338705 0.2645949 -0.3038331 0.15813768 -0.22788018 0.25033182 0.20911694
hambre 0.45189732 0.64636713 0.27190465 0.29465237 0.5156599 -0.09004857 0.38741678 0.12853298 0.5031284 0.71640134 0.3599479 -0.368925 0.08921428 -0.4561134 0.36004063 0.17349713 -0.6977508 -0.017797919 -0.33160475 0.1281817 -0.8526286 -0.32583037 -0.28427178 0.49189106 -0.28364903
luz 0.070041575 0.121590964 0.21729125 0.5018641 -0.82171375 -0.21918847 0.36950502 0.23453182 0.6937883 0.28814143 0.16127029 -0.44813496 -0.106793046 -0.560712 -0.04478294 0.022054028 -0.82985985 -0.57476526 -0.092322305 0.1484344 0.29083166 0.47542778 0.7337614 0.3256583 0.054732926
rápido -0.49115038 0.27020785 0.2770443 0.060711358 -0.19656664 0.3850987 0.79015076 0.09156888 0.6737461 -0.26326177 0.040517733 0.5925446 -0.2594755 0.16572836 0.81900775 0.04862439 -0.5954729 -0.1479191 -0.019324489 0.75926447 0.4170827 0.29079306 -0.1480561 0.07062193 0.5721396
parque -0.31799343 0.017999927 0.043633588 0.43964523 -0.028811688 0.069109984 0.85541546 0.2157651 -0.09292402 -0.49387455 0.038181074 -0.59913653 -0.50738764 0.2807896 0.5223049 0.14408097 -0.5287362 -0.41422716 -0.057727184 0.8505064 0.26190916 -0.84974563 0.08601532 0.21592513 -0.006935607
peligro -0.14021659 0.66867274 0.15819004 -0.26529872 -0.30873924 0.8387672 1.2655114 -0.43422455 0.590539 -0.058619425 0.29565537 -0.2574601 0.113106474 0.22412594 0.41233698 -0.111531675 -0.78421706 -0.2081412 -0.29694307 -0.079823904 -0.24024226 0.41744524 0.19159725 0.11264718 -0.28227907
infancia -0.05513997 0.29766712 0.48757678 0.8255697 -0.30033302 0.14811204 0.5736799 -0.21005982 -0.08232452 0.0553944 0.4380716 -0.60650194 -0.89771694 0.19651963 0.814207 0.30498925 -0.6808631 -0.043929633 0.4720582 0.44039816 0.005490697 -0.6734226 -0.25827 0.04449221 0.09685351
limpiar 0.16648327 0.26619416 0.315035 0.4098954 0.122368634 -0.36111066 0.33824077 -0.27267948 0.73065895 -0.0045508016 -0.20934339 -0.19076194 -0.32141954 -0.69945556 1.3770201 -0.59021753 -0.047755625 -0.30827552 -0.032298926 0.28489754 0.13882618 0.8540868 0.28394496 0.17073284 -0.34121433
redonda -0.025699856 0.27618062 0.2342627 0.6201916 -0.1828843 -0.1624931 0.061287716 -0.22301337 0.440394 0.7119084 0.07759661 -0.65647143 -0.4706431 0.41809547 0.6111266 0.24976441 -0.5157651 0.004044491 -0.0140217105 -0.2843789 0.061557572 -0.324739 0.4139666 0.3718994 -0.40411454
asco 0.51387084 0.0033459433 0.13451096 -0.68991995 0.6079663 -0.52336806 0.8463737 0.30888048 1.0626228 0.3308063 -0.31067866 -0.08445549 -0.26435462 0.5031767 0.43711376 0.009793526 -0.6338276 -0.3159249 -0.66002816 -0.022193313 -0.011687496 -0.06314872 -0.043872245 0.1547562 0.009073522
alegría 0.031551458 0.5024799 0.45814908 0.07103113 -0.38792843 -0.04377268 0.9222529 -0.08447937 0.37975383 0.07776421 0.07962779 -0.74763143 -0.83780277 0.0036070081 0.35535935 1.4238669 -0.20521131 0.09551137 -0.056300607 0.25933024 -0.029246861 -0.29860038 0.3983791 0.38728693 0.18763018
morder 0.494135 0.15990539 0.32507205 -0.33981028 -0.002399541 -0.107257955 0.6321937 0.14530857 0.6451614 0.5729365 0.042344403 -0.50326085 0.4428176 0.28787753 0.5867534 0.6068182 -0.241047 -0.733342 -0.6670131 0.29029375 -0.48597693 0.23300044 -0.6699397 0.30663955 0.013750418
nieve -0.25595915 0.4731418 -0.15240431 1.0420774 -0.15934941 -0.08332911 0.5016576 0.33279505 0.33742955 0.15010092 -0.4101661 0.2087868 -0.19903351 0.60257894 0.28031662 0.09010315 -0.6727 -0.48456004 -0.3381129 0.094962135 0.015494288 0.034700762 -0.35905847 0.25441447 -0.6720154
piel -0.71370304 0.46272776 0.22960806 -0.32464707 0.27900568 -0.68273735 0.40055352 -0.027783487 0.50577116 0.3131522 0.22836153 0.16488515 -0.06472265 0.41549152 0.55279934 0.1822647 -0.45575306 -0.087736435 -0.7021162 0.27788407 0.15541096 0.4337765 -0.9796487 0.1598657 0.23677658
fuerte -0.43190983 0.16770715 -0.048033256 0.25346082 0.2521356 0.70888454 0.946108 0.19739845 0.52672917 0.5295937 0.003940016 -0.25089926 0.20731257 0.5612485 0.6287983 -0.26491976 -0.10128205 0.24737185 -0.17604634 0.24665095 0.6546033 0.1324363 -0.16906488 0.46237648 0.44268936
tierno -0.14693888 0.19144295 -0.3551153 0.6264241 -0.07268045 -0.2964344 0.8951936 0.4393775 0.60192794 0.03880539 0.30453813 0.09477994 -0.17946814 0.3516127 0.5739086 0.1952587 -0.34000292 0.19842958 -0.28275752 0.65500504 -0.5257572 -0.3136844 -0.5923713 0.14179042 -0.1610564
poner -0.9206781 0.4700373 0.16451883 0.039384704 0.35613602 -0.25612885 0.10038504 0.396279 -0.08868948 -0.0043504285 0.0011727948 -0.44739327 -0.5597141 0.6889863 0.64479464 -0.30653805 -0.44692114 -0.72632104 -0.29493016 0.12231279 -0.13767086 0.4228379 -0.29606092 0.19401222 0.087964654
jugar -0.13257384 0.363788 0.1486735 0.61678964 -0.22029376 -0.17943679 0.6327652 -0.08738489 -0.43231788 0.11708501 -0.15076053 -0.34284312 -0.9802689 0.34108412 0.6020839 0.13462202 -0.8805982 -0.20056465 0.43846798 0.2896367 0.33782765 -0.75535375 -0.28073624 0.55177927 0.23789002
cubrir -0.9659436 0.41295725 0.24513857 0.23804483 -0.21579964 -0.84147966 0.2513148 0.0166558 0.09575703 0.06984049 0.3115701 -0.10523575 -0.6643649 0.087792724 0.5778862 -0.061910182 -0.6127484 -0.44928953 -0.50613153 0.17062488 0.09461813 0.74585354 -0.60914284 0.0043994 -0.3734975
protección -0.55630976 0.23188566 -0.2273783 -0.11171127 0.2792679 -0.67807615 0.41664207 0.35879382 0.33888197 -0.45507562 0.6752877 -0.33435166 -0.44555128 0.4279206 0.3439326 -0.46289688 -0.8119214 -0.52964765 -0.45763648 0.024701035 -0.37005118 0.62753385 -0.2917106 0.36498544 -0.35896885
muerte -0.10582923 0.014127759 -0.11187076 0.2046315 -0.3825974 0.07765383 0.6405232 -0.09745159 0.79935336 0.94294155 -0.26346225 -0.55337185 -0.12171136 0.120191075 0.5952657 -0.3033971 -0.51498836 -0.3953181 -0.13898186 0.0035280348 -0.27851754 0.3982282 0.14962745 -0.5848008 -0.39274743
basura -0.24648343 -0.033875432 -0.020612929 -0.092516966 0.07532926 -0.62817687 0.005963427 0.15166722 0.39171895 0.4140139 -0.88953745 -0.15901993 -0.028332306 -0.3021396 0.6309268 0.052700322 -0.63793755 -0.5542302 0.16698559 0.16229911 -0.29126325 -0.15078516 0.49495134 0.7933212 0.3596819
gente -0.33308843 -0.011495915 0.19819029 0.0154055 0.06520844 -0.18100105 0.19108741 -0.5081689 0.506663 -0.11943594 0.46834126 -0.4307873 0.2386022 -0.02093159 0.45729876 0.18368615 -0.8139056 -0.64895236 -0.27496538 -0.051356692 0.07616649 0.6216851 -0.065101184 0.6676672 0.8386064
utensilio -0.3383826 0.6281541 0.59023285 0.47128358 0.122953005 -0.18656929 0.012972427 -0.8807891 0.7179005 0.41514292 0.17968927 -0.3426188 -0.14751622 0.19002971 0.7925541 -0.8925176 -0.2427258 0.010370247 -0.042167943 0.40471512 -0.3592603 0.37580132 0.30108985 0.23515384 -0.0059621474
camino 0.021140171 -0.021746948 0.12231757 -0.06702315 0.10084954 0.09340223 0.17471091 0.29123053 0.41731855 0.3005433 0.07700534 0.3862549 -0.06635475 0.7761555 0.82234854 -0.14182444 -1.2415208 -0.5422749 0.2998712 0.45892134 0.3702021 -0.11326264 0.044900905 0.38097787 0.85579973
cena -0.050319828 0.3862026 0.33815324 0.64448476 0.18858309 -0.28239325 0.47334012 0.23018391 0.46324357 0.92307633 0.08397221 -0.38989764 0.29577696 -0.5566604 -0.090424664 -0.24262896 -0.39564475 -0.15739773 -0.11233767 0.34678936 -0.9196241 -0.57162154 0.41228735 0.60162616 -0.2532812
cuarto -0.4406441 0.5504506 0.39988554 0.36175588 -0.23730895 -0.47788692 -0.2840109 0.47787797 0.98233175 0.13656503 0.40144217 -0.8431015 -0.3662539 -0.29744568 0.24469517 -0.18485431 -0.46709946 -0.29768753 0.3046035 0.21148118 0.18991682 0.50005716 -0.3203584 0.26801 0.19110091
larga -0.56472784 0.39008904 -0.27564535 -0.22518454 -0.035508107 -0.05982921 -0.100661516 -0.35212657 0.4625288 0.4631702 0.03422639 -1.0832348 0.044185027 0.2344863 0.34002015 0.08031376 -0.67476267 -0.68909925 -0.27821526 -0.13253228 0.21381573 0.1563871 -0.008027174 0.6183533 -0.36353076
accesorio -0.41828755 0.7704521 0.13915579 0.23991334 0.07428365 -1.0108289 0.406689 0.28828356 -0.4334688 -0.12652929 0.0734125 -0.26042765 0.0021670437 0.24157256 1.0202631 -0.6113343 -0.6008816 -0.36564773 -0.26099655 -0.121464334 -0.11047963 0.80782324 0.23964317 0.116240226 0.46288288
sopa 0.06317342 0.27628472 0.45775303 0.23659237 0.6876909 -0.52635056 0.08582948 -0.14943117 0.6729795 0.5667478 0.22835752 -0.07391385 -0.5187643 -0.041010223 0.7723506 -0.48289496 -0.063061714 -0.2998059 -0.42982686 0.66952777 -0.30495188 -0.52355206 0.5691835 0.056472886 -0.36514968
cielo -0.21066584 0.44912738 -0.6044164 1.0335485 -0.23054694 -0.0018462434 0.7844524 0.23631148 0.5003157 -0.08334961 0.5819266 -0.16683069 -0.18439423 -0.05751014 0.07720321 0.05508986 -0.7285014 -0.076354094 0.28103966 0.21425088 0.4825939 0.38261443 0.8349601 0.35312662 -0.26441494
viaje -0.4842358 -0.12064401 -0.058574587 0.2765028 -0.1473242 0.5591405 0.64930874 0.08848638 0.2522323 -0.1804604 -0.25154582 0.25002342 -0.13907677 -0.6490538 1.1992376 0.17675582 -0.912638 -0.49079186 0.40263656 0.45991752 -0.2870905 -0.1061578 0.31315142 0.16713837 0.25536284
amarilla -0.78935885 -0.35141566 -0.09057121 0.07462708 0.05999277 -0.5752875 0.6847898 0.0042114435 0.28900105 0.25809392 0.19761433 -0.8687652 -0.31487668 -0.022913605 -0.1003965 0.30569232 -0.59577477 -0.44642738 -0.32178032 0.5492908 0.050443143 -0.59491134 0.51092005 0.021163803 -0.71872926
libertad -0.46646893 0.28960422 -0.15416487 0.44594726 -0.12369272 0.7492844 0.9931595 0.59322566 0.4274514 -0.40005368 -0.054211743 -0.0031557938 0.11162911 0.038835317 0.7131244 -0.11862525 -0.60627115 -0.934121 0.38382947 0.07953334 0.4193735 -0.08450762 0.47445837 -0.12568799 0.18709616
sabroso 0.2892653 0.4503533 0.3582487 0.5737577 0.63728476 -0.34790105 0.7270397 0.31745192 0.5169766 0.18850139 -0.28550753 -0.02841771 0.19893087 -0.4270524 0.37966943 0.42413977 -0.24490808 -0.15768823 -0.61414695 0.0040993616 -0.4018161 -0.13025546 -0.060821366 1.0112296 -0.50013804
desayuno 0.01956443 0.31098744 0.3169325 0.47540885 0.5530694 -0.36873415 0.3194636 -0.2874783 0.71812147 0.7357975 -0.23873492 -0.33223543 0.26993617 -0.17841208 0.47800776 0.08876802 -0.25538707 -0.61063194 0.24271439 -0.21071243 -0.40728897 -0.35880288 -0.14337765 0.6262812 -0.8250923
vestir -1.0970372 0.5805367 0.107922286 0.12612425 0.49400076 -0.5878611 0.10573401 0.48792458 -0.035871334 0.22325577 0.41772443 -0.13140677 -0.53248537 0.02945595 0.66400856 -0.15566708 -0.3857979 -0.8916428 -0.3496819 0.1563702 0.09368333 0.622472 -0.24657269 -0.10201943 -0.26738706
transporte -0.28552613 -0.17387569 0.10784065 0.42977944 -0.3582491 0.36832348 0.58222073 0.3848371 0.22602367 -0.21634766 -0.15254971 0.56853014 0.21966223 0.062331945 1.2072761 0.03311296 -0.8255618 -0.76583993 0.5165505 0.34170598 -0.097624876 -0.04251345 0.10049691 0.54031855 0.11986165
pequeño -0.27113193 0.56345963 0.30269194 0.14429131 0.19693692 -0.16239394 0.7290283 0.463026 0.04856819 -0.23318338 -0.22278586 -0.28380045 -0.1834917 0.33344245 0.7000244 -0.00876348 -0.35379016 0.065228626 -0.23604013 0.7849869 -0.42075965 -0.45382673 -0.46331474 -0.008282587 0.5957045
pollo -0.33388957 0.59206563 0.105110966 0.42885286 0.4991528 0.2506979 0.7875396 0.43002513 0.17577223 0.42416868 0.6843807 0.17716752 -0.1143877 -0.2054405 0.5591761 -0.20206328 0.2444401 -0.31133947 -0.17393167 0.4013107 -0.58638895 -0.7921816 0.5697575 0.6835157 -0.26029772
jardín -0.06940759 -0.17790739 -0.16827607 0.23951758 0.011276082 -0.043960568 0.6436456 -0.08202078 0.7874273 -0.47295794 0.029889466 -1.0900853 -0.2097082 -0.44170576 0.57627964 -0.19991511 -0.6126928 -0.39380774 -0.38972732 0.33683684 0.9465992 -0.67770994 0.14963745 0.19603996 -0.15925297
sucia -0.109121025 0.14575398 0.3485564 0.20066226 0.016112406 -0.6706174 -0.29418966 -0.46570206 0.82283527 0.6074943 -0.103627 -0.6600885 -0.79271454 0.35992825 0.83038706 0.34200066 -0.28398514 -0.38975117 -0.18501364 -0.13367556 0.08223408 -0.032106213 0.07378934 0.21351631 -0.25271595
instrumento -0.35154927 -0.010839417 0.47252458 0.6377569 0.15289973 -0.1696415 0.025788601 -0.06395001 0.92247486 0.45665228 -0.38702372 -0.09649235 -0.08051279 -0.03799545 0.86572397 -0.8590647 -0.5318303 -0.053712074 -0.26653454 0.0032963776 -0.34557158 -0.42099878 0.07317938 -0.01793636 0.74167496
comodidad -1.10711 0.45055628 0.27977395 0.15345794 0.23484112 -0.3599951 0.02261201 0.23167352 0.76339173 0.5015033 0.7669046 -0.26589605 -0.37961805 -0.09038988 0.15333745 0.1520815 -0.0479045 -0.99206793 0.3189237 0.13038465 0.3202278 0.12880328 -0.46780726 0.20724998 0.34119967
malo 0.14389545 0.24102025 -0.21813403 0.4400558 0.42462617 -0.09841815 1.3206598 -0.17701794 0.39769113 0.63054323 0.3091902 0.010188689 -0.3195455 -0.15696798 -0.034152318 0.14033945 -0.5051774 0.40651938 -0.314572 -0.030970518 -0.3927631 0.69161344 0.055065006 0.65338886 -0.33186373
viejo -0.5089215 -0.15203752 0.2950334 -0.00699874 0.085980654 -0.24094242 0.10993255 0.72465163 1.0764103 -0.008474043 0.21352096 0.117943935 0.44145668 -0.062467504 1.1066663 -0.358543 -0.44197598 -0.116295226 0.21308003 0.05898653 0.19957541 0.19656353 -0.44898564 0.31242216 0.59962314
antojo 0.15638568 0.6992041 0.38593733 0.26295197 0.4283175 -0.33908668 0.5901988 0.23414195 0.1920908 0.14147809 0.08278521 -0.23762932 0.06272305 -0.37855586 0.30220768 0.34465444 -0.6448283 0.10948222 -0.6633153 0.1418777 -0.71976644 -0.26858988 0.23898245 1.2023575 -0.63326013
linda -0.3944997 -0.021100743 -0.020276273 0.21055971 -0.13713121 -0.4185629 0.47209817 0.105879284 -0.105425686 0.57890856 0.08429145 -1.0467695 -0.460602 0.2529847 0.49806634 0.75904363 -0.64935654 -0.35337445 -0.46495545 0.57926035 0.27231735 -0.3203339 0.4698708 -0.46737516 0.09629328
chico -0.72577876 0.7067828 0.2017059 0.3601206 -0.09524648 -0.08664988 0.4180228 0.7476078 0.012898506 -0.14055556 0.081530645 -0.30345395 -0.20862342 0.14339389 0.48905534 0.39659485 -0.5112761 -0.45736453 -0.120338246 0.35701406 -0.5125542 -0.1778432 -0.89754283 0.018127397 -0.09340297
