niño -0.73458165 0.057912886 -0.026742475 -0.028230129 -0.06754216 0.27949047 0.43927222 0.31229314 -0.075979695 0.2249938 0.17555895 -0.25002083 -0.54649913 0.27867106 0.5035747 0.12557773 0.033306558 -0.7027442 0.19536237 0.07940213 0.15962975 -0.13763954 -0.06873938 0.47317383 -0.15980648 -0.5200273 -0.12547933 -0.045320924 -0.12616698 0.11301204 0.15610437 0.006595201 -0.24790068 -0.08118724 0.33540806 0.07171262 0.16166255 0.27069077 -0.031220969 0.092908755 -0.19432263 0.2115439 0.3024468 -0.13563189 0.41754797 -0.1797118 -0.20350887 -0.3309126 -0.30427104 -0.49814746
agua 0.11055083 0.08631533 0.14867204 0.40576583 0.20386416 0.46939027 0.19221504 -0.11116861 -0.20077711 0.13558461 -0.2524026 -0.5315215 -0.18097335 -0.31120104 0.267934 0.2266744 -0.09953284 -0.3899058 -0.22073063 -0.14996044 -0.07717401 -0.34303892 0.11132997 -0.15196268 -0.8607965 0.16390236 0.02315862 0.3543787 0.03237368 -0.20643166 0.30929467 -0.12865424 -0.40070987 -0.35887527 0.8859105 0.18144397 0.3903254 0.33334222 0.020418895 -0.45050812 -0.061260447 0.30959734 -0.25518683 -0.32081863 0.2433465 -0.25270975 -0.017522033 -0.30300462 0.11828928 -0.18576726
computadora -0.20780645 -0.04509502 0.30562624 0.28023094 -0.13261189 -0.106508635 0.7436693 -0.13628784 0.48421165 0.47486278 -0.67341065 -0.6223111 -0.13919777 -0.21354319 0.3957528 -0.16837226 -1.0964382 -0.20068397 -0.08058385 -0.17361921 0.030564444 -0.025248209 0.06997832 0.24371628 0.31830803 0.106627405 -0.15456131 0.13732299 -0.23111181 -0.5576736 -0.437389 0.13251184 -0.427275 0.47615167 0.26520315 -0.10601673 0.2200212 0.4968007 0.22416057 -0.048513953 0.48945114 0.055207662 -0.22922985 -0.0023389114 0.040626377 0.68097484 0.020007923 -0.24008222 -0.30268484 -0.5717072
calle 0.05482843 0.0022864034 0.0031690025 0.097572684 -0.15344982 0.4843507 0.536926 0.15276544 0.010964418 -0.32573274 0.15493162 0.13918607 -0.039968774 -0.20002127 0.5701739 -0.070729285 -0.35429448 -1.0867296 0.34244767 0.10596816 0.06439235 -0.1371238 0.39561874 0.5087894 0.36550644 -0.3898295 0.01192201 -0.15390132 0.11692383 -0.3898828 -0.16772158 0.58875674 0.086299226 0.22168414 0.68733656 0.97336686 0.1608569 0.5154516 0.5584811 0.12671757 0.36665866 0.09648069 0.0025668833 0.24863489 0.4466472 0.018450312 -0.08519792 -0.07583538 -0.29561093 0.06443761
camión 0.06452332 -0.3367703 0.35982907 0.193519 0.12511086 0.47739604 0.84999 -0.3658502 0.19974118 -0.6035029 0.05641952 0.08298707 -0.055882327 0.022353752 0.864333 0.21643548 -0.51897764 -0.16922845 0.2672801 0.305077 0.30714637 0.020148218 -0.1275701 0.34135467 0.19367914 -0.5935146 0.05397029 0.24381964 -0.16206011 -0.6134529 -0.49607882 -0.44833505 0.029414922 -0.08617206 0.50504464 0.42992905 0.3550514 -0.0067087268 0.20434788 0.3682633 0.2613588 0.14821447 -0.14970335 0.07784398 0.22323401 -0.56363153 -0.07003597 -0.44279426 -0.23215665 -0.59788615
casa 0.03448573 0.22618034 0.1715291 0.4614177 -0.3499014 -0.16458097 0.2545034 0.0945229 0.07329872 -0.17936836 0.06987292 -0.2932032 0.24078079 -0.07013442 0.14198339 0.10173344 -0.4470494 -0.48698056 -0.2994114 0.38264066 0.34647697 0.17662032 0.29971346 0.30488506 -0.117302455 -0.22327285 -0.4224842 -0.3074577 -0.27636513 -0.6460281 0.49753135 0.1887259 0.11070074 -0.40361592 0.59276277 0.4863986 0.19333397 0.31324473 0.37371385 0.025289027 0.35546258 0.2798606 0.07263773 -0.49412706 0.0087431865 0.20739552 -0.17057109 -0.12372188 0.26913863 -0.033058118
dulce 0.044498507 0.13570966 0.45476282 0.0010377894 -0.3829189 -0.06300475 -0.15317196 -0.06685675 -0.105487615 0.20394115 0.013833331 -0.69618696 -0.24901728 0.042366996 0.037984002 0.52531713 -0.31870028 0.043160837 -0.11972645 0.5391157 0.008641814 -0.1857707 -0.5003852 0.3984528 -0.38893154 -0.17260137 0.6005953 -0.3464862 -0.14850353 0.31826872 0.10531706 0.35296062 -0.19636367 -0.26350996 0.5840195 0.39562422 0.31942233 0.37757048 -0.30971643 0.14294417 -0.06631321 0.010080462 -0.17871404 -0.15417096 0.4580728 -0.6542691 -0.4104162 -0.31592482 -0.050714325 -0.23577945
reja -0.105894424 -0.16017014 0.48082247 0.41919962 -0.07373728 0.34411284 0.6653364 -0.2890911 0.29273513 0.030628284 0.06280307 -0.5244474 -0.027980724 -0.37486732 0.18612947 -0.58037204 -0.26635012 -0.24027954 -0.3752523 0.7997677 -0.1593181 -0.24326679 0.44305164 0.24823174 -0.535275 -0.2118861 -0.06867252 -0.06836199 -0.1401285 0.13445994 0.060309768 0.5227729 0.52861965 -0.6021339 -0.2653027 0.52586144 0.07162882 -0.11449449 -0.20496778 -0.5516521 0.21232311 0.32842502 -0.27047968 -0.2427089 0.24794023 -0.0133523075 0.23819028 -0.41295704 0.062712744 -0.0026163866
grande 0.0787807 0.2759754 0.03134397 0.22752725 -0.09708841 0.21285354 0.36028394 -0.16399103 0.30264106 0.057999372 0.2324332 0.007641721 0.23412806 -0.18762419 0.2111832 0.03510508 -0.2265856 -0.21127808 -0.06879164 0.06256204 0.001216358 -0.026066942 -0.13628586 0.2539518 -0.11739437 -0.30043054 -0.30493116 -0.18137784 -0.32904944 -0.4752187 0.12020729 0.2392841 0.15800628 -0.32073066 0.1805243 0.1794232 0.54003465 0.11244495 0.0965384 -0.024946302 0.36133006 -0.015675213 -0.077984035 0.03293548 0.4415187 -0.23276153 -0.050333973 -0.04389609 -0.172502 0.012833783
dinero -0.30643243 -0.050666977 -0.021452304 0.061439876 -0.26066348 0.48816827 0.41444218 -0.13896498 -0.21319707 0.012254695 -0.4631492 -0.48252112 0.35830444 -0.42998838 1.1353966 -0.063981935 -0.61311066 -0.11635541 0.52741367 0.18713856 -0.049357004 -0.2793262 0.3069056 0.75001043 -0.23796387 0.1781151 0.4842085 0.3608756 -0.21277669 -0.7136544 0.30017546 -0.012536043 -0.22530742 0.15749761 -0.17579831 0.40451652 -0.26096335 0.43596548 0.461249 -0.04070844 -0.07785499 0.35924616 -0.07739231 0.3238005 0.26348755 -0.6360038 -0.18430759 0.15599522 -0.3461676 0.033229895
tierra 0.5193871 0.25447 -0.06950723 -0.05669589 0.290442 0.10720284 0.21414344 -0.4908083 -0.025778022 -0.10309856 -0.22680607 -0.040021006 -0.05975863 -0.18707646 0.65609497 0.25937584 -0.36709377 -0.5379153 -0.12451691 0.11005805 0.6993182 -0.1666074 -0.103759676 -0.2728244 -0.38923985 -0.09473679 0.019617692 0.152842 -0.31062368 0.09814477 0.15338112 0.2189873 0.34224313 -0.35996285 0.37755486 0.38882625 0.54371023 0.55062777 -0.062348865 -0.07175529 0.34737086 -0.12707935 -0.25166535 0.32753888 0.42610753 0.33757663 0.17195326 -0.66952354 0.22882646 0.19669221
piedra 0.07464703 0.33143532 -0.40131488 -0.16995747 -0.41976544 0.38242605 0.2762521 -0.2547207 -0.24814971 0.18424189 -0.5134227 -0.058596317 0.17041835 0.16979198 0.26433778 0.10693099 -0.07160959 -0.41336423 -0.5999651 0.45212445 -0.092437826 -0.050002422 0.21605375 0.50597596 0.22004911 -0.4736755 -0.3060978 0.15921913 -0.21016704 0.5014043 0.51269865 0.7196331 -0.16631916 -0.495931 0.19188179 0.5020445 0.6858581 0.42554352 0.48803505 -0.3541484 0.31165823 0.23637964 0.31433553 0.105049066 0.20319971 0.2247588 -0.18356776 -0.6207608 0.11688737 -0.45175108
colores -0.42504445 0.6406392 0.25844562 0.10551169 -0.6301784 0.49050954 0.5176772 0.10143787 -0.030271394 0.18749316 0.14947367 -0.521577 0.0017066041 -0.06717901 0.5263578 0.0040018423 0.06014956 -0.18075292 -0.27814582 0.017909251 0.6227184 -0.029940812 -0.30900913 0.25089088 -0.40517852 0.032070503 0.22252144 0.10419119 0.2488803 0.045403343 -0.22745718 0.17631732 0.22993504 0.5114848 0.25370023 0.0185759 0.32442033 0.28397503 -0.16654256 -0.46865678 0.4339181 -0.28875414 0.24826148 0.1829181 0.34808978 -0.050751373 -0.5346816 -0.36801445 -0.07189026 -0.25151432
burro 0.4811801 -0.41904503 -0.02353527 0.032544766 0.029705796 0.5532781 0.4350453 -0.0014665698 0.31452352 -0.04031337 0.17114322 0.016035218 -0.23344862 -0.23773903 0.8999736 -0.12223477 -0.7661587 -0.1659397 0.27065298 0.62208223 -0.144959 -0.022447532 0.10508348 0.5628966 0.22467752 -0.11005271 0.50964457 -0.43264082 -0.09392264 -0.0022406513 0.4471411 0.24375443 -0.18373951 -0.21300538 -0.05821173 -0.6306664 0.58240855 -0.12715828 -0.07512544 0.024058178 0.32613528 0.13011482 0.14190948 0.24479443 0.1980886 0.36295855 -0.18939564 -0.43598732 -0.33719453 -0.5231844
bebé -0.27584445 -0.24776888 0.28825098 0.19697465 -0.5940979 -0.022281261 0.5157642 0.39148453 -0.021701477 0.17083447 0.53788024 -0.6207174 -0.45323935 0.029985694 0.5941356 0.381681 -0.1069877 -0.46829128 0.21524827 0.3854925 0.04512371 -0.16753359 -0.26979473 0.080970585 -0.034638245 -0.3426218 0.29499456 0.2848971 -0.384481 0.12299309 0.56231934 0.037824046 0.118680224 -0.29730695 0.027005138 -0.21078156 -0.081650004 0.4395791 -0.31253478 -0.15949199 -0.2260224 0.18542838 -0.20268832 -0.05933895 0.38249776 0.01795438 0.07759328 -0.58358467 0.3818043 -0.4277797
escuela -0.47381678 0.25235975 0.62091833 0.44952688 -0.39143807 0.00080982584 0.41782248 -0.13544333 0.23507577 0.24048047 -0.12348216 -0.07497942 -0.030954147 0.17926066 0.8609165 -0.014083978 -0.26910567 -0.21823457 0.16893844 -0.44616085 0.21947502 0.3680031 0.38709453 0.7196321 0.19312046 -0.3772716 0.058129612 0.3120189 -0.6475198 -0.39090866 -0.14063334 0.14991009 0.14624856 0.4610758 0.30291232 0.18704283 0.72143465 0.07753402 0.032216318 -0.18952014 0.37716553 0.26972544 -0.015689144 -0.3348331 0.110011905 0.03699524 -0.36032015 -0.23735297 0.022542406 -0.92060614
conejo 0.3458762 -0.08100125 0.28309935 0.026181417 -0.1606663 0.15049464 0.5996659 0.13071005 -0.34252262 0.39006174 -0.13390736 -0.23416534 -0.06516412 0.4139915 0.71775377 -0.06627783 -0.35486764 -0.018935785 -0.28468296 0.8109238 0.12586537 -0.10341121 -0.11824413 -0.35610554 -0.21004073 -0.26502728 0.3788508 -0.2568419 0.0005867915 -0.3212071 0.53369194 0.31992054 -0.07979199 0.07842486 -0.12639518 -0.03186692 0.38229594 0.3859134 -0.34683308 0.20758167 0.15627429 -0.16830707 -0.23466828 -0.096605316 0.091436334 0.38325772 0.5653322 -0.23392995 -0.61044675 -0.4216481
caballo -0.34961182 -0.21821032 -0.22329907 0.2971436 -0.41517374 0.747267 0.9525121 0.2371366 0.2933182 0.02731208 0.4013936 -0.12878127 0.10432481 0.011262677 0.49569908 -0.022832522 -0.28959057 -0.62618756 0.05033645 0.63035315 0.009287969 -0.124984995 0.31233567 0.0057634176 0.10578436 0.4045431 0.33222643 -0.2564332 0.15780395 -0.15716532 0.24623667 0.2671283 0.0042092428 -0.16532175 0.25822785 -0.3525604 0.70360816 0.044665795 0.12455599 0.2071493 -0.18904813 -0.04237378 0.07088842 0.22736976 0.38967776 0.37864536 0.57774526 -0.36110058 0.17056683 -0.29739174
policía -0.28599748 -0.30276728 0.46680376 0.34266225 -0.05912039 0.25492048 0.9105771 -0.5130502 0.028766641 0.17592026 0.5850228 -0.10570621 -0.26116723 0.276137 0.07889427 -0.38718686 -0.66568947 0.077022076 0.8518897 0.4457152 -0.63180655 -0.17400908 0.16115211 0.41722146 0.23796967 -0.96914464 0.41407755 0.0609919 -0.12707591 -0.4443128 -0.18747032 0.34668845 0.045272563 -0.11273402 0.2386502 0.5395821 0.5116463 0.4183844 0.02661312 0.25808352 -0.18408446 0.35330105 -0.21314363 0.06682853 0.34531182 0.20199026 -0.20085332 -0.48987865 -0.023451926 0.38879743
mano -0.5259622 0.33668065 0.13312568 0.23287518 -0.30441973 0.16370915 0.6477974 -0.6097973 0.30522183 -0.16275568 -0.13902943 0.04535595 -0.08099599 -0.6023464 0.5122778 0.4382152 -0.5497725 0.16727418 0.097965226 0.37717056 -0.12550595 0.15167286 -0.4622674 0.21834268 -0.058240138 -0.06626424 -0.038270496 0.13657087 -0.13344084 0.12134122 -0.46152017 0.10526313 -0.35912582 -0.47731245 -0.1884294 0.4501453 0.112849146 1.0665253 0.058999103 -0.22896968 0.0029557708 0.111277014 0.37214795 0.13786405 0.0746618 0.33548763 -0.055295914 0.112578765 -0.23436119 -0.49143702
bolsa -0.1753779 0.19728817 0.053369675 0.5481182 -0.23484516 0.20373479 0.5974548 -0.46467307 0.24923535 0.046663914 -0.52948725 -0.29139462 0.65427 0.03577384 0.8197814 0.03925443 -0.41759583 -0.18476199 -0.268221 -0.011282747 -0.0050373683 0.18373242 0.25844747 0.5874444 0.19486846 -0.16286512 0.3124267 -0.25755763 0.06548291 -0.47202468 -0.021888463 0.2650972 -0.080389485 -0.39064312 -0.38798085 0.24851537 0.013645044 0.46069652 -0.00139274 -0.24926832 -0.37358752 0.1411561 -0.42817506 0.17990899 0.14649922 -0.09029849 -0.42938986 -0.03456066 0.48944774 -0.08587188
familia -0.40847176 0.34751922 0.7886731 0.40558502 -0.17810602 0.37068668 0.43354484 -0.09867284 0.14734907 0.26013616 0.18018727 -0.29751784 -0.067550145 0.52181417 0.77383786 0.50207317 -0.23736465 -0.09684516 -0.059163567 0.4354278 0.2862929 0.2730083 0.036228187 0.5606083 0.09769114 0.06730288 0.17207202 0.074318774 -0.29018605 -0.25282496 0.45189285 -0.04001059 0.3097375 -0.18801475 0.10623271 0.3314647 -0.34216413 0.8011672 0.15781961 0.19426963 0.4294396 -0.153954 0.031604648 -0.8397013 0.31270212 0.15232758 0.32053357 0.008077758 -0.34787348 -0.32065383
león -0.30946964 0.0012886499 -0.22834583 0.34334728 -0.42769548 1.1564773 0.5434364 -0.1928471 0.35869455 0.32385045 0.2786666 -0.251852 0.40602183 0.45646882 0.21063079 0.5854195 -0.1983992 0.37503284 0.16366428 0.31774324 -0.11542436 0.30763343 -0.075817116 0.051749542 -0.3893085 -0.1507695 -0.032293923 -0.12358265 -0.06330711 -0.19918934 0.29200226 0.4398657 -0.025068076 0.03295943 -0.23361307 0.009750078 0.37959743 0.55429727 -0.11462269 0.11604589 0.101605766 -0.15573274 -0.5114782 -0.10290778 0.5939476 0.032876343 0.2589189 -0.44010636 -0.8335923 -0.22928044
pelo -0.40074202 -0.12391906 -0.030618163 -0.063361205 -0.71553195 0.29448336 0.7211204 0.4111964 -0.12842043 0.06597008 -0.11716691 -0.653765 0.081742585 -0.55071366 0.19814931 -0.040095884 0.058094203 -0.5164056 0.1539581 0.5807722 -0.30706698 -0.04184585 -0.46582037 -0.17040327 -0.030044844 -0.2699467 0.59502053 0.081692725 -0.28396472 0.090867236 0.6229709 -0.18260482 -0.05316629 0.047461025 -0.28868732 0.31426865 0.60575426 0.42442974 0.08014067 -0.043911297 0.037732333 -0.53195703 -0.06918455 0.18012297 0.06739078 0.12789536 -0.12422273 -0.123974904 -0.3571269 -0.14255524
oso -0.026774678 0.1842988 -0.2465555 0.23276961 0.029627947 0.3658106 0.65732044 0.15662119 0.5470503 0.27575794 -0.12105383 0.088720545 -0.007989398 -0.010263179 0.67351025 0.4942975 -0.3024567 0.1746793 0.48063564 0.39108074 0.03802811 -0.15500537 -0.2652426 0.1472899 -0.5799292 -0.5625883 0.2693679 -0.1072513 -0.47958782 -0.07615715 0.81203055 0.5957712 0.2718291 0.012956533 0.24441591 -0.16765341 0.2278288 0.13667615 -0.18802854 0.28219077 0.18038924 -0.3810569 -0.15908796 -0.3117742 0.24873969 0.16049148 0.339425 -0.19856364 -0.48622525 0.1346375
mesa 0.21462119 0.3056675 0.36217934 -0.077365 -0.28088787 0.36937955 -0.08162654 -0.2712074 0.44297466 0.5483816 0.038393322 -0.09643722 0.105811015 -0.80986655 0.7530375 -0.3880197 -0.44200253 -0.15091544 -0.26644298 0.14971454 -0.22842911 0.14772953 -0.22894806 0.7616565 -0.1571381 0.42211044 0.20466177 -0.024416802 -0.2834036 -0.36798736 0.28213394 0.23521689 -0.045167018 -0.2958324 0.55603516 0.36737254 -0.092037335 0.33933517 -0.19708163 -0.173515 0.35590252 0.13918404 -0.061312392 -0.3345359 -0.10286417 0.49086544 -0.01479864 -0.09928786 -0.07384942 -0.37563714
gato -0.34587607 -0.120346196 0.3166227 -0.0926111 -0.13256218 0.45440993 0.6427237 0.15454823 0.30957335 0.33137953 -0.03783557 0.18266325 -0.060359955 -0.00353434 0.5988019 -0.18694367 -0.3986232 0.06762334 -0.45628303 -0.05583422 0.016045183 -0.04556244 -0.7266174 -0.17228083 -0.47016966 -0.40313506 0.24088424 -0.44986537 0.30972558 -0.1197305 0.8246801 0.45273173 0.2628248 0.013359405 -0.06743674 0.111903585 0.08417386 0.17361031 -0.21638809 -0.16408117 0.18327616 0.055675026 -0.47419196 -0.28267884 0.39957783 0.07342225 -0.5196314 -0.38574 -0.51778173 -0.3862413
cocodrilo 0.3594949 0.14783433 -0.042170573 0.13303463 -0.1932197 0.59956044 1.0075779 -0.56538135 0.2923992 0.4356008 0.17654711 -0.22169603 -0.069905795 0.21814281 0.38013437 0.57625943 -0.16495706 -0.056802128 -0.23696469 -0.1259367 -0.58314615 -0.22801962 0.15929444 -0.20645273 -0.23822609 -0.07724416 0.14364998 -0.25810337 0.20017424 -0.21807283 0.55796355 0.13708206 -0.101531036 -0.2424249 -0.1741889 -0.07209281 0.65752083 0.24139814 0.36905804 -0.14775227 -0.02861047 0.21743926 -0.512508 0.30167302 0.6485237 -0.117303476 0.1435117 -0.15543619 -0.2438692 0.24330205
moto -0.07701408 -0.2387128 0.42174366 -0.070669584 -0.24552125 0.5133497 0.882896 -0.122737706 -0.20735595 -0.4973756 -0.62506956 0.27100235 -0.26079485 0.28520226 0.49173504 0.32737577 -0.2663533 -0.5263212 0.37802085 0.44150287 -0.35676926 -0.2813168 -0.0742516 0.11404142 0.14359961 -0.16212608 -0.116807915 -0.15444598 -0.19808304 -0.34809434 -0.006385919 0.21298069 -0.031108331 0.07154713 0.89581835 -0.039499708 0.29611194 0.15287985 0.7338955 0.4071693 0.3728503 0.15895776 -0.37598577 0.13287836 0.056365468 -0.08248764 -0.09244153 -0.686975 -0.07827204 -0.375435
playera -0.6203288 0.4864903 0.22511889 0.20712632 0.1533602 0.31853902 0.46689302 0.36262235 0.081473984 0.32116857 0.08492278 -0.5344214 -0.5870024 -0.19816451 0.6006303 -0.023890555 -0.013105846 -0.6345367 -0.24097198 0.06608635 0.17294453 0.2457752 0.3563688 -0.21975577 -0.49158642 -0.27025294 0.39879036 -0.08610621 -0.5637401 -0.2010169 -0.14862835 0.07087186 -0.35403875 -0.40012622 0.48138785 0.23865798 0.39721912 0.2240715 0.11366095 -0.0055098315 0.41617677 0.015891526 -0.19341747 0.26009724 -0.33992317 -0.25105178 -0.48624215 0.034740694 -0.330628 0.45579422
botas -0.5888206 0.5161857 0.072006576 -0.21525835 0.35489485 0.3285648 0.7924819 0.33439702 -0.25489601 -0.036480635 -0.255918 -0.19366975 -0.022441607 0.2356262 0.48975676 0.078571044 -0.6864707 -0.4979852 0.056793343 0.34836698 0.16992982 0.056018144 -0.35404956 -0.15998292 -0.32100666 0.2793212 0.6747615 -0.039432764 0.17289902 -0.39338583 0.7068927 0.58406025 -0.3897866 -0.3743467 0.1839681 0.21283805 0.14903127 0.01549738 0.6048025 -0.06841878 -0.044277065 0.35177833 -0.53764063 0.22534055 0.3582095 -0.015916651 0.17149122 -0.13128585 0.30418453 -0.02243322
planta 0.04801264 0.41283804 -0.43869835 0.3459679 -0.021982169 -0.19273892 0.1863691 -0.25521702 0.17771386 0.06604246 0.14298426 -0.5811011 0.50513035 -0.23089844 0.2956536 -0.4497392 -0.21196868 -0.6145162 0.43412596 0.052630227 0.43210524 -0.60349226 0.03662605 0.034707595 -0.32778487 -0.1584554 0.12947924 0.058647722 -0.20185515 -0.021751843 0.079793766 -0.17990206 0.32001886 -0.10319961 0.11368445 -0.007966157 0.6795992 0.76211494 -0.17159997 -0.023446903 0.5741612 0.052509 -0.4273753 -0.40249956 0.5802315 0.315484 -0.21200496 -0.57861644 0.21790974 0.03444917
botón -0.44272363 0.11406824 0.18104148 0.2063834 0.07444745 -0.411857 1.3583393 0.1523064 0.2745051 0.56616473 -0.39917827 -0.97145885 -0.41044366 -0.14091513 -0.17967139 -0.15012443 -0.079380825 0.10104508 -0.1933976 0.5184986 -0.034280468 0.057134844 -0.14273804 0.22556138 0.25560024 0.15310659 0.07017326 0.0038204042 -0.3489687 -0.85893315 -0.024713986 0.03211633 -0.37725502 -0.42478243 -0.06386012 0.076795764 0.12622236 0.2783301 0.26714897 -0.18232827 0.366523 0.059843946 0.045460336 -0.11146367 -0.02202452 -0.4588188 -0.4144472 -0.28288126 -0.39774805 0.043363713
carne 0.18244891 0.2915733 0.24890624 -0.2939845 0.17421007 0.3970837 0.30486435 -0.016368309 0.22156261 0.7264116 -0.22357516 -0.05804841 0.13110141 -0.09605205 0.22471698 0.027690608 0.13218306 -0.15503852 -0.43695256 -0.13445276 -0.37471405 -0.35152966 0.61113733 0.16682848 -0.05811472 0.04062467 0.24142608 -0.11196495 0.11115134 -0.49911684 0.55972636 -0.05623355 0.12311937 -0.24677578 0.26616302 0.04556176 0.83036965 0.5494289 -0.48915696 0.33689368 -0.047718517 -0.04549395 -0.35942256 0.2656305 0.759451 -0.2327774 0.22004949 -0.48027015 0.10780008 -0.22477177
ardilla 0.00070921396 0.19885294 0.11361918 -0.35536966 -0.633007 0.3051334 0.5363991 0.23949574 0.0034029467 -0.13952936 -0.090494424 -0.37204346 0.20275068 -0.00058763067 0.46546027 0.16505545 -0.3973203 -0.27697504 -0.1074417 0.29775098 -0.13073526 -0.39032564 0.21567918 -0.4145865 -0.028993856 -0.098261915 -0.114609025 -0.50594974 -0.13914831 -0.16797294 0.40833455 0.024332704 0.08476265 -0.10565982 -0.1333906 0.31221443 0.32852224 0.94826776 -0.2295786 0.32500082 0.5294114 0.52678037 -0.28874937 -0.07763943 0.010265459 0.3234362 0.09270076 -0.034780648 -1.0578458 -0.18796775
gorra -0.7611185 0.34790906 0.18101066 0.48676002 0.28402305 0.15866742 0.81682837 0.41848484 -0.023340773 0.070264705 0.5447495 -0.1687584 -0.1685826 0.32942706 0.45086387 -0.15754594 -0.39412183 -0.40875718 0.1530156 0.16311207 -0.48941928 -0.047372837 -0.06336207 -0.16330019 -0.56775934 -0.42210817 0.14556026 0.11957138 0.11011534 -0.5188362 -0.06808081 0.17817254 -0.047034767 -0.7362473 -0.04756422 0.15606128 0.6075727 0.3034251 0.081998445 -0.5611648 0.07299457 -0.2672594 -0.35713398 0.49619392 0.015251824 0.24999246 -0.25827637 0.077853665 -0.061626785 0.012292611
calzón -0.57500416 0.35686064 0.12789732 0.086673364 0.4222327 -0.11569202 0.36142278 0.24181588 0.28903756 0.106018744 0.08519596 -0.83683634 0.1445215 -0.23724578 0.6700987 0.19035396 0.30651376 -0.5603502 0.24066442 0.1591393 -0.2524825 -0.006635844 -0.44694465 0.1725766 -0.49252668 -0.6474386 0.1837166 -0.1371569 -0.19865139 -0.0101771355 0.3591123 0.5743736 -0.3764984 -0.6976562 -0.1085128 -0.030444518 0.6130077 -0.07640508 0.39073232 0.23723884 0.25096282 -0.07862973 -0.14170033 0.4669906 -0.31960943 -0.118083574 0.30584654 -0.23789771 -0.37647292 0.04388626
caja -0.0034712462 0.36313725 0.28788894 0.3182868 -0.32864138 0.020765286 0.5317765 0.14162043 -0.15220745 0.25191793 -0.3207812 -0.72641295 0.6523133 -0.2963189 0.5832326 -0.23573162 -0.5971498 -0.13237068 -0.18075582 -0.058925115 -0.46373838 -0.23353907 -0.024583787 0.1701387 -0.21944924 0.036220405 0.31211996 -0.33973914 0.041991554 -0.18129665 -0.09855688 0.3444728 0.42282853 -0.6616324 0.016468292 0.4051325 -0.25203106 0.056095753 -0.01860908 -0.1496863 0.27694362 0.37405643 -0.010453605 -0.3723029 0.1563574 -0.2310968 -0.57290024 -0.09035946 -0.56669974 -0.12806536
cara -0.037764944 0.09868248 0.19861545 -0.19164158 -0.41644973 -0.0985311 0.15487058 -0.027496703 -0.11447759 -0.037204113 -0.43859863 -0.5595858 0.1948123 -0.020985063 0.61904854 0.5869297 0.009881593 -0.7794737 0.17905329 0.09808407 0.02872271 0.7861225 0.056065295 -0.0320108 0.13234702 -0.5938883 0.122829825 -0.58858687 0.13948797 -0.19916555 0.30608836 0.21204433 0.021988861 -0.46859786 0.20130755 0.38347802 0.2985267 0.74037904 -0.007214519 -0.7272445 -0.32252735 -0.13017516 0.17342566 -0.3242639 0.40160584 0.37337434 -0.3434706 -0.037409008 -0.17441195 -0.4224061
perro -0.18531108 -0.11395646 -0.008966857 0.6636398 -0.37252247 0.70571643 0.1891389 0.16963805 0.36372367 0.034168065 0.10591174 -0.4120808 0.05337306 0.24216253 0.33962807 -0.044030726 0.08141037 -0.07801798 -0.09537033 0.63517076 -0.215055 -0.43436816 -0.16750811 0.07503497 -0.33608338 -0.7608991 0.5358734 -0.48376358 -0.13374336 -0.50551426 0.45180136 0.4699284 -0.020260047 0.05927032 -0.0031065592 0.59870327 -0.09034123 0.09581762 -0.037642274 0.5181915 0.18458974 0.1549049 -0.025294736 -0.043929376 0.50428605 0.052996427 0.01377981 -0.0820254 -0.70826215 0.032462187
televisión 0.20802811 0.4841333 0.49936953 0.48236048 0.08185815 -0.20903377 0.39330402 -0.14941199 0.43550178 0.48464617 -0.24641322 -0.7340884 0.036829237 -0.067243636 0.32599247 0.47329682 -0.5244022 -0.530325 0.06168462 0.36623767 0.24802044 0.13086516 0.02974157 0.6090291 0.2420875 0.20345761 0.05036703 0.3339793 0.25053018 -0.6347954 -0.32283187 0.18092167 0.17284583 0.15640837 0.16457033 -0.09483037 0.33850315 0.17482139 0.6581115 -0.33500257 -0.13203192 0.48203996 -0.28325403 -0.1816075 -0.052330866 0.67316973 -0.52597094 -0.4249624 -0.7346237 -0.07808139
víbora 0.64017683 0.13310923 0.0032290604 0.30048287 -0.19853173 0.10645953 0.64828485 -0.54114246 0.2707731 0.21788365 -0.41596192 -0.26605627 -0.3018283 0.15002456 0.30137128 0.32452217 0.17798086 -0.40577862 -0.046054404 0.20084782 -0.36420557 0.14371228 0.004678537 -0.04434305 -0.18561456 -0.25400183 -0.27378154 -0.5378641 0.13022837 0.2885543 0.37510958 0.47259352 -0.08630639 0.026045755 -0.25924996 0.4977244 0.1455048 0.5618257 0.19917409 0.3165176 0.38727143 0.42457667 -0.78638077 0.25798312 0.45694005 0.30778024 0.03712541 -0.7659651 -0.5812453 0.09015702
zapato -0.21618392 0.5109335 -0.3609676 -0.037570704 0.049695935 0.1607965 0.7111001 -0.14053705 -0.072935626 -0.09840912 0.27146676 -0.38428402 -0.32669815 0.3920632 0.7919211 0.27863866 -0.17670697 -0.04513732 -0.12431567 0.20996012 -0.13737483 0.02356219 -0.4861474 0.33773267 0.016396703 0.3254927 0.07183163 0.24541816 -0.31567714 -0.21450476 0.23828568 0.5373759 -0.1986866 -0.0071789906 0.17131886 0.590182 0.38204 0.51924515 0.2650072 -0.060179785 0.53909254 0.28757778 -0.26671028 0.62058616 -0.031101655 -0.32982343 -0.23844017 -0.05456255 0.26346233 -0.04988758
lobo 0.2803961 -0.14848772 -0.21369793 -0.025106361 -0.27839115 0.86171126 0.9311525 0.07328184 0.15679573 0.6207306 0.030787405 -0.22357248 0.12479936 0.28747267 0.33492875 0.4042277 0.029255742 -0.021941341 -0.11299267 -0.052962586 0.06509295 -0.0028619792 -0.29410487 0.041251294 -0.28525016 -0.39125705 0.14900802 -0.38446912 -0.2575718 -0.20499673 0.23054822 0.33496886 0.1104839 -0.012383537 0.037312485 0.48414737 0.7362141 0.021917187 -0.5020495 0.32659975 -0.31924048 -0.29404536 -0.060344882 0.39376676 0.23329131 0.47035307 0.24130346 -0.5164773 -0.390412 -0.15849684
bicicleta -0.23484409 0.05247601 0.11876501 0.31103805 -0.52264565 0.32880595 0.79192424 -0.04808142 -0.19336593 -0.13966504 -0.5160846 -0.038489927 -0.24988016 0.50350255 0.43619242 -0.108672105 -0.068291254 -0.9806131 0.24468563 0.19836646 -0.205958 -0.16154502 0.029652296 0.30380675 -0.24078852 -0.29847836 -0.21468872 0.1998024 0.22451499 -0.4090992 -0.33756146 0.16160908 -0.49172774 -0.37035426 0.63697994 -0.2580183 0.18745035 0.22232282 -0.159226 0.6055049 0.61081517 -0.036404815 0.16430154 0.16256534 0.10960335 -0.0073115216 -0.11028356 -0.30814812 -0.4141798 -0.3988789
tigre -0.054325648 -0.36733866 0.1002924 0.22145887 -0.080867745 0.8189647 1.0296053 -0.05690068 0.17524943 0.2939928 -0.12862527 -0.06395376 0.21217956 0.50083834 0.20763452 0.31275702 0.004450021 0.28612596 -0.103522435 0.24697767 -0.19491136 0.082255185 -0.35877922 0.03603203 -0.2856289 -0.19693461 -0.181703 -0.81011134 -0.24351922 0.26989987 -0.014990943 0.5825481 -0.0128036225 0.07437518 0.25588083 -0.052694175 0.66115874 0.7146814 0.100012034 -0.25459543 0.030356582 -0.1516146 -0.40410638 -0.19831505 0.7179956 0.02848412 0.2952118 -0.31884998 -0.52905416 -0.017012315
mueble 0.12895426 -0.03929507 0.44887546 0.06051385 -0.34086642 0.032917608 0.32752982 -0.15969771 0.6537485 0.2599026 0.41523546 -0.71947116 0.6632251 -0.17354617 0.6605031 -0.13542566 -0.41782966 -0.37611362 0.08211251 -0.118344255 0.33951393 0.17217949 -0.50406456 0.28579968 0.0559091 0.36326566 0.002791784 -0.11888088 -0.52461433 -0.61267334 0.26432174 0.24998853 0.09791969 -0.567446 0.29995504 0.20373206 0.21392947 0.05238886 0.308343 -0.010660916 0.41369978 -0.029583316 -0.41889104 -0.12619406 -0.30663258 0.18665913 -0.43759492 -0.2920104 0.083974354 -0.26502356
pato 0.011083709 -0.058542486 0.14408882 0.58755976 -0.07202389 0.43039724 0.429251 0.1363997 0.5606911 0.39823312 -0.24869503 0.19006161 -0.46812677 -0.0402042 0.660617 -0.11119613 0.0574835 -0.013501239 -0.18655142 0.4255508 -0.20149155 -0.5531861 0.1615434 -0.11385751 -0.111438 -0.10703785 0.048306372 -0.3967936 -0.033146687 -0.29371396 0.90517026 0.5246765 -0.4398615 -0.06002863 0.33347034 -0.036820743 0.09961058 0.032362834 0.05699643 -0.4042015 -0.23218022 0.31943908 0.25558174 -0.23137921 0.25680283 0.011977037 0.06294844 -0.77005404 -0.045327447 -0.11479833
mercado 0.12222712 -0.07030332 -0.32475668 0.37846524 -0.38824064 -0.17051339 0.6685324 -0.41624892 0.15085782 -0.06636736 -0.083760224 -0.40665892 0.23867388 -0.56141734 0.81984895 0.11260018 0.2572712 -0.35823447 -0.2504931 0.056350913 0.2374358 -0.12534001 0.42069584 0.9128482 -0.14114003 -0.22670184 0.43493745 -0.5020318 0.17820692 -0.71289355 0.26503158 0.030811107 -0.5155517 0.41869345 0.33130476 0.59013855 0.5092703 0.3444241 0.19388677 0.37852916 -0.036807418 0.096692346 -0.1562965 0.24961162 0.12762524 -0.21389718 -0.07767345 0.28709632 -0.00077139173 0.007777204
brazo -0.24389741 0.31601065 0.13620883 0.014752126 0.35697484 0.14932574 1.2293644 -0.35694775 0.07454093 0.3827279 0.29421422 -0.28844038 0.41745323 -0.43176594 0.14319988 0.4788525 -0.16775927 0.11459753 0.040468507 0.37599748 -0.4254507 0.26802063 -0.27608588 0.22136268 -0.5107969 -0.47166985 -0.20606653 -0.14956611 0.010236847 0.11389035 0.13085829 0.029236324 -0.6651932 -0.27066064 0.2132045 0.32836074 -0.008465223 0.7986058 -0.42337495 0.47371423 0.6985114 -0.31346482 0.20629 -0.27770936 0.0015135792 0.4549546 0.11671143 -0.12792315 0.2281637 -0.6397855
pescado 0.4712742 0.38886356 -0.09500729 0.6068857 -0.42842233 0.09441551 0.5653858 -0.14336121 0.36826122 0.59412175 -0.35542378 0.12022297 -0.045303058 -0.50346804 0.3646972 0.38608927 -0.058295555 -0.2544336 -0.3572576 0.18831612 -0.20308782 -0.41667125 0.10662409 -0.077611126 -0.2512264 -0.39027363 0.1983427 0.44780824 0.6841436 -0.44305578 0.4098693 0.11915501 0.016731402 -0.06811916 0.603522 -0.17889115 0.71187913 0.02155402 -0.29588443 -0.22275002 -0.1554899 0.008165547 -0.46912974 0.24351151 0.44790494 -0.35929918 0.56046975 -0.48554292 -0.27966532 0.33510676
tren 0.10750522 -0.32214156 0.06854513 0.039255038 0.012530236 0.39388084 0.7470448 0.13673884 0.49434504 -0.27778184 -0.20081936 -0.030385548 0.25909665 -0.19681256 0.93454945 0.30659547 0.02792121 -0.40005755 0.052549586 0.63399917 -0.023471992 0.13417566 -0.08412434 0.31811348 -0.051411968 -0.5349891 0.12415573 0.5667284 -0.32947066 -0.041991193 0.1648809 -0.51594514 0.44088867 -0.108896546 0.74641377 -0.41571268 -0.06782828 -0.058555525 0.06261787 0.111177675 0.7618529 -0.0056382054 -0.3794953 0.57487154 0.50227857 -0.21019605 0.060163658 -0.54113156 -0.1266974 -0.17559928
leche 0.0027773723 -0.0030079016 -0.21058963 0.051375516 -0.15624133 -0.29485586 0.0817203 0.041089553 -0.073917985 0.13316637 -0.031717025 -0.814433 0.019925013 -0.23836417 0.21754928 0.36442456 -0.4316945 -0.54190314 -0.18626139 0.08738335 -0.33217746 -0.05437345 0.054795593 0.331514 -0.49624032 0.16307417 0.12796763 -0.47259188 -0.1967154 -0.007222519 0.4251365 0.021459566 0.27350864 -0.088070594 0.63684964 0.05737831 0.12969427 0.7638923 -0.038136814 -0.04249108 -0.20807244 0.1276347 -0.14540553 -0.1994607 -0.12841101 -0.37958917 0.17405035 -1.2201054 0.14340487 -0.16274992
árbol -0.30532485 -0.20250262 0.12503214 0.046562187 -0.3445155 0.01588555 0.5725352 -0.25848535 0.094607875 -0.04314398 0.2894183 0.021888925 0.432297 0.12852465 0.19809376 -0.08129811 0.06431524 -0.5734088 -0.018145826 0.2507279 0.49416593 -0.7623208 -0.12045929 -0.06161505 -0.48213565 0.27898762 -0.08576693 -0.5825393 -0.36609638 -0.03240859 0.21366869 -0.32737634 0.066896826 -0.63085586 0.3354272 0.18743101 0.62658453 0.31504348 -0.4203891 -0.11867909 0.7119669 0.13912348 -0.15631022 -0.037808605 0.2397452 0.29876173 -0.28800833 -0.4359773 -0.026185825 -0.34409598
comida 0.27894837 0.18193376 0.13674587 -0.019951547 -0.08372834 -0.073227786 0.12115797 -0.0829308 0.054287784 0.2291804 -0.11025942 -0.319603 0.1696718 -0.3538074 0.3598049 0.18400644 -0.17983636 -0.11895053 -0.28738022 0.3774187 -0.058818575 -0.34009853 0.07977766 0.23750788 -0.29042116 0.09561236 0.3185224 -0.4146039 -0.19721118 -0.14035262 0.36759552 -0.0292288 0.19198923 -0.18903057 0.29395697 0.019768188 0.24002406 0.55168897 -0.19697046 0.10238609 -0.20457168 0.23865071 -0.060895197 0.2577342 0.21453616 -0.31718832 0.13343804 -0.45439726 -0.45190284 -0.15941896
hipopótamo -0.21700217 0.028326528 -0.21067165 0.14561062 0.02748078 0.7732944 0.42563727 -0.17522751 0.35797706 0.04621716 0.38843107 -0.34401512 -0.20117357 -0.22863293 0.30993024 0.48451474 -0.31361958 0.2822517 -0.28045633 0.0771485 -0.16707145 -0.2101212 -0.19513093 0.025238462 -0.100372076 -0.2748963 -0.037178442 -0.22299382 0.5597433 -0.045004457 0.6923163 0.20272137 0.18527386 -0.13309841 0.60363597 -0.13019146 0.8336362 0.37123722 0.53065383 -0.049353782 -0.02259692 0.06000288 -0.7096493 0.13069627 0.6229151 0.22536168 0.304013 -0.007822626 -0.34383926 -0.12385705
ventana 0.10967998 0.5807839 0.033009503 0.38880178 -0.2067378 -0.086650796 0.6023709 -0.24827714 0.4014617 -0.06668034 0.01622111 -0.32269445 -0.29294237 -0.2848311 0.19560827 -0.3240211 -0.28402114 -0.57438236 0.34420735 0.66753364 0.08181801 -0.028760241 0.11216581 0.004766513 -0.20380297 -0.02828757 -0.50725824 -0.49330604 0.30051148 -0.62091655 0.26476318 0.15821482 0.20529516 0.11267018 0.6407999 0.46277565 -0.005361022 -0.096337706 0.007968875 -1.0047157 0.61006504 -0.2989912 0.101502225 0.074326895 0.40924552 0.15109575 0.051016722 0.10275929 -0.11519048 -0.13150589
cacahuate -0.17933953 -0.01471182 -0.041605804 0.09265894 -0.31842887 -0.48095417 -0.3640814 -0.07024623 -0.061043818 0.4378234 0.3473537 -0.38152698 0.28039876 0.057080306 0.13776906 0.08115124 -0.64038 -0.018584538 -0.09524557 0.6681169 -0.21988988 -0.41346368 -0.003099973 -0.27315295 -0.24962397 -0.20341612 0.26561722 0.2496122 -0.036220603 -0.1358602 -0.085445605 0.11121557 -0.15973274 -0.6323591 0.68623644 0.6294789 0.6908729 0.45543346 -0.33319622 0.22579026 -0.44452518 0.15559451 -0.31917527 0.22065426 0.60529876 -0.111948185 0.02512571 -0.3847078 -0.7933852 -0.51898384
autobús 0.038721226 -0.22819781 0.3411141 0.47123352 -0.47518256 0.7205184 0.58204305 -0.06515581 0.03222196 -0.45771798 0.2862718 0.24485587 0.0038851455 -0.15017354 1.078095 0.19608793 -0.08637188 -0.3448337 0.2044939 0.16483392 0.038462132 0.28548506 0.0068400274 0.27438128 0.31003112 -0.40548363 -0.08530016 -0.2299801 -0.30399865 -0.307373 -0.44556725 -0.18982962 -0.27749062 -0.03732825 0.63902307 0.19746087 0.40561572 0.05302605 0.24579163 0.09465104 0.4769194 0.17827304 -0.4299514 0.05588139 -0.025757888 -0.8018689 -0.30040815 -0.58080703 -0.05637369 -0.4068716
iglesia -0.21994697 0.6547926 0.46803224 0.19065648 -0.19647545 -0.027645212 0.5088234 -0.38619295 -0.10569801 0.14591657 0.057160005 -0.07157774 0.31195998 -0.27575836 0.24966332 0.15035741 -0.47378048 -0.35951984 0.26071423 0.17610279 0.034451544 0.75994706 0.012744741 0.925589 0.27033955 -0.29612544 -0.15889047 0.17992638 0.18763985 -0.5152255 0.6880604 -0.3841258 -0.4076094 -0.21397017 -0.0677647 0.5262299 0.6794308 -0.15067749 0.2562945 -0.0781873 0.16838486 0.31312507 -0.10701705 -0.73968774 0.53230995 0.09869023 0.0015624751 -1.0287455 -0.5531984 0.48004788
sombrero -0.4332408 0.29344165 0.049591728 0.7545415 0.19489327 0.1467225 0.6039423 -0.008195778 0.005697478 -0.030477345 0.49882546 0.21328287 0.13411294 0.15036614 0.5916634 -0.08056517 -0.44017082 -0.37175435 0.19023369 0.74845433 -0.0024807442 -0.13498583 -0.21834305 -0.17638707 -0.043884825 -0.15374047 0.27495778 -0.42663386 -0.17253113 -0.9117859 -0.16264053 0.37848908 -0.34456113 -0.32821855 -0.11226835 0.45029306 0.60820615 0.027269708 -0.5589983 -0.14250582 -0.26059037 -0.005792397 -0.051965747 0.27607435 -0.06738935 0.24478814 -0.08999187 -0.16735567 0.215268 0.1389899
borrego -0.15124245 -0.1954142 0.05033946 -0.39965254 -0.12560874 0.35027546 0.32652873 0.7090005 0.34480658 0.16757138 -0.25047144 -0.21948732 -0.24136466 0.06923571 0.31439593 0.027825778 -0.10769067 -0.14789045 -0.0627921 0.30857334 0.07767409 -0.28847137 -0.1717323 0.81244856 -0.17430563 -0.15762344 0.068126574 -0.27271613 0.08103305 -0.48002365 0.40595236 0.51302373 0.17774881 -0.31682906 -0.5544047 -0.06265156 0.83616805 0.6510258 -0.3431631 0.09979473 0.08296121 -0.32021916 0.010828932 0.2539571 0.20071879 0.1822563 0.20228665 -0.6880355 -0.38126573 -0.07568203
tractor 0.22723079 -0.27702993 0.18041961 -0.00015071081 0.023447057 0.15388958 0.83555585 -0.55676204 -0.16899177 -0.8139706 -0.22573675 0.03791171 0.13364193 0.0055574896 0.7446564 -0.15994252 -0.9650761 -0.4503233 0.08034829 0.42964876 0.515347 0.24535179 -0.23826987 0.057009492 0.125241 -0.10949278 -0.22087528 0.035483427 -0.20975035 -0.22695899 -0.06736871 -0.055197746 0.12780528 -0.5118437 0.22616231 -0.24094906 0.8270536 0.25747785 0.31244576 0.2208317 0.092169955 -0.23253843 -0.1051628 0.16064727 0.672933 -0.11143656 0.08445345 -0.5016372 -0.19766365 -0.21718955
aretes -0.11863698 0.37448108 -0.4199773 -0.07397257 -0.5203819 0.2585627 0.33896372 0.31661925 0.33170766 0.115237646 -0.24750479 -0.69719124 0.5771422 0.41802987 0.6185278 -0.53705686 -0.17315987 0.20017089 0.31443968 0.76863384 0.07562685 0.3770976 -0.26438734 0.225346 -0.08640325 -0.50615114 0.53919375 0.2500916 0.39674956 -0.09637283 -0.10574249 0.18680762 -0.49749047 -0.2889817 -0.16526453 0.3749311 0.17232987 0.87075675 -0.049120277 -0.5176863 -0.14982991 0.15253036 -0.15311098 0.09609066 -0.0050679618 0.11335331 -0.31617725 -0.32781032 0.070823 -0.6404486
flor -0.06834692 0.7666134 -0.014080935 0.196037 -0.2660248 0.42080098 0.117219 -0.14039594 -0.11888153 0.10532047 -0.16103128 -0.7258091 0.19396289 -0.33817333 0.74903995 0.36851296 0.17402665 -0.38433656 0.1998659 0.73087704 0.59571683 -0.5760678 0.14400597 -0.25921303 0.15881857 -0.15605254 0.26884067 -0.53355783 -0.14911142 0.13683514 -0.12939465 0.009812453 0.6201452 -0.31137794 -0.0924476 -0.04327723 0.74715894 0.32491872 -0.24996912 -0.046215776 0.18190596 0.07689389 -0.3475991 0.066236764 0.030299295 0.45622817 -0.049361378 -0.40059847 0.04626475 0.1082693
gelatina -0.027606517 0.50546485 0.8095248 -0.14096022 0.062338114 -0.0028792263 0.40484315 0.038929444 -0.033768233 0.5243014 -0.13902792 -0.37727708 0.17802446 -0.41802222 -0.23679662 -0.10586867 -0.5528864 -0.45389295 -0.09213348 0.1384602 0.21183667 -0.48872995 -0.413237 0.111349225 -0.07279787 -0.61760217 0.35678992 -0.19813056 -0.11301376 -0.07400083 0.27157098 -0.020684654 -0.24634139 -0.29117694 0.6514755 -0.24513751 0.51091015 0.6517948 -0.4223759 -0.28153864 -0.4845016 0.11404677 0.04054066 -0.015130386 0.041384097 -0.6993723 0.35636863 -0.3443707 0.17953844 -0.26241747
palo -0.01707684 0.021803476 0.108560815 0.10237135 -0.23005313 0.32925898 -0.048295207 -0.3875642 0.08765495 0.7764479 -0.27293763 -0.17208794 0.22170037 -0.38055506 -0.1813998 -0.08085482 0.19883996 0.057684544 0.21106741 0.5944078 -0.12654257 -0.2144201 -0.6430038 0.48239973 0.061969128 0.24922687 -0.21059005 -0.33186683 -0.38491225 -0.2988758 0.21241836 0.39924732 -0.19427365 -0.5554321 0.23171791 0.68217224 0.48702547 0.29912448 0.059943028 -0.01217791 0.33896947 0.13381161 0.027446132 0.6323423 0.33000836 0.42559552 -0.016072027 -0.24561824 -0.19983123 -0.42064807
manzana -0.05441851 0.34392682 0.55824196 0.15099284 -0.17263307 -0.050352722 0.14692497 -0.6027571 -0.19579059 0.29340577 -0.1720357 -0.5129347 -0.02525037 -0.20753036 0.18979649 0.21925867 -0.07974715 -0.4149683 0.11566722 -0.03574525 0.4402601 -0.07291984 0.5084238 0.13947004 -0.56200665 -0.122803554 0.262496 -0.23105456 -0.1379528 0.3428091 0.3096623 0.271526 0.03221492 -0.19600143 0.40066835 0.3693781 0.48846617 0.027985157 -0.7344349 0.19828929 -0.46327278 0.31358638 -0.7884706 0.036077376 -0.07769019 -0.13396566 0.17235558 -0.82619256 -0.4942262 -0.4687002
mono -0.8904747 -0.34947345 -0.16725962 -0.12106345 -0.06774439 -0.19598083 0.60802215 -0.14818557 0.17223899 -0.124991946 -0.4072185 0.012088847 0.13444975 -0.1530577 0.6752428 0.48576802 -0.17548801 -0.4210214 0.16417858 0.73363554 -0.21175018 -0.34727183 -0.031651206 -0.31294262 -0.3345367 -0.11661644 -0.08344348 -0.09348551 -0.24823354 -0.17129342 0.6052429 0.16031913 -0.20751595 0.030760469 0.21910082 0.013966744 0.50705445 0.023939934 -0.2804903 0.2678826 -0.1712104 0.18813336 -0.26587337 -0.15542325 0.13530134 0.5307968 -0.15424488 -0.25807542 -0.7605946 -0.41724014
vestido -0.64247674 0.8542873 -0.2024002 -0.20899184 0.10429086 0.24852343 0.39467242 -0.011094829 -0.2175024 0.19202164 0.24670857 -0.5417742 0.08834006 -0.06985689 0.65216583 0.19289388 0.014711238 -0.22866815 -0.16956739 0.5143583 0.089561254 0.23034164 -0.17584917 0.2760174 0.038933657 -0.20122606 0.3478254 -0.5749875 -0.31469414 -0.48973206 0.18658933 0.010603782 -0.38223687 -0.25143284 -0.26360607 -0.020802464 0.15124893 0.29868883 0.05289935 -0.43018875 0.39327326 -0.45969543 -0.72287667 0.24020861 0.13487342 -0.33408442 -0.21075954 -0.031916957 -0.06670586 0.01810963
pan -0.18090528 0.05372205 0.3065575 0.4078886 -0.013825993 -0.0769336 0.048587497 0.0056973486 -0.45069775 0.3007226 -0.05163972 0.013982288 0.39782465 -0.730947 0.3165133 0.4221257 -0.71508706 -0.50898707 -0.28724542 0.49572462 -0.42158574 0.17843398 0.003039089 0.34581462 -0.22484873 0.14586839 0.26877382 -0.3939518 -0.0098458445 0.4730504 0.40619212 0.09475358 0.22802666 -0.040890805 0.5718965 0.14232434 0.5197734 0.2460462 0.12277686 0.035346154 -0.04771359 0.02427181 -0.099345736 0.16183555 0.012733321 -0.7041177 -0.60271853 -0.76915836 -0.16354367 -0.23425458
libro -0.3035313 0.8133315 0.13130109 -0.031880002 -0.17050204 -0.22705907 0.638235 -0.35171622 0.6069246 0.45110205 -0.07468882 -0.77925545 -0.2737241 0.04632921 0.67802143 0.19307381 -0.46623704 0.32394955 0.33516026 -0.18007007 0.29661492 -0.29947504 0.004213345 0.5208725 0.04176042 -0.119043976 -0.2934155 -0.3822334 -0.49023837 -0.28089097 0.13306303 0.19390884 0.29455316 0.4063141 0.3164849 0.29446685 0.54841596 -0.39199987 0.06430616 -0.08317484 0.42236784 -0.057742674 0.24413423 0.06735889 0.1501509 0.28317726 -0.16631041 -0.23746486 -0.108778775 -0.74839425
papas 0.38140282 0.31083834 0.6628982 -0.26672643 0.60318154 -0.18579967 0.3777662 -0.33501768 -0.2397144 0.27979663 0.22814187 -0.21617466 0.353558 0.08337897 0.29242855 0.090658695 -0.16497461 -0.19933176 0.11044963 0.9614872 0.42193064 -0.3726648 0.71159995 0.018714575 -0.5984892 -0.18906714 0.30372274 -0.055188347 0.03509213 -0.45628124 0.23452231 0.5842489 0.46643177 -0.22753519 0.5481815 0.36784494 0.58043444 0.698374 -0.15600011 0.19213252 -0.42380667 0.18884686 0.05040249 0.5201584 0.16555712 -0.5790638 -0.38197282 -0.40750375 -0.25909764 -0.26682356
huevo 0.119989716 0.23129383 0.27586472 0.75133216 -0.17860018 -0.37702268 0.13677467 0.070034035 0.063060395 0.48994416 -0.15130696 0.12121856 0.06289902 -0.27138257 0.5479023 0.12985586 -0.4786544 0.076322466 0.10697678 0.39607438 -0.12718605 -0.03373904 0.2583967 0.10726863 -0.4371945 0.22901744 0.06793605 -0.42212948 0.57431555 -0.08454418 0.51351094 0.700009 -0.2553439 -0.09675108 0.34177697 -0.04511131 -0.18906635 0.5035542 -0.1538274 -0.12657703 0.53116643 0.051560815 0.0075342534 0.2811957 0.09020705 -0.692611 0.1702568 -0.8486441 -0.24625486 -0.4409705
canasta 0.07360826 -0.08684319 -0.19029489 0.3474722 -0.10066174 0.15917644 0.5695363 -0.4135497 -0.2137942 0.059703913 0.13206239 -0.06527539 0.60321695 -0.4753773 0.72612435 0.27436402 -0.23680788 -0.6631796 -0.24646239 0.012917835 -0.10727789 -0.14129007 0.17701593 0.60333115 -0.6118317 -0.17502761 0.14252914 -0.598795 0.03720154 -0.3267667 -0.12952857 -0.064621806 -0.20664908 -0.47773188 -0.064903855 0.13980044 0.23090208 0.11529376 -0.65100425 0.23712245 0.2586406 0.52115977 -0.13431297 0.63526267 -0.33174872 -0.26917076 -0.44009423 -0.16342399 -0.16884615 -0.6186797
falda -0.68872947 1.1792899 -0.10335308 0.19699505 -0.3397334 0.12294005 0.27899593 0.36166704 0.11051298 0.012588199 -0.50735074 -0.431973 0.11778337 -0.09595408 0.43640262 0.06661243 0.28292805 -0.2541711 0.16434447 0.11817247 0.013283084 0.07129046 0.036521245 0.102481656 0.32541153 -0.39557967 0.34103355 -0.30940622 -0.29503655 -0.49726546 0.09388739 0.51688266 -0.35089365 -0.5395589 0.19706419 0.3226714 0.0023025929 0.38749766 0.19445397 -0.11733776 0.14495724 0.1313098 -0.92886347 0.31611866 0.13518265 0.15965326 0.3123933 -0.22300966 -0.05286374 0.049820773
dientes 0.60784733 0.32231608 -0.21393709 0.0055479105 -0.55139995 0.30369008 0.44503772 0.031368565 0.19766967 0.41718614 0.3892892 -0.9067105 -0.32224658 0.1392008 0.35211015 -0.18592846 -0.16161619 -0.10691184 0.6454307 0.1838534 -0.451168 0.5670101 -0.16501062 -0.1255152 -0.67793065 0.062252738 0.34780347 -0.44088575 0.23448847 0.18460375 0.431387 -0.09743043 -0.33070576 -0.18045233 0.15618554 0.11147216 0.5884942 0.39182353 0.16547605 0.36236447 -0.38067988 0.015017787 -0.19182405 0.1765271 0.49050596 -0.12501338 -0.010431719 -0.34876257 -0.033329807 -0.5183991
sol 0.09895562 0.5941866 0.10953645 -0.057155423 0.16879267 0.6129996 0.3511922 -0.13503456 0.13600963 0.31342766 -0.057512645 -0.20725761 0.08403078 0.22405386 0.1844668 -0.21132858 -0.5971564 -0.72802436 0.03532021 0.2507628 0.14959766 -0.21382865 0.14309856 -0.1509455 -0.37434253 -0.23975854 0.16662556 -0.13591261 -0.16605929 -0.68344545 -0.15514843 -0.6588953 -0.13049956 0.16179699 0.122580096 0.47277457 0.41043028 0.12546968 -0.50215364 -0.4986318 0.67459697 -0.67790085 0.18218498 0.28999215 0.21690346 0.17358182 -0.1261876 -0.7382613 0.20615202 0.06857917
chile 0.43557876 0.07986069 0.16079748 0.23112363 0.40460497 0.122194044 0.14525738 -0.30919337 0.5217316 0.5908816 0.4909677 -0.09435985 0.20682402 0.26790234 0.16529393 0.0623086 0.12432742 -0.21563405 -0.22619002 0.68938863 -0.009975089 -0.1458302 0.007048181 -0.047533073 -0.42933756 0.3235633 0.40515953 -0.24874079 -0.2030747 0.00984414 0.18435082 -0.018333353 -0.4261674 -0.60023236 0.7256696 0.24526326 0.6048797 0.60514116 -0.29198447 -0.034967154 -0.13873366 -0.17071712 0.069811955 -0.2280183 0.58028936 -0.5479824 -0.82540447 -0.49402824 -0.80503076 0.0024696952
plastilina -0.4215663 0.31708926 0.6546619 0.5516071 -0.07712087 0.21592729 0.3430118 -0.3326069 -0.1186183 0.8160501 -0.42916095 0.033444673 -0.63669044 -0.5645882 0.3912328 0.11517463 -0.22403385 -0.5930123 -0.052877035 0.29724762 0.44673127 0.09232693 -0.25496083 0.87651765 -0.14020607 -0.56911236 -0.09735381 0.030647326 -0.13942304 0.28670692 0.15208103 -0.0011064231 0.25214297 0.043387726 0.2508284 0.07647526 0.4141437 0.45707643 -0.08391673 -0.16614094 -0.3492184 0.26920873 0.08094223 0.4242403 0.3139742 0.41938913 -0.30433092 0.3080977 0.2026153 -0.5033057
lentes -0.31308132 0.28137848 0.014679109 0.094211236 0.12861757 -0.210264 0.35987136 0.14519121 0.52312785 0.45596159 -0.14440705 -0.69976544 0.013065454 0.58263195 0.9201604 -0.28252032 -0.52352047 -0.19926082 0.87579405 0.0086330315 0.088772915 0.14892878 0.0899107 -0.15297247 -0.21886815 -0.24584001 0.16779482 -0.48665988 0.5306811 -0.1716919 0.25010002 -0.16911535 0.15036955 -0.04367275 0.3630895 0.5707382 0.6233171 0.26571447 0.14985387 -0.7007181 0.053481456 -0.22818719 0.26800638 -0.19508024 0.12552217 0.5048899 -0.5065671 -0.22444895 0.18828583 -0.8066311
taco 0.3442057 -0.065939195 0.1433539 -0.0024775325 0.053187132 0.2956229 0.029865671 -0.024582429 0.13465749 0.45208502 0.28113246 0.16991183 -0.06970981 -0.5306861 0.4982868 -0.18515728 -0.041348338 -0.3312481 -0.037399568 0.11972515 -0.30191037 -0.3032746 -0.14404343 0.94292593 -0.0036885273 0.19237328 0.15914686 -0.30062515 0.2971318 -0.6649257 0.09063708 0.21386991 0.22625166 -0.15542175 0.5968294 0.69270515 0.881016 0.86524534 -0.64620125 0.23324442 0.008268731 -0.026146842 0.12270676 0.10786788 -0.070341334 -0.5670492 -0.022217758 -0.4000356 -0.6505383 -0.14276826
foca 0.2816054 0.30314362 -0.3978633 0.2326803 -0.3081016 0.1963339 0.8515431 0.6505336 -0.19430907 0.57418215 -0.20576017 0.014731867 -0.3948515 -0.71879 0.48321024 0.48362166 -0.5128204 -0.019122101 -0.4109629 0.05982527 -0.11804223 0.13519852 0.23791425 -0.05364263 -0.4671485 -0.40449056 -0.22591652 0.27010173 -0.27241606 -0.3137488 -0.0897889 0.13362892 0.24688734 -0.2963196 0.39400193 0.14388457 0.3838792 0.1585319 -0.34926355 -0.16188689 -0.2871333 0.21299137 -0.4336133 -0.06425188 0.44892448 0.27889535 0.20307028 -0.18903124 -0.3614016 0.10359281
helado 0.17000505 0.68312126 -0.018219465 0.25619605 0.053319976 -0.13274273 0.12455214 -0.1951236 -0.2926752 -0.23150863 -0.14439727 -0.59902394 -0.099182636 -0.1684561 -0.084375754 0.55468684 -0.49410275 -0.48305815 0.18881087 0.4268778 -0.50540084 -0.32571253 -0.31416944 0.47656727 -0.40795535 -0.019127384 0.31677654 -0.43344292 -0.39899415 -0.4631303 0.2078402 0.07109915 0.06275473 -0.23334424 0.6546961 0.11670551 0.5578957 -0.027574506 -0.7623691 -0.25692675 -0.12594675 -0.11220009 -0.10495311 0.44838288 -0.018804846 -0.22094941 -0.10596213 -0.22636457 -0.22255456 -0.3884798
ratón 0.19925937 -0.48574114 -0.05983808 -0.114428625 -0.06482416 0.180162 0.8398192 -0.34802595 0.16404667 0.23509124 0.27561906 -0.7968575 -0.5715499 -0.05354532 0.67998 0.033037167 -0.765009 -0.006398067 -0.078979895 0.5326651 -0.457308 -0.1433111 -0.18113369 -0.43353653 0.274796 -0.16146754 -0.17141156 -0.06278001 -0.15823053 -0.11885935 0.3376967 0.14565873 -0.044698335 0.09786483 -0.29221192 0.14096387 0.30362555 0.09543908 -0.0014023865 0.16713826 -0.0935312 -0.11266508 -0.506305 0.31065017 0.2373197 -0.11300498 0.19973935 -0.4537954 -0.77051926 -0.5648573
cocina -0.02331426 0.5145532 0.5151654 0.050708335 -0.15692036 -0.09370936 -0.05130301 -0.16920418 0.2771257 0.3131118 0.35823834 -0.2879165 0.026713371 -0.115394704 0.66044647 -0.065722 -0.3690268 -0.24573895 -0.0539998 -0.08145298 -0.35767308 0.36939213 -0.016739627 0.49195415 -0.30609193 0.2702295 -0.049230978 -0.13341811 -0.48630217 -0.5401158 0.37528104 -0.122701585 0.18559511 -0.70721394 0.5579029 -0.2624247 0.029081302 0.7203305 0.057738975 -0.35157558 0.014401811 0.27763706 0.18966529 0.18716495 0.08506835 -0.15577833 0.36843878 -0.32438663 -0.27481154 -0.053349663
queso 0.22319938 0.13476802 0.2679176 0.344284 0.11742532 -0.11842792 -0.091352165 -0.22272913 -0.082620956 0.3130277 0.23312704 -0.37984282 0.103513695 0.021051144 0.4416002 -0.039919715 -0.5975681 -0.34651482 -0.70741415 0.74481946 -0.52616405 -0.26424724 0.11007207 0.70957077 -0.25014973 -0.39655086 -0.167246 -0.4519958 0.586408 -0.3350072 0.30690938 -0.23528269 0.31806105 -0.039616738 0.18009834 0.036230426 0.63104355 0.60105544 -0.2597725 0.09982825 -0.026467752 -0.70003307 -0.11553419 0.40380666 0.10864842 -0.4997205 0.26581106 -0.69490373 -0.40301552 -0.34102526
calabaza 0.26116666 0.3549679 0.19721052 0.22119392 -0.2951782 -0.28810337 0.14561528 -0.4641183 -0.02422024 -0.4173049 -0.08094089 -0.37294662 -0.047755517 -0.3293382 -0.040435124 -0.4466937 -0.27549997 0.014922504 -0.50004524 0.49189898 0.46004665 -0.1436641 0.09079707 0.113668874 -0.23713312 -0.37466598 -0.11481566 -0.63438255 -0.012636041 -0.2225755 0.32068667 0.21950616 0.33874255 0.07709043 0.36185837 0.1523806 0.82798374 1.0322274 -0.33131173 0.25866917 -0.006765844 0.11396006 -0.72691756 0.078461245 0.2725926 -0.32935777 -0.33619726 -0.49770653 -0.16061653 -0.13764027
fresa -0.09903338 0.45289063 0.44438776 0.16940522 -0.23516479 -0.012935273 0.2397137 0.05472172 0.23788314 -0.44752768 -0.48565862 -0.49365714 0.24967325 0.20183462 -0.09912206 0.2358947 -0.42477688 -0.33947712 -0.06920983 0.3120867 -0.036336258 -0.38198912 0.02512995 0.41504636 -0.18082163 -0.31247535 0.43171936 -0.26498726 -0.4035566 0.5210576 0.3860845 -0.040393725 -0.4788224 -0.1259993 0.662885 0.33748835 0.5029647 0.22404489 -0.7141661 -0.30278277 -0.16979375 0.17407379 -0.39108634 -0.15054354 0.3031957 -0.65147436 0.11629958 -0.38129744 -0.18122874 -0.21382684
chocolate -0.13734044 0.2858849 0.18992089 0.01207677 -0.22071464 -0.19483407 0.03933512 0.23135056 -0.23624991 -0.19151399 -0.3773556 -0.7706888 0.37397334 -0.13506028 0.15405361 0.36574328 -0.538886 -0.033680577 -0.04109738 -0.045592103 -0.5868422 0.15225597 -0.23455845 0.3489525 -0.70037556 -0.18170154 0.39056313 -0.21978842 0.17387867 0.053914484 0.3874187 0.10530303 0.15649278 -0.28836483 0.87132907 0.62285763 0.37187114 0.40743846 -0.41755605 -0.014675355 -0.1857369 -0.113558695 0.24397932 -0.0031073133 0.5171098 -0.17572327 -0.25890124 -0.42867047 -0.34405652 0.054703988
elote 0.39963815 0.20774563 -0.18160455 0.3846657 0.044454508 -0.46682638 0.018754266 -0.861405 -0.35743693 0.092337325 0.23187913 -0.119856305 -0.28585997 -0.13124196 0.53990346 -0.22172694 -0.3789449 -0.39027137 -0.27601495 0.5914556 0.27076006 0.0006180183 -0.06669141 0.33452553 -0.46713352 -0.109512195 0.4244315 -0.45675397 0.013928318 -0.0070289313 0.6352965 -0.04719218 -0.041490328 -0.047780752 0.241533 -0.06891659 0.6294902 0.2895449 -0.2595994 -0.056758445 0.04220626 -0.26257825 -0.21197352 0.18606225 0.67862123 -0.34711918 -0.2749777 -0.2671033 -0.61283016 -0.44498816
camisa -0.70252776 0.5177787 -0.42876917 0.18659087 0.44463778 0.34175998 0.14268205 0.2331669 0.15206529 0.35795233 -0.42425248 -1.1106765 -0.60510486 -0.31712735 0.31425816 -0.024069507 -0.28349838 -0.23302245 -0.13348705 0.4789428 -0.048206422 0.03777041 0.030851573 0.08037039 -0.28799888 -0.11498474 0.1483558 -0.52896714 -0.3493934 -0.53574836 -0.1740634 0.48629758 -0.48006427 -0.6766909 0.043163914 -0.2451846 0.5017508 0.35366777 0.34323144 0.07481333 0.1376669 -0.2454654 -0.19322844 0.040164307 0.036905613 -0.22677006 0.2135948 -0.08281378 -0.120850414 0.0226042
venado 0.1836745 0.22204664 0.07457853 0.10154184 -0.6526993 0.8339076 0.7987568 0.5855473 -0.3622884 0.2165158 -0.2385537 0.22043647 -0.15199292 0.06359316 0.45021766 0.18834959 -0.009763187 -0.21426278 0.10675288 0.84564054 0.12173476 -0.42625147 -0.22746572 0.2737592 0.2947606 0.4385527 -0.14299357 -0.033341978 -0.007193469 -0.2379004 0.24466586 0.10991593 0.089792475 -0.07460161 -0.08729049 0.22246818 0.7692859 0.17955357 -0.050144542 0.22020552 0.16082726 0.00043024457 -0.3894611 0.15564677 0.1454879 -0.085478574 0.65499 -0.46949944 -0.5766601 -0.32255444
guantes -0.003310328 0.20424843 0.61164856 0.41905352 0.20982787 -0.20470418 0.69646984 0.20360978 -0.07294241 -0.20509154 -0.23844512 -0.041065313 -0.40649986 -0.0109201055 0.6183642 0.22607072 -0.10329199 -0.19755122 0.5179746 0.537049 -0.3933261 0.31528738 -0.49494088 0.27256945 -0.58533275 0.19862418 0.19936574 -0.44735384 -0.054807324 -0.41199824 -0.22086585 0.11412928 -0.26069608 -0.2406473 -0.47496867 0.44834667 0.47691968 0.13210626 0.4378277 -0.117257304 0.23592757 -0.3226528 -0.25676498 0.024681196 0.28332293 -0.0085579585 0.26807374 -0.5897674 0.6658142 -0.4311782
barco 0.2245522 0.03166226 -0.4735632 0.71770084 -0.64774156 0.69087964 0.96753854 -0.15802734 -0.099092595 0.4844207 -0.15242845 -0.025375983 0.12445318 -0.8322901 0.14977947 0.09784999 -0.5234974 -0.1270805 0.2454315 0.25163713 -0.055550307 -0.36128908 -0.16590284 -0.31675398 0.3778027 -0.7513247 0.41350293 0.38657874 -0.13377383 -0.64596355 0.12163527 -0.3057416 0.27879465 -0.31428266 0.88348395 0.09637398 0.17120661 -0.4853104 0.15540384 -0.25300276 0.4155945 -0.22303422 -0.5435631 0.07777186 0.80361027 -0.18838383 0.039117306 -0.3251786 -0.025768284 -0.3222615
jugo 0.22355875 0.052837275 0.31716853 0.20289302 0.26144245 0.18971518 0.22051966 -0.39077505 0.10893598 0.19529614 -0.4836271 -0.25107053 -0.33672053 -0.371548 0.43339232 0.069833115 -0.2031615 -0.33040568 0.21099485 0.2990543 -0.108945504 -0.5556247 -0.117341876 0.4855333 -0.7508892 0.2866062 0.44991672 -0.35220647 -0.01886897 0.25601903 0.03164855 -0.1726901 -0.227731 -0.22774403 1.0475184 0.28979772 0.014958228 0.6801579 -0.40703353 -0.6065809 -0.27857023 -0.13837217 -0.4242175 -0.24955127 -0.038149368 -0.38617596 0.39289224 -0.32884532 -0.15595272 -0.35482404
pies 0.03642653 0.46653643 -0.2954345 -0.3889353 0.0556963 -0.29468983 0.5875491 -0.14390877 -0.07571636 0.07639794 0.006064122 -0.14690013 0.003973228 0.11309882 1.0699085 -0.1427475 -0.059923705 -0.2839247 0.31901315 0.060061272 -0.15562575 0.32030714 -0.21658799 -0.3490969 -0.3043266 -0.11731147 0.5000374 0.2921917 0.59637034 -0.34432387 -0.090040974 0.9354201 -0.5150869 -0.35181615 0.3829552 0.37732595 0.2959332 0.61538476 -0.06672531 0.07894871 0.4200093 0.2382656 -0.46820945 0.111774676 0.39548966 0.18039927 0.08098399 -0.12045364 0.24583502 -0.5685562
vela -0.07449655 0.65998113 0.069840245 0.34200487 -0.15200736 0.37686062 0.27456003 0.13868767 -0.5055654 0.6004479 -0.068145745 -0.5084364 0.4055231 -0.71448696 0.009105874 0.19499987 -0.42237327 -0.29438865 0.055880066 0.17292404 0.0666599 0.41840273 -0.324295 0.2881285 0.36925346 0.11987786 0.74307823 -0.118350185 -0.39621985 -0.27225158 0.2677084 -0.43890157 0.21381827 -0.093278766 0.28009683 0.53766024 0.42748755 -0.18988506 0.09462802 -0.23438595 0.6425689 -0.23961864 0.36004952 -0.03273733 0.55418044 0.2589227 0.09863654 -1.2171826 -0.37040606 0.122500814
burbuja -0.18961829 0.19353181 0.46884948 0.1585832 -0.11340217 0.4862812 0.31176162 -0.16980875 -0.72284603 0.45103753 0.27477127 -0.5949309 -0.2528882 -0.5097714 0.58034796 -0.108776614 0.5135556 -0.17943545 -0.006913599 0.3224172 0.18030643 -0.32340047 -0.16416523 0.18884374 -0.13004518 -0.4466404 -0.34425136 0.07515263 -0.33727252 -0.7727218 -0.039248437 0.37402344 -0.23518212 0.22433881 0.79456043 -0.37253812 0.11343057 0.47599322 -0.1946711 -0.5515571 0.0769466 0.08379192 -0.16925147 -0.2043149 0.10629705 0.34333444 -0.25299323 -0.26395375 0.056594446 -0.121893466
comer 0.1971804 0.071628444 0.46468896 -0.08913346 -0.3000717 -0.1201038 0.15856108 0.027124459 0.10406994 0.090111725 0.039458916 -0.15551032 -0.03636557 -0.20248021 0.4310459 0.073372684 -0.13359109 -0.056278624 -0.24209422 0.15033668 -0.14884272 -0.14343858 0.019951176 0.26175955 -0.40951923 0.10508054 0.25598997 -0.55105084 0.015143814 -0.09675187 0.55980885 0.22134985 0.07978973 -0.05445555 0.31143057 -0.023812423 0.37401128 0.5343937 -0.34671667 -0.020943196 -0.28395772 0.10092852 -0.14903007 0.35343117 0.50858015 -0.37208518 0.15933107 -0.44737035 -0.24882041 -0.33838788
tienda 0.14703502 0.11569895 -0.3025333 -0.15675126 0.1612316 -0.16840704 0.53832394 -0.28594363 0.034921445 0.28338695 -0.029390985 -0.32820648 0.8652124 -0.081010245 0.71277416 0.30786526 -0.13026224 -0.61716515 0.10783261 0.37146837 0.28603247 -0.35338077 0.72378236 0.790874 -0.5884348 0.36956337 0.24502625 -0.32919002 -0.32069677 -0.55418366 -0.12355124 0.59101534 -0.015352401 0.46348178 0.2729962 0.58373535 0.21186565 0.710645 0.39699027 0.061683197 0.1451383 0.24346757 0.096862495 0.23904659 0.48240072 -0.47986123 0.028336681 -0.060412444 0.25475278 -0.037688684
araña 0.041505918 0.18028696 -0.18839179 -0.114633426 0.035571896 0.32220563 0.7131468 -0.46324486 0.5899096 0.36655995 -0.51890254 -0.11478518 -0.429305 0.113226876 0.7398515 0.08363935 -0.37752837 -0.6014943 -0.11544048 0.6708577 -0.42623675 0.074743316 -0.18541883 -0.37230003 -0.06239352 -0.0009809989 -0.43238273 -0.29960898 -0.20663002 0.59918773 0.16685602 0.42072687 0.012170425 0.4277833 0.2310089 0.56035185 0.49502954 0.42073968 -0.45430514 0.09685317 -0.18361317 0.49798775 -0.44318238 -0.08509969 0.16868137 0.27907923 -0.37009123 -0.36108428 -0.17428808 0.29810962
luna 0.13447422 0.55857986 -0.14409856 0.27172902 -0.35294014 0.36541638 0.1445647 0.05665648 0.12231637 0.69622517 0.28924674 -0.3226835 0.39403847 -0.098422974 0.5219697 0.232098 -0.43657598 -0.6358001 -0.04332672 0.2554973 0.51736844 -0.13186297 0.024918444 -0.26141438 -0.12225608 -0.8621657 -0.08449283 -0.26393038 -0.31168392 -0.13956736 -0.021897573 -0.1212009 0.49327874 0.2622876 0.028267099 0.4229311 -0.12314158 0.34856158 -0.10178953 -0.3315154 0.12047191 -0.44369003 -0.028000934 0.46128517 -0.14271295 0.37870365 0.1828829 -0.84241295 -0.39786315 -0.08099599
naranja -0.049219206 -0.07854646 0.63818127 0.0250227 -0.15662159 0.19010575 0.170285 -0.2141825 0.07139164 0.25011408 -0.54208493 -0.082982905 0.13109967 0.0027166961 -0.18692496 -0.0799558 -0.29417482 -0.17373867 -0.21519738 0.31313476 -0.046720512 -0.50664496 0.11329723 -0.09127654 -0.8309643 -0.03775439 0.4429037 -0.71749467 -0.41538575 -0.104891166 -0.20374705 0.15815547 0.04641229 -0.39703003 0.30732173 -0.06002981 0.62003154 0.574049 -0.039908685 -0.37722155 -0.34760478 0.023833267 -0.61525625 -0.5398355 0.3983809 -0.45200825 0.04935767 -0.5072141 -0.28921443 -0.5117637
pantalón -0.7489744 0.50138146 -0.081109054 0.23948985 0.45366824 -0.075531445 0.78536206 0.07009294 0.119444616 0.19208173 -0.08092693 -0.5217454 -0.2576749 -0.06399783 0.25469327 0.12974451 -0.15462442 -0.27064288 -0.041674115 0.38562027 0.25505847 0.41945207 0.09679922 0.014443754 -0.16077377 -0.26772565 0.5092902 -0.23714533 -0.22206108 -0.5789549 0.51843977 0.47899163 -0.51463497 -0.12394114 0.4474457 0.054224674 0.036089864 0.18954626 0.26308262 0.029465482 0.13703622 -0.0542785 -0.31315598 0.7878372 -0.4495993 -0.44943324 0.23967886 -0.23444234 -0.108583935 -0.07266889
torta 0.08162686 0.24741596 0.2780806 0.49170935 0.28449097 -0.2032238 0.13708329 -0.12235944 -0.04478801 0.3201058 0.116121076 0.69326764 0.0044565084 -0.30239376 0.3945738 0.36065108 -0.36448967 -0.1662608 -0.35889086 0.28607866 0.17831391 0.34714973 0.35779554 0.56991345 -0.18699226 -0.28464845 0.40010482 -0.27344966 0.15377793 -0.38033533 0.18501261 0.06450864 0.26813594 0.18247984 0.65272653 0.6205063 0.6550998 0.9386951 -0.24952418 0.39135665 0.40012032 -0.15688646 -0.15596169 0.29652572 0.21087177 -0.63571507 0.000493358 -0.25824562 -0.23956092 -0.3774629
globo -0.5340647 -0.00060316053 -0.15191947 -0.16840576 -0.025510812 0.30099478 0.41391382 0.022701576 -0.4961344 0.56587476 -0.16658798 -0.039664183 0.12429941 -0.4605944 0.3289823 0.33993042 0.20843536 -0.49144322 0.13456324 0.9372774 0.3488098 -0.2746423 -0.4025075 0.17469408 -0.40283832 -0.23751357 -0.37330195 -0.022372322 0.0141664 -0.5798775 -0.24262819 0.37167338 -0.146795 0.15596776 0.49380174 -0.20486127 0.21670824 -0.15738732 0.04768655 -0.28102276 0.110136405 0.22718106 -0.5662408 -0.06568795 0.47410426 -0.5753029 -0.5469146 -0.39670274 0.2403608 -0.4998527
mariposa -0.38546917 0.42275274 0.28846937 0.093336366 -0.75594544 0.5252687 0.68399036 -0.123194166 0.09016857 -0.038421128 -0.18131003 -0.20098558 -0.17506376 -0.29963848 0.57778114 -0.1939577 0.086545035 -0.29307854 0.37522262 0.7004204 0.42412704 -0.3986877 0.69895816 -0.048713226 -0.23955925 -0.2898218 -0.571163 -0.44980454 -0.08605264 0.12591428 0.39505467 -0.12882103 0.13900617 0.06645745 0.11565665 -0.08601979 -0.04258879 0.67248183 -0.5466522 -0.15926006 0.12709063 -0.22588804 -0.19212578 0.43905246 0.24639337 0.30320704 -0.37053528 -0.37461552 -0.110355414 0.20442075
mantequilla -0.08596898 0.626544 0.12256612 0.484505 -0.28174025 -0.32829908 -0.1307957 -0.01243273 0.1912995 0.5513558 0.02249475 -0.14745937 -0.09950273 -0.49539635 -0.09258392 0.49255836 -0.25187632 -0.2760397 -0.47054443 0.65325695 -0.3703678 0.12922853 0.5600453 0.11285841 -0.6503685 -0.23153922 0.06331251 0.124018416 0.13350032 -0.10710591 -0.19838122 -0.033677816 0.3300641 -0.3490538 0.64063907 -0.193546 0.3886174 0.91294324 0.065786816 0.26992643 -0.12148418 -0.061861686 0.15241899 0.1838222 0.35624817 -0.343147 0.30050033 -0.863704 -0.33275974 -0.40150484
ganso 0.0817064 0.0817924 0.35361335 0.6186144 0.16810091 -0.11346419 0.70065427 0.7798505 0.31263602 -0.17361286 -0.3306247 -0.042341527 0.2577365 0.025017207 0.65195024 0.24251616 -0.23964699 0.16946168 -0.09674528 0.1385032 0.16869898 -0.6074473 0.121020325 -0.27295563 -0.4216913 -0.20226325 -0.3772645 -0.50662965 0.26657942 -0.07061684 0.6216607 0.032398567 0.011450475 -0.15362443 0.61144674 -0.03566374 0.3349205 0.19576775 0.16001908 -0.07354835 -0.040133007 0.0736676 0.27475232 0.21815866 0.4552887 0.08281305 -0.46230054 -0.45692462 -0.038593967 -0.13644673
cochino -0.15740165 0.02205844 0.3174739 -0.10467392 0.38844252 0.6446343 0.09795576 -0.1811307 0.6286547 0.13574384 -0.0620549 -0.30185425 -0.009643751 -0.52025765 0.92379016 0.49345565 -0.25806352 -0.041568507 -0.4991549 0.32883605 -0.21768911 -0.8310918 -0.15797985 -0.10342949 0.18959618 -0.30441973 0.23219436 -0.13006595 0.31905985 -0.59013397 0.48183045 0.25781316 0.033092268 -0.18111044 -0.029670443 0.10509815 0.5385877 0.32180145 -0.24248295 0.72948027 -0.29329696 -0.039774965 0.09834551 0.19895096 0.5611565 0.030612314 0.18239783 -0.4873317 0.017117035 0.12773758
timbre -0.1772353 -0.3315346 0.181888 0.24934287 -0.23082122 -0.18845399 0.9844466 0.50081193 0.3555394 0.19731233 0.054495253 -0.83593065 -0.11296856 0.08895224 0.31827947 -0.07626636 -0.18348478 0.14866783 0.089407496 0.7728481 0.28199732 0.72749776 0.41789928 0.50483626 0.3824405 -0.11742896 -0.38361943 -0.2610668 -0.10082729 -0.18036547 -0.06339537 -0.47831023 -0.25179768 -0.26083213 0.6833544 0.67446965 0.38998115 -0.0011011743 -0.14886016 -0.2683519 0.5705514 0.7464843 -0.24673815 -0.18757541 0.638612 0.36305547 0.027000459 -0.31329936 -0.14607245 0.21173587
collar -0.39820212 0.46904618 -0.7082202 0.31137362 -0.51672256 0.47081575 0.39360052 0.31439707 0.25746045 0.3815193 -0.13952377 -0.5131936 1.0069627 0.15651652 0.4106507 -0.04451366 -0.020067265 0.1185548 0.3637655 0.8182081 0.059447393 -0.014918509 -0.51904035 -0.006835573 0.004200082 -0.49521834 0.3834869 -0.40214923 -0.1548976 0.13639195 0.07122177 0.014931844 -0.21473797 -0.06003451 0.117185935 0.1621356 0.3512559 0.44632897 0.42385465 -0.38305062 0.4950649 0.015938424 -0.34973875 0.16904555 -0.031827416 -0.27748746 -0.362005 -0.09476086 0.22329143 -0.40576798
vaso -0.10951179 0.21829484 -0.12305571 -0.12844187 0.2985245 0.3527707 0.32512057 -0.3653298 0.39438474 0.21098112 -0.11069615 -0.52857417 -0.047638606 -0.37881538 0.60127705 -0.11228134 0.049801134 0.04106828 -0.25037435 0.37403467 -0.34225672 0.106346585 -0.43292126 0.32228592 -0.22659543 0.15588427 0.06326637 -0.24430029 -0.19535066 -0.68069464 0.31535518 -0.2196757 -0.011481939 -0.2553751 0.9073413 0.7420771 -0.14325857 0.28962037 -0.12515113 -0.6060002 -0.26206905 0.46597755 0.27793625 -0.32412586 -0.21469004 -0.25063962 0.59401834 -0.5435972 0.068893425 -0.5597065
tambor -0.35396132 -0.081016235 0.2883916 0.22084697 0.46546885 -0.111633584 0.5517005 0.7509692 -0.33703095 0.6530546 -0.31526387 -0.40576303 0.4512994 0.1925978 0.5199321 -0.21556683 -0.09950552 -0.031217469 -0.3857718 0.39683384 0.35249922 -0.23375165 -0.4053073 0.38928652 0.35160157 -0.37841547 -0.07583396 0.15219432 -0.25076017 -0.31862324 -0.005936321 -0.1971802 -0.69204026 -0.5480655 0.5583197 0.43693686 0.2636154 0.15747805 0.3049193 0.016703619 -0.034035686 0.49732378 -0.19231242 0.3898066 0.86122024 0.30010417 0.48006397 -0.28959447 -0.5096701 -0.36689496
olla 0.101353295 0.30398008 0.14152102 0.2031238 0.13843264 -0.12539095 0.11366462 -0.3767506 -0.062557094 0.109204374 -0.33655524 -0.32923076 0.012923586 0.06512526 0.8834635 -0.38097495 0.12545136 -0.05899167 -0.24956542 0.22114131 -0.38973093 0.3523928 -0.19637871 0.042555492 -0.41346475 0.07563857 0.35939983 0.3516177 -0.9241647 -0.47297752 0.38545564 -0.27741113 0.10719171 -0.17664924 0.47827148 -0.1116115 0.35731605 0.569154 -0.06455281 -0.6199809 0.24055396 0.6676717 0.14105652 0.5119785 0.013164354 -0.26731887 -0.13102865 -0.6154386 -0.37293115 0.02072719
río 0.36518595 0.035813287 -0.41972932 0.5727568 -0.1624241 0.775845 0.76736355 -0.16021544 0.062559344 0.6522692 0.23432228 -0.3448997 0.03586812 -0.053326305 0.019466441 0.72598076 -0.22402267 -0.21018842 -0.2821347 0.16751371 0.6016997 -0.26891243 -0.11184253 -0.49777073 0.05584901 -0.15401724 -0.09816289 0.4782795 -0.1366723 -0.17756121 0.7042161 -0.16022839 -0.21079011 -0.35457966 0.5909834 0.3693612 0.6363482 0.2463378 0.438101 -0.4859048 0.38423002 0.19209965 -0.27906704 0.31091094 0.25869665 0.0630791 0.2188485 -0.14778234 -0.095528744 -0.1705312
juguete -0.24107094 0.20274644 0.22563823 0.5221522 -0.21150662 -0.07500217 0.881884 0.45887637 -0.14214364 0.3495538 -0.5304674 -0.05196486 0.23130505 -0.047030743 0.53046316 0.21601616 -0.23977743 -0.54333824 0.3130471 0.26056182 0.17744222 -0.27214715 -0.68319905 0.271206 -0.12295149 -0.5152658 -0.37522143 0.2690524 -0.1006674 -0.48173675 0.24456196 -0.10062188 0.3013904 -0.2457473 0.29412737 -0.058104936 -0.47673088 0.058960896 -0.025538465 0.32483757 -0.08575803 0.31588584 -0.22981243 -0.07418837 0.61605865 0.03797787 -0.38679677 -0.075940564 -0.057258204 -0.65996116
muñeca -0.26033455 0.5374426 -0.10842437 0.11711217 0.27857953 0.26086318 0.38438472 0.018008783 0.017254632 0.19267698 -0.057440005 -0.2875416 -0.093514346 -0.38242686 0.5315408 0.18236542 -0.06908862 -0.40796417 0.48289776 0.55185926 -0.5435738 0.296737 -0.34319362 0.1442796 0.36374903 -0.5700814 -0.4629102 -0.024602989 -0.38191387 -0.008118605 0.29728383 0.2888563 -0.11262788 -0.16401115 -0.046582174 -0.3249553 0.24762672 1.0108277 -0.1797072 -0.04670891 -0.008234284 0.27139932 -0.3992568 -0.5829108 0.16467036 0.13732961 -0.7032549 -0.21016736 0.3303878 -0.4036945
ojos 0.15652314 0.4415515 -0.32745785 -0.3625389 -0.41869402 -0.5605301 0.8329237 0.19809732 0.5783546 0.5627864 -0.44120958 -0.33982962 -0.34549958 0.26206937 0.6903079 -0.061451174 0.0044254344 -0.4821668 0.49623638 0.43637192 0.033522584 0.5688589 -0.5099123 -0.12499672 -0.39825815 -0.2552709 0.24764271 -0.52687997 0.6723876 0.019602388 -0.003470835 0.21467647 0.17788607 -0.42848715 0.24719933 0.41956723 0.12573451 0.17660303 0.08660846 -0.44090593 -0.076309636 -0.002227613 0.19928549 -0.18022907 0.34488598 -0.08293579 0.079354845 -0.3623058 -0.21346864 -0.5002258
techo -0.54779357 0.017152866 0.3251349 0.022445481 -0.002474243 0.28704074 0.49116078 -0.41838473 0.32338494 0.32664979 -0.09640659 -0.24228367 -0.041569907 0.20081995 -0.040558174 0.09155558 -0.48155433 -0.645165 0.07682875 0.6140433 0.11212931 0.33280835 -0.20463258 0.20262954 -0.5154051 -0.07967572 -0.2600972 0.11600734 -0.12197583 -0.28477684 -0.012314306 0.5910977 0.32389498 -0.26183558 0.18885379 0.9391138 0.22310852 -0.044759825 -0.26563323 -0.3400708 0.43165758 -0.20352577 0.17202754 0.30399066 0.3476135 0.3279924 -0.2577823 -0.5019392 0.4556234 0.5109916
hielo 0.22343977 0.60473955 -0.40668455 0.09695549 0.27443823 0.401357 0.5580073 0.15490314 -0.14614639 0.1308725 -0.2961934 -0.39519045 0.26157218 0.24653493 0.0951017 0.2480348 -0.31245568 0.24461995 -0.13653253 0.35418648 -0.075179435 -0.3808648 -0.053668093 0.31525776 -0.76670563 -0.08007835 -0.3299063 0.0784867 -0.34069946 -0.94907445 0.21566577 -0.06407858 -0.10985707 -0.35290915 0.96865577 0.42070878 -0.25232953 -0.11814913 -0.32899314 -0.35100392 -0.28802985 -0.27009347 0.05289124 0.035559423 0.46854037 0.24209285 0.048688922 -0.7741591 -0.1826487 -0.30323187
hamburguesa 0.5031253 -0.032402206 0.5066934 -0.15191618 0.40336066 0.232678 0.138452 0.08134308 0.3257379 0.015712742 0.2291005 -0.2203467 -0.008225578 -0.5374807 0.031055791 0.20181026 -0.24006811 -0.2587074 -0.059900824 0.6589925 -0.51817614 0.123961754 0.5329999 0.60106665 0.096928 -0.3501227 0.5289068 -0.2756385 0.37444785 -0.13671488 0.35219982 0.54833823 0.30264905 0.031265885 0.69799614 0.18632151 0.58532053 0.6688467 -0.2514678 -0.15047376 0.016606793 -0.0606855 0.34515038 0.09468521 0.62885904 -0.5340599 -0.20855089 -0.23276414 -0.53347576 -0.56672865
ejotes 0.23156169 0.1929619 -0.05824848 0.15232357 -0.03835163 -0.62204254 -0.0115066245 -0.41376597 0.067899294 0.34621164 -0.21868998 0.022271076 0.17535071 0.34603417 0.6796769 -0.74647874 -0.033034272 -0.1794635 -0.14849423 0.43171987 0.18996549 0.1152468 -0.17531964 -0.13678713 -0.54317915 -0.20000264 0.63824505 -0.07862987 0.39938664 -0.15673655 0.3421425 -0.019554658 -0.16566716 -0.3125701 0.69127107 -0.12379363 0.62311137 1.0448827 -0.4817312 -0.14009188 0.43257105 0.18688424 -0.042260323 0.16495098 0.40678993 -0.28701568 0.051318035 -0.72922236 -0.26490995 -0.054920156
espejo 0.07450118 -0.006718578 0.23033476 -0.12763238 -0.61681986 0.17023563 0.623842 -0.028702764 0.28873986 0.28299597 -0.21293622 -0.7516844 0.2902576 -0.198874 0.58590347 0.038579043 -0.38584965 -0.64440614 0.7040218 0.50423914 0.09634585 0.5323852 -0.45994538 -0.22336963 -0.0044811377 -0.028115869 -0.09931602 -0.47559506 0.25570434 -0.2627125 0.22031775 -0.024602607 0.32990807 -0.12840591 0.7525162 0.08027756 0.39571926 0.32845345 0.24565692 -0.5641138 -0.2494466 -0.23304313 0.06687214 0.07142589 0.099519305 0.18751916 0.019925559 0.35434812 0.4073889 0.0123476805
muñeco de nieve -0.047879238 0.58602655 -0.3169425 0.35588494 -0.06654899 0.0786993 0.7945733 0.16104467 -0.2632543 0.032707218 -0.13212502 0.08976102 -0.27648428 0.13460603 -0.15902498 0.4230477 0.031364083 -0.042961527 0.085971124 0.33204907 0.0373485 0.01610134 -0.5464845 0.37917745 -0.601708 -0.048707005 0.062406942 -0.17002542 0.015373827 -0.9093712 0.6514646 0.069167264 0.29336902 -0.21423827 0.5776143 0.08626966 0.2814933 0.041709527 -0.17128249 -0.14187633 -0.45397678 0.12994507 -0.08384936 0.025825243 0.34076554 0.42522174 -0.600971 -0.45728523 -0.058929104 -0.6388829
helicóptero -0.596559 -0.35655907 -0.014968434 0.17390116 -0.52709526 0.5303625 0.8671402 -0.28300324 -0.19060616 -0.038107272 -0.14566444 -0.013203027 0.021809367 0.37682298 0.5479224 0.15310518 -0.12833522 -0.019757656 0.54553163 0.5840303 0.5919035 -0.0829927 0.18194474 0.28359902 0.06758065 -0.31139654 -0.35829598 0.24651352 -0.2894894 -0.88115996 0.2086795 0.026486522 0.09780837 -0.185821 0.35200524 -0.08946191 -0.12845407 -0.059614614 -0.0437434 0.034664657 0.10456975 -0.17038953 -0.09717735 0.49814144 0.6622854 -0.057007216 -0.3991958 -0.89860034 -0.33012018 -0.030800864
escalera -0.5988983 0.2536619 0.19253664 -0.31214306 -0.30425346 0.30044088 0.4846882 -0.35761815 0.6428767 -0.16827317 0.018776929 0.13908471 0.30554375 -0.14290921 -0.12309519 -0.45017728 -0.25337222 -0.641968 -0.25066614 0.18021713 0.08159593 0.5146637 0.040599633 0.37363154 -0.3630406 -0.5880886 -0.25377482 -0.0808018 -0.171477 -0.7174504 0.5221328 0.47074038 0.19472529 0.37815726 0.30084595 0.6483089 0.3016703 -0.05657357 -0.029358316 -0.32987475 0.83618206 0.6837126 -0.23476176 -0.009162761 0.6744278 -0.030366063 -0.19473027 -0.2558324 0.30290076 -0.32825726
puerta -0.11480873 0.39871007 0.4242506 -0.115452826 0.15559329 0.010906814 0.78997433 -0.06794156 0.23719986 0.5087638 0.19397987 -0.807358 -0.048584845 -0.17628509 0.2196979 -0.057874113 -0.25668463 -0.14150336 0.01702645 0.51894414 0.06275288 0.00854597 0.13297151 0.58527833 -0.083956316 0.071402565 -0.6052501 -0.4340509 -0.19633582 -0.2789705 -0.22709343 0.52384377 0.41910848 -0.32332858 0.43376687 0.6994209 -0.04480412 0.19832796 0.28914562 -0.35876495 0.6974126 0.47911328 0.13088721 -0.109213494 0.45604375 0.030268107 0.13995448 0.2050515 0.11565206 0.21092266
triciclo -0.20063578 -0.18645813 0.22084224 0.5419798 -0.28427982 0.508652 0.4768192 0.17658722 0.39264575 -0.11138259 -0.15713373 0.0736393 -0.41640422 0.30175477 0.4226916 -0.122409165 0.07001561 -0.85185426 0.08220767 0.66303086 0.3092666 -0.26763546 -0.33724976 0.11384827 0.24886847 -0.5367303 -0.19761316 0.21337141 -0.3739717 -0.32671848 -0.093149565 0.5326119 -0.0206908 -0.41984597 0.6256906 -0.52293545 0.02911385 0.47384834 -0.05256278 0.40195546 0.108910345 -0.007158092 -0.081224576 0.12242217 0.49284884 -0.38900408 -0.2999663 -0.35053962 0.18326522 -0.9903931
cajón 0.15601547 0.29494375 -0.09829991 0.20615478 -0.5448023 0.22789522 0.5892411 0.022248097 0.3859127 0.3037411 -0.26221484 -0.8258891 0.32054004 -0.2779714 0.7021221 -0.35261002 -0.3967203 -0.6867469 -0.025594337 0.01867771 -0.04298434 -0.18328229 -0.22985455 0.44268322 -0.2706064 -0.039935343 0.1457796 -0.025899844 -0.5426522 -0.38108853 -0.10138587 0.55559486 0.24635433 -0.7709744 0.31631434 0.37076154 -0.13776821 -0.024318496 0.5674799 0.12402677 0.2391368 -0.4357769 0.21697891 -0.23635355 -0.2977512 -0.3277235 -0.18084235 -0.016210742 -0.42791933 0.13800144
elefante -0.2125034 -0.15005696 -0.3353588 -0.033773288 0.07620958 0.55771637 0.42735782 0.047938325 0.4086292 0.12709609 0.47758868 -0.31317157 0.12225551 0.02068575 0.5402988 0.28784764 -0.57645977 -0.21249196 -0.08037568 0.21288228 -0.3160127 0.2644617 0.09719241 -0.2569203 -0.38760334 -0.24749354 -0.391979 0.09757551 0.26976225 -0.059244923 -0.10388001 0.7164411 -0.07960028 -0.2635141 0.36651337 -0.21895516 0.7786203 -0.06645983 -0.17035486 -0.27644697 0.33852473 0.06870834 -0.7227181 -0.2334888 0.82538724 -0.05843748 0.43710175 -0.08050197 -0.42090765 -0.34436214
vaca -0.104419045 0.15214087 -0.053662084 -0.017480787 0.027145248 0.41813257 0.32251167 0.29948077 0.481043 0.099328235 0.12633689 -0.043273043 0.18377067 -0.52956647 0.38180992 0.092423625 -0.26366365 -0.14488637 -0.61975944 0.6689907 -0.18669665 0.057846617 0.3539227 0.49161893 -0.35502917 -0.45862466 0.043609213 -0.44371417 0.29089835 -0.51575524 0.12947878 -0.098032564 0.3818905 -0.58409613 -0.15435629 -0.40059528 1.0584277 -0.060529318 -0.312895 0.38778096 0.14291847 0.6574337 0.28356236 0.19128817 0.40871847 0.05672945 0.55872077 -0.81596005 -0.09213442 -0.18249156
martillo -0.3108386 0.16029331 0.18480472 0.4416838 0.007529708 0.09063681 0.55343336 -0.47689933 0.21588214 -0.009335333 -0.004276554 -0.062104896 0.6080632 -0.37290648 0.20409444 -0.37151128 -0.5505003 -0.2617336 -0.32817706 0.4838811 -0.16291675 0.09957544 -0.21647704 0.34962612 -0.27223077 0.16819523 -0.26024258 0.4196725 -1.0390959 0.2191168 0.11896241 0.5727847 -0.5917899 -0.18746473 0.27169272 0.5817883 0.47083363 0.13511875 0.5969132 -0.3366282 0.088707745 -0.2898868 0.28311568 0.375301 0.6450945 0.17246103 0.12770006 -0.014676823 -0.108773574 -0.5910252
payaso -0.32792276 0.1930586 -0.02297853 -0.6298584 0.12372609 0.55457675 0.36408547 -0.059683926 0.24721822 0.31931245 -0.13987523 -0.3372933 -0.2451377 0.023925396 0.5344938 0.2727603 -0.3828231 -0.79466087 0.17690434 0.65619475 -0.4821583 -0.1619411 -0.32427108 0.4608269 0.0021229896 -0.26839465 -0.06837572 -0.29277736 0.13778342 -0.29506943 -0.036292836 0.119397976 -0.56973326 0.41191185 -0.19601142 -0.23173468 0.38107768 0.039294504 -0.17595907 -0.18117347 -0.6894142 -0.0993839 -0.10139525 -0.38329983 0.5597791 -0.14092615 -0.6005565 -0.37004903 -0.3006267 -0.26093212
zanahoria 0.05138073 0.08815147 0.21615088 0.42953452 0.15713958 -0.3292966 0.30562398 -0.5278097 0.32314754 0.3747889 -0.34289303 -0.2811704 -0.1280363 0.17981662 0.02465328 -0.26031858 -0.21989512 -0.35525313 -0.12642731 0.57463354 0.45701805 -0.095155455 -0.06873942 -0.30206951 -0.38386726 0.23945868 0.53779805 -0.35518643 0.29479593 -0.05560786 0.07676073 0.25513652 0.45070904 -0.12811239 0.7115596 0.17800112 0.8709968 0.753773 -0.3521826 0.24610382 -0.22786532 -0.19445157 -0.13744818 -0.21476117 0.33105963 -0.49250343 -0.112107836 -0.24878745 -0.11619874 -0.6493551
botella 0.0088526895 0.0096038 -0.41825202 0.19120069 0.44217038 0.31731248 0.42218155 -0.30130738 0.088868156 -0.081221275 0.28105107 -0.753318 0.00041255873 -0.9898843 0.19209829 0.08753014 -0.10911851 -0.47241306 -0.07805438 0.24869531 0.041356742 -0.13584237 0.1487281 0.20834257 -0.51837677 -0.53398126 0.21793376 -0.2655734 -0.3085244 -0.55613244 -0.10131944 -0.09383222 0.13267745 -0.06465583 0.61543345 0.6705567 0.08845661 0.41521367 0.09342477 -0.78134483 -0.49624676 0.53832597 0.05502347 -0.28697082 -0.4045383 0.0017952592 0.10387274 -0.48338768 0.037104163 -0.5687468
columpio -0.37186858 -0.029368555 0.3511882 0.22974883 -0.22166196 0.6670399 0.57980114 -0.18208572 -0.079041034 -0.13707107 -0.20106852 -0.36884886 -0.0074729742 -0.18124875 0.44696498 0.38533357 0.042817965 -0.5976268 0.18500853 0.8187138 0.24086037 -0.33738807 -0.48095086 -0.0818209 -0.3073919 -0.093980685 -0.72803223 0.13334979 0.12893511 -0.14921165 0.3503002 0.025560344 -0.30629614 0.37629405 0.2573337 0.19864967 0.07546926 -0.07220143 -0.5812175 0.27979293 0.6980479 0.51051134 -0.335706 0.05172547 0.31914458 0.047465663 0.02357519 -0.10808622 -0.12243522 -0.5168177
hospital 0.11622058 0.3545265 0.61634773 -0.41584203 0.016369909 0.33409128 0.8952903 -0.52979785 0.20918056 0.7344224 -0.0769109 -0.06016369 -0.03190155 -0.47743416 0.55651283 -0.10959355 -0.6612848 0.10801777 0.32674584 -0.09768891 -0.09300028 -0.034241773 -0.271096 0.45026267 -0.57211095 -1.0503433 -0.0065387567 -0.46650922 0.21657507 -0.087255925 0.4181393 -0.34464803 -0.7459471 -0.1636748 0.48929283 -0.062395673 0.678205 0.34279636 0.3787611 0.5188554 -0.32876042 0.025597831 0.05177099 -0.2594868 0.15713528 -0.0016730329 -0.14326169 -0.2612797 0.31463888 0.479398
patines -0.078193575 0.54482275 -0.2535436 0.18383586 -0.09189121 0.4023706 0.65553504 0.07074173 -0.21405451 -0.10250439 -0.31935585 0.085155785 -0.38687024 0.32313746 0.6711326 -0.1457255 0.03534016 -0.70721704 0.050674435 0.6388334 -0.074176416 0.0031107794 -0.4124508 0.19925426 -0.65177655 -0.32861322 -0.19047071 0.5852855 0.18738683 -0.074195065 -0.38630378 0.18205695 0.19413391 -0.19880705 0.70384365 0.106424615 -0.34115478 0.41939196 0.18320332 0.5079091 0.34309816 0.18988782 -0.35652232 0.28702134 0.11849544 0.07640615 -0.16760123 -0.45230368 -0.35580042 -0.7848515
refresco 0.043166384 -0.10512066 0.23237956 -0.09381986 0.6955512 0.46483472 0.31213957 -0.4431682 -0.22700888 -0.2295725 0.07277474 -0.7236612 -0.16250353 -0.4655066 0.17659865 0.5671904 -0.18323699 0.0892695 -0.10012544 0.6011583 -0.073649794 -0.19233418 0.23769262 0.43470976 -0.561128 -0.4261696 0.37720233 -0.040208135 -0.21643649 -0.31786704 0.20827048 0.16370587 0.09775365 -0.18054259 0.9768385 0.47387666 0.24736317 -0.030509971 -0.3313436 -0.7299167 -0.2599222 -0.18323077 -0.21500611 -0.23174834 0.07407216 -0.39989924 -0.034559168 -0.41701278 -0.25432622 -0.25614926
paleta 0.005983519 0.87582487 0.422372 0.24632347 0.06010183 0.32891032 -0.05526258 -0.10243349 -0.06126828 -0.08908818 -0.5354495 -0.84178865 -0.20369099 -0.005144979 -0.3369077 0.58181685 -0.1502657 -0.26620945 -0.061368607 -0.0750415 -0.40876463 -0.36714432 -0.16421391 0.11525819 -0.29493618 -0.07301245 0.30187324 -0.30347922 -0.35715857 0.08282026 0.03408011 0.33824798 -0.21097846 -0.32135862 0.5509473 0.26110554 0.29523262 0.40620774 -0.43647802 0.34205267 -0.32968497 -0.010631716 -0.053759594 0.17692822 0.73767924 0.010612187 -0.28334662 -0.587886 -0.4187826 -0.5959924
salchicha 0.06065639 0.3479479 0.6109519 0.2889097 0.5442185 -0.09080721 -0.3291896 0.050672214 0.43897253 0.34287757 -0.19253218 -0.2112202 0.50174546 -0.5274962 0.23431449 0.25477108 -0.38609147 -0.4637831 -0.17284857 0.20248659 -0.27120337 -0.35390756 0.20454212 0.24200204 -0.31773725 -0.14038812 0.48583636 -0.53015625 0.0629972 -0.38789794 0.3451691 0.29414895 0.273256 0.17863266 0.077375576 0.32830447 0.41882163 0.71230286 -0.013119972 0.5198271 0.41045317 -0.11412342 -0.40921685 0.2333045 0.8348193 -0.60241556 0.13401926 -0.04451472 -0.18192971 -0.43107235
cuchara 0.020585999 0.53961635 0.28959858 -0.025955733 -0.23723778 -0.0777825 0.07589539 -0.31839973 0.7274644 0.30679837 -0.5677724 -0.33609492 0.16311054 -0.2994904 0.56892973 -0.2867917 -0.2555467 -0.2903447 -0.1849964 0.129608 -0.37733194 0.16757496 -0.37386152 0.10004091 0.06258108 -0.29778358 -0.02400961 -0.09436886 -0.7210354 -0.07168863 0.2565123 0.04398014 0.24048564 -0.07325267 0.79876 0.14144173 0.4767467 0.29695114 -0.379583 -0.1996312 -0.37308088 0.30561644 0.12843038 0.29789877 0.24066655 -0.3863339 0.18557496 -0.03725197 -0.28275418 0.25311762
estrella -0.09772537 0.43659854 -0.15719092 -0.49721825 -0.546382 0.19758284 0.68171376 0.3097004 0.4214569 0.5026657 -0.3209748 -0.56799036 -0.01757848 -0.017908564 0.085452884 -0.27824968 -0.76566494 -0.5679561 0.17547779 0.10550577 0.65773875 0.050887603 0.01760641 -0.013531601 -0.26255992 -0.6810855 -0.23857197 -0.26809648 0.10597135 -0.5018181 -0.15428151 -0.019216929 0.17520982 0.49058717 0.30092806 0.5218197 0.3144641 0.55894166 0.107535265 -0.34072003 0.24103071 -0.53622687 -0.24314 0.22017945 -0.06446339 0.18573804 0.1215185 -0.874821 0.19953467 0.3710008
plumones -0.6231888 0.49522075 0.38654858 0.1533058 -0.026026996 0.5530786 0.9622424 -0.24930058 0.24460694 0.13427159 -0.3330552 -0.5944012 0.17487676 -0.41785678 0.79474205 0.42361534 0.26264423 -0.3043183 -0.045891307 -0.34949762 0.36629453 0.048610732 0.05591837 -0.25138772 -0.31688148 0.27361354 0.661027 0.32187793 0.17543405 0.07329532 -0.49036485 0.39917707 -0.3439428 -0.094001755 0.31712446 0.254228 0.5516892 -0.04511507 -0.4406731 0.11406824 0.30898458 0.086546555 0.729089 0.049401533 0.45941636 0.07251253 -0.3785394 -0.4716966 0.025157591 -0.54711276
pingüino 0.038448468 0.35975784 -0.51095086 0.14155936 -0.11492733 0.46352494 0.6876714 0.7705101 0.5273114 0.0884247 0.037444722 0.10620597 -0.47773725 -0.31447214 0.3252699 0.35030854 -0.5933124 0.45208377 -0.2670418 0.5766075 -0.011146261 -0.49092346 0.00093402324 0.03800444 -0.8187551 0.0845812 0.126414 0.041902483 -0.23382919 -0.39620295 0.39004964 0.11235405 -0.12902682 -0.27834392 0.5953459 0.07610173 0.22662613 0.30846232 -0.25488618 -0.041975435 -0.30675176 -0.23104781 -0.2558822 -0.1953084 0.5055626 0.31226036 -0.49186584 -0.39979008 -0.09535336 0.061831344
bufanda -0.29026768 0.69818556 0.10554707 0.29070222 0.21423653 0.018873516 0.6304549 0.52104783 0.075881205 -0.18586645 -0.14883664 -0.33491376 -0.34925708 -0.05085969 -0.070752524 0.32248387 -0.04026896 -0.35141227 0.24832155 0.08862131 0.025218647 -0.032013938 -0.63249487 0.4113327 -0.8551009 -0.37119585 0.42663556 -0.56419593 -0.437162 -0.454694 0.004570226 0.014834398 0.10442152 -0.37966996 -0.28797963 0.20690493 0.75938326 0.2641319 0.19768594 -0.3963876 0.26301676 0.43332475 -0.07850745 0.51130545 -0.13687782 -0.18461302 -0.23538463 -0.08454043 -0.09407218 -0.14897388
pastel -0.20439187 0.7605201 0.7206377 0.4233758 -0.20983252 -0.19263025 0.0162297 -0.07997324 -0.31388968 -0.227383 0.24778716 -0.53971475 0.26373172 -0.08538205 0.08341151 0.30724972 -0.49891728 -0.38484624 -0.49529308 0.46309143 -0.25808144 -0.1380334 -0.591119 0.3412839 -0.05467833 -0.0894922 0.47878155 -0.3578365 0.15229788 -0.010655972 0.5423443 -0.1816492 0.1259728 0.23374459 0.49385002 -0.17768124 0.53519076 0.44469562 -0.14612773 -0.24587107 -0.20991772 0.033966843 0.31106788 0.10281803 0.4483407 -0.40382484 -0.09081574 -0.59124994 -0.3026685 -0.20310728
cereal -0.33377323 0.048155338 0.47949392 -0.004128933 -0.28722185 -0.3191895 0.1972201 -0.08662903 -0.14427406 0.40404144 -0.012553106 -0.35258916 0.31584406 -0.36816603 0.6225887 -0.04189832 -0.5703968 -0.13077135 0.11648825 0.28882062 -0.59330356 -0.3725007 -0.14682268 0.16960771 -0.2762207 0.0520658 0.49924377 0.035494097 -0.0057788487 0.54626495 0.33698988 0.14518993 0.29644126 -0.28093478 1.1018325 0.24119656 0.33437774 0.25835624 -0.5467525 0.03489779 -0.41283742 0.27643275 -0.4916273 0.17359407 0.16417906 -0.383332 0.044964116 -0.87228423 -0.16841474 0.29044643
azul -0.14223717 0.5011159 0.14150703 0.17233223 -0.41712248 0.13957174 0.6550537 0.15123723 -0.07394017 0.34366608 0.16306582 -0.29165533 -0.089780904 -0.2499907 0.30480105 0.011270781 -0.17263864 -0.13700773 -0.23528066 0.23277049 -0.022746418 -0.17979723 -0.12743194 0.05117967 -0.2575037 -0.14167629 0.0019306144 0.040471796 -0.24565397 -0.4282653 -0.14230587 0.02663158 -0.48076904 0.15744178 0.32033485 0.44125736 0.20789075 0.051953346 -0.07525851 -0.1978834 0.062004924 -0.2334244 -0.37200513 0.2317978 -0.18091935 0.10083086 -0.070546255 -0.16184531 0.24250309 -0.14138594
pájaro -0.4263196 0.18820153 -0.00061379746 0.4639798 -0.5345193 0.21227477 0.6765906 -0.042597238 0.42039418 -0.25784028 0.2398281 0.24160525 -0.121777765 -0.2703191 0.52900344 -0.31817773 -0.12938696 0.3662931 -0.12189494 0.32653412 0.22486107 -0.6365402 -0.07314476 -0.2866434 -0.123202465 -0.112161234 -0.5581577 -0.5761639 -0.0060888086 -0.12850462 0.4746203 0.41726288 -0.33314776 -0.11854077 0.3361472 0.41824186 0.09140191 0.23650415 -0.2095154 -0.46606538 0.21390228 -0.35111448 -0.047887385 0.07082322 0.8245944 -0.10743945 -0.19679248 -0.3951337 -0.3069329 -0.3018431
radio 0.18267708 0.15642312 0.5064256 -0.22212072 -0.22010008 -0.11104526 0.99223953 0.47104263 0.5745161 -0.06661389 -0.23522358 -0.8848811 0.29231265 -0.03820835 0.53570366 -0.13458563 -0.5076959 0.3779195 0.021411039 0.4378759 0.54478043 0.05301274 -0.015841857 1.0838025 0.2076312 -0.21381402 -0.062780105 0.55907404 0.24915029 -0.38608485 -0.55094874 -0.06809063 -0.48751998 0.21702442 0.4012632 -0.08221247 0.14637259 0.6200784 0.24066336 -0.5264472 0.22749954 0.43746808 -0.108097345 0.386454 0.5698343 0.53055257 -0.55249876 -0.6093654 -0.4867435 -0.20280612
galleta -0.28639805 0.42789733 0.1560032 -0.059457336 -0.10207656 0.024927696 0.24752739 -0.34571576 -0.22483695 0.01876384 0.25022537 -0.12055615 0.10652017 -0.31321004 0.24691842 0.6106918 -0.8408474 0.033330083 0.06815147 -0.345666 -0.6004484 -0.5336626 -0.2949265 0.45956743 -0.15639639 0.13294072 0.31475443 -0.34876773 -0.10316151 -0.035157967 0.21772145 0.22139463 0.2614017 -0.31548107 0.68488544 0.23196775 0.19903274 0.7842634 -0.4611001 -0.21000569 -0.17917445 0.21067566 0.07167041 0.48237705 0.20105903 -0.5174233 -0.7209067 -0.5096065 -0.20157333 -0.46762142
shorts -0.6766545 0.506645 -0.29562488 -0.21888319 0.17514482 0.08011111 0.31663567 0.14105897 0.11099433 0.5091835 -0.2552574 -0.4262237 -0.6943879 0.11778299 0.5219451 -0.1040527 -0.12833983 -0.6572792 0.28743863 0.56712025 -0.1924365 -0.21850517 0.14220065 0.3797946 -0.37552544 -0.41204402 0.56001353 -0.024455298 -0.14029704 -0.5106209 -0.0059193503 -0.12252909 -0.81516635 -0.578043 0.35967967 0.15695943 0.012692176 -0.25819957 -0.1426243 -0.17433399 0.6153344 -0.1897052 -0.53268826 0.33501112 0.23697655 -0.082946956 0.19044301 0.12548009 -0.12878008 -0.22713716
suéter -0.55078703 0.22088528 0.02974936 0.06272749 0.25469744 -0.35702285 0.6491338 0.119108185 0.17627391 0.08368221 -0.3480188 -0.25837713 -0.2800688 0.13606016 -0.01187583 0.4593497 -0.20287998 -0.26595083 -0.048109 0.25261065 -0.24247621 0.20815253 -0.20809641 -0.042517252 -0.7563405 -0.1950007 0.58302784 0.012676105 -0.4653691 -0.7113534 0.021975879 0.29480073 -0.20568459 -0.44438988 -0.07590797 0.09176326 0.9454132 0.05107383 0.11631279 -0.410882 0.6542068 0.044945825 -0.3749873 0.122912355 0.020158395 -0.51908237 -0.032601375 -0.30885184 -0.069298945 0.24387144
tenedor 0.2596101 0.4434328 0.6988495 0.2650601 -0.13483304 -0.1797453 0.31526124 -0.18521953 0.54725844 0.39032838 0.09074274 -0.52844894 0.27700874 0.040566415 0.78782964 -0.23905662 0.10362653 -0.18882328 -0.29870218 0.5460522 -0.5026724 -0.1884239 0.013458828 0.39119068 -0.30098206 0.025072936 -0.14084779 0.22874448 -0.68160015 0.071238846 0.27653667 0.07949202 -0.040906105 0.33016172 0.41651937 0.23615712 0.42091018 0.6835967 -0.15980013 0.23351328 -0.6445444 -0.08826984 0.06683983 0.6395084 0.33262807 -0.16120233 0.1400943 0.13777208 0.35247108 -0.2792845
durazno -0.035494223 -0.025643643 0.8003062 0.56036407 -0.16596413 -0.20411181 0.3997283 -0.43519768 -0.025173903 -0.00043823637 0.022032754 -0.29230094 0.12908119 0.05514991 0.17389293 0.063314036 -0.18552396 -0.6622305 -0.36203966 0.4324685 -0.04436478 -0.4926868 -0.20119084 0.55560493 -0.24689297 0.0070329085 0.35112417 -0.21798459 0.28955448 0.25320742 0.3754059 -0.012043613 -0.01166097 -0.48167932 0.06602931 -0.016506145 0.36244527 0.5508781 -0.5787498 -0.4072571 -0.11523037 -0.5140912 -0.46873805 -0.18134438 0.13474977 -0.38099155 0.4711687 -0.35722047 -0.15793258 -0.47254804
pluma -0.50419843 0.890345 0.4522569 0.525213 -0.28217128 0.017071309 0.58175606 -0.011657858 0.1526229 0.13605635 -0.06403959 -0.28694353 -0.123332046 -0.32519177 0.96282154 0.05125514 -0.13674654 0.24522856 -0.37388828 -0.18777683 -0.108445965 -0.61433536 -0.11218534 -0.21012554 0.14519785 -0.075612254 0.08405742 -0.10158185 -0.33390293 -0.34132224 -0.43987432 0.43598273 -0.15662628 0.27747953 -0.09897321 0.38355044 0.4075488 0.2471681 -0.108416565 -0.17696469 0.29022023 -0.18449877 0.32907817 0.116057746 0.120198414 0.019268937 -0.17490396 -0.41061252 0.07067387 -0.5556886
refrigerador 0.25502315 0.07785857 0.16349457 0.46680844 0.110463284 0.38732 0.32560876 -0.3731898 0.09432943 -0.2843536 -0.08777826 -0.79478884 0.3431929 -0.19796406 0.012470822 -0.06537292 -0.4506394 -0.36809847 -0.38280562 -0.109076634 -0.040733043 0.0459851 0.29547113 0.42416745 -0.39168087 -0.015928257 -0.00042399252 0.16408744 -0.32935217 -0.7837992 0.17762645 0.2568365 0.19452478 -0.6306993 0.60499626 -0.08669159 0.16228999 -0.021708041 -0.20944338 -0.11892893 -0.49317726 -0.52391905 -0.29524857 0.032707583 0.064342484 -0.25596395 0.052109227 -0.78149146 -0.17608859 -0.39852998
dedo -0.2758977 0.20548843 0.38702682 -0.08585616 0.0961787 -0.3497644 0.85549784 -0.05272501 0.64468133 -0.064920895 -0.23010537 -0.9378296 -0.16652839 -0.49575442 -0.032400247 0.60593206 -0.32644996 0.05254693 -0.22326256 0.29718447 -0.41183388 -0.2824264 -0.48955587 -0.04017292 0.29996976 -0.4647782 0.10882001 0.34164107 -0.091433205 -0.021323131 -0.077629745 0.071507 -0.6382593 -0.4375127 0.32832924 0.07616392 -0.042786323 0.7435886 -0.04368135 0.18386796 0.39043418 -0.39051768 -0.16714649 -0.10424155 0.5514518 0.4571635 -0.49205375 -0.03346761 0.049730767 -0.5874483
niña -0.51151645 0.45243707 0.096327364 -0.057402745 -0.45112643 0.3533628 0.5604021 0.80225694 0.07108229 0.06483246 -0.14236844 -0.59930944 0.3280944 0.0331501 0.22067444 0.24633117 0.15699574 -0.3831514 0.43217918 0.7184977 0.025569655 0.5890374 0.25462836 -0.128686 0.06731927 -0.77212816 -0.28722376 0.06902285 -0.32898787 -0.030399593 0.3468886 -0.1828286 -0.14203975 -0.049169097 -0.015776461 -0.0028090647 0.42490542 0.9091317 -0.55948406 -0.26457947 0.039507326 0.3707881 -0.29707357 0.15707447 0.041556537 0.06279899 0.04914125 -0.14509779 0.17526285 -0.15492894
cuchillo 0.11007945 0.32142362 0.4961449 -0.09415757 -0.17776564 -0.036458567 0.42700782 -0.2054297 0.35297072 0.44353724 -0.37361106 0.077794306 -0.040785823 -0.13077407 0.2895135 -0.25398564 -0.3451735 -0.24315576 -0.14089596 0.4502539 -0.95755345 -0.21103941 -0.033092186 0.30715406 -0.30746794 -0.09524534 -0.14093474 -0.108057864 -0.6413721 0.24543512 0.05096032 -0.6226811 0.25110382 -0.10338145 -0.12143062 0.18904497 0.6024135 0.67226976 0.71165264 -0.018795507 -0.3122305 0.04079008 -0.15501909 -0.10283273 0.56118613 -0.21191676 -0.051997602 -0.43425795 -0.09924031 -0.34553796
sala 0.33437428 0.41614196 0.6927622 0.19568458 0.24507883 0.2399567 0.1960282 0.043293692 0.55318636 0.54902375 0.50793093 -0.039724406 0.0475049 0.14012532 0.7814774 0.19409086 -0.007976781 -0.58701855 -0.37392217 0.32411802 0.22897303 0.31178054 -0.31648755 0.43915704 0.26416752 0.14682704 0.10978544 -0.24322991 -0.6424125 -0.37970054 0.17384043 0.39082614 -0.15366946 -0.50688756 0.2818685 0.5061941 0.02187709 0.24478914 0.23248307 -0.071920834 0.083701625 0.005761027 -0.5713992 -0.51838905 0.16325381 0.39374605 -0.33872265 -0.18624714 -0.06732292 0.124409355
verde -0.0860056 0.24711719 0.16673939 0.25655037 0.042651426 0.3529534 0.4214452 -0.51333255 -0.022574235 0.037081037 -0.059016634 -0.35384575 -0.09648677 -0.38034585 -0.11844258 0.0747728 0.09344268 -0.27430677 0.16894624 0.5129919 0.30383977 -0.030552814 0.050594743 -0.09872814 -0.41003758 0.1604025 -0.12176772 -0.2292283 -0.1441301 -0.17295246 0.4889506 -0.18059824 0.03675335 -0.18008502 0.047408678 0.080525056 0.5375288 0.38908377 0.040083535 -0.46438956 0.4004666 0.27160877 -0.56771415 0.15521614 -0.015532422 -0.5369944 -0.25058928 0.037475046 -0.27366653 -0.18953
tortuga 0.24259102 0.3255542 0.0018362297 0.69216985 -0.1499293 0.45734063 0.48416075 0.4621099 0.054650005 0.526799 -0.38858575 0.14767268 0.039922707 -0.11896164 0.113408916 0.4567734 -1.0876837 0.09144696 -0.06618714 0.08108608 0.36209485 0.29561415 0.33824575 -0.32663974 -0.39328426 -0.3733828 -0.26787558 0.25815943 -0.1140059 -0.321934 0.57644767 0.25994307 -0.4613292 0.021568581 -0.068748035 0.1374116 0.8929601 0.3746835 -0.24219796 -0.3376141 0.74549985 0.65402335 -0.37427098 -0.3355574 0.03190045 -0.36991957 0.022623131 -0.16292743 -0.4946481 -0.27175823
cubeta 0.29359442 0.27931485 0.23886752 0.4150715 -0.08580464 0.8114761 0.15538801 -0.29603934 0.15345226 -0.12545344 -0.16123122 -0.4399584 0.18305185 -0.91541773 0.301228 -0.31425354 -0.55618286 -0.009188695 -0.42776912 0.065811336 0.18491997 0.4604083 -0.01283626 -0.25199705 -0.5812779 -0.32178038 -0.12365162 0.18771476 -0.40923187 -0.111797564 -0.06139612 0.4704498 -0.24772914 -0.1704218 -0.034309916 0.54515684 0.08412575 0.18774283 0.14631763 -0.4072905 0.15636286 0.39581648 0.15363449 0.33559287 0.16017391 -0.49138978 -0.17827104 -0.5421832 0.0801521 -0.8721741
plátano -0.3986654 -0.119639106 0.3504371 -0.13349335 -0.6205386 -0.33432406 0.20981307 -0.72139746 0.11274136 -0.04253654 -0.37709492 -0.37173337 0.13112548 -0.10732402 -0.32083014 0.2663481 0.049578004 -0.4015755 -0.23854496 0.49681428 -0.38125777 -0.38434055 -0.16973583 0.15337154 -0.39136422 -0.01733199 0.40529492 -0.11493492 0.09993568 0.19507827 0.5769672 0.05658701 0.1626248 -0.25832915 0.78689265 0.4611311 0.47578532 0.3484105 -0.23000966 -0.08668721 -0.0044581555 0.16831441 -0.7284594 0.10374208 0.10493429 -0.31160203 0.17830932 -0.61987644 -0.1931052 -0.46633983
hoja -0.7558625 0.47473222 0.08539947 0.12853298 -0.33071557 0.064398974 0.22044727 -0.7011348 -0.0963416 0.31232184 -0.18809575 -0.90810144 -0.24605906 -0.23537104 0.74093795 0.032362163 -0.27102783 -0.010537415 0.21716727 -0.07970705 0.26319107 -0.6290633 0.49012068 -0.07700198 -0.026110737 0.3690651 0.058339097 0.16927227 -0.1408154 -0.017019652 -0.26063815 -0.19020426 0.4543195 -0.09238612 0.11738581 0.22609998 0.8751139 0.28633285 -0.17714316 0.046377327 0.31555575 -0.09568481 0.0892222 -0.066714875 0.4242673 0.403166 -0.5587943 -0.37757704 0.09929872 -0.5700945
trapo -0.25530696 0.40272936 0.04405934 0.0010388739 0.22430168 0.30212268 -0.3240276 -0.19310895 0.48237577 0.08109652 -0.050368678 -0.58265454 -0.38720396 -0.35551232 0.71352786 -0.12808543 -0.21048379 0.21684405 0.23226611 0.20210668 0.10602635 0.21588726 -0.05978967 -0.18284512 -0.2748883 -0.035106227 -0.5086863 -0.11400491 -0.29351777 -0.6378256 0.67814827 -0.16893108 -0.5249597 -0.6034997 0.3122813 0.42163604 0.52656513 0.48475984 0.6288238 -0.57433045 -0.05660462 -0.29490504 -0.06943258 0.19199707 -0.0064741974 -0.058017664 -0.13010778 -0.35132208 -0.13119556 -0.5339763
boca 0.2150669 0.11536201 -0.19093843 0.023632843 -0.97131974 0.135748 0.24151218 0.10466793 0.48888296 0.0043120272 -0.0655533 -0.5570098 -0.3557773 -0.10960841 0.6317718 0.4682448 -0.23305213 -0.18503854 0.08035324 -0.13684782 -0.080531 0.704137 -0.26240128 -0.23612373 -0.21849535 -0.13624822 0.073523544 -0.7243831 -0.3081856 -0.21648017 0.048994344 0.05360516 -0.28669298 -0.515913 0.3940315 0.29186296 0.38650608 0.14739253 -0.21916078 -0.32947212 -0.45927423 0.25939214 0.0026982073 0.29015735 0.8433354 -0.39831838 0.13071135 0.033594932 -0.263606 -0.28366205
plancha -0.33130398 0.29924127 0.48454887 0.18950747 0.3545989 0.71049774 0.25852582 -0.2493592 0.39584765 -0.00045407208 -0.42556772 -0.5565324 -0.19263892 -0.61627334 0.26404336 -0.41047353 -0.13633668 -0.23698021 0.02081653 0.34570223 0.23984592 0.6876931 0.28232583 0.52108854 -0.38050324 0.07120221 0.27629465 0.13244087 -0.48253962 -0.13342813 0.4905308 0.0072954837 -0.59231544 -0.39115337 0.30728403 -0.3559222 0.07400083 0.25785267 0.17621551 -0.1958177 0.1381565 0.011809604 -0.041126795 0.55080175 -0.00040839103 0.529631 0.07649217 -0.51752776 -0.104171306 0.101535685
guajolote -0.25466004 0.4420173 0.22560945 -0.35960454 -0.027551131 -0.17239605 0.6862817 0.2694748 0.16699448 -0.23371322 0.5485181 0.50189817 0.032855973 -0.21656562 0.7330195 0.019077566 -0.14777863 0.2016595 -0.24842167 0.69656396 -0.36259568 -0.48574087 0.06253789 -0.057958487 0.0207342 0.051938213 0.34904197 -0.51100844 -0.02723188 -0.16510978 0.3256393 -0.10972307 -0.34647283 0.28988245 0.3958728 0.0749403 0.56006616 0.27390283 0.024742942 -0.061628055 0.005596108 0.26384464 -0.24102359 0.06773888 0.53998137 0.13238691 -0.048312817 -0.78627646 -0.7249928 0.16387919
