computadora -0.417557 -0.07075857 0.26076874 -0.026458867 0.17189556 -0.17243761 0.49439356 0.657043 -0.052208543 0.59850276 -0.34167323 -0.2213436 -0.10547941 -0.62667215 0.21621734 -0.40624696 -0.6640736 0.089080654 -0.037694786 0.21743272 -0.15560442 0.28070349 0.27879113 0.4136532 0.6428742 0.11834131 -0.08447621 0.37399724 -0.03520479 -0.4150264 -0.24979442 0.17708455 0.23195262 0.34805354 0.36063522 0.3280911 0.34085438 0.29501453 0.26356065 0.10405781 0.34896633 0.020691106 -0.45390752 -0.85532993 -0.31453106 0.36884356 -0.35321003 -0.35997665 -0.123208165 -0.4503879
niño -0.8520426 -0.054505654 0.35371217 0.49615964 0.25045738 -0.19946645 0.39210066 0.145136 -0.026913201 -0.060297605 0.086307324 -0.51841486 -0.2663772 0.518603 0.31200722 0.26120234 -0.37053645 -0.372236 0.3457611 -0.03845224 -0.1447593 -0.25666633 -0.07975319 0.25269657 0.0057110535 -0.47302502 0.13196202 0.18653505 -0.21772102 -0.3076517 -0.004623108 0.13906835 -0.15937111 0.037200745 0.11436402 -0.16010635 -0.076035105 0.13526723 -0.19025168 -0.074372366 0.16996887 0.34272876 0.45551178 -0.2615838 0.36502194 -0.35512763 0.04037345 -0.25916845 -0.18317364 -0.56359386
agua -0.19744253 0.19033599 0.24420363 0.15364625 0.59531134 0.07722714 0.0023759468 0.03954811 -0.025979267 0.052608807 0.17845769 -0.41276887 -0.29891765 -0.40134156 0.25307333 0.29646453 0.025370054 0.12961838 -0.13921164 0.3186701 0.1193135 -0.16997313 0.17684323 0.26971042 -0.81874275 0.3957955 0.19870697 -0.005861998 -0.34696582 -0.36207867 0.4354439 -0.0145930825 -0.63678485 0.3505273 0.410063 0.35756078 0.229411 0.07808115 -0.18017378 -0.4044731 0.07211487 0.15867086 0.071476325 0.040064946 -0.07722427 0.312128 -0.40644705 -0.423292 -0.037888136 -0.51347554
casa -0.149532 0.029798146 -0.12518843 0.32207093 -0.0023863676 0.18405761 0.20652859 -0.13252962 0.11335175 -0.19802444 0.24158712 -0.014709395 0.2430073 -0.635191 0.28818956 0.046274874 -0.5537505 -0.25311723 -0.60582435 0.45876148 0.16270448 0.22304097 0.0927502 0.5898779 0.008194825 -0.29308724 -0.09881279 -0.39671713 -0.39724845 -0.5275414 0.28600425 0.10152835 -0.38738075 -0.21173397 0.6018481 0.28813118 0.2028541 -0.08388013 0.26913992 -0.10475849 0.12842415 0.2841665 0.16240945 -0.6249197 0.13385291 0.07905587 -0.09100146 -0.10294241 0.24115221 -0.09581169
reja -0.4487364 0.068560325 -0.33829287 0.11816938 0.15876697 0.2876002 0.37540817 -0.18468665 0.109100126 0.22712155 0.3210703 -0.06172049 -0.7147176 -0.0895118 0.43918353 -0.6267333 0.008691874 -0.14877836 -0.39002848 0.5301217 0.03684883 -0.041291695 0.41469708 0.084844165 -0.54320014 0.23374377 -0.40535268 -0.7780772 -0.35389346 -0.33285785 -0.3862891 0.08679727 0.4278266 -0.4079849 -0.0031760598 0.5093942 0.011550335 -0.21764906 -0.3531376 -0.27992073 0.24529506 0.5147242 0.037736587 -0.51865584 0.15333295 0.069688804 -0.2977825 -0.18415487 0.056313228 -0.2865088
camión -0.14995022 -0.21159658 0.65628636 0.24036379 0.39935175 0.5942125 0.7419296 0.0036835263 0.42027244 -0.40720102 0.031482924 0.12436775 -0.19608699 -0.38066956 0.5264993 0.16588269 -0.04625445 -0.4010923 0.8542639 0.47360522 -0.42186695 0.19215202 0.2760977 0.58641666 0.09287829 -0.2677394 0.25560948 -0.124373876 0.10095199 -0.5217168 -0.5576607 0.26682436 -0.24517536 -0.03788833 0.33675793 0.34742206 0.012910294 -0.18691388 0.22433671 0.05220611 0.17905813 0.3700338 -0.29295895 0.08025663 0.117130645 -0.009833239 -0.0045776176 -0.22443669 -0.28955975 -0.6297937
calle -0.20706768 0.18560445 0.049073465 0.15688974 0.049195297 0.13221149 0.46634609 -0.1299096 -0.33004504 0.0044146497 0.015470108 -0.20224975 -0.14640704 -0.3307488 0.49339333 0.18761191 -0.61124897 -0.44624686 0.28417203 0.1847477 -0.5278138 -0.33664477 0.51691264 0.0240861 0.1086078 -0.6973671 0.074315004 -0.024968663 0.35408235 -0.8210961 -0.28322786 0.35178092 -0.07018673 -0.27990475 0.77046895 0.754301 0.099278115 0.18336141 0.5588732 0.1239933 -0.13588743 0.3334602 -0.1901057 -0.21401398 0.44806674 -0.45758238 0.17825797 -0.41157988 0.029214758 0.03404687
dulce 0.06340717 0.2888713 0.17326088 0.20756496 0.30226794 -0.2147955 0.3143572 0.25428417 0.3499659 0.23607086 0.26588842 -0.6848256 -0.10278215 -0.2524414 0.24626899 0.64745927 -0.5614846 -0.43652615 0.038691092 0.3094509 -0.07598631 -0.34237665 -0.1895506 0.053648 -0.45343 -0.24611518 0.048171807 -0.5611659 -0.32231033 0.26375276 -0.035792526 0.116538264 -0.065159835 0.08869496 0.020923562 0.7395629 0.1356425 0.2106672 -0.5810215 -0.26602545 -0.12781598 -0.053007144 0.30343154 -0.005907551 0.023461187 -0.4027804 -0.27833822 -0.16702825 -0.47663605 -0.13771957
piedra -0.6133207 0.07863217 -0.22158602 -0.12296914 0.06798853 0.30792275 0.35512277 -0.027096486 -0.1099252 0.008367814 -0.0110418005 -0.4072167 0.16571772 -0.15548536 0.16527447 -0.16629374 0.10521978 -0.046478216 -0.4526247 0.5541551 -0.27127555 -0.33175793 0.48705462 0.46355194 0.082779504 -0.8130768 -0.098057106 -0.18776713 0.1684734 -0.13197318 0.27677688 0.2585552 -0.5570356 0.19421782 -0.32221937 0.5028275 -0.02015468 0.073576845 0.23444733 0.041481942 -0.23200266 0.52044725 0.40982035 -0.3720932 -0.23764125 -0.52284604 -0.5351799 -0.83040965 0.29922155 -0.4949028
colores -0.37937137 0.5206824 -0.00027425744 0.08827551 -0.34982377 -0.06482259 0.6995414 0.09433846 0.15329711 0.38997644 0.39241838 -0.7630555 0.09358771 0.23896462 0.5456891 0.20495443 -0.25681117 0.014563032 0.057392526 0.14290886 0.5558857 -0.26943758 0.38016966 -0.05957604 -0.26663896 0.22972326 -0.21116515 0.18333325 -0.09082265 -0.5689285 -0.20267159 0.07555968 0.19810432 0.4439973 0.010789322 0.41885316 -0.008057589 0.6425448 -0.16531882 -0.10347109 0.43791586 -0.32267818 0.167621 0.12163681 -0.10129817 -0.21610813 -0.37227455 -0.41978922 0.27060166 -0.43369073
tierra -0.10491462 -0.25757098 -0.03249902 0.0014301775 0.10648305 0.054934043 0.6658487 0.22281827 0.22397736 -0.3554385 -0.28653318 -0.3204658 0.09140752 -0.8387635 0.14694785 0.24008505 0.117627166 -0.43695158 -0.15223536 0.92205834 0.26201403 -0.09700313 0.34167385 -0.015191711 -0.53785616 -0.27617267 0.31003505 0.1961967 -0.0359332 -0.12931027 0.43641037 0.34144402 -0.03827635 0.50798553 0.21058339 0.27434236 -3.0884483e-05 0.09029793 -0.21175753 0.21933968 -0.020689363 0.4310435 -0.11438116 -0.19216122 -0.09668388 -0.042675987 -0.26504487 -0.82735646 0.23404144 0.1297886
grande -0.18391255 0.058090538 -0.05042507 0.2816796 -0.016488796 0.19811134 0.3251886 -0.07746781 0.24192734 0.0062462864 0.14398053 0.000863694 0.24074307 -0.43722212 -0.051895123 0.003763319 -0.09360278 -0.18243153 -0.038543515 0.2906628 -0.18806756 -0.036521427 0.16443747 0.123365134 -0.3650527 -0.31642723 -0.071234934 -0.09669525 -0.1962322 -0.59132004 -0.0794652 0.5089345 -0.11196187 -0.25663334 0.19494773 0.107357875 0.11514041 0.053923827 -0.1865922 -0.18881328 0.20737925 0.17814426 -0.21176326 -0.19755355 0.11351386 -0.028261395 -0.19508238 -0.2274898 -0.018659921 -0.2958756
burro -0.2726257 -0.3825051 -0.32049504 -0.13130067 -0.053482685 0.901286 0.29772073 0.80530417 0.25959003 -0.23579243 0.32198286 -0.33822605 -0.1251715 -0.4867263 0.4167335 -0.058473594 -0.11175365 -0.051133186 0.41070658 0.2446253 -0.400396 -0.30083492 0.226045 0.20598155 0.19663376 -0.33010322 0.16677706 0.09729747 0.016134351 -0.08872961 -0.011921247 0.3995878 0.57244927 -0.3810829 -0.22305278 0.12551351 0.48640397 0.34739116 -0.08210285 -0.27282822 0.41071844 -0.09691875 0.13389471 -0.42099184 -0.0024374041 -0.087787904 -0.064150706 -0.22353207 -0.58553547 -0.5742515
conejo 0.09004316 -0.16107538 -0.18926321 -0.04381832 0.11837977 0.09843117 0.6594118 0.39645028 -0.47383568 0.36514297 0.033473197 -0.35484192 -0.2396608 -0.03565148 0.28339744 0.081913196 -0.108815655 0.15826409 -0.023842197 0.87944174 -0.34149197 -0.36380377 -0.08458782 0.11508115 -0.06484863 -0.34589243 0.13284677 -0.004449798 -0.3442747 -0.24465826 0.3206706 0.22806124 0.51378673 -0.004794503 -0.0036908186 0.2458707 0.049009405 -0.013982681 -0.3643478 0.2644889 0.17444173 0.050058052 0.0055424096 -0.639515 -0.08851736 0.4790548 0.5911684 -0.27882642 -0.5721817 -0.5297382
policía -0.22496209 -0.054636538 0.45338526 0.09956104 0.12069164 -0.011025308 1.0389462 -0.7230479 -0.07267957 0.0040923967 0.38411224 -0.022454113 -0.8241098 -0.1979353 0.23261052 -0.4488664 -0.5658886 0.08474745 0.2558364 0.14361824 -0.37247053 0.09665442 0.15194055 -0.0069624432 -0.032083716 -0.98037493 0.70221126 -0.03103 -0.19813165 -0.48553443 -0.5446644 0.35700646 0.26070693 0.063525386 0.14760174 0.19377013 0.61430395 0.22829634 -0.4835995 -0.19413327 0.16856936 0.5190946 -0.24983391 -0.2871502 0.13927113 -0.015275328 -0.08839959 0.11064866 -0.17499991 0.07065471
león -0.41601813 0.22216704 -0.4230174 0.48514172 -0.39999306 0.4945521 0.6364854 0.038877837 0.34257 0.1730051 0.06826195 -0.535517 0.017019598 0.11067725 -0.02420345 0.2569222 -0.419028 0.6602631 0.33171332 0.33786032 -0.2701119 0.17777869 0.3462153 0.030098569 -0.31313694 -0.27547655 -0.036554154 -0.3918686 -0.07464175 -0.35125408 0.19838034 0.8516298 0.03538942 0.35426098 -0.17081694 0.1312754 0.0871238 -0.18014733 -0.5968142 -0.17302024 0.24658638 0.014026094 -0.5840412 -0.430906 0.28002998 0.4031936 0.350387 -0.22920637 -0.34412348 -0.7531618
oso -0.6133415 0.11956934 -0.6155613 0.19417988 0.24220063 0.43062267 0.70654744 0.34135118 0.32299197 0.124370255 0.36560625 -0.45525903 0.17379308 -0.3110542 0.08317682 0.22924875 -0.34354353 0.1562116 0.1129883 0.24781017 -0.37288123 -0.02291894 -0.287382 0.09775024 -0.45250255 -0.6905401 0.22925907 0.029876016 -0.6526397 0.004220931 0.17631315 0.4830423 0.22398302 0.14681362 0.11107986 0.16399539 -0.28904745 -0.17653833 -0.33645472 -0.26145375 -0.021014234 -0.045194082 -0.22131146 -0.33008495 -0.17578349 0.3340132 0.23257631 -0.15485771 -0.26169112 -0.05061205
familia -0.15653315 -0.4813956 0.24464189 0.6811402 -0.21483476 0.06910964 0.6930394 -0.19326428 0.30554864 0.416875 0.14112452 -0.17807104 0.03389673 -0.19497134 0.4101243 0.57716846 -0.48237464 -0.33619526 -0.23377642 0.28711087 0.26973665 0.19183704 0.07928739 0.845223 0.14472172 -0.24414031 -0.0856783 -0.0137544125 -0.33741337 -0.4170045 0.4052931 0.66330844 0.16760778 0.18696596 0.12411269 0.5038641 -0.5297956 0.33396122 -0.12979275 0.01594125 0.37133414 -0.10897826 0.049025692 -0.5099827 0.0027636995 0.37118092 0.30578405 0.031852853 -0.31672132 -0.41660404
dinero -0.5206596 0.429496 0.025553096 -0.072260514 0.07871741 -0.013893838 0.417374 -0.17988372 0.0721674 0.25813717 0.010752497 -0.28212214 0.3746097 -0.31260118 1.0242754 -0.33374438 -0.50112 -0.15928054 0.48671705 0.49655643 -0.3916152 0.023910781 0.41012517 0.3613896 0.06905148 0.30146673 0.40409055 -0.09816159 -0.4580843 -0.59092987 0.12445084 -0.012785592 -0.12955537 0.17062472 -0.12878956 0.49365237 -0.05907188 0.3173971 0.3098295 -0.35314408 -0.2602298 0.425045 -0.5596286 0.0928751 0.08618221 -0.11430851 0.040091936 0.44736427 -0.54896253 -0.41492558
mesa -0.3349713 -0.26516235 0.04669671 -0.020213118 -0.3952399 -0.3046581 -0.084878534 0.08175163 0.39650965 0.36752945 -0.045769617 -0.37461463 -0.076076776 -0.76502687 0.33540067 -0.23808141 0.041480556 0.016277807 -0.055186503 0.20880471 -0.20660487 0.014869666 0.039915305 0.58405596 -0.21476784 -0.03298983 0.24168815 -0.2042862 -0.033448767 -0.6698852 0.17671232 0.38198304 0.02047163 -0.071015015 0.35882297 0.31604654 -0.4081459 0.37419897 0.1284378 -0.48679882 0.35178605 -0.29472443 -0.044660173 -0.87870955 -0.4541752 -0.39537105 -0.13108106 -0.06042243 -0.11525061 -0.23831205
bebé -0.39857075 -0.014105958 0.25275937 0.46892774 -0.008441026 0.25278667 0.37700084 0.13162263 0.17221469 0.34492886 0.35468668 -0.571375 -0.33023012 -0.061715648 0.5280654 0.4485412 -0.20434694 -0.25676724 0.13031796 0.6478576 0.17408757 0.27008763 -0.79699385 0.11032427 -0.0021599166 -0.3576112 0.32082382 -0.032135207 -0.553741 0.060545973 -0.034737486 -0.12889895 0.018208439 0.098867305 0.008425694 0.029537266 -0.049431458 0.2603703 -0.27114552 -0.2145035 0.17575096 0.28381062 0.47271731 -0.29399034 0.7162807 0.22703132 -0.10007547 -0.25836203 -0.25334543 -0.21056433
escuela -0.7228995 -0.061495423 0.26602393 0.15818895 -0.12913412 -0.27559465 0.15648806 -0.27932626 0.30952474 0.0974783 -0.112339 0.02151849 0.20042402 0.05829919 0.59765756 0.15039797 -0.2582966 -0.2587745 0.013916002 0.15516515 0.06873895 0.15195607 0.3128818 0.7351082 0.27284518 -0.5373471 -0.066155195 0.5119045 -0.70426375 -0.42423978 -0.27206877 0.35696745 0.21100813 0.31914514 0.42183724 0.33866137 0.46244028 0.0567991 0.07856037 -0.26444376 0.78200495 -0.06240425 0.23703153 -0.29859132 -0.20057118 -0.2025507 -0.43308794 -0.30351466 -0.11496479 -0.83910155
mano -0.15651965 0.34551007 0.46992823 0.27667034 -0.15520383 -0.14296052 0.64249307 0.12669113 0.402438 0.44948158 0.023438098 -0.017725144 -0.26467836 -0.32868522 0.2614235 -0.32022217 0.43942526 -0.021442888 0.60803837 0.2677804 0.20391697 0.33610365 0.18749624 0.22581899 0.5781224 -0.3337398 0.03257019 -0.26454332 -0.18688528 -0.18712395 -0.074246734 0.2869888 -0.28896904 0.13936444 0.007893768 0.55287105 -0.091814965 0.2718291 -0.18568517 -0.20911928 -0.5225398 0.25743103 0.022827353 -0.6842273 -0.34925276 -0.05610684 0.29368657 -0.2815207 0.26503253 -0.8554381
botón -0.4045853 0.41295406 0.32548225 -0.31692612 0.3368774 -0.18276249 1.1393787 0.30894235 0.027002335 0.3330618 -0.0030259995 -0.50208145 -0.57270145 -0.42787796 0.15814294 -0.11496597 0.011996807 -0.23576002 -0.44820783 0.344132 -0.23157649 0.6320312 0.335918 0.32842943 0.71033734 0.02868926 -0.2960879 0.1750491 -0.5410428 -0.77173364 -0.060969673 -0.18994908 -0.011288273 -0.35125515 -0.38544858 0.2688849 0.22663093 0.16342503 -0.18560626 -0.17953974 0.10129876 -0.1241081 0.09002859 -0.23229593 0.0060285293 0.16320916 -0.55306107 0.23143026 -0.38251942 0.12601958
bolsa -0.47581026 0.16647616 0.034111187 0.47474718 -0.23631392 0.23019385 0.37167618 -0.2786674 -0.09387115 -0.11671199 -0.2313648 -0.31955078 0.500904 -0.15137738 0.80118644 -0.35909718 0.010546772 -0.1311113 -0.3020529 0.34534183 -0.14205919 0.34254035 0.6646338 0.140353 0.38107035 -0.05510565 0.5405008 -0.14314798 -0.14545028 -0.3868979 0.43887532 0.50415397 0.26503196 0.050604835 -0.04802185 0.15931088 0.13905495 0.28297782 -0.22196336 -0.60847336 -0.2613338 0.14487518 -0.09757594 -0.16884248 0.03454012 0.11517406 -0.5918757 0.16310993 0.22417858 -0.5803353
carne -0.30951217 0.29729053 0.18843542 -0.10784972 0.36294052 0.07940944 0.12097002 0.0712241 0.4839889 0.42613655 0.058890138 -0.21974081 0.12750101 -0.1299439 -0.05385334 0.16016984 0.21534023 -0.2026006 -0.2563527 0.47554153 -0.6273548 -0.14500032 0.21707793 0.3526938 -0.4473241 -0.24860726 0.41515806 -0.1780653 0.70867103 -0.56328636 0.5450282 0.09397925 0.27045435 -0.29175708 0.034145705 -0.06510381 0.32163003 0.36808786 -0.760312 -0.25618467 0.18655543 0.09133282 -0.27408782 -0.045940094 0.4035194 -0.08696514 0.183306 -0.66196567 -0.08669611 -0.5532373
cocodrilo -0.3121206 0.27337578 -0.18730299 0.04835666 0.22440751 0.6273927 0.59669375 -0.2159991 -0.008823131 0.2787143 0.30458677 -0.25578782 -0.34949893 -0.027032852 0.23976593 0.22909966 0.051824924 0.039944135 -0.044721834 0.1575144 -0.4861666 -0.11483574 0.4844339 -0.041497808 -0.12769222 -0.27568027 0.13138 -0.47914752 -0.14495677 -0.3217305 0.875643 0.47953153 0.10258647 0.03697902 -0.19220309 -0.15037903 0.1513693 -0.19862486 -0.17456837 -0.35063326 -0.131283 0.24916774 -0.7353038 -0.12326992 -0.018993625 0.50446427 -0.3362941 -0.71627814 -0.2032662 -0.3927351
caballo -0.8256537 -0.024608197 0.033912614 0.049395986 -0.121376075 0.9312576 0.37921566 0.40328765 -0.40545517 0.069399215 0.3250009 -0.1389357 -0.240905 -0.11751168 0.51714814 0.17572428 -0.022041015 0.10776911 0.27886122 0.5812588 -0.22663015 0.16138694 -0.0038701056 -0.16729923 0.07294763 -0.02679879 0.25110736 -0.26510128 -0.11086643 -0.44217202 0.10612924 0.34307772 0.08279998 -0.33525068 0.15173967 0.0325213 0.25926155 0.11240154 0.027161911 0.0639205 0.3384863 -0.2194606 0.31630492 -0.15516095 0.6488776 0.519231 0.19366765 -0.9399506 0.23307823 -0.4767524
ardilla -0.23764727 0.1336524 -0.4630412 -0.5676166 -0.39528075 0.09545127 0.5747841 0.17678319 -0.10523092 0.024102267 -0.37956005 -0.15147138 -0.02402718 0.07792359 0.115395516 0.3288286 -0.16822302 -0.26520717 -0.1285617 0.5694386 -0.23460487 -0.14438945 0.14028843 -0.12695055 -0.016946096 -0.50229806 0.010295393 -0.17048128 -0.14071824 -0.2412901 0.21491453 0.017650558 0.197431 -0.2990086 0.5204192 0.54176325 -0.19181256 0.39098194 -0.2145903 0.05999066 -0.134814 0.40558308 -0.47704974 -0.7753433 -0.06382738 0.23092845 0.4277253 -0.31501067 -0.37303495 -0.8258377
planta -0.30538052 0.06463564 -0.3490532 0.20537834 0.019419808 -0.23706529 0.60358614 -0.25368437 0.31797537 -0.09991764 -0.022130003 -0.48462373 0.3061721 -0.61062247 -0.09786707 -0.35108665 -0.004417395 -0.33980405 0.21983127 0.7217053 0.22617659 -0.47253686 -0.055304002 -0.13430816 -0.29491225 0.066125244 0.33048812 -0.079436205 0.0003051695 -0.2049258 0.15904482 -0.2996449 -0.16116561 -0.029596852 0.5173498 0.47471446 0.6874135 0.6666147 -0.3054146 -0.055911414 0.4482362 0.43768013 -0.37487796 -0.5720203 0.32998356 0.3147665 -0.36653316 -0.5966948 0.2801913 0.07840941
moto -0.81855404 -0.044487845 0.50401837 -0.1853944 0.41956118 0.8002352 0.94339675 -0.14109743 -0.026673023 -0.31467924 -0.09728118 -0.22503196 -0.42467585 -0.34568375 0.23138554 0.19853562 -0.5138942 -0.56392974 0.06377447 0.24275357 -0.6370087 -0.2108448 0.1539055 -0.1493468 -0.14018907 -0.42722014 0.05736653 -0.05310827 -0.11501048 -0.41455257 -0.0865847 0.33317846 -0.1017561 0.07755284 0.45101205 0.39613202 -0.11016537 -0.14718558 0.6161452 0.46937785 -0.13687095 -0.40270978 0.013005564 -0.04000723 -0.108147174 0.06421956 -0.26388094 -0.2178176 -0.097410224 -0.80543923
lobo -0.108865134 -0.1822274 -0.12269888 -0.043075673 -0.22398642 0.15340655 0.71462625 0.6637669 -0.2305877 0.361888 -0.15742084 -0.5351648 0.24575327 -0.20551142 0.28268293 0.2979156 0.043236084 0.37185436 0.24832432 -0.14445683 -0.41270158 0.16306642 0.17922778 0.2546053 -0.48349732 -0.69974023 0.107271105 -0.19960494 -0.19083063 -0.43786278 0.16219896 0.50671184 0.20090519 0.22295153 -0.05419037 -0.080192134 0.055862866 -0.34872553 -0.786434 0.076215506 -0.07022519 0.20137197 -0.14018953 -0.3027949 0.20395106 0.17452015 0.06641996 -0.7606924 0.07628817 -0.37140456
zapato -0.3483506 0.3117787 0.074838094 0.1854922 0.5583016 0.06429923 0.69405943 0.45955893 0.16838926 -0.20359832 0.10128926 -0.56631076 -0.14325906 0.25438365 0.62848914 -0.19586414 0.16118027 0.16563392 -0.029643135 0.29889634 -0.3346148 0.0853367 -0.08751991 -0.030617058 0.40289408 -0.2998542 -0.033900123 -0.33366236 -0.40089777 -0.40071422 0.42720032 0.5851621 -0.06831805 0.19339392 0.11073744 0.6429429 -0.018051816 0.36947453 0.25416607 0.23787841 0.19249186 0.060100045 -0.50561875 0.06947369 -0.087682515 -0.64158636 -0.010785792 -0.39261037 0.26741204 -0.09379997
pelo -0.3022513 0.23957336 -0.0504685 -0.37452576 -0.56197983 -0.13216859 0.7184321 0.60764045 -0.4177486 0.32885024 0.026717648 -0.45066875 -0.20719586 -0.23510326 0.40923068 0.11006953 -0.15844405 0.034757987 0.2245645 0.26663193 -0.13034864 0.46880534 -0.24567942 0.04280165 -0.07553799 -0.6558098 0.3641807 -0.008377426 -0.46416008 -0.44819903 0.14128079 -0.4108469 0.014652698 -0.19969125 -0.3272324 0.7869447 -0.23271431 0.40343264 -0.2692504 -0.021221656 -0.039765 -0.2029686 -0.07994343 0.25954324 0.18616936 0.41438556 -0.031138785 -0.30520338 0.024045022 -0.6025293
caja -0.1580979 0.5253661 -0.07732518 -0.047873322 -0.42063057 0.14839727 0.51010114 -0.020414706 0.24466996 0.5217874 -0.4278667 -0.4966413 -0.12532057 -0.3031066 0.41277704 -0.28476602 0.06812263 -0.23215349 -0.17811458 0.23689583 -0.625038 -0.12889923 0.51899505 0.22849564 -0.17048888 0.34921116 0.105205595 -0.35789132 -0.36118662 -0.014518333 -0.2160272 0.472668 -0.042058893 -0.53249866 0.22027664 0.61418366 0.0048493855 -0.0014130918 -0.10014363 -0.6665403 0.24303578 0.5819696 0.41614404 -0.3688848 -0.018450394 0.13675365 -0.27696005 0.11427061 0.12800172 -0.12542929
playera -0.37369424 0.4636218 0.026173623 0.12708098 0.27932554 -0.14590073 0.43111888 0.10689575 0.1195963 -0.0013720067 -0.20543295 -0.8559068 -0.6789428 0.08959814 0.66428214 0.23868771 -0.2145233 -0.28928825 -0.098086014 0.08605053 0.30747524 0.2687591 0.5582904 0.39351735 -0.29836568 -0.26537472 0.1129705 0.34088722 -0.31496283 -0.7081652 0.30034 0.27550772 -0.13455041 -0.7622779 0.27406588 -0.13365297 -0.0102283545 0.62125194 -0.16716084 0.0745975 0.30301714 -0.03974291 -0.039150298 0.08585321 -0.40556702 -0.03356057 -0.13496833 -0.35485047 0.1557442 0.26723978
gato -0.42243442 0.30606672 -0.36746925 0.2572723 -0.32890692 0.08068599 0.56705046 0.803572 0.22569108 0.7345701 -0.20788412 0.03883652 -0.3751667 -0.1064457 0.6801265 0.016066577 -0.24763425 0.21194248 0.22885142 0.061364125 -0.16468379 -0.115729704 -0.16606411 -0.22737905 -0.8361309 -0.6300198 0.062674105 0.013503744 -0.10037109 -0.06289921 0.3077702 0.4435927 0.3951156 0.18880163 -0.17534366 0.30409184 -0.11717881 0.1101615 0.039417077 -0.29446965 0.20923084 0.07704816 0.14522897 -0.5894718 0.079417735 -0.025664033 0.1147256 -0.14083286 -0.43018737 -0.34233096
víbora -0.14114241 0.076558635 -0.118022904 0.39266217 -0.35655645 0.21198204 0.69118476 -0.092171945 0.039960325 -0.32062352 -0.18159616 -0.4595462 -0.6573067 -0.071589194 0.10671854 0.13752018 0.0009006304 -0.06593211 -0.55348396 0.1309925 -0.74940467 -0.22304912 0.5983896 0.1575016 -0.24218018 -0.4789506 -0.12155809 -0.074740194 -0.09853205 0.32455537 0.6857936 0.28630063 0.1041397 0.16975282 0.036204472 0.44267705 -0.00936529 0.09570788 -0.0581321 0.30222198 -0.21028584 0.17511041 -0.6211831 -0.50081754 0.27979913 0.27246767 -0.40456247 -0.69462967 -0.25617582 -0.5320887
pescado -0.2696408 0.25000757 -0.19824217 0.40034285 0.26062906 0.5749566 0.46795148 0.18634546 0.16848463 0.852521 0.6063293 0.061809942 -0.2787512 -0.103617646 0.36011437 0.19838871 0.07455973 -0.17426771 -0.4701027 0.49870065 -0.53961754 -0.17149903 0.08767445 0.12670477 -0.42812333 -0.06727814 0.4641259 0.13655828 0.44694123 -0.50022817 0.3280986 -0.17271209 -0.3833455 0.05136969 0.5540867 -0.10123189 0.1434482 -0.11511755 -0.4428633 -0.51444364 0.049933374 -0.036196243 -0.6392061 0.05689136 -0.2928929 0.34846053 -0.12048999 -0.58486176 -0.035836972 -0.17974661
ventana -0.021749638 0.40547085 -0.24655354 0.2652077 0.25014645 -0.31914076 0.5683198 0.43748647 0.1780569 0.14996707 0.2507725 0.01711033 -0.19156 -0.11066109 0.10117509 -0.35657603 -0.31010357 -0.52299774 0.19374357 0.43609267 0.027207771 0.103147574 0.37547836 -0.2615128 -0.25177595 -0.04904611 -0.71699214 -0.32301348 0.13304207 -1.0151381 0.035890874 -0.06749004 0.033538163 -0.07880711 0.75396764 0.3943699 0.005296828 -0.1462884 0.20155129 -0.23333204 0.13836254 0.3370856 0.24487439 -0.5469867 0.08643821 0.38847056 -0.4343732 -0.2932179 0.2726368 0.056420438
perro -0.014437232 0.2960688 -0.30056176 0.4292015 -0.13341527 -0.05445069 0.4553387 -0.046583626 0.25564355 0.09870249 0.16905014 -0.34851038 0.032815937 0.18877736 0.7198302 0.21545872 -0.3959904 0.35990873 -0.10101865 -0.046066865 -0.9918112 -0.3220691 0.05151759 -0.08620737 -0.30576116 -0.7587547 0.16347705 -0.12314664 -0.4786668 -0.59753925 -0.25737002 0.2205815 -0.11615611 -0.2532781 -0.06421925 0.63322145 -0.20717682 0.17001626 -0.32764363 0.3481961 0.11041265 0.44973463 -0.068698175 -0.36601287 0.412704 0.38151765 0.29428825 -0.14918081 -0.4145925 -0.23239638
cacahuate 0.11556413 0.22961308 0.17264284 0.080261886 0.23450191 -0.26855218 0.08528958 0.3293066 -0.046279654 0.5367147 0.047819965 -0.3103213 -0.22234693 0.08168176 0.07746876 0.27447775 -0.36393753 0.23074485 -0.24873225 0.8632319 -0.24570227 -0.24152571 0.38220397 -0.4537742 -0.15657787 -0.122429974 0.62736815 -0.22181769 -0.073788 0.10553957 -0.2088613 -0.3330397 -0.12367958 -0.40170166 0.3661029 0.3752812 0.52029634 0.13169797 -0.62837565 -0.26768026 -0.27932194 0.29006174 -0.092579 -0.6168487 0.036730137 -0.54301286 -0.31675386 -0.21323292 -0.43551016 -0.6829643
mercado -0.10556704 -0.06901299 0.055666625 0.24887834 0.27024648 -0.16064933 0.4694404 0.25177416 -0.08610097 0.03766514 0.15849988 -0.24511412 0.61440974 0.043520637 1.1555014 0.14542606 0.11101312 -0.27932346 -0.26498598 0.087852076 -0.37095422 0.260485 0.45162484 0.33075082 0.031636734 -0.25003147 0.17517962 -0.39169317 0.122641385 -0.7792399 0.237729 -0.17823943 -0.14506751 -0.28242293 0.49946415 0.5672693 0.58685595 0.35900512 -0.027790671 -0.24764727 -0.2780728 0.18970983 -0.7438954 -0.056821983 0.34742945 0.0014477426 0.16092569 0.18669699 0.11751909 -0.35954696
botas -0.5509543 0.631657 0.07003547 0.19067286 0.7992382 0.33061284 0.43792605 0.42048326 -0.37711784 -0.07558123 -0.40528998 -0.41291603 -0.1829292 0.09523516 0.28807974 -0.25247502 -0.48043567 -0.41491947 -0.059288017 0.5216776 0.08421475 -0.1769208 0.0700966 -0.43425974 0.056371555 -0.0692136 0.5922408 -0.5130458 -0.32383925 -0.56458896 0.5787533 0.5469022 -0.17968284 0.03651265 -0.45811552 0.12969767 0.05725563 -0.014796222 0.4788291 -0.28755805 0.3670211 -0.09414558 -0.1999302 -0.3334132 -0.04135363 -0.16712737 0.012208412 -0.39325914 0.01827226 -0.25371173
pato -0.45172498 0.22594234 0.037733052 0.34713435 0.2630426 0.2724897 0.15718983 0.35713372 0.16612186 0.031679735 0.104871705 -0.14146703 -0.42297703 -0.17281285 0.756818 -0.15572639 -0.04503958 0.20849943 -0.57924336 0.540453 -0.8038902 -0.54068553 -0.082712315 -0.105812065 -0.21050033 -0.40090847 -0.29624695 0.034276277 -0.06939966 -0.6008647 0.5676096 0.2321011 -0.06363418 0.096351415 0.0034346336 -0.20621626 -0.033464253 -0.24800602 -0.25346473 -0.28976354 0.21364437 0.1083091 0.556038 -0.45198926 -0.042160857 0.44959253 -0.010624317 -0.18513495 -0.35767573 -0.15400404
brazo -0.043973442 0.09906709 -0.019638313 -0.14859362 0.51271 -0.038627166 0.6348995 0.14229167 -0.2622355 0.21097119 0.44479266 -0.43979928 -0.18166994 -0.38910535 0.15731052 -0.110124536 0.185946 -0.40993354 0.24526517 0.30393764 -0.045647796 0.5174312 0.16197613 0.43106493 0.294027 -0.7359376 0.046221875 -0.21025397 0.002920946 0.19738013 0.30285883 0.22604339 -0.4606686 0.063824534 0.24433364 0.26950002 -0.36415753 0.05875506 -0.681914 -0.28552556 0.44895825 -0.4741201 -0.2630436 -1.1438042 -0.15743738 0.027236423 0.32179746 0.05675962 0.4377119 -0.62315726
manzana -0.46199113 0.48293445 0.2437104 -0.13324839 -0.21248606 -0.058053635 0.20449859 -0.040373832 -0.16624133 -0.11706581 -0.032862138 -0.43008116 -0.2764193 -0.05058763 0.41191646 0.15790588 0.19360258 -0.15596652 -0.30617684 0.08186738 0.09102685 -0.18178861 0.22328112 0.6273968 -0.6311228 -0.176314 0.5199009 -0.46900964 -0.03531498 0.2124059 0.11081733 -0.11598274 0.10206161 0.03609043 0.75765264 0.25594908 0.19348809 -0.0587348 -0.80509996 0.09979838 0.13761589 0.3031843 0.040016044 -0.31912175 -0.08038851 -0.19633915 -0.28249028 -0.6404464 -0.86549 -0.30107725
tigre -0.6517084 0.028362315 -0.31476325 0.24045882 -0.03216689 0.34816772 0.82823867 0.103633076 0.12896518 0.57514256 -0.19942257 -0.15739296 -0.24132916 0.27831003 -0.056355026 0.16654357 -0.1554447 0.5154103 0.43441966 0.034867868 -0.5966029 0.19783805 0.5676363 -0.04308594 -0.41281694 -0.72794545 -0.44584355 -0.67615944 -0.38783494 -0.19384833 0.36957172 0.5577417 -0.058905277 0.22450091 0.09183605 0.18377843 0.2447811 0.25349507 -0.28754458 0.04735469 -0.15705976 -0.050865892 -0.103348285 -0.17050792 0.17710328 0.14129926 0.16923892 -0.6454761 -0.3139159 -0.39252087
hipopótamo -0.53451335 -0.24952102 -0.15800774 0.40136397 0.1993244 0.46382934 0.3311414 0.6332472 0.08535467 0.17835322 0.44226232 -0.29247177 -0.30657208 -0.34983784 -0.26433283 0.2391468 -0.040840827 0.2747288 -0.24600583 0.03025328 -0.24823938 -0.2574497 0.37636694 -0.30424193 -0.31323135 -0.5557388 0.11751884 -0.52625996 -0.058118936 -0.21420243 0.13147695 0.56482005 -0.21268135 0.35827297 0.32348153 0.0022375467 0.11359228 0.22751334 0.13459763 -0.56085396 0.05931209 -0.016752446 -0.73259866 -0.05666825 0.18190318 0.4238586 0.03232173 -0.52456355 -0.008707008 -0.61726516
libro -0.77031314 0.115369216 0.20739706 -0.024873624 0.16278933 -0.7263167 0.44662866 0.65938723 0.47430596 0.026761312 0.35652637 -0.42222288 0.6215611 -0.21003895 0.379197 -0.15640135 -0.18642472 -0.37954283 -0.026466252 -0.11358094 -0.13134481 -0.060390417 0.2730531 0.19345114 0.2363421 -0.19334674 -0.6529127 -0.041352406 -0.5234451 -0.24203788 -0.320672 0.17619234 0.36299396 0.29411232 0.41614705 0.17698434 0.17513774 -0.3906594 -0.15673535 -0.3747109 0.7619577 0.0073470813 -0.40992963 -0.53111786 -0.23062317 -0.11875277 -0.49677947 -0.6323728 -0.050336912 -0.30552974
televisión -0.08019747 0.22807929 0.7427918 0.46201047 -0.35535392 0.08184612 0.4999004 0.57494897 0.25170287 0.32734147 0.15851228 -0.19062895 -0.1856047 -0.06678249 -0.038330242 -0.110414 -0.48836556 -0.24772592 -0.4030372 0.223922 -0.0007908415 -0.1939159 0.48738196 0.90272903 0.4493814 0.38835207 0.04515467 -0.11501264 -0.1462764 -0.6235434 -0.33253878 0.1908693 0.23962742 -0.02327405 0.21666937 -0.08806422 0.45502403 0.2876718 0.49329796 -0.46062878 -0.13056344 0.1616819 -0.4732019 -0.78562623 -0.105118796 0.33203754 -0.65131414 -0.44433412 -0.34860876 -0.22799061
leche -0.5745834 -0.0811466 0.00946507 0.39660978 0.11086063 -0.263618 0.43359122 0.19084424 -0.04181458 0.074383385 0.5144323 -0.56697947 -0.21120931 -0.48674 0.21654099 0.2729916 -0.041729476 -0.09162664 -0.1783043 0.501409 -0.30054402 0.686488 -0.0504224 0.5719832 -0.360048 0.6946283 0.4843684 -0.3637666 -0.059538234 0.39054814 0.48360676 -0.12507755 -0.035491508 0.25481313 0.4390034 0.45427266 0.24211977 0.2098764 -0.14161825 -0.27454284 -0.09683122 0.3258742 0.4701763 -0.32105356 0.20812751 -0.32554203 0.11495486 -0.58637863 -0.17078252 -0.13044938
cara -0.056356806 0.019222183 -0.13735108 0.23977935 -0.44424403 -0.36067256 0.16233206 -0.23954062 -0.14582871 -0.08941829 -0.17403303 -0.7226113 -0.24633758 0.09286614 0.16731383 0.12633258 -0.2725093 -0.4701001 -0.05323334 0.36369148 0.15781753 0.3441663 0.31831676 0.120902896 0.107691936 -0.7545026 0.25807488 -0.17770508 0.04280616 -0.41304773 0.5450008 0.10943349 0.043534942 -0.03523534 0.51988155 0.37186226 0.011175963 0.33674732 0.1617884 -0.8698921 -0.5804866 -0.0966519 0.8221967 -0.32495326 0.050788034 0.37988785 -0.31224865 -0.47039258 -0.17428909 -0.54840624
tractor -0.19772175 -0.5368965 0.14859112 0.11921693 0.3410442 0.69718045 1.1016917 0.16119245 0.0772271 -0.3955799 -0.23431763 0.14412838 0.07380334 -1.115292 0.29781297 -0.45957357 -0.48777997 -0.3224589 0.31898424 0.69388443 0.24781242 0.20070939 0.26890025 -0.15553352 -0.06832279 -0.118306205 0.33528164 -0.30557013 0.057145942 -0.36723804 -0.12635967 0.40752268 -0.10719901 0.110245526 0.1237381 -0.031592086 0.36500195 0.03641054 0.13180375 0.4262308 -0.091779254 0.22848941 -0.03011405 0.022336833 -0.11322611 0.05481716 -0.15487835 -0.50618833 -0.17736614 -0.75596017
gorra -0.17305788 0.0922087 0.23782545 0.48155788 0.08679132 0.03839477 0.5755196 0.6323713 -0.23223944 0.045070913 -0.14403652 -0.29270938 -0.65802467 0.43917534 0.45882416 -0.45577803 -0.18008101 -0.18396974 0.1510288 0.44559008 -0.05859823 0.25152126 0.4193339 -0.2596797 -0.3523812 -0.5178139 0.52204907 -0.07623071 -0.73393524 -0.55220044 0.03009333 0.6999007 -0.03845717 -0.30824915 0.132453 -0.16236065 0.101628326 0.24665211 -0.24144103 -0.34138906 0.53981197 0.17999451 0.1202025 0.19406638 -0.07414534 0.3819327 -0.1406301 -0.08418609 0.6734331 -0.109458596
comida -0.1388127 0.29526463 0.0013627979 -0.17626151 0.09447736 -0.10625168 0.28917286 0.18343422 0.2083232 0.22573127 0.17381443 -0.1960188 0.1533771 -0.40137845 0.36083388 0.28721592 -0.008811259 -0.08554416 -0.19505711 0.49640858 -0.5674318 -0.08544207 0.20850983 0.22812878 -0.25314572 0.18589841 0.30718914 -0.51403135 -0.09406966 -0.073962584 0.2550397 -0.041059617 0.2184835 -0.10263386 0.24546649 0.008070699 0.03582668 0.20167644 -0.45872638 -0.3205635 -0.04947616 0.20344189 0.028766526 -0.135454 0.08134449 -0.09109064 0.044987172 -0.30629143 -0.40389904 -0.28326783
palo -0.040683568 0.016880617 0.024330799 0.06045471 -0.13883458 -0.3850314 0.41992962 0.4330211 0.099350736 0.1330565 0.19477564 -0.26685867 -0.03464544 -0.76056623 -0.3686379 -0.22601856 0.17612794 0.39564148 0.0050575966 0.036764357 -0.49275854 -0.51066345 0.2961987 0.15649247 0.025376841 -0.30556977 -0.2232057 -0.28842008 -0.32739502 -0.63004297 0.5176442 0.10659301 -0.28053012 -0.2908147 -0.19069716 0.5588248 -0.29196605 0.19961078 -0.65098333 0.15596837 0.17734247 0.11673765 0.12446514 -0.4905439 0.3011817 -0.44653222 -0.52638596 -0.1649037 0.05773632 -0.64609104
tren -0.62167525 0.0021736962 -0.02430562 0.12287249 0.32838222 0.6983271 0.890788 0.17598493 0.8149451 -0.18782528 0.3322072 -0.5642797 -0.1704327 -0.41296476 0.16297 0.16246498 -0.4051535 0.01840515 0.54746395 0.78178495 -0.3807681 -0.051423594 0.36692712 0.20418967 0.028580187 -0.18984915 0.34047985 0.3290982 0.097102106 -0.2081527 -0.10875471 -0.29121894 0.07561411 -0.41271964 0.28232047 -0.14519747 -0.41444126 -0.1333452 0.3431828 0.18479848 0.39622566 0.29822809 -0.09789166 0.15222488 0.19057253 -0.043570776 -0.021197036 0.011379359 0.09682451 -0.7860911
calzón -0.623333 0.09820368 0.118853405 0.1275239 0.09333367 -0.22185126 0.3544573 0.37643418 -0.17154445 -0.4031061 0.37202987 -0.8174253 -0.19776115 0.16748098 0.21754093 -0.37283835 0.11125644 -0.46675703 -0.36781853 -0.002043863 -0.3404348 0.4156581 -0.00021865618 -0.22009031 -0.25170067 -0.35584965 0.4605358 -0.06775545 -0.7291303 0.06850052 0.07691868 0.4202206 -0.5925221 -0.82923675 -0.054718718 0.41424254 -0.15505585 0.24803463 -0.1076938 -0.14889544 0.39634806 0.032176696 -0.2507303 -0.095803685 -0.16182876 0.13441189 -0.11620231 -0.4856017 -0.32782042 -0.32554886
aretes 0.15520483 0.32360658 -0.30606222 0.09085327 -0.09523174 0.009042085 0.6681769 0.029565237 -0.31044486 -0.08053933 -0.017942285 -0.74962115 0.26785263 0.5234337 0.5188931 -0.87409145 -0.1710689 0.2775109 0.01666931 0.7439857 0.16066939 0.27441323 -0.17039892 0.4500589 0.15470342 -0.52540725 0.4017843 -0.30417663 0.030356865 -0.2813521 -0.22537586 0.22848001 -0.22971469 0.06406118 -0.27584487 0.17216845 -0.17988566 0.73052335 -0.104000315 -0.7153013 0.085734546 -0.0055796998 0.19861665 -0.28127423 0.062049765 0.21456888 -0.5465495 -0.34159234 -0.32814515 -0.52376896
bicicleta -0.29699394 -0.1933237 0.0089462325 0.077548645 0.10500395 0.5682928 0.9156312 0.1779173 -0.24913609 0.13807368 -0.122325316 -0.45813772 -0.092837445 0.30869544 0.27132326 0.10482382 -0.32142475 -0.63268423 0.09014967 0.097507484 -0.45098096 0.100976504 0.27983686 0.04504747 0.10236311 0.013437957 0.1660133 0.04620199 0.23223425 -0.51555127 -0.11228564 0.3703272 -0.3964668 0.004654962 0.58200765 -0.10056689 -0.18439873 0.22061397 0.08131839 0.92111975 0.1320032 0.3128976 0.2483864 -0.5711716 -0.16790664 -0.05678652 -0.43314216 -0.12887157 -0.104051426 -0.8330479
borrego -0.3959887 -0.31614304 -0.43223783 -0.017993435 -0.1107088 0.043012436 0.5600379 0.71368307 0.033032883 0.092611596 0.38978538 -0.45696458 0.31318408 -0.16225554 -0.07725421 -0.09533028 -0.3545974 -0.39184764 -0.16950986 0.17523369 -0.28625488 -0.08856978 -0.08470712 0.32228708 -0.45882747 -0.40320742 0.09564146 0.030711068 -0.2311071 -0.87396336 0.19206497 0.5023419 0.18220669 -0.24619173 -0.48312426 -0.1383556 0.12203982 0.38085493 -0.4209199 0.17967911 -0.39512354 -0.11457153 0.14749828 -0.1268234 0.34861904 0.0017863977 0.42769316 -0.52998555 -0.45878989 -0.4897043
dientes 0.570663 0.10992003 0.025330637 0.09800598 -0.00079214416 0.07095665 0.49560717 0.25426322 -0.19431584 -0.049768206 0.2655516 -1.2235974 -0.17765003 -0.17966096 0.3127895 -0.3174449 -0.1964006 0.09758587 0.41173232 0.27898365 -0.42763188 0.30348977 -0.38290682 -0.06893497 -0.3264195 -0.103557974 -0.07379681 -0.4172829 0.013183943 0.21958175 0.5297741 0.11263373 0.11546221 -0.044689257 0.16256467 -0.03994676 0.6535039 0.06135919 -0.20852968 -0.3966501 0.21092613 0.13292548 -0.18938288 -0.24459288 0.57105017 0.095282614 -0.20213005 -0.70703197 -0.30080754 -0.6843705
mueble -0.401398 -0.09270572 0.44400626 0.32401717 -0.39362034 0.15949689 0.30219734 0.4273761 0.5419893 0.14143677 -0.22621362 -0.4463919 0.41420332 -0.38887212 0.32276383 -0.47343057 -0.02187721 -0.17397158 0.14904277 0.4011166 0.09526093 0.04785016 -0.09427086 0.35054004 0.09084596 0.07862676 0.081564836 -0.5030681 -0.71320474 -0.493243 0.21856649 0.23561332 -0.08732871 -0.83134544 0.3819851 0.4242203 0.20510261 -0.04965173 0.18003172 -0.113349594 0.3885528 -0.09056543 -0.37971064 -0.3781267 -0.022791924 -0.09156932 -0.6130595 -0.37605605 -0.19011769 0.10555127
autobús -0.47124085 -0.026943013 0.35041243 0.2972489 -0.052641105 0.44081724 0.70523727 -0.33965892 0.07247857 -0.46082184 -0.11268223 -0.14426628 -0.13718274 -0.38537893 0.8632232 0.6003877 -0.18802792 -0.030093463 0.5710514 0.5219191 -0.45867515 -0.0070948405 0.36881733 0.14579415 0.2674376 -0.5327031 -0.29313186 -0.087005675 -0.15129036 -0.5537128 -0.28247845 0.22602297 -0.43915272 -0.18971854 0.63134295 0.05340599 0.16527729 0.05917885 0.1721831 0.12935704 0.20334554 0.20686714 -0.14999971 0.30359855 -0.20337471 -0.3419818 -0.44434962 0.07821352 -0.3434142 -0.61378694
sol 0.07965088 0.3270809 0.2160564 0.14085741 -0.009387946 -0.18765478 0.5047899 0.5512014 0.10293728 -0.09644047 0.15345849 -0.048302233 0.21674336 0.015114741 0.20162804 -0.14408398 -0.43200886 -0.3749799 0.57275635 0.6883698 -0.068490565 0.12266503 0.5899619 0.36984572 -0.639102 -0.006319618 0.21626583 0.12749754 0.070090845 -0.70347553 0.1228889 -0.07691185 0.20227432 0.080719374 -0.025179863 0.2400199 -0.16304286 0.064954124 -0.55531627 0.20395748 0.7459048 0.18411674 0.12299182 -0.09934502 -0.43327165 0.23075138 -0.29696092 -0.74188054 0.3985208 0.17587793
taco 0.07372182 -0.37586236 -0.13473958 0.030928237 -0.011259014 -0.33798835 0.46683633 0.013223143 0.03080007 0.23402926 0.526916 -0.2167281 0.07982888 -0.47993574 0.23423809 0.24756886 -0.007629768 -0.40156332 -0.12846497 0.23113945 -0.92356354 -0.38605428 0.16731511 0.043247614 -0.2573346 -0.042666506 0.37656444 -0.24228604 0.3290364 -1.0428513 0.06472456 0.27161175 0.12820987 -0.28681353 0.5189848 0.11797572 0.05678184 0.5124032 -0.7487503 -0.31377223 -0.15331385 -0.25856653 -0.094532005 -0.21118951 -0.06029875 -1.0475326 0.15897176 -0.23904762 -0.45876145 -0.37401718
falda -0.5338647 0.87539816 -0.18072082 0.4454114 -0.07752327 -0.41506785 0.2072092 0.22494572 -0.11019233 -0.23505074 -0.7220746 -0.68902445 -0.20900045 -0.033881545 0.02200663 -0.16585813 -0.2234989 -0.36758086 -0.6261519 0.48268175 -0.20049748 0.4621207 0.30293405 -0.13623601 0.2649016 -0.6939435 0.35345906 -0.45509633 -0.2243467 -0.5398279 0.027405689 0.34397197 -0.6123092 -0.09359955 0.038099546 0.03222909 -0.2598442 0.37077287 0.26001045 -0.09853475 0.4759199 0.30964118 -0.41247448 -0.13793825 0.047127426 0.13052474 -0.06642802 -0.34899223 -0.12718081 -0.06589467
árbol -0.37130252 -0.05613875 -0.38022017 -0.43046486 -0.23199497 0.046259884 0.5305368 0.402034 0.32778618 -0.055470914 0.06593946 0.27208564 0.14664334 -0.15837713 0.20743798 0.18251912 0.30068055 -0.37701255 0.033177692 0.6070616 0.30457994 -0.5015572 0.19955397 0.14070597 -0.2926233 -0.28625092 0.19947849 -0.50945663 -0.41692013 -0.34786215 0.3069108 -0.2706044 -0.40838543 -0.13673602 0.4029507 0.27083936 0.24557915 0.24410391 -0.66122013 0.26848695 0.47844613 -0.017828163 -0.022608269 -0.56367946 0.26598758 0.025640361 -0.39405832 -0.3098642 0.028897066 -0.27293593
sombrero -0.004807851 0.32442418 0.094726935 0.44754708 -0.15423569 -0.116690196 0.5835618 0.41446054 -0.4029408 -0.54509485 0.22846964 0.253028 -0.22857012 -0.08296386 0.7552803 -0.14063418 -0.16595425 0.07045592 0.16853327 0.5281162 -0.16594018 0.059468836 0.32075262 -0.33218917 0.06810429 -0.29385626 0.7127763 -0.13807411 -0.7591512 -0.6889458 -0.16602795 0.5723282 -0.11826826 -0.08944447 -0.02798066 -0.03913079 0.24468021 0.12544306 -0.58009607 -0.06098402 0.08270166 -0.01613989 -0.07029589 -0.39007702 0.021122456 0.17620735 -0.051492296 -0.0783975 0.44452694 -0.069957964
fresa -0.28092915 0.51312786 0.03317104 -0.21327242 0.42313057 -0.15057884 0.41398364 0.46565473 0.38057536 -0.00398886 -0.18850319 0.08130591 -0.15728918 0.0678465 0.28427768 0.37514186 -0.530726 -0.29904938 -0.3615517 0.16256616 -0.16650254 0.09843581 -0.21910131 0.45318645 -0.31306154 -0.27281275 0.15548176 -0.8749182 -0.057469223 -0.04564765 0.096273184 0.1359708 -0.34501624 0.16603166 0.41914472 0.44195023 0.15134114 -0.06649812 -0.8664043 -0.37184194 0.073176734 0.124436334 0.16842431 0.31883517 -0.1699965 -0.09192354 -0.48121142 -0.5005191 -0.4696836 -0.36900234
queso -0.03783441 -0.12470916 -0.025545722 0.5994742 0.16807367 -0.027013985 0.48185942 0.49505246 -0.43064305 0.53620625 0.7284794 -0.19001512 0.19297504 -0.50586444 0.19082941 0.3158788 -0.044251427 -0.18600743 -0.48624063 0.72223645 -0.8785072 0.31152797 0.27798715 0.33428553 -0.5772067 -0.06880731 0.15159738 -0.49502063 0.30771142 -0.034186795 -0.09955575 -0.050728526 0.60773987 -0.097492054 0.08811435 0.11518613 0.431156 0.43990865 -0.32123592 0.11434027 0.21309972 0.14425544 0.2029494 0.06155585 -0.4657149 -0.3430127 0.061746567 -0.2347371 -0.35719997 -0.6004841
burbuja -0.66383463 -0.086072885 0.6939451 0.05566491 0.0900932 -0.20652065 0.20252396 0.035959527 -0.38954937 0.10152053 0.04609263 -0.72930765 -0.06440131 -0.33345684 -0.07857894 0.22224224 -0.122796394 0.16231108 -0.066873334 0.5100215 0.18246971 -0.21922243 0.12621963 0.12474111 -0.53888744 -0.3171891 -0.22978102 0.03956189 -0.30247697 -0.92947507 -0.12486858 0.08292509 -0.17497465 0.23228054 0.57125545 -0.09848398 -0.023027798 0.8941196 -0.32433426 -0.19670053 0.2612896 0.13359602 0.3110549 -0.57571816 -0.17038469 0.23944087 -0.34724164 0.6039973 0.12973236 -0.2711414
chocolate 0.15005322 0.26343983 0.019145805 -0.005705396 0.05571981 0.11951293 0.56249917 0.4011205 0.33979717 0.47705108 0.13207188 -0.65365183 -0.20176649 -0.14955851 0.15895419 0.2267734 -0.50567716 -0.33337787 -0.15331514 0.024816852 -0.15244228 0.13856906 0.34894747 -0.116834216 -0.64252645 0.088468224 0.42542896 -0.23253474 -0.073239885 0.11519089 0.4837974 -0.01895154 -0.06661326 0.14576827 0.38215837 0.86251646 0.059300784 -0.095774576 -0.5233076 -0.7210726 -0.0888176 0.2765534 0.74919796 0.003707491 -0.09133809 -0.46381006 0.2975967 -0.13658808 -0.22363943 -0.5685111
iglesia -0.195651 0.2496142 0.33988598 0.6121745 -0.428467 0.19152588 0.832863 -0.35514593 -0.17627373 -0.13259919 0.46398997 0.41189405 0.06166736 -0.4829832 0.17019571 -0.21076888 -0.58688915 -0.2527089 -0.26372004 0.028597435 -0.0585166 0.2552392 0.546706 0.51027536 0.018367626 -0.32261693 0.061170034 0.024455585 -0.057577066 -0.58904916 0.6225236 -0.47556415 -0.5068495 0.18847731 -0.2783815 0.60015893 0.38716117 -0.11485862 0.121593766 -0.5404125 0.42382225 0.29161513 -0.05965325 -0.8002477 -0.28205976 -0.4304833 0.17417611 -0.36042246 -0.94768524 -0.33968693
flor -0.547218 0.08959667 -0.4208284 0.09808302 -0.5561457 -0.066049784 0.3831426 0.30023262 0.09366985 -0.3778098 -0.15159053 -0.76667124 0.22257885 -0.44080478 0.41001317 0.39357486 0.059790324 -0.40332535 -0.23267104 0.58167905 0.19550122 -0.3893431 0.19255513 -0.20112993 -0.10516385 -0.28863868 0.21473025 -0.75273985 0.060258742 -0.3694363 -0.28345314 -0.34696457 0.10592188 0.12728213 -0.0066900267 0.08440762 0.17272727 0.65869755 -0.44152027 -0.18546654 0.013055097 0.3739118 -0.10181321 -0.35336864 -0.13718715 0.507512 -0.21714586 -0.5698404 0.4712699 -0.0089672655
mono -0.9454569 0.13059029 -0.23509498 -0.1863709 -0.02099671 0.18822944 0.4846833 0.48563528 0.026535388 0.0012159368 0.33478868 0.17359062 -0.3190899 0.08418279 0.40276924 0.08701281 -0.3990509 -0.08602163 0.004112051 0.19606937 -0.4023571 -0.027546115 0.13155544 -0.30482864 0.10940347 -0.27474597 0.5726707 0.04048208 -0.6295256 -0.039817587 0.10613134 -0.42442834 0.07017611 0.038051043 0.48431948 0.3034875 -0.36868063 -0.07854643 -0.44633022 0.13002151 -0.6217871 -0.1861845 -0.020707853 -1.0033975 0.11751549 0.33753243 -0.03983935 -0.11015606 -0.3359497 -0.77231085
lentes -0.13771088 -0.15846878 -0.2557771 0.43157294 0.1751627 -0.6137107 0.45701963 0.6160571 -0.095565006 -0.1397689 0.026398959 -0.6017646 -0.1158131 0.43329483 0.64735985 -0.78092355 -0.37990993 -0.36403084 0.6334105 0.27542835 -0.1293075 0.05472377 0.32034218 0.2015271 0.1847322 -0.22690983 -0.022690717 -0.034950767 -0.23059453 -0.16493616 0.22556032 -0.026922211 0.33003885 0.21378899 0.49606287 0.082107745 0.20883833 0.07847232 0.12133661 -0.7149767 0.6287077 -0.11680494 0.5224088 -0.27207932 -0.044427335 0.57764757 -0.6371839 -0.69441825 0.010953311 -0.3873935
ratón -0.3944442 -0.1667819 -0.0012947622 0.013510024 0.06188483 0.08539852 0.5300364 0.64731926 -0.32287508 0.2655439 -0.0878162 -0.36610964 -0.54604053 -0.32276532 0.27343056 0.24052234 -0.07664716 0.035593677 0.25162944 0.57267034 -0.6984693 0.2353623 0.03376466 -0.24366517 0.16881216 -0.2097665 -0.34993473 -0.06888873 -0.3085641 0.11915457 -0.23884198 0.20582363 0.6316988 0.036339115 -0.23351613 0.3587347 0.05954513 -0.109085865 -0.32107797 -0.08053489 -0.026435321 0.44527954 -0.6727995 -0.40354306 0.22121419 0.26121408 -0.34317067 -0.36972246 -0.76302433 -0.5277476
pan -0.5117817 0.43693805 0.028056353 0.27004716 -0.21217018 0.22574806 0.18507485 0.2847841 -0.1281943 0.12246638 0.18545748 -0.10057137 -0.1856051 -0.9055312 0.46026158 0.27425635 -0.33103916 -0.17927812 -0.19550987 0.44760945 -0.8619274 -0.13943422 0.2831089 0.50817424 -0.3648045 -0.26391327 0.4571353 -0.32285112 -0.14606 0.43207914 0.16520338 -0.029877912 -0.18831299 -0.012022778 0.33195952 0.3012814 0.4394605 0.42273948 -0.34243935 -0.20847636 0.100632556 -0.13328321 0.3584233 0.3045956 -0.23995568 -0.65069205 -0.051122736 -0.16747266 0.11135745 -0.26946023
olla -0.1258621 0.16886772 0.2601932 -0.366869 0.26965067 -0.06504363 0.35714057 -0.052908637 0.579022 0.0012538405 0.3478296 -0.17136288 -0.10863114 -0.27703008 0.06651301 -0.2169434 0.2760115 0.08495108 -0.046147257 0.90725154 -0.41879898 0.43339723 0.4352136 -0.02496169 -0.28090975 0.283195 0.14948149 0.07816538 -1.1135858 -0.2210288 0.17621896 0.082702056 0.27660775 0.15466048 0.37899548 0.19142014 -0.36492023 0.70315045 0.11929783 -0.29061928 0.098683536 0.6365163 0.30771568 0.0718587 -0.3247633 -0.3399015 -0.2932323 -0.50703657 -0.25194785 -0.5536884
vestido -0.6491389 0.5628261 -0.17535257 0.46261153 0.023961367 -0.5392254 0.5257544 0.41553077 -0.36607674 -0.057600647 0.016447723 -0.47032222 -0.23585595 0.099372 0.3326258 0.2994095 -0.1474424 0.019806748 0.20343612 0.37028313 0.03691968 0.8284031 0.19888502 -0.110440835 0.01802754 -0.43778887 0.06570526 -0.47767654 -0.10666075 -0.5399328 0.44994655 0.1223749 -0.093409225 -0.14772974 -0.25482714 0.2629185 0.0017717067 0.58291787 -0.12242779 -0.0761103 0.7917202 0.11601709 -0.14990361 0.0017905341 -0.20136148 0.036522187 -0.14383608 0.33669835 -0.22831212 -0.028232723
gelatina -0.2041331 0.71732134 0.6951895 0.009538057 0.6439308 -0.25694337 0.3381488 0.31321076 -0.14955758 0.3883532 0.27071607 0.06588789 -0.1479923 -0.57456183 0.07821099 0.277404 -0.45517543 -0.25753224 -0.0044979765 0.41628167 0.1925645 -0.15922235 -0.25751486 0.11885745 -0.57170534 -0.1402232 0.20074272 -0.5718183 0.12081109 0.051300455 -0.19598201 0.13104613 -0.07700895 -0.39303175 0.36010677 -0.054984197 -0.13421784 0.51342845 -0.6048248 -0.52064115 0.14425582 0.24776077 0.23213415 0.056966864 -0.33432245 0.15252665 0.09900801 -0.7115056 -0.34895858 -0.26523948
triciclo -0.61455727 0.09976023 0.24266808 0.674245 0.32535565 0.47375938 0.47993574 0.14655098 0.16072264 0.24802361 0.03871632 -0.23863387 -0.17630376 -0.14843425 0.6475743 0.21021035 -0.19742659 -0.45815033 0.39238873 0.6188524 -0.20612447 -0.009977204 -0.35471314 -0.08104138 0.013532901 -0.44662866 0.058987204 -0.28742248 0.012121189 -0.3549139 -0.6434424 0.3522571 -0.25732145 -0.11831064 0.5094782 -0.34214377 -0.29065132 0.50868356 0.055189792 0.7135285 0.13490914 0.20448215 0.5776198 -0.38871562 0.6090801 -0.10383973 -0.5138137 -0.062855646 -0.24515696 -0.5127318
cocina -0.1687237 0.2541393 0.29415387 0.012738772 -0.026282415 0.019489106 0.07913725 0.024912134 0.4279987 0.1894232 0.26847106 -0.10852372 -0.00434271 -0.47842106 0.07174416 0.07226805 -0.004291197 -0.019830326 -0.100222416 0.47375306 -0.40227517 0.7914456 -0.09219155 0.25501072 -0.20358357 0.025336167 0.06370531 -0.34547088 -0.5475341 -0.40807757 0.5437574 0.34361312 0.12148604 -0.12161976 0.6292209 -0.14047591 -0.04132386 0.5456498 0.12618162 -0.49921945 0.30395678 0.22935338 0.1747788 -0.38297826 -0.32757282 -0.52394015 -0.12318443 -0.35222292 -0.2632645 -0.022970825
elote 0.2889956 0.10780613 -0.18005309 0.5798931 0.349315 -0.26462168 0.64972824 0.3169071 0.18699917 0.002662356 0.23619366 -0.10186146 0.2256013 -0.34438667 0.2986761 0.07011801 -0.019866496 -0.10188377 -0.048809163 0.6366268 -0.2625191 -0.37965015 0.06933099 -0.18434505 -0.45247152 -0.082856014 0.38081202 -0.54488814 0.0758795 0.076616004 0.56209695 0.1053244 0.47229406 0.19063424 0.3646299 0.06948169 0.784028 0.22420014 -0.33942175 0.07679006 0.17781676 0.5964684 0.08247271 -0.18170601 -0.26156285 -0.2439658 -0.39183748 0.12040686 -0.5785021 -0.7737778
papas -0.065236665 0.27212718 0.5343225 -0.119422674 0.79570025 -0.048075456 0.2429186 0.07602606 -0.15961437 0.15371098 0.27641422 -0.36296666 0.24405251 -0.13964626 0.4011017 -0.08906717 -0.11307381 -0.5835283 -0.4609394 1.0253216 -0.17285998 -0.25251296 0.9304308 0.29328305 -0.7394359 -0.23420075 0.6258362 -0.6691716 0.13307437 0.09091128 -0.30399227 0.3265769 0.6285756 -0.01804849 0.47479442 0.047675956 0.083078295 0.33564916 -0.3368096 -0.19193181 -0.005486262 -0.2676588 0.11481309 -0.23865482 0.4566456 -0.31968057 -0.09843579 -0.4006748 -0.17606993 0.08788424
luna -0.09282087 0.29696196 -0.07417888 0.51830786 -0.6919006 -0.4812328 0.352379 0.14393464 -0.33571845 0.08442399 0.059692807 -0.74618393 0.32962874 -0.3693486 0.1957985 0.11003006 -0.28579974 0.11923415 0.13727628 0.8621564 -0.19576709 -0.11295642 0.32489365 0.45227945 -0.35556722 -0.44381773 0.23374496 0.017271422 0.03782927 -0.2218992 -0.12367219 -0.13321172 0.37661576 0.0035041436 0.328819 -0.09716155 -0.39601967 -0.29511344 -0.28552932 -0.11790973 0.3842221 0.6559858 -0.19559646 -0.2741149 -0.20122561 0.17120606 0.045752026 -0.8078199 0.10542935 0.1422874
canasta -0.060264252 0.22153372 -0.29633543 -0.038652197 -0.15985957 0.2990844 0.2408456 0.45220846 -0.24059343 -0.19086821 0.010278934 -0.24411198 0.21591048 -0.26852322 0.9709114 0.15974636 0.6386266 -0.6457981 0.1845468 0.13127625 -0.3160642 0.06351812 0.55758226 0.6082206 -0.3441071 0.07551252 0.6687857 -0.4361131 -0.13428807 -0.1450817 -0.059719108 0.2943755 -0.17364421 -0.29961172 0.46773186 -0.19169676 -0.010869077 0.29702505 -0.46722248 -0.029138613 0.061690543 0.35338938 -0.2489641 -0.5409896 -0.10789492 -0.5931566 -0.24369282 0.21304885 0.036109697 -0.7177967
hamburguesa 0.099226184 0.100855425 -0.013767592 -0.048735242 0.48978668 -0.03439979 0.11593343 0.30004585 0.2741449 -0.012743672 0.657337 -0.3308097 -0.26274616 -0.38087288 0.106468126 0.3666011 -0.3336337 -0.3295296 -0.22484788 0.51128745 -0.9445048 -0.113497324 0.48314014 0.42957368 -0.1485151 -0.5663269 0.21518023 -0.4694118 0.57062 -0.263656 -0.1570723 0.35485214 0.7907209 -0.14392954 0.446106 0.4486976 0.31567037 0.33412933 -0.53355926 -0.6630949 0.12926298 -0.14379446 0.37200433 0.1566818 0.33312863 -0.33771026 0.04826438 -0.07035875 -0.14160676 -0.36320916
chile 0.46721253 0.048573412 0.14821531 0.35212898 0.29789224 -0.05835698 0.6202694 -0.12929055 0.38797587 0.093873546 0.49625516 -0.15777725 0.078593396 -0.051666208 0.03176767 0.53063476 0.16096035 -0.029765896 0.13309565 0.50279164 -0.5019001 -0.13062511 0.65976226 -0.109393805 -0.6034333 -0.10288519 0.35347712 -0.19854577 -0.46955872 -0.20938642 0.20821932 0.24973288 -0.08347105 -0.27622053 0.195603 0.36113736 0.30540025 0.50975823 -0.7121617 -0.3940246 -0.025869472 -0.5046193 0.10283822 -0.44308522 0.12214134 -0.32754374 -0.7524969 -0.24370407 -0.7641622 0.1723237
foca -0.22357506 0.16636923 -0.32922512 0.5398159 0.14646336 0.64405584 0.4132282 0.3314954 -0.28297907 0.6451858 -0.39572585 -0.4747721 -0.39125815 -0.30663136 -0.061402485 0.37317258 -0.023357287 -0.1452849 -0.29601932 0.36810264 -0.069283925 0.29992917 0.17633203 0.25486708 -0.49508023 -0.3621111 0.07786692 0.65964806 -0.45661545 -0.5286995 -0.3338764 -0.17222497 -0.0016423254 0.15338734 0.50515324 0.08738579 0.054186463 -0.013725583 -0.32223418 -0.72564256 -0.34273344 -0.15694356 -0.44576395 -0.5806302 0.11607163 0.021978242 0.16334897 -0.49733022 0.17925608 -0.06543034
vaso -0.11348189 -0.1348253 0.22926123 0.10829344 0.6794456 -0.3027301 0.40665683 -0.0062075565 0.18445022 -0.18333752 0.28301618 -0.1720353 -0.29692587 -0.4247218 0.4792072 0.08387205 0.31539667 0.39352253 -0.005235541 0.15889764 -0.3677814 0.46803716 -0.08879101 0.44963396 -0.07584629 0.32324487 0.10142567 -0.49007127 -0.012404438 -0.86743975 0.3748945 -0.065973595 0.15192534 0.2328199 0.40619165 0.63195384 -0.72224104 0.10082992 -0.08050678 -0.859494 0.33639005 0.031452656 0.5148525 -0.48852044 -0.25683743 -0.20543022 -0.35775962 -0.3147285 -0.24871024 -0.33594853
araña -0.5498228 0.16232538 -0.10567349 0.10567312 -0.22082421 0.21881638 0.63326573 0.20677097 0.37394422 -0.00797097 -0.21266137 -0.014169581 -0.63607335 0.15397502 0.5516527 -0.12318044 -0.10071373 -0.23784074 0.10789806 0.23188621 -0.69740486 0.10519351 -0.12966408 -0.21622638 -0.27325693 -0.4787928 -0.28062093 -0.06527515 0.102157526 0.11811297 0.3857661 0.058070686 0.41870576 0.48497352 0.11997117 0.5195597 -0.023320386 0.36384058 -0.55690855 -0.23691557 -0.50985247 0.13284333 -0.43397593 -0.9701715 -0.11871797 -0.1818894 -0.70011944 -0.88083637 0.22190686 0.026668571
plastilina -0.70941406 0.47908342 0.5642706 0.3581472 -0.08281003 -0.23292845 0.13712807 0.14930382 -0.14288093 0.68511724 0.25761774 -0.27438143 -0.36939943 -0.553571 0.20402674 -0.052091762 -0.20636104 -0.49656928 0.06660012 -0.07603689 0.40575194 -0.683351 0.316307 0.44803426 -0.07482193 -0.7288441 -0.18683821 -0.368245 -0.38558963 -0.20591196 0.03943901 0.024175966 0.54799813 0.17933585 0.35566124 -0.19757077 -0.09149406 0.6334889 0.044047993 -0.31864673 -0.14927396 0.3722584 0.04867402 -0.225376 -0.0077554155 -0.4569245 -0.2601172 -0.09745369 0.4203327 -0.99795014
pies 0.15674478 0.15281217 -0.11483226 -0.30129075 0.35937828 -0.28542367 0.66590625 0.39759204 -0.09732133 -0.11121564 -0.18866688 -0.794471 -0.514038 0.30091012 0.6157809 -0.30826697 0.32923883 -0.08698791 -0.00609861 0.87247384 -0.17498375 0.20041133 -0.042968508 -0.14907537 -0.010719607 -0.34359336 0.5451286 0.058278494 0.32716063 -0.18746383 0.30614966 1.0791008 -0.46671754 0.36570626 0.31023753 0.20775719 0.09970163 0.3865714 0.6025005 -0.162796 0.4106162 0.029803822 -0.29051647 -0.4165032 0.3332202 -0.05310395 -0.20451586 -0.294843 -0.035558697 -0.4726254
huevo -0.1580035 0.8185559 -0.32821476 0.3499434 0.013037221 0.08164914 0.4433978 0.2687244 -0.0070027956 0.06394527 0.7002324 -0.3602592 -0.19546585 -0.36479813 0.63078296 -0.1950372 -0.028123096 0.055131517 -0.58538157 0.67878526 -0.71132535 -0.19078657 0.12203877 0.34477013 -0.081665486 0.37589267 -0.16509898 0.21674733 0.07695989 0.19950631 0.3856674 0.57658565 -0.094787054 0.041465864 0.6879574 0.213277 0.15484267 0.020798435 -0.5096597 0.08985718 0.09387152 -0.21496083 0.24778922 -0.15937823 -0.13944826 -0.2529687 0.16930167 -0.0744521 -0.5773827 -0.2648347
comer -0.11021045 0.20940524 -0.038383186 -0.18058656 0.060788512 -0.14559957 0.2175799 0.22681318 0.34449646 0.18841329 0.19241324 -0.25072786 0.00898983 -0.33002067 0.41645014 0.24845162 -0.100141615 -0.14553851 -0.3453547 0.4255548 -0.3112467 -0.0003391553 0.03165437 -0.028255302 -0.46103215 -0.050292697 0.16538452 -0.55539614 0.03677825 -0.12340215 0.43658483 0.08915801 0.25587457 -0.06676553 0.33755577 -0.070258245 0.13434063 0.32873964 -0.40232143 -0.32085118 -0.08601828 0.0025208967 0.13655978 -0.1253899 0.11544696 -0.18511678 0.23474552 -0.3577263 -0.5774567 -0.49891332
helado -0.03625043 0.787664 -0.15296517 0.29596958 0.45635623 -0.17724618 0.44804838 0.72543913 0.27422068 -0.040305346 0.14070673 -0.39219135 -0.09260336 -0.1852521 0.06953952 0.5481841 -0.035851173 -0.54439485 0.06648388 0.03157365 -0.39634138 0.12763298 -0.090052456 -0.0035673883 -0.35960236 0.24598156 0.5350873 -0.78868574 -0.32360858 -0.41154015 0.036065705 -0.18594134 0.17315817 0.0852305 0.5106731 0.36907947 0.18236981 0.034532033 -0.56414825 0.0033238765 -0.22032623 0.25629666 0.40263656 -0.18252577 -0.63600135 -0.3627142 -0.07848535 -0.20486756 0.033607256 -0.4114813
río -0.17433123 0.16636969 -0.054153413 0.2845144 0.483355 0.5496431 0.41071236 0.34910193 -0.12005283 0.40410993 0.08963942 -0.36400148 -0.26569852 -0.3905037 0.10134975 0.44671187 0.11145883 0.5976824 -0.049975157 0.6966536 0.22470923 -0.42655966 0.5072221 0.20921442 0.18264665 -0.69444937 0.12886 0.003984725 -0.23540375 -0.66247445 0.62022305 -0.22874112 -0.36062083 0.1952824 0.33895025 0.27050027 -0.11363183 -0.32264733 -0.029781094 -0.0073287715 0.39288905 0.45651698 -0.55858564 0.045830935 -0.087223485 0.5194528 -0.42198104 -0.63164306 0.052983895 -0.14751542
guantes 0.17269936 -0.10649453 0.10506693 0.60819745 0.16329253 -0.3475694 0.92605084 -0.005089297 -0.24463442 -0.42812052 0.079291664 -0.51432157 -0.54190797 -0.2823093 0.3782511 -0.3878067 -0.01442381 -0.8101503 0.07414397 0.4379856 -0.18842252 0.13012742 -0.03057009 0.085014924 -0.08993781 -0.09273806 -0.1199191 -0.5119522 -0.6552123 -0.42702317 0.17903298 0.27823865 -0.07416085 0.062256284 -0.24850255 -0.12929705 0.2858692 0.02926799 0.019344978 -0.14648083 0.014403582 -0.5427649 -0.14080676 -0.08689336 -0.2552051 0.13722202 0.19775443 -0.13991226 0.38487142 -0.65407026
collar -0.19779025 0.8497967 -0.68998414 0.48157048 -0.09044728 0.0415448 0.7799036 -0.058142006 -0.2292748 0.055835187 0.13334434 -0.7694624 0.60328966 0.028319623 0.39070868 -0.23211871 -0.19847852 0.5229484 0.33252746 0.41704324 -0.2597114 -0.032374162 -0.14537415 -0.019007368 0.46895534 -0.5003646 -0.0527273 -0.39469466 -0.29045588 -0.2356795 -0.019717198 -0.1816729 -0.38425645 -0.33849552 -0.14305621 0.359432 0.14608006 0.5842367 -0.18051304 -0.35313186 0.28472903 -0.12197415 -0.055039573 -0.086009964 -0.16558065 -0.0039024733 -0.56044245 -0.2975381 0.002072366 -0.29870212
cochino -0.38907236 -0.0142684635 0.092778966 0.22972172 0.44769093 0.2007005 0.20322177 0.5040389 0.4060602 0.084111944 0.4385238 -0.03546989 -0.014020824 -0.6402827 0.76904833 0.21661244 0.029540299 -0.12881641 -0.31415194 -0.092138246 -0.70263845 -0.04146387 0.19882943 -0.47519597 -0.18638594 -0.54634833 0.45250732 -0.054433625 0.37874302 -0.5706763 -0.05406534 0.32872236 0.010665706 0.100062266 -0.3708824 0.06592448 -0.14928924 0.69466156 -0.51340306 -0.0775648 -0.30268124 0.28510037 -0.21985349 -0.2304908 0.19716053 0.4022117 0.26525247 -0.6610333 -0.31384677 -0.15159404
espejo -0.21384293 -0.057745714 0.006646453 -0.076979406 -0.24148807 0.14685807 0.7391907 0.242116 -0.21746889 0.03287614 0.3455368 -0.6321369 0.087291636 -0.1342364 0.49495026 -0.3205778 -0.6366036 -0.08971108 0.4647414 0.13250983 0.121420704 0.27850014 -0.4172448 -0.24539676 0.0943206 -0.16245416 -0.013019379 -0.4487896 0.22579882 -0.63471466 0.7019984 -0.11980249 0.16890626 -0.4409261 0.660351 0.2315255 -0.0138896555 0.18568744 0.0966766 -0.5487672 -0.070322506 0.022597386 0.39647633 -0.06518061 -0.007852829 0.36237222 -0.77075404 -0.6008786 0.3587447 -0.23291689
ejotes 0.2704775 0.09850486 -0.29327726 -0.20314999 0.3340101 0.015999423 0.7910054 0.14439929 0.17892754 0.19181824 0.40588963 -0.088368036 0.039043665 0.035352103 0.09451876 -0.36684868 0.39994514 -0.15250981 -0.2936058 0.9417663 -0.2944047 -0.19538932 0.059251353 -0.09956158 -0.40936184 -0.15802532 0.40692893 -0.010852007 0.09353604 0.061223015 0.5734933 0.2837761 0.047505066 0.15083046 0.722173 0.0054098186 0.4345387 0.962508 -0.315048 -0.0910923 0.27614677 0.3227662 0.24348125 -0.123344176 -0.0242564 -0.18276688 -0.4716265 -0.4792935 -0.8867748 -0.26006967
jugo -0.21083273 0.09356156 0.12942097 0.104320824 0.4831534 -0.519066 0.44986555 0.21217343 0.17804506 0.12028384 0.12231768 -0.21183157 -0.57433295 -0.6066396 0.47089845 0.078883134 0.0075203073 0.1528348 0.35949537 0.34169686 -0.44283482 -0.320329 -0.23268543 0.56875724 -0.7751681 0.27154392 0.28403246 -0.69721615 -0.10323518 -0.11516145 0.05582645 -0.05070545 -0.37480453 0.3719647 0.8915346 -0.006882745 0.01565881 0.101041704 -0.4732215 -0.21041264 -0.2490913 -0.19666912 0.16501687 -0.035717797 -0.42794096 0.010821085 -0.34544337 -0.3219073 -0.4004288 -0.33132455
ojos 0.35033268 0.28054464 -0.648719 0.1389329 -0.07410231 -0.5303721 1.1223594 0.07290237 -0.16774744 0.2894071 0.12988415 -0.87588644 -0.33450437 0.35139585 0.5153438 -0.24119548 -0.010923934 -0.68393177 0.1484083 0.3068024 -0.029470453 0.39955363 -0.23173633 0.1287012 -0.22148325 -0.1828404 -0.20636399 0.086330585 0.13492389 -0.32733503 0.042901326 0.19367398 0.1087224 0.07948534 0.40927157 -0.0628602 -0.061826363 0.02290077 0.3774204 -0.68927664 -0.08600665 -0.17347775 0.44249144 -0.44618958 0.26496667 0.1997809 -0.53305286 -0.76767325 -0.44604746 -0.20353988
camisa -0.8178041 0.379773 -0.46939006 0.28881478 0.6425247 -0.39353335 0.28183198 0.4288338 -0.17647955 -0.23446003 -0.18342346 -0.8669835 -0.6132386 -0.5618306 0.20204996 -0.054317705 -0.1685318 0.053797297 0.004669594 -0.07164531 0.044771306 0.55916256 0.15421367 -0.032324523 -0.11209052 0.055818748 -0.13812682 -0.09613406 -0.20116144 -0.7426108 0.13680376 0.46275645 -0.2825136 -0.6723113 -0.2708321 0.14058955 0.38108256 0.6399654 -0.21741244 0.13770065 0.025478253 0.25355357 0.04362562 -0.2446353 -0.24348335 0.21318719 0.0455679 -0.21986379 0.0046866173 -0.29069412
tienda -0.29000083 0.4414261 0.0035994232 -0.23831022 0.6457994 -0.088277146 0.45261148 -0.14107625 -0.11335357 0.093517184 0.33828247 -0.32303494 0.69632566 -0.16937141 1.0534571 0.12516084 -0.23044021 -0.06731154 0.106181204 0.5477777 -0.31911057 0.048736896 0.68156576 0.6858559 -0.23903616 0.41196102 0.29109648 -0.4822184 -0.21864346 -0.487878 0.3559178 0.21105687 0.0886788 0.06710929 0.4002669 0.55935955 0.49362242 0.51442266 0.3099863 0.13618419 -0.3175979 0.013104084 -0.21105449 -0.2700507 0.7762428 -0.3626956 0.02749459 -0.2128849 0.49439362 -0.09195232
barco -0.25187144 0.2587325 -0.3375527 0.42340922 0.3623366 0.6824154 0.5693448 0.07778611 -0.40395373 0.8504854 -0.20250604 -0.17878917 -0.018435841 -0.71607155 -0.041182913 0.32204682 -0.11465475 -0.25547892 0.46175018 0.48158118 -0.26023886 -0.013144158 0.30345377 -0.08583891 -0.14782944 -0.43062076 0.57167006 0.11539849 0.03494735 -1.04839 -0.43549538 -0.50429904 -0.27894527 -0.03134345 0.43335417 0.18609668 -0.22280434 -0.31074402 -0.07063113 -0.49470073 0.8610262 0.006467242 -0.4862612 0.11010403 0.17595944 0.32687894 -0.7900355 -0.15855147 -0.1696639 -0.3433295
timbre -0.09096532 -0.5223209 -0.010725145 0.10782534 0.22148728 0.3269073 1.0924208 0.39702708 0.559823 -0.09280957 -0.11005998 -0.36450458 -0.630543 -0.046871934 0.311744 -0.043234184 -0.78857917 0.12377168 -0.14852619 0.35977572 -0.01312398 0.6083556 0.5947508 0.59230316 0.39367577 -0.45805547 -0.570293 -0.37378258 -0.15914506 -0.47230527 -0.17137049 -0.66511285 -0.292926 -0.1845114 0.37829077 0.10228509 0.16356446 0.16320577 0.06990601 -0.5140232 0.4259312 0.2964748 0.19081987 -0.5780004 0.61977214 -0.06476811 -0.0209724 -0.036286343 0.02685955 0.14741652
muñeco de nieve -0.045917757 0.7164728 0.0035100307 0.6856347 0.19253431 0.050761394 0.8877765 0.77370286 -0.16767408 -0.0717648 0.27067035 -0.22851285 0.17712735 -0.31768522 -0.21762092 0.28236157 0.0775553 0.1329929 -0.18426642 -0.16912074 -0.014194594 0.14624886 0.19442412 -0.06208202 -0.48609617 -0.36005366 0.47470397 -0.052528456 -0.6224065 -0.6230875 0.14044388 0.04120536 -0.005861476 0.5334334 0.25231364 -0.11681513 -0.14255726 -0.23796023 0.24026589 -0.03071366 -0.28333172 -0.05381575 0.491701 -0.53544843 0.22354269 0.1894105 -0.39063442 -0.12954697 -0.124701254 -0.52549213
escalera -0.3905556 0.26806667 -0.32955784 0.06508522 -0.023193039 -0.12953007 0.22681805 -0.16769756 0.5353366 -0.17528409 0.15722175 0.4925184 -0.2783227 -0.08413371 0.24799253 -0.5641159 -0.66219103 -0.30498064 -0.17791723 0.31487417 0.09468081 0.32028604 0.11432277 0.2061275 -0.6392619 -0.48521402 0.33761537 -0.022905633 0.120041594 -0.7754447 0.22831024 0.23410423 -0.020568902 -0.03577429 0.25110236 0.8946695 0.12858452 -0.26419735 0.2108339 -0.034707554 0.685722 0.13917021 0.09579181 -0.7839561 0.48694393 -0.34175834 -0.47672847 -0.20147216 0.23605119 -0.561106
hielo -0.13331784 0.4879105 0.37023842 0.6258636 0.8639251 0.12001385 0.8025794 0.63174176 0.1574908 0.12128655 -0.35704464 -0.3121289 0.42162177 -0.13181493 -0.3295738 0.15716971 0.017826071 0.43984544 -0.013295742 0.27581158 -0.39348337 0.38181043 0.28090763 0.27004895 -0.7082919 0.11859438 0.3026664 0.05118032 -0.21150021 -0.63770765 0.037564576 -0.14776015 -0.04247421 0.03420172 0.35862768 0.3281218 -0.20014615 -0.33437735 -0.24731189 -0.20414817 0.11717487 0.12912688 0.57602936 -0.63221353 -0.02185388 0.08117894 -0.24326627 -0.09272817 -0.01011674 -0.10332763
puerta -0.3664657 0.032589063 -0.08208332 -0.18154633 0.32893687 -0.2159165 0.8627356 -0.0033711987 0.22213209 0.21428734 0.5904192 -0.28830498 -0.25228542 -0.44989863 0.21931027 -0.06913846 -0.222329 0.011683594 -0.42231354 -0.17526586 0.07080508 0.29409906 0.7006101 0.28030488 -0.13149776 -0.019064756 -0.6074476 -0.32116023 -0.11442836 -0.68219185 0.041437805 0.34948578 0.029689763 -0.38144255 0.37572998 0.64115614 -0.14634728 0.25517824 0.20936713 -0.37727353 0.32144684 0.47658595 0.2187732 -0.84224033 0.31370023 -0.21905252 -0.43766326 -0.10846243 0.48192656 0.30606943
helicóptero -0.84276694 0.14610858 0.19694735 0.33653575 -0.14430578 0.4541011 0.97381485 0.08879531 0.37282592 0.028844507 -0.109658554 -0.32187083 0.06936299 -0.23514949 0.10784336 -0.40376908 -0.4412124 -0.047169767 0.2708823 0.81052315 -0.23291071 -0.10778756 0.6571718 -0.077308744 -0.14157437 -0.47051403 0.27830693 0.09121604 -0.013073388 -0.8571778 -0.07891147 -0.2733647 -0.0621373 0.5421129 0.25367188 -0.15455022 0.22975752 -0.4707826 0.011935235 0.4004761 0.17939998 0.29094878 0.02657446 -0.30943733 0.5656944 0.082616635 -0.13796239 0.6004054 -0.29964587 -0.22707467
juguete -0.41637886 0.65574116 0.19739515 0.5738395 0.12859404 0.28273913 0.95513546 0.39288458 -0.0053721545 0.5342823 -0.07133008 -0.08213902 0.09283129 -0.33088177 0.26069537 0.038177937 -0.5636467 -0.4373532 0.06902587 0.10466457 -0.06743696 -0.251322 -0.32513812 0.2044963 0.05478082 -0.22262418 0.1676792 0.24157755 -0.3552993 -0.1430788 -0.047134213 -0.09851997 -0.090645835 0.012980493 0.274344 -0.1050771 -0.5760717 0.086066924 0.18213275 -0.20939538 0.027291112 0.4196163 0.076750025 -0.50726813 0.60184705 0.07913998 -0.42652658 0.37126973 0.10784902 -0.64760226
naranja -0.3333738 0.31802645 -0.0813882 -0.0045830277 0.07184346 -0.3381687 0.37951797 -0.1180463 0.17847332 0.32889014 -0.30354598 0.19856104 -0.5287066 -0.09962209 0.16222963 0.052696347 -0.1737738 0.1611344 -0.14726715 0.44583556 -0.32937163 -0.23408242 0.12051322 0.6152036 -0.9042427 0.05472447 0.13136704 -0.7749871 -0.29305407 -0.1468533 -0.046683073 0.14214183 -0.1607854 0.062930346 0.19252163 0.007833373 0.5652858 0.2890611 -0.57668287 0.07703744 -0.060348578 -0.13772017 0.5098799 -0.13931738 0.03131107 0.3566968 -0.10970913 -0.53633314 -0.67091316 -0.58339983
torta 0.033148743 0.23720182 -0.1206618 0.71312857 0.32927367 -0.21225514 0.33765686 -0.087336846 0.06539995 0.24589974 0.5679533 -0.004974471 0.0167081 -0.2828526 0.22225876 0.3955827 -0.08125859 -0.3890362 -0.26265514 0.57211834 -0.46335918 -0.24678007 0.6543318 0.59069246 -0.04315076 -0.46354187 0.39501965 0.05107564 0.115658194 -0.23725168 0.15199932 0.445374 0.40023884 -0.1167601 0.87961584 0.08238828 0.41391733 0.36056626 -0.41128734 0.04157638 0.117653005 -0.14779806 -0.1848916 0.28982714 -0.16048318 -0.6751168 0.52253747 -0.21130382 -0.2861786 -0.76616025
venado -0.55317885 -0.17558436 0.07789544 0.24848193 -0.22697099 0.6444946 1.0943929 0.6012505 -0.47887802 0.2531421 -0.24840964 -0.1757227 -0.025673216 0.09213522 -0.2467683 0.2427788 0.21675432 -0.2964484 -0.034575064 0.65212995 -0.32807964 -0.5072952 -0.037362974 0.07751956 0.044959728 -0.20290267 -0.3085218 -0.47910202 -0.18125515 -0.89155936 0.09037571 -0.1217851 0.16134265 -0.2207504 -0.059805296 0.17355105 -0.14194357 0.18440516 -0.0848783 0.05419612 -0.14706954 -0.2391509 -0.22794849 -0.02752466 0.1915126 -0.22190438 0.40632161 -0.56436133 -0.23216453 -0.6785835
pantalón -0.87702554 0.5640156 0.06856568 0.2305553 0.73539466 -0.24452074 0.51204544 0.4187616 -0.41075996 -0.48656106 0.14699757 -0.678047 -0.41786322 0.017374046 0.35061416 -0.13255966 -0.20880476 -0.12908067 -0.3841728 0.50759375 0.13892967 0.5808375 0.38241857 -0.07685109 0.36452222 -0.019079981 0.46439734 -0.041591782 -0.41166583 -0.34322488 0.2361351 0.2094839 0.15499434 -0.41971487 0.10178157 0.005983857 -0.13716443 0.14473435 -0.13688248 -0.012425955 0.2311084 -0.27081904 -0.35251567 0.17295636 -0.16595334 -0.24748611 -0.0025830963 -0.21449584 -0.3038679 -0.2327316
mariposa -0.87859577 0.3806378 -0.18330823 -0.109426886 -0.59648705 0.23871619 0.37366995 0.2352073 -0.046670653 0.027183434 -0.052710395 -0.15316233 0.04309813 0.004279522 0.4548451 -0.37763137 -0.2862308 -0.72798926 0.14511855 0.80102396 0.12964144 -0.051603816 0.6957988 0.004144691 -0.4338185 -0.59758633 -0.45362243 -0.18859452 -0.032050584 -0.29510692 -0.06850764 -0.42898303 -0.00022474147 0.3407144 0.43113998 -0.05513507 -0.47845834 0.56167287 -0.7503012 -0.02940781 -0.012937027 0.0011967636 -0.07170093 -0.28277874 0.15456277 0.43822587 -0.018062111 -0.15183896 -0.24353808 0.02893784
globo -0.84391475 0.65144265 -0.037399244 0.30901763 0.120217524 0.04223248 0.61429524 0.2694541 -0.38149738 -0.2148217 0.05104582 -0.2869111 -0.2269986 -0.31538078 0.2061587 0.24780177 -0.18196358 -0.28214973 0.11206779 0.7112855 -0.26695278 -0.32915017 -0.17199503 0.44251084 -0.7870992 -0.085950434 -0.19986229 -0.07190601 0.041923843 -0.5859429 -0.2452826 0.09550048 -0.44313782 0.13242204 -0.14163281 -0.053815752 0.38307902 0.23811604 -0.050415944 -0.124068156 0.247816 -0.24824563 0.016700037 -0.27625236 0.48933488 -0.2689071 -0.65074635 0.7309694 0.23449837 -0.4457353
pastel -0.010789197 0.4209746 0.39287722 0.28706935 -0.15310355 0.06513076 0.3858245 0.4119885 -0.054436203 0.050755743 0.49942788 0.1314652 0.019719455 -0.31332514 0.29156235 0.5988808 -0.5381168 -0.34529647 -0.4435979 0.21448246 -0.33114043 0.1465618 0.1000401 -0.28357637 -0.2004221 0.21470092 0.34886187 -0.81597227 -0.18729183 0.031678803 0.009829345 -0.016314965 -0.011143343 0.3871745 0.10781168 0.3343651 0.20542529 0.7310104 -0.42073858 -0.45512536 0.56389314 0.008012982 0.5419762 0.03239908 -0.25532964 -0.18249737 -0.042069316 -0.31202787 -0.32856402 -0.5567688
tambor -0.07606467 -0.29496303 0.5904465 0.041437857 0.7553058 -0.14568408 0.7947535 0.5115114 -0.18401067 0.5106928 -0.30580986 -0.06963858 -0.11519746 -0.14637576 0.30250016 -0.094666615 -0.6340201 0.2795594 -0.25169298 0.30655676 -0.37674868 -0.35307738 0.54622334 0.25435355 0.24732862 -0.52245116 0.22969164 0.05279944 -0.5992045 -0.35481995 0.14026526 -0.2943061 -0.8652541 -0.16621864 -0.25307283 -0.32421264 -0.42537388 0.61576015 0.053336244 -0.35903892 0.38079756 0.44193965 0.047154285 -0.6783188 0.5413531 -0.2957876 0.24529237 -0.16964553 -0.21999642 -0.44574758
mantequilla -0.17097779 0.6144819 0.013161596 0.51676756 0.15541396 0.1784185 -0.08769742 -0.08409816 0.07720783 0.45387763 0.8408628 -0.26263788 -0.41127846 -0.17198768 -0.34886092 0.34300324 0.032265525 -0.2916557 -0.630898 0.6724358 -0.6667947 0.32668874 0.48073208 0.44800442 -0.2684802 -0.039275788 0.39281875 -0.13918188 -0.29111493 0.14949787 -0.21119319 -0.14897017 -0.12199495 0.19678578 0.56418204 0.04806766 0.3142066 0.5014546 -0.37917045 0.11109194 -0.094175614 -0.14386973 0.1525304 -0.27348137 0.054137897 -0.2564721 0.032947514 -0.76240987 -0.30212492 -0.5685411
salchicha -0.2108552 0.6142375 -0.007810575 0.3111137 0.31020916 -0.56271183 0.048496716 0.19511858 0.41503668 0.24626131 0.39290306 0.014022212 0.1410719 -0.6618913 0.19234346 0.27622685 -0.4301669 -0.3410192 -0.21624395 0.35771662 -0.64343035 -0.19257551 0.5261351 0.29309878 -0.44712445 -0.004743211 0.51206094 0.008896879 0.155522 0.14351022 0.39696935 0.6115875 0.41400337 -0.4895911 0.14056607 0.72610164 0.26892668 0.7484302 -0.3668417 0.028323656 0.27356324 0.07022004 -0.07056179 0.19897208 0.4412037 0.25950778 0.18251158 -0.32288975 -0.029395068 -0.57027715
calabaza -0.15352751 -0.16420707 -0.40654182 0.31551474 0.16718452 -0.30127963 0.51860404 -0.059711855 -0.08693848 -0.13926399 -0.310837 0.016167497 0.1424185 -0.76161957 0.11412622 0.067501046 -0.2350621 -0.16620235 -0.76611435 0.63866293 0.046611056 0.120739885 0.42137042 -0.1222125 -0.7702288 -0.42328206 0.12096761 -0.5229131 0.15709996 -0.014091642 -0.20582929 0.07912073 0.3220966 0.3008539 0.6995309 0.34652707 0.18627837 0.8084844 -0.74740833 0.06513918 -0.105431505 0.11590013 -0.034732044 -0.1707561 0.12923436 -0.10796347 -0.16245307 -0.13905503 -0.5892841 -0.39340734
cuchara -0.36773783 0.109383956 0.08407318 -0.28770313 0.22123635 -0.21569638 0.447716 -0.39888498 0.5575481 0.37808263 -0.12864198 -0.2599852 0.19794644 -0.61334574 0.3679008 -0.08019496 -0.46540236 -0.06758516 -0.29093015 0.19253345 -0.37020755 0.2621131 -0.28662708 -0.119126275 -0.28396165 -0.03679959 0.06341702 -0.12693694 -0.13141212 -0.36513928 0.37648883 -0.030850733 0.39382184 -0.18191642 0.43593103 -0.057135127 -0.39734098 0.30418843 -0.41653705 -0.45768097 -0.057215158 0.25976115 0.16175728 0.004829512 -0.49287516 -0.31905454 -0.5087327 -0.64144677 -0.09873054 -0.4111973
elefante -0.44602743 -0.03914447 -0.6777888 0.07529803 0.19555822 0.51139075 0.19121517 0.5733124 0.018864103 0.17185251 0.2548247 -0.17435116 -0.51402766 0.08341768 0.10117003 0.31728187 -0.46131036 0.33597672 0.2634905 0.49013308 -0.14969242 0.2313177 0.19145977 -0.28355232 -0.35172376 -0.27967376 -0.10036561 0.056151994 -0.00867299 -0.16092817 -0.19590487 0.9184436 -0.28648517 -0.09537858 0.2933124 0.19226365 0.3932566 0.027537314 -0.025028372 -0.54967594 0.23171307 0.21522796 -0.46069604 -0.4694439 0.42766944 0.045361463 -0.2133196 -0.3910365 0.07149618 -0.65084845
galleta -0.62658465 0.4374573 0.45997733 0.21919666 -0.19089961 -0.207576 0.37954798 0.4556909 0.5347906 0.14884841 -0.10109879 -0.24009234 -0.14269027 -0.23133303 0.35187438 0.15307856 0.046280164 -0.23391305 0.16523424 0.14391524 -0.59239256 -0.13782844 0.14935125 0.06705273 -0.23513456 -0.16161956 0.7188922 -0.50398093 0.0062890383 0.22463998 -0.0067622266 0.40070665 -0.01795347 0.5476283 0.47062126 0.18993373 0.18415363 0.2154853 -0.5361215 -0.76531315 -0.07499783 0.21165036 0.20499158 -0.013298735 -0.25462815 -0.78956777 0.19656773 -0.16215095 -0.102932945 -0.27331254
ganso -0.22288582 0.17400663 0.071642004 0.61037904 0.17593953 0.45553464 0.62680167 0.6183423 0.52292055 0.12895812 -0.12404426 -0.12262645 0.16254967 -0.3412826 0.8286561 -0.11321153 -0.41026402 0.034610268 -0.5113784 0.36995086 -0.2833789 -0.54554445 0.29266343 -0.097994074 -0.42541495 -0.098485716 -0.19801292 0.20530051 -0.08628005 -0.0010019458 0.3229527 0.021253482 -0.19351754 -0.061212447 0.47609323 -0.119029395 -0.008521345 0.14923717 -0.15888675 -0.3311358 0.020791398 -0.3417813 0.45869717 -0.18534908 -0.00643873 0.46370903 0.33673608 -0.2708725 0.19130369 -0.32869563
paleta -0.037081346 0.66622865 0.58033305 0.34240386 0.36300203 -0.4197767 0.28092796 0.25148878 0.463426 0.0028412503 -0.69649124 -0.67865014 -0.05440569 -0.0014529593 -0.27876824 0.5522129 -0.23151888 -0.48317423 -0.12260328 -0.069331884 -0.45419866 -0.19991606 0.29651576 -0.025466999 -0.32332462 0.109163865 0.14722231 -0.53144205 0.008780183 -0.10370027 0.013546409 0.16850421 -0.17525364 0.1365989 0.26904812 0.4359651 0.13237163 -0.06585277 -0.9493156 -0.16900623 -0.016774602 0.14618549 0.43948323 -0.50583875 0.090856835 -0.090390585 -0.25626385 -0.4990237 -0.20521404 -0.62977684
vela 0.03341881 0.3285441 0.09403414 0.36483034 -0.41485888 0.07109361 0.3931411 0.19988796 -0.44936964 0.3324286 0.010710283 -0.36777577 0.011008295 -1.0473584 -0.13857932 0.43737635 -0.37269688 -0.3675065 0.305023 0.26072586 -0.11981446 0.25331837 0.6683895 0.08954463 0.2582556 -0.017840689 0.45554647 -0.1359289 -0.46495986 -0.57846546 0.1677629 -0.63411826 -0.04814799 0.44838035 -0.21389906 0.60057944 -0.12798694 0.16079688 -0.17302224 -0.44439816 1.1461576 -0.0068609286 0.22314845 -0.42132857 -0.26628312 -0.2182619 0.0015501156 -0.75771636 -0.12492556 0.0782493
estrella -0.47832558 0.11447035 -0.13037364 0.27729055 -0.3221375 -0.32960084 0.80969936 0.37378725 -0.3498484 0.032463215 0.24994679 -0.7501847 0.3220198 -0.11551116 0.03805843 -0.44474253 -1.0461671 -0.30346435 -0.033615872 0.4360804 0.31026426 0.3477728 0.08046569 0.38740346 -0.51646805 -0.3254915 0.006261709 0.36049053 0.4613042 -0.6958982 -0.04023319 -0.05693238 0.35045305 0.19093049 0.2874283 0.26204312 0.03672406 0.031016817 -0.15035167 0.025360111 0.16646396 0.2407482 -0.28006583 -0.19658855 -0.2725039 0.07989866 -0.22034115 -1.01378 0.28966364 0.26792523
plumones -0.45605162 0.40213907 0.4738007 -0.24053895 -0.07608871 -0.044988643 0.3664202 0.09360723 0.33737406 0.07513047 0.22404203 -1.0350424 -0.21994272 -0.29208845 0.97035503 0.25760505 0.4518413 -0.22501825 0.36657935 -0.3233391 0.28998578 0.0049471506 0.8769297 -0.17333518 0.28237975 0.1675273 0.31274274 0.19714428 -0.14387527 -0.5933451 -0.13454278 0.45108175 -0.34126475 0.5652429 0.20045184 0.14275932 0.14586446 0.13514799 -0.4721104 0.15451446 0.5203152 -0.1350566 0.45362136 -0.11414896 0.055256385 0.23714219 -0.15618315 -0.7189905 0.16268107 -0.68022245
durazno -0.100437485 -0.06433571 -0.019508831 0.21397677 -0.0414376 -0.11489672 0.53589326 0.32794118 -0.24233237 0.6421614 0.35881785 0.31140688 -0.2851817 -0.11387959 0.38026333 0.24109076 -0.013836724 -0.6268694 -0.35353053 0.48527154 -0.08471749 -0.22222061 -0.20784952 0.33381546 -0.49345556 0.045712125 0.14701389 -0.99084216 -0.21023586 -0.045419555 0.14266804 0.25666583 -0.2219247 0.10972035 0.12552348 0.26421654 0.13046275 0.031018302 -0.8293097 -0.057662502 0.19224417 -0.030664641 0.14469932 0.07611823 -0.24385431 0.18604764 -0.20084578 -0.23686846 -0.5287698 -0.69990253
pluma -0.5153096 0.65642416 0.46498364 0.24961828 -0.12367169 -0.73456854 0.5423326 0.039623316 0.4170688 0.16962664 -0.15408947 -0.4363833 0.15133101 -0.46079174 0.8907093 -0.10318892 0.2459709 0.04339623 -0.27278167 0.4326065 -0.18119079 -0.00039411182 0.2630655 -0.26076177 0.278668 0.05910299 -0.36115253 0.26542747 -0.11916641 -0.5220843 -0.5180455 0.27778432 0.013356064 0.29008722 0.063032396 0.12087207 0.32699427 -0.038886935 -0.35303557 -0.08783169 0.53084487 -0.09750957 0.032836564 -0.30477116 -0.37235776 0.2911345 0.087200485 -0.4784914 0.38577566 -0.6272011
radio -0.30967262 -0.16776735 0.48781848 -0.30374655 0.20221487 0.2484693 1.030752 0.6843866 0.8066924 0.19310229 0.23753692 -0.7138414 0.29320356 -0.057635784 0.22186576 -0.6276363 -0.99807215 0.30022907 -0.42107964 0.49338007 0.21820804 0.10239394 0.61373836 0.7533742 0.40131474 -0.17549545 -0.10387001 0.40187162 0.28350866 -0.58791536 -0.65604913 0.010143529 -0.37070054 0.2884911 0.020713234 0.08254121 0.11192575 0.7999192 0.33943838 -0.6863974 -0.063007765 -0.09088409 -0.18537419 -0.52592343 0.10881846 0.008999234 -0.33236116 -0.19875145 -0.51853275 -0.2507543
cubeta 0.2690197 0.26869923 0.081942 0.40622705 0.10427673 0.34735206 -0.1963349 0.0041444064 -0.16739105 -0.16913459 -0.13064617 -0.34949237 -0.34399593 -0.76065445 0.5993205 -0.2779421 0.07560284 -0.018841716 -0.0021694882 0.52429825 0.32934093 0.14521202 0.32833573 0.4300482 -0.4317214 0.14580768 -0.36248854 -0.043616146 -0.28975645 -0.56877947 -0.5163278 0.4049388 0.20286456 0.08679557 0.069903284 0.68713963 -0.51615644 0.18541184 -0.37444884 -0.4514972 0.15338308 0.01580597 -0.092622355 0.049541283 -0.19666971 -0.49927515 -0.47425976 -0.62285125 -0.12555605 -0.89828336
refrigerador -0.4402659 0.25963658 0.4906757 0.73031616 0.34247103 0.51434207 0.011305142 0.25567982 0.12680091 0.17050546 0.090418056 -0.35945627 0.21749821 -0.5091753 -0.13638113 -0.29852864 0.21738058 -0.06433008 -0.087147385 0.34558284 -0.2728568 0.4641974 0.12422814 0.31200108 -0.4173614 0.55325496 0.36444837 -0.84016424 -0.024785092 -0.66720945 -0.119768485 0.01893049 0.09298072 -0.15439697 0.7671054 0.37303093 0.23785175 -0.35665688 -0.368128 0.101628505 0.036322985 0.23815851 0.18114568 -0.162034 -0.1422794 0.072967835 -0.23093124 -0.32586625 -0.49201596 -0.24744476
cajón -0.5253531 0.3304354 0.052722365 0.14230567 -0.09323118 0.18674402 0.6601822 -0.20418069 0.12507786 0.588446 -0.16755033 -0.88258547 0.44589496 -0.51510596 0.5440301 -0.2582875 0.21192868 -0.37048918 0.07807194 -0.06959527 -0.3004557 0.40179667 -0.0027312224 0.24208222 -0.12614517 0.25138435 0.023975087 -0.20610003 -0.42680547 -0.6354993 -0.16917478 0.3489295 -0.20951192 -0.8050915 0.15297638 0.67433053 -0.19483294 -0.0701941 0.001301286 0.122818075 0.062866814 0.32988778 0.06276425 -0.30860528 -0.16208993 0.06851923 -0.47551844 -0.35493287 -0.15277688 0.23889224
techo -0.22729777 0.026107602 -0.08410265 0.2778157 -0.17627129 0.42278212 0.62958467 0.17214411 0.0271134 0.10332417 0.5258442 -0.33372852 -0.36107597 -0.014808501 -0.011068394 -0.7563012 -0.35592747 -0.40025643 -0.17323114 0.027855141 0.20627123 0.22318605 0.39812523 -0.0593327 -0.37478623 -0.34476003 0.40286842 -0.31816927 -0.37181738 -0.76579034 0.32890606 0.13983822 0.18403558 0.29547107 -0.033499494 0.55093104 -0.10105005 -0.115676045 -0.40253058 0.15614304 0.34526068 0.06811978 0.032162473 -0.69755095 -0.005972332 -0.46630758 -0.65523386 -0.17261101 0.6631085 0.29735398
guajolote -0.45321012 0.45710495 0.31908703 -0.12530039 -0.06448468 -0.10303647 0.8405307 0.60198736 0.43562034 -0.3073667 0.53292173 0.327452 -0.19665194 -0.07537929 0.45928857 0.36722377 -0.08160971 0.2965071 -0.23304415 0.7898811 -0.3968365 -0.23434657 0.53456944 -0.63299865 -0.24424268 -0.51090044 0.20566128 -0.098849066 0.15638015 -0.23238544 0.17761084 -0.2444848 0.19371898 -0.16123745 0.073115826 -0.27662945 0.24174617 0.08111391 -0.08755293 -0.4492299 -0.14882027 -0.40467814 0.08284222 -0.44265625 -0.14136522 -0.1377603 0.50932103 -0.4281741 -0.45570266 -0.40103933
pingüino -0.29311877 0.5284523 -0.20106299 0.752777 0.4340759 0.46097177 0.5616816 0.7295417 0.6201062 0.15007353 0.16092233 -0.5424656 -0.11311734 -0.2721945 0.23246604 0.19251905 0.33163294 0.47030148 -0.06383912 0.27367404 -0.08142169 0.12543967 0.1534349 -0.13408522 -0.5426875 -0.4250704 0.20061293 0.4897488 -0.2671995 -0.5791917 -0.11867949 -0.1955273 -0.046162 0.15590426 0.03003171 0.15696406 0.0006002451 0.14178923 -0.28166223 -0.3628362 -0.44157818 -0.6439329 0.10342782 -0.56933796 0.060646605 0.1511214 0.13969474 -0.42502478 -0.09322131 0.12812617
muñeca -0.68561554 0.7459435 0.08284745 0.44880792 -0.14252889 -0.120286316 0.28583038 -0.0465194 0.08945117 -0.26019737 0.12307022 -0.075043246 -0.31735685 -0.34487265 -0.14495613 0.074356936 -0.11684459 -0.3683219 0.43144703 0.6331421 -0.118960366 0.48226315 -0.38767815 0.3580184 0.16803597 -0.75276047 -0.19398004 0.11376846 -0.08356418 0.041643 0.20398307 0.37274045 -0.08590385 0.08758443 -0.0010916155 0.16301087 -0.22818974 0.88201165 -0.20228876 -0.4391538 -0.25180992 0.29291648 0.11557942 -0.7457818 0.18836862 0.19587784 -0.5422972 0.1402325 0.1863348 -0.4137878
refresco -0.49027726 0.04769566 0.3448796 0.025456028 0.927518 -0.23414034 0.17476022 0.34198293 0.16229947 -0.20510276 0.25314844 -0.49533784 -0.31116638 -0.15766622 -0.01407664 0.20214264 -0.0006615007 0.18116347 0.1351766 0.55031407 -0.50494134 0.01224176 0.31563565 0.5831066 -0.76849556 -0.15441248 0.25780943 -0.9531298 -0.06366511 -0.24491753 -0.28534675 -0.0059339833 0.028700715 0.30388704 0.39309746 0.69650656 0.108593784 -0.29961526 -0.4087254 -0.5254237 0.038227007 0.37689286 0.46432272 0.012967495 -0.31208074 0.12722541 -0.14441842 0.120350115 -0.22344086 -0.14557348
azul -0.22598197 0.16801554 0.44174984 0.2614959 0.016661996 -0.21836643 0.5635307 0.30060077 -0.16837813 0.13036098 -0.1198563 -0.62021667 -0.18268572 -0.03483367 0.3494757 0.06654182 -0.30076063 0.20514837 0.027274737 0.56932175 0.08017709 0.16837406 0.12196142 -0.031478833 -0.21999602 -0.2788891 -0.21438542 -0.041155256 -0.1370287 -0.5827885 -0.039584767 -0.1522812 -0.08033222 -0.2808526 0.14262702 0.09019875 0.05360142 -0.04548901 -0.22219564 -0.14484732 0.0923611 -0.30142918 -0.40323943 -0.2240989 -0.35603458 -0.06843164 -0.1153691 -0.020742485 0.41888285 -0.18160635
martillo -0.16154133 -0.08526483 -0.068606906 0.10188468 0.26221606 0.045444783 0.26236564 -0.22057791 0.11161101 0.4329983 -0.070235744 0.026721025 -0.0566315 -0.6908302 0.48948804 -0.86348 -0.6309491 0.37305713 -0.14995337 0.4693815 -0.05386409 -0.0125704715 0.316551 0.1155838 0.1837969 -0.17475437 0.1756737 -0.43540415 -0.5971259 -0.3313986 -0.12481611 0.2897445 -0.6362407 0.086225405 -0.24913664 0.33180156 -0.19775718 -0.16253473 -0.30015045 0.085288316 0.018144362 -0.42843848 -0.062317062 -0.44383827 0.025173163 -0.49622625 -0.26217267 -0.7412807 0.4634419 -0.8522413
shorts -0.4320632 0.18038988 -0.52356064 0.45536557 0.577981 -0.48785806 0.48265773 0.6999099 0.15216179 0.19245212 -0.24983206 -0.69428515 -0.7709716 0.34448943 0.43696094 0.043463647 -0.30901745 -0.40624586 0.42179504 0.37383488 -0.21875079 0.35130042 0.2044881 0.20844628 -0.28813547 -0.12421327 0.46341854 -0.15372902 -0.076834366 -0.6744931 -0.08524554 -0.17973235 -0.5298994 -0.40820494 -0.19337156 -0.22841094 -0.21307959 0.17642458 0.19951157 0.13320524 0.5218111 0.062467832 -0.31221938 -0.24286602 -0.27380934 -0.06928989 -0.25375503 0.16696429 -0.28799263 -0.12967055
bufanda -0.0726686 0.8415251 -0.16317242 0.20175003 0.32480404 -0.25325522 0.8407982 0.40999898 0.18066403 -0.3177781 0.07036613 -0.41822085 -0.017045207 0.31100473 -0.037873402 0.024458947 0.03849421 -0.6992475 -0.13632263 -0.22082028 -0.006682188 0.10355916 0.115153745 0.25197095 -0.327972 -0.43909565 0.37735403 -0.372849 -1.0376109 -0.7096796 0.014583403 -0.028793097 0.13077272 -0.48434106 -0.104680546 -0.073413104 0.2912678 0.27298197 0.020737866 -0.34340534 0.015517512 0.1691174 -0.024997236 0.10457858 -0.25096685 -0.15271954 -0.009953196 -0.34868848 0.33104372 -0.4835977
botella -0.13926709 0.091228254 0.29967797 0.40725395 0.44220126 -0.3392373 0.14858912 0.19807048 -0.30315796 -0.57585895 0.19689663 -0.36986122 -0.5698396 -0.6403507 0.4402938 0.19739029 0.28117263 0.43567345 0.09227655 0.26349968 0.072959475 0.045317546 0.11627891 0.8300599 -0.4869741 0.28151423 0.4779646 -0.3278714 -0.047146883 -0.5573808 -0.13724233 -0.27263796 0.38673487 -0.32097664 0.63607913 0.6029926 -0.123317614 0.1670089 0.05206713 -0.843666 -0.0138206985 0.5276999 0.3222901 -0.5596618 -0.3285651 0.14256994 -0.12995222 -0.34213167 0.016275149 -0.32356852
dedo -0.13217878 0.23372301 0.5147255 -0.04685195 0.5574158 -0.21871158 0.5514604 0.43990985 0.7493784 0.58216524 -0.0009380442 -0.5566875 -0.31739238 -0.45891398 -0.017336052 -0.10020626 -0.20030226 -0.63611555 -0.06945809 0.27369067 0.053858083 0.4854205 -0.029166304 0.16373597 0.6396045 -0.69591427 0.21624537 -0.023101859 0.2439127 -0.031814836 -0.04881992 0.06625254 -0.6430716 0.21128318 -0.1804347 0.60583365 -0.23996203 0.09445881 -0.45799646 -0.46596825 -0.2397062 -0.28535396 -0.15781717 -0.5375709 -0.00065787253 0.6581027 -0.43400404 0.04372769 0.01999533 -0.5739791
boca 0.34950766 0.29822755 -0.286194 0.10711273 -0.012636637 0.07637331 0.41414377 0.17583399 0.16929622 0.107798174 -0.27309525 -0.63669807 -0.082724266 -0.2895396 0.5539943 0.7927588 -0.38493934 -0.22310477 0.1317494 0.2630383 -0.1808257 0.7092971 -0.095170915 -0.3472025 -0.03794682 -0.29933357 -0.2494299 -0.23908062 -0.2714631 -0.36927298 0.3692506 0.26911572 -0.15797219 -0.16904853 0.35447693 -0.2531738 0.3359631 -0.14628918 -0.1311854 -0.80404615 -0.2925887 0.15432514 -0.0016318375 0.17157075 0.38637558 -0.24949907 -0.4019263 -0.74480087 -0.32185432 -0.5461616
vaca -0.29304782 -0.0654288 -0.45977813 0.24452744 -0.036766477 0.7056186 0.4022463 0.38582182 0.37190658 -0.19487979 0.67681503 0.034775354 -0.041240476 -0.18905897 0.18004774 0.17122784 0.2384806 -0.2830483 -0.39608446 0.2476139 -0.55237925 0.15746008 0.2105494 0.45055813 -0.3944328 -0.1276655 0.3354252 -0.11762159 0.21462384 -0.62477016 -0.35787448 -0.06986203 0.14734387 -0.44348642 -0.1883724 -0.19355766 0.504675 0.46742278 -0.43545404 -0.3347306 0.38130477 0.32076973 0.2542654 -0.5340623 0.26005688 -0.07388416 0.8378736 -0.8954851 -0.1510924 -0.5881107
columpio -0.39429668 0.2847662 0.10274889 -0.21767108 0.049639937 0.55965257 0.2813869 0.5134011 0.004025817 -0.3228342 0.37412843 -0.10402503 -0.30413428 0.2625784 0.26331764 0.17270495 -0.4903204 -0.3479324 0.14148322 0.2177148 -0.13369408 -0.36428264 -0.1144886 -0.023609756 -0.2295888 -0.29720926 -0.3268573 -0.066408664 -0.20204419 -0.58915526 -0.026623039 -0.05450395 -0.45676675 0.43379202 0.51783574 0.47133106 -0.50945693 0.3847387 -0.44309056 0.24065822 0.45197457 0.12981282 -0.38477662 -0.6704138 0.3096606 -0.0687132 -0.4139083 0.22872475 0.049117807 -0.7634173
patines -0.11738305 0.469006 0.22095989 0.4868832 0.33414048 0.5983708 1.1584074 0.27594942 -0.18565947 -0.06294265 -0.31936163 -0.5075869 -0.3378354 0.26643258 0.22526616 0.16694374 0.047439203 -0.16940692 -0.021025222 0.29017377 -0.21183306 -0.06749363 0.0788863 0.3948436 -0.37094134 -0.0038930704 0.26991946 0.23348041 0.009014301 -0.18452966 -0.33949938 0.22150388 0.09942164 -0.06593811 0.25914 0.34042615 -0.5551403 0.39423606 0.4624857 0.8203159 0.16742906 0.0631557 0.10623046 -0.6078988 0.089321524 -0.31528875 -0.44740364 -0.12197835 0.11446528 -0.6968632
payaso -0.5502556 0.2902569 0.2720272 0.2559254 -0.10816831 -0.24578829 0.50569934 0.36350864 -0.2451884 -0.28665197 0.35357967 -0.15586999 -0.18243998 0.024330283 0.51322675 0.3926521 -0.69935656 -0.26764026 0.6452163 0.07248986 -0.42279303 0.18804458 -0.15405636 0.17269263 -0.33275524 -0.07682539 0.25338632 0.091893345 0.24561365 -0.52773637 0.11571148 0.1772577 0.17661364 0.18507779 -0.60878706 -0.25959945 0.21671048 0.31527054 -0.1830343 -0.37364206 -0.44837347 -0.22423367 0.05616497 -0.774821 -0.036730632 0.006613817 -0.5928882 0.009112524 -0.38084942 -0.5223264
trapo -0.20553218 0.17298324 -0.022058444 0.35858345 0.5174577 -0.2592866 -0.6172628 0.28879383 0.038222313 -0.20890082 0.20461474 -0.1186123 -0.24101631 -0.5547291 0.42754984 -0.4490774 0.04969947 0.0155432625 0.3088993 0.52833295 0.009248135 0.4938395 0.32960856 -0.022069128 -0.24954148 -0.41043624 -0.2782344 -0.03165974 -0.57538444 -0.7981024 0.5507721 -0.039884273 -0.51768076 -0.0009584779 0.13617189 0.285079 -0.08543323 0.21648636 0.027184753 -0.22557929 -0.15302533 0.085399985 -0.03596031 -0.23260573 -0.08014228 0.08132205 -0.57837224 -0.81210864 -0.56336695 -0.3621767
pájaro -0.54705924 0.5328378 -0.098572984 0.38834602 -0.08940159 0.008380055 0.5626358 0.30789274 0.16318437 0.22194532 0.16125436 0.30402905 0.04123833 -0.16925626 0.6960911 -0.31217918 0.17575113 0.17030351 0.005981686 0.81485605 -0.11453277 -0.19123685 0.41894478 -0.6987309 -0.43125805 -0.5884222 -0.71031225 -0.018703328 -0.17577755 -0.4907569 -0.20386954 0.11220727 -0.53096294 0.20258509 0.30978402 0.09921446 -0.072190285 -0.22561389 -0.32076478 -0.12069938 0.049166393 -0.07826654 0.030722773 -0.35174853 0.43673396 0.025766961 0.051270444 -0.4007969 -0.22790079 -0.16502991
lavadora -0.37970772 -0.051891856 0.7378501 0.040475626 0.22245431 0.5087953 -0.2738507 0.07735235 0.07877778 -0.048107542 0.26068538 -1.0161535 0.118099764 -0.49605983 -0.061814915 -0.69093806 -0.24247989 -0.16934507 -0.0644977 0.5010374 0.14078587 0.09852535 0.22265646 -0.1596119 -0.034072276 -0.020670012 -0.16793953 -0.44981802 -0.42051658 -0.8383948 0.044717222 -0.0630359 -0.43686533 0.30397022 0.49239913 0.34297875 0.099075496 0.274838 0.02632139 -0.14000626 0.039529346 -0.102288745 -0.10119312 -0.100848526 0.015702087 0.07817427 0.18600586 -0.115601264 -0.42997512 -0.58124435
suéter -0.2842826 0.5175515 -0.2857527 0.094163865 0.47576126 -0.13090092 0.7466209 0.3654381 0.2953478 -0.034561716 0.30532774 -0.40819597 -0.91678077 0.1366614 0.16021544 -0.2580968 -0.07869193 -0.40485498 -0.24729532 0.13144681 -0.12620662 0.26963326 0.22043562 0.14364348 -0.16311239 -0.10144048 0.41289568 0.0700203 -0.9013337 -0.7807069 0.48442 0.20648319 -0.17376553 -0.2237655 -0.23508221 0.16860065 0.47759786 -0.018508729 -0.14641213 0.016062992 0.031700768 0.1326896 0.050036017 0.29009876 -0.54054666 -0.028803024 -0.008073948 -0.12081676 -0.024305044 -0.22282277
cama -0.05460174 0.38505983 0.700777 0.12174041 -0.3900813 0.095374405 0.1997657 0.37203056 0.40340182 0.48522788 0.91075456 -0.59443295 0.116145596 -0.120754115 0.39168686 0.04301556 -0.19867548 -0.25123 0.1281589 0.43025798 0.29926604 -0.16090666 -0.08601928 0.37381268 -0.23931046 -0.66967213 0.1493928 -0.22509998 -0.48958653 -0.5608154 0.098096386 0.2786677 -0.111764275 -0.32853764 0.014005492 0.28947031 0.19746464 0.075602345 -0.018616706 0.17956954 0.2440961 -0.1956493 0.0926743 -0.8457088 -0.5441608 -0.13146107 -0.1534679 -0.23345578 -0.19965984 0.4282802
zanahoria 0.05764698 0.097301245 -0.1312066 0.35581034 0.48321855 -0.41747156 0.4856048 0.055721696 -0.15855561 0.5769099 0.20060398 0.023982037 -0.28214452 -0.24738307 0.24798152 0.03886003 0.1397531 -0.42774737 0.10185007 0.46691757 -0.028634274 -0.10334862 0.2502344 -0.09911578 -0.35004392 0.049668085 0.6297696 -0.36381826 0.055180438 0.025891213 0.0265852 0.2658863 0.4131026 0.1383253 0.8733069 0.26814172 0.39865333 0.4974361 -0.49863213 0.38262898 -0.14783591 -0.31864738 0.508872 -0.1754801 0.3050935 0.2730655 -0.6140656 -0.6307991 -0.7140971 -0.36047792
hospital -0.09073774 0.3204264 0.7813578 0.034683246 0.51813215 0.5017373 0.68521506 -0.1732173 -0.36397257 0.31493685 0.33655939 -0.1974227 0.2806706 -0.70133406 0.62571925 -0.32101348 -0.29338235 -0.36363333 0.3168531 -0.38249204 -0.23541275 0.25193524 -0.0069430885 0.42861113 -0.6789377 -1.1726931 -0.07020724 -0.14908147 0.14103846 0.15086119 0.33202654 -0.045327015 -0.26217827 -0.040398583 0.13563275 -0.12931198 0.371444 0.17219907 -0.08349974 -0.4613784 0.3607911 -0.021738302 -0.3197682 -0.73295057 -0.630784 0.17236993 -0.14242789 -0.32151157 -0.3857929 -0.22592594
abrigo -0.37280676 -0.0272776 -0.4215864 0.1530635 0.32908425 -0.2643056 0.716567 0.36664063 0.2775685 0.058015384 0.44003072 -0.56845623 -0.44009724 -0.19937329 0.026121235 -0.2667083 -0.30316648 -0.6615698 -0.13482958 0.3848615 -0.10714098 0.19439939 -0.011515062 0.10639887 0.20234178 -0.35708544 0.1575344 -0.3083216 -1.174596 -0.8105169 0.35546738 0.36761248 -0.083608516 0.034333847 -0.22978723 -0.26748592 0.016045813 -0.13635984 -0.60965806 -0.055956468 -0.10076469 0.14973241 0.06072548 -0.020407401 -0.16351213 0.28166416 0.13696018 0.16989133 0.116611026 -0.10037975
cereal -0.6446653 0.2568954 0.3297166 -0.11976642 0.20068628 0.15531953 0.5459631 -0.28922918 0.17601526 0.4629817 0.026401393 -0.33230457 -0.26001182 -0.3361276 0.46984142 0.09034223 -0.56263804 -0.00040655342 -0.24976583 0.7404389 -0.5793639 -0.31612802 -0.19954067 -0.22450049 -0.3435534 0.13128811 0.64783007 -0.49287814 -0.054197595 0.3771071 0.16552073 -0.26458773 -0.17491588 -0.4425238 0.76863486 0.2041078 0.28090012 0.24956279 -0.6799467 -0.44600466 0.015123867 0.05119308 0.24171549 -0.094003744 -0.28282556 -0.6692614 -0.20598096 -0.3878775 -0.24807562 -0.041794192
verde -0.27259043 0.514481 -0.33686668 0.049264375 0.15267082 -0.113944896 0.42474112 0.021283133 0.05389329 -0.19305176 0.3165663 -0.036507126 -0.29857162 -0.40067905 0.04185692 -0.027734088 0.016532792 0.050631683 0.030551985 0.27197102 0.40740266 -0.1860445 0.44288284 0.16560416 -0.25961152 -0.05204946 -0.20376198 -0.38447002 -0.3356426 -0.4239316 0.2808853 -0.07341912 0.124675885 -0.19722116 0.2777618 0.29198366 0.102356225 0.4235016 -0.20832708 0.022062356 -0.040572904 0.16827866 -0.3397883 0.14803147 -0.11596729 0.1682705 -0.58312494 -0.09726407 -0.27415323 -0.53305423
plátano -0.35988176 0.19177334 -0.17998879 -0.1380729 0.027736869 -0.09890498 0.6650954 0.14189276 0.2283738 0.21590437 0.60797423 0.017557865 -0.57543665 -0.12255532 0.21289378 0.22046149 -0.19203351 -0.01625765 -0.44045466 0.23758805 -0.052186605 -0.16349648 -0.107049026 0.06275534 -0.38449785 -0.036022756 0.62897015 -0.81079113 0.07475825 0.18530285 0.35420442 -0.26757833 -0.22026457 -0.01837296 0.53326076 0.64691037 -0.04187945 0.0360403 -0.47314504 0.12758407 -0.1952278 0.006355965 0.102860644 0.03053772 -0.028876973 -0.1264086 -0.4839072 -0.40624037 -0.4450955 -0.7636458
jabón 0.24201837 -0.20945376 0.33586782 0.05443719 0.28705359 -0.24351245 -0.1295314 0.2081348 -0.48489413 0.09169843 0.5446898 -0.9052962 -0.44425645 -0.620494 0.5536543 -0.1341098 0.101113096 -0.06274307 -0.121514075 0.49865523 -0.09523222 0.09175988 -0.06514219 -0.049993053 -0.30787957 -0.37265787 0.22173832 0.13247478 -0.24925782 -0.78439605 0.3415635 -0.06833811 -0.33141196 0.22169097 0.44531855 0.38541603 0.27823266 0.30414054 -0.20282751 -0.5505563 -0.22689869 0.2860729 0.015193598 -0.10979158 -0.4266762 0.32126677 0.37684292 -0.0686504 -0.14751437 -0.32918948
cebra -0.7247344 -0.21443227 -0.34186217 0.31806022 -0.36757946 0.5119118 0.5659058 0.05294317 0.009207549 0.53650355 -0.16093655 -0.6957805 -0.41827884 0.0017587724 -0.056231353 0.1362972 0.024776101 0.7878637 -0.08402336 0.1878324 -0.44815308 -0.050989635 0.27761498 -0.54992235 -0.30393863 0.0037608694 -0.010925997 -0.28005278 -0.122708656 -0.40339884 0.28884155 0.19567096 0.10494086 0.012638668 0.07997781 0.28029016 0.4708508 0.79138273 0.115344845 -0.059974354 0.33965755 0.20297351 -0.23782323 -0.5729681 0.08842013 0.23439828 0.34413382 -0.56625265 -0.02758251 -0.5705645
uvas 0.046404425 0.50818264 -0.2415837 -0.24570377 0.10438703 -0.48631322 0.9768429 0.05996356 0.13497269 -0.36391428 0.11925444 -0.26742214 -0.2726495 -0.025549253 0.71238035 0.1474421 0.30683622 0.2664395 -0.7689798 0.5014365 -0.024845652 -0.41991523 0.09240025 0.5236479 -0.6900456 -0.13270949 0.83651817 -1.0185494 0.117905796 -0.2512266 -0.24185601 -0.4218485 0.40520903 0.32511336 0.56031924 0.031169323 -0.28655314 0.10570873 0.069850646 -0.53954285 0.15887378 -0.63793427 0.22329146 -0.15067478 -0.05968206 -0.0030103056 -0.19154821 -0.6591663 -0.76366776 -0.7572419
cuchillo -0.05772264 0.39322254 0.18641767 0.06113946 -0.19389248 -0.3248496 0.3856552 -0.3846126 0.40677336 0.4398749 -0.083058156 0.2067093 -0.24592456 -0.69869226 0.18017109 -0.28261158 -0.2127478 -0.20945854 -0.12809762 0.47238117 -0.90342546 0.29687387 0.009003268 0.64731777 -0.4274553 -0.24822614 -0.08388609 -0.41067967 -0.34560505 0.12736288 0.15073322 -0.40854 0.2377625 0.10671809 -0.3220345 -0.19620979 0.42200425 0.34343147 -0.02842857 -0.091399744 -0.08501639 -0.29695976 -0.09121718 -0.16047713 0.028494144 0.055595838 -0.4126954 -0.82769614 -0.015246247 -0.79184717
