computadora -0.64363366 -0.49449563 -0.08694075 0.021412551 0.5162006 -0.6296261 0.742849 -0.09455894 0.38178802 0.8270866 -0.21465102 -0.6184867 -0.061903734 -0.4126273 0.025017217 0.09253812 -0.6861157 -0.64085907 -0.74206805 -0.23470542 -0.05596619 -0.2856018 0.2698366 -0.039633702 0.85078764
niño -0.4194253 0.29367396 -0.03579813 0.5354495 0.16600336 -0.2225587 0.47042772 0.19914319 -0.407766 -0.24636589 0.24179177 -0.29933247 -0.39313075 -0.049302146 0.540019 0.5618917 -1.004704 -0.43220899 0.025235573 -0.13550396 -0.10121396 -0.13092673 -0.4283938 0.014350411 0.08411494
agua -0.124440625 -0.03331012 0.38522094 0.9499632 0.31381133 0.08392702 0.22327673 -0.5029463 0.11412378 0.20550105 0.29132566 -0.44875497 -0.22733702 -0.28905612 0.24897712 0.35035786 0.032669988 -0.3849321 -0.707146 0.009873125 0.18804127 0.19468212 -0.18411726 0.36459917 -0.850789
casa -0.54918814 0.32077062 -0.32234395 0.66309667 -0.18963884 -0.11488831 -0.2014739 -0.47518507 0.7849373 0.32069746 0.30007032 -0.3529551 -0.177733 -0.39069167 0.26713043 0.26024514 -0.1353362 -0.48057607 -0.19680306 0.5575704 -0.026027746 0.3967622 0.06859826 0.6675694 0.11984153
reja -0.7128996 0.26031497 -0.041264854 0.06444369 0.118559636 0.15400083 0.5188192 -0.3468373 0.83997613 0.25782126 -0.70337695 -0.5968134 0.11302199 -0.2911834 0.8876722 -0.45963684 0.021785414 -0.08458633 -0.38080594 0.7104559 -0.2760374 -0.4367479 0.090177536 0.2963545 -0.6303586
dulce 0.36749053 0.6593618 0.5007878 0.6052507 0.7117958 -0.26055077 0.06350936 -0.12573597 0.12903634 -0.05046143 0.019585934 -0.6255912 0.3438172 -0.08027675 0.31066105 0.8787366 -0.58944774 0.07965941 -0.03099127 0.14691477 -0.41093743 -0.08074422 -0.4726188 0.580244 -0.46308106
calle -0.12089521 0.22516708 -0.5956892 0.35525036 0.0286243 0.57825756 0.48551342 -0.099973164 0.24240902 -0.13790056 0.2552028 -0.34875366 0.14612554 -0.52695197 0.47823066 0.11012744 -0.80144835 -1.2038732 0.2900058 0.5463261 -0.60197127 0.03669513 0.5503431 0.75322276 0.36787227
piedra 0.051823005 0.75055075 -0.35734785 0.6179593 -0.14183679 -0.061789274 0.4216451 -0.68907326 0.013960543 0.22862647 0.009343485 -0.19725421 0.6375581 0.13033144 0.45700446 -0.4523048 -0.05452356 -0.88093394 -0.87384176 0.102971 -0.29923004 0.53964955 -0.54759395 0.6148977 0.34130147
tierra 0.2569419 0.16205886 -0.27506986 0.52493376 0.06846337 -0.14060552 0.14284608 -0.5386072 0.27057508 0.009573644 0.03534305 -0.30394217 0.5072687 -0.796748 0.6513419 0.1798537 -0.21623933 -0.9739845 -0.8140783 0.5732135 0.31310877 -0.12373053 -0.18526225 -0.20310953 -0.22642516
camión -0.720695 -0.48889422 0.57089716 0.101501584 0.55363595 0.35197386 0.6783675 -0.028358793 0.23682816 -0.19664234 0.25418016 0.2625107 0.08678806 -0.7035968 0.7182319 0.4897194 -0.7326149 -0.84325844 0.10489562 0.3808251 -0.020288922 0.21490589 0.1730382 0.8002334 0.26053616
colores -0.3627972 0.86401576 0.31383866 0.36301053 0.124676615 -0.43314382 1.067188 -0.41999215 -0.20808573 -0.15785351 0.12995207 -0.9339798 0.1737947 -0.3835817 -0.047266 0.25869575 -0.232883 -0.19793335 0.12433263 -0.3027035 0.3149577 0.018565 0.35056162 0.058504928 0.032088093
burro -0.18809731 -0.49243084 -0.5548048 -0.338982 -0.23287486 -0.76504797 0.81416476 0.36507666 0.10646451 0.33704084 0.5517824 0.23069453 0.28206897 -0.52322567 0.9944943 0.5002385 -0.35604805 -0.4450651 -0.23777212 0.13984314 -0.41915837 -0.19883578 -0.13124943 0.5108685 0.14138944
grande -0.29875007 0.3155856 0.00087710744 0.20224668 0.017099533 -0.022807328 0.44900122 -0.044302147 0.409758 0.18408805 0.3120606 -0.21710417 0.19599174 -0.39556602 0.2923497 0.10137667 -0.11733084 -0.3419893 -0.23158276 0.34987777 -0.118015535 -0.07388522 0.057044093 0.31200376 0.04674879
policía -0.68492246 0.27199468 0.30300227 -0.14577864 0.38956648 0.36204684 0.7615215 0.09825922 0.13946013 0.03022801 0.35842603 -0.12803 0.2815058 -0.2093269 0.7644801 -0.6955741 -1.6799998 0.0072991326 0.014200755 0.81316936 -0.64503485 -0.33981973 0.14539987 0.28362405 -0.028894981
conejo -0.02660761 -0.014116224 -0.4926853 -0.18300563 0.57974946 -0.68670255 0.79695845 -0.06769856 -0.30401638 0.57839614 0.19891837 -0.26408374 -0.098282926 0.079180285 0.8421491 0.435632 -0.19735405 0.042677633 -0.6203741 0.8097445 -0.28844228 0.033572283 -0.21511014 -0.22688898 0.06122199
oso -0.07023437 0.7803655 -0.4409441 0.023768116 -0.0135408575 0.042084243 1.0041971 0.2811753 0.42665878 0.6949238 0.43141016 0.13670084 -0.012703033 -0.20656723 0.8311496 0.63211095 -0.4670439 0.034100104 -0.26617983 0.1739782 -0.17535101 0.0646344 -0.55602217 -0.24552687 -0.25517982
familia -0.47264183 0.7531428 0.034767132 0.24697371 0.35937297 -0.10400022 0.15650757 -0.47199294 0.7307427 0.5005579 0.5603711 -0.4013031 -0.57455957 -0.38324353 0.7887302 0.6975764 -0.46485692 0.07333188 -0.032311454 0.11673929 -0.3870274 0.2555677 0.012720949 0.074292354 1.0041703
dinero -0.7959629 0.1593833 0.13255505 0.23644984 -0.058901697 -0.08288205 0.16394329 0.44853297 -0.17782816 0.52441216 -0.11877796 -0.5262718 0.14393032 -0.22976911 1.2225951 -0.17643064 -0.44399607 -0.6502645 -0.12542593 -0.6695685 -0.5149675 0.453394 0.78120553 0.71157694 0.15021251
león 0.057521764 0.39708188 -0.35513178 0.025347946 0.04106629 0.34960413 1.5359333 -0.07070233 0.16174987 0.34029478 0.76798606 -0.61321366 0.1395279 0.27195635 0.6919613 0.5492006 -0.3658423 0.41689485 -0.55493987 0.052980345 -0.24518318 0.3585927 0.25261316 0.1328938 0.4709726
escuela -1.1391732 0.51215345 0.349228 0.020365514 0.10169929 -0.57646316 0.5732311 -0.96020436 0.36325994 -0.068379894 0.5912584 -0.08870076 0.18279126 -0.43012163 0.31181604 0.20799167 -0.74167645 -0.5217592 -0.18056951 -0.43234482 -0.12893347 -0.0067282226 0.25208902 -0.056806453 0.58960944
bebé -0.042198576 0.14172943 0.21272615 0.4413265 0.30049446 -0.4856394 0.12388012 0.035199802 -0.08044056 0.16259791 0.011057055 -0.69139254 -0.23866887 -0.414762 1.0069413 0.60745335 -0.95554554 -0.0063325367 0.38476348 0.3937267 -0.055176206 0.18979311 -0.70118207 -0.20548338 -0.06002108
cocodrilo 0.3341198 0.102770105 0.34043133 -0.24610077 0.14778642 0.24725673 1.0107228 -0.021528289 0.5503576 0.64433414 0.516711 -0.14665833 0.29655996 0.37901974 0.72463864 0.3941431 -0.16783756 -0.3668498 -0.9947395 0.19740097 -0.25077942 -0.09591465 0.3314088 0.13879442 -0.34344903
mesa -0.65736145 0.16214627 -0.30710775 0.3067286 -0.020718222 -0.27720118 0.20421112 -0.5361706 0.30808616 0.7968143 0.43674347 -0.65473646 0.11034083 -0.7798153 0.061125137 0.4219495 0.25469095 -0.39103714 -0.28388262 -0.4798496 -0.8897559 -0.083247736 -0.398236 0.47761744 0.12374356
mano -0.21050441 0.13096489 0.33512762 0.04667151 0.36204034 -0.3326601 0.7187163 0.0046254136 0.40183035 -0.20796089 0.25341815 -0.82490206 -0.30992636 -0.3618439 0.2537214 -0.25765514 -0.12771949 -0.37931266 -0.48236087 -0.2454072 -0.5811347 0.1960347 -0.50257 0.25749293 0.8050493
bolsa -0.37259305 0.372487 0.49401063 0.036097992 -0.42416915 -0.5516786 0.3403728 0.12545814 0.47295243 -0.08020613 0.08765889 -0.54210144 0.14764705 0.2962275 0.87736267 -0.18732847 -0.014233527 -0.8547992 -0.25526837 -0.1894942 -0.766631 0.22535738 0.64333266 0.46959394 0.16051506
caballo -0.40888414 -0.46115133 -0.6195061 -0.12286472 0.08041023 0.15798317 1.1410245 0.4567306 -0.16961257 -0.16715138 0.1460524 -0.7307968 0.5900799 -0.07897111 0.8705688 0.56210655 -0.30217385 -0.32648316 -0.38762277 0.4513918 0.22907265 -0.10477916 -0.14340696 0.2051527 -0.28106597
planta 0.24114896 0.16687733 -0.5067587 0.5275689 0.21246968 -0.51118684 0.07956432 -0.68293715 -0.020392364 0.30144203 0.19142735 -0.8811209 0.367643 -0.65293837 0.7473034 -0.14597984 -0.34245247 -0.59378344 -0.21106534 0.24254483 0.7666525 -0.78026396 0.08617981 0.39546314 -0.21854994
carne 0.36118022 0.49987927 -0.024512261 -0.14081173 0.5913685 -0.060010027 0.6100831 -0.21887319 -0.4011452 0.38544875 0.4767833 -0.20799005 0.18340026 -0.73455155 0.61749154 0.16706322 0.044066984 0.1672474 -1.039951 0.048477035 -0.39662957 -0.15906121 0.36319128 0.6535085 -0.39099386
botón -0.8072307 0.4257421 0.76426613 0.27857125 0.53687096 -0.49643227 0.49123397 1.0098898 0.66507596 0.8692952 -0.3845507 -0.5104689 -0.47734421 -0.38326982 0.20054096 -0.21273693 -0.1662032 -0.27684948 -0.1508258 0.52877307 -0.13067631 0.09880315 0.07499012 0.2577392 0.38444194
ardilla 0.008021455 0.26703885 -0.9204686 -0.27470335 0.07055857 -0.38982874 0.52682525 -0.3985095 0.08918122 0.28584918 -0.4505549 -0.84502876 -0.37965006 -0.08246862 0.7472979 0.6032178 -0.35974798 -0.108916834 -0.79885036 0.42702624 -0.13297588 0.4549989 0.04410272 0.22185788 0.36550435
moto -0.62180525 -0.082194746 0.20342942 -0.06558077 0.3742957 0.42143393 1.0379062 -0.28611058 0.19386616 -0.32121438 -0.25338656 0.39627272 0.036201842 0.091738455 0.5003243 0.59557307 -0.81207013 -1.0909104 -0.49237224 0.4769964 -0.09546867 0.27526784 -0.44452235 0.7105121 0.31510404
víbora 0.6919528 0.22482933 -0.1837849 0.08749765 0.18750943 0.24130431 0.59271544 -0.5925099 0.67682135 0.5053412 -0.122227624 -0.33663073 -0.08992717 0.5882809 0.87459815 0.15578884 -0.4848091 -0.6866839 -0.971071 0.47172886 -0.48352125 -0.1646442 0.13420537 0.3561386 0.080566384
playera -0.7776044 0.97737134 0.3486002 0.1218588 0.15243453 0.1656428 0.14308503 0.10404844 -0.21101525 0.27437595 0.25204492 -0.7181152 -0.7092099 -0.2337188 0.17555916 0.14131887 -0.3270685 -0.93144476 -0.59238327 0.18279088 0.16455959 0.020626621 0.099295594 0.0360862 -0.25885546
pelo 0.040229797 0.5492608 0.034672286 -0.37573725 -0.16451336 -0.3122115 0.76459336 0.5147712 -0.17571492 0.27834687 -0.1608222 -1.2185464 0.19576 -0.28578895 0.693984 -0.05889432 -0.4520463 0.18504371 -0.1874823 0.22206491 0.16892791 0.6288075 -0.68515825 0.4580222 -0.061117005
lobo 0.35218906 0.21558891 -0.15136302 -0.022576343 -0.22044054 -0.033429522 1.4286717 0.17358044 -0.2325599 0.56141204 0.44685462 -0.58915347 0.6231493 -0.037576668 0.33589754 0.3573777 -0.26142085 0.03961219 -0.35582846 0.38130426 -0.5435459 -0.2626565 -0.30608588 0.058833968 -0.19101278
zapato -0.42237002 0.70050293 0.0018789809 0.3315547 0.8359407 0.028777052 0.28895915 0.39317042 0.36488122 -0.04365208 0.4765866 -0.35915112 0.40319175 0.22136526 0.56447154 -0.019456109 -0.04187362 -1.0323702 -0.31421944 -0.0706582 -0.048368197 0.31894857 -0.17787327 -0.072964 0.16084823
gato -0.2559245 0.5042719 -0.4554767 0.42145374 -0.30416757 -0.31865624 1.0125203 -0.07012318 0.40358752 0.36895254 0.1980489 -0.39954114 0.24367148 0.47046533 0.6927268 0.53190875 -0.22297387 0.2385154 -0.44960648 0.01599853 -0.7684334 -0.16280176 -0.63416505 -0.28423378 -0.14715222
pato -0.45328864 -0.024993844 0.06355586 0.69951177 -0.22685221 -0.18802315 0.7017087 0.038681064 0.23239718 0.27934566 0.27788273 0.045250848 -0.085560314 -0.038212165 1.1077074 0.45917574 0.32779628 0.1686359 -0.71696025 0.62134045 -0.49318132 0.08045543 -0.18790756 -0.22713362 -0.32676223
caja -0.5020016 0.62516874 0.24064372 0.27267104 -0.10778466 -0.024811823 0.39949274 0.11354472 0.5560246 0.66398674 -0.97107434 -0.69630843 0.4093888 -0.13614571 0.39426997 0.23066558 -0.027815305 -0.59579766 -0.05890878 -0.07941326 -0.8391469 -0.06834408 0.34750903 0.3167317 -0.32741436
tigre 0.0915188 0.2360712 -0.2478977 0.05868827 0.20490289 0.24646962 1.4745352 -0.12252434 0.37298477 0.28470644 0.44926092 -0.4928223 0.32940996 0.7216593 0.3064539 0.307616 -0.36206254 0.49840507 -0.6834178 0.55659086 -0.35144326 0.03642516 -0.12341896 0.6007878 0.15394282
perro -0.33945826 0.75873625 -0.18105567 0.07594951 -0.04920853 0.53157693 0.69918096 0.13340397 -0.031441502 0.49778187 -0.15082102 -0.44184843 -0.082971536 0.15809499 1.1078387 0.65282226 -0.23040667 0.11051279 0.05632871 0.7184918 -0.6657091 -0.060304694 0.14738803 0.29374027 0.045699846
manzana -0.072560176 0.607687 0.0053817336 0.07967597 0.36804858 -0.43559256 -0.0074505573 -0.98858404 0.08397276 -0.10071488 -0.08362339 -0.49718365 0.057229165 0.13444565 0.49129394 0.6722178 -0.7067323 -0.31745556 -0.72066444 -0.14412332 -0.11714409 -0.59582037 0.12847182 0.66291904 -0.83945614
brazo -0.049468175 0.48375246 -0.27481118 0.017159225 1.1314766 -0.30823967 1.205004 -0.07560714 0.24792348 0.2267241 0.5615796 -0.44580877 -0.6252371 -0.6717324 0.48503 -0.34803635 0.08863825 -0.11391972 -0.17772508 -0.5264215 0.0696312 0.24503556 -0.93452215 0.5681591 0.37426445
hipopótamo 0.16674055 -0.19666421 -0.031450115 0.27345607 0.3363971 0.5915642 0.9603094 0.055258572 0.36129302 0.27747893 0.79702795 -0.36313412 0.23852356 0.12158537 0.82648695 0.45627722 -0.36494827 0.08438653 -0.9922394 -0.07473233 0.12771815 -0.053319078 0.15192057 0.1669371 -0.27295977
pescado 0.37112385 0.31472498 0.106458336 0.6436419 0.4562145 0.09779567 0.83379 0.008856286 0.22017209 0.7039901 0.36134186 0.47851935 -0.09641925 -0.30775818 0.70216924 0.53284895 -0.42926443 -0.090186365 -0.763794 0.04040408 0.26778692 -0.13535605 0.66911685 0.407679 -0.99411446
botas -0.60204947 0.19738106 -0.34811696 0.41696554 0.24463727 -0.014214036 0.4466033 0.9756003 0.27067804 -0.033276934 0.29262683 -0.42661065 0.29773134 0.636115 0.497891 0.3902221 -0.31034872 -1.2322217 -0.62091917 0.0032673709 -0.093110226 0.18740186 -0.37639156 0.05196884 -0.42672077
cacahuate 0.2748542 0.14067572 -0.250056 0.7809416 1.102086 -0.6202987 0.19494665 0.08719837 -0.34730124 0.097516686 -0.07325938 -0.6334663 0.69595385 0.14341958 0.26188082 0.34026572 -0.66081464 0.27396494 -0.7338069 0.10472627 -0.3252188 0.2309303 -0.11768996 0.51798505 -0.27781472
mercado -0.43502742 0.18354172 0.08610849 0.18639548 0.24963044 0.028943667 0.19157192 0.083888344 0.08314196 -0.021636307 0.9194794 -0.6867932 0.14872602 0.057305276 0.943461 0.18637496 0.16176534 -0.5474122 -0.013681912 -0.079522446 -0.37680322 -0.27377388 1.0233746 1.1729332 -0.06939477
ventana -0.44668946 0.23088984 0.1436325 0.6397639 -0.16481052 -0.32592192 0.9899569 -0.28684253 0.84115577 0.22493194 0.23139016 -0.36836335 -0.04487729 -0.26584917 -0.17183211 -0.18040384 0.0044758837 -0.7045378 0.3172853 0.75751233 0.0236955 -0.3508379 0.42538592 0.21105976 -0.43426993
cara 0.27354005 0.41412994 0.009314766 0.096294485 -0.65415895 -0.96004975 0.48983803 -0.3539491 0.57906765 -0.12934855 0.42929757 -1.1657294 -0.7218497 -0.046287984 0.10181398 0.30695346 -0.4873659 -0.57960445 0.02758607 0.28498384 -0.5097998 0.444214 -0.085408434 0.34012955 -0.10163642
tractor -0.3511939 -0.8881314 0.046527404 0.016431078 0.14150533 -0.37872487 0.64744586 -0.06370452 0.38538137 -0.52240604 0.06242315 0.10494398 0.76998323 -0.54590225 0.7178927 -0.028789895 -0.74076307 -0.9266364 -0.7893888 0.71860754 0.34441563 0.21568123 -0.23196927 0.71284485 0.25215247
calzón -0.6461585 0.73174894 0.13032667 -0.2176536 0.094079636 -0.19778179 -0.020189028 0.5923758 -0.015686598 0.65588856 0.36916748 -0.60637915 -0.13646927 0.12850842 1.0320817 0.024066284 -0.24505132 -0.6357276 -0.56640935 -0.049135752 0.34027576 -0.08994465 -0.82512355 0.26795527 -0.51707876
leche -0.18934868 0.037472136 -0.3918282 0.7203782 0.17656192 -0.6969815 -0.28977478 0.0064508296 0.24307708 0.054796387 -0.0032798874 -0.63440406 -0.1799086 -0.4555021 0.40948245 0.45209703 -0.5593064 -0.107671835 -0.46623692 -0.040955845 -0.45337492 0.041536026 0.03726967 0.47727245 -1.0106839
televisión -0.461662 -0.17667852 0.38821375 0.6567154 -0.045311738 -0.57830477 0.24973089 -0.03546419 0.63468397 0.7488539 -0.005988742 -0.46568334 -0.16848688 -0.014674426 -0.35047713 0.6171733 -0.8118739 -0.6459268 -0.67979753 0.15460007 -0.30393323 -0.614379 0.54105103 0.4408158 0.82433254
comida -0.026507467 0.15853031 -0.031705726 0.12314715 0.37777233 -0.6190097 0.18496615 0.034615334 0.09242525 0.15831015 -0.037731707 -0.32458922 0.22805811 -0.3549849 0.5409198 0.60939187 -0.0394955 0.11960192 -0.57467616 0.27923772 -0.49514315 -0.0023851853 0.21272089 0.45865667 -0.52645266
aretes -0.32600686 0.47871897 -0.14391086 0.27287763 0.28356305 -1.3029063 0.810006 -0.022525743 -0.20536803 0.29565915 0.16858064 -0.98428315 0.0276606 0.81422216 0.46430686 -0.6432971 -0.33015665 -0.6154251 0.2889502 0.048325486 -0.22849183 0.593936 0.078655265 0.3562269 0.1463868
gorra -0.78239703 0.57698834 0.40908507 0.27187768 0.14514491 0.070627525 0.7791401 0.7045654 -0.15882243 -0.07292017 0.3425784 -0.67650515 0.19317144 0.27953807 0.20597805 -0.45611838 -0.61835873 -0.6451362 -0.3668176 0.7412617 -0.05927855 -0.21966663 -0.109680824 -0.2576508 -0.4823794
palo 0.23752017 0.3790351 -0.30363417 0.6804675 0.2603019 -0.17589703 0.59482116 0.10129374 0.25761747 0.59408367 0.037775584 -0.6002278 0.29795188 -0.50029606 0.08161761 -0.305703 0.5732654 -0.11559467 -0.44968268 0.14131942 -0.43939114 -0.31560144 -0.6715307 1.1168181 0.29987392
borrego 0.13475038 0.18352613 -0.6316968 -0.23072568 -0.3403707 -0.54821455 0.76274055 0.79585403 0.08144531 0.1888769 0.33522427 -0.5061256 -0.2895253 -0.5688105 0.5207659 0.41056848 -0.48850244 0.2586748 -0.60747266 0.56568044 -0.2535278 -0.40413663 -0.3494213 0.6060186 0.067826726
libro -0.87103486 0.45681632 0.25576428 0.1388033 0.087602556 -0.8148968 1.0107645 -0.432407 0.6532465 0.6092098 0.37783125 -0.38119453 0.51005083 -0.34547344 0.17547163 0.3731762 -0.1704528 -0.3614372 -0.04797255 -0.6854343 0.18773589 -0.6356653 0.034420837 -0.23553179 0.090034686
mueble -0.8370901 0.015448852 0.11080051 0.13965043 -0.21216103 -0.5716303 -0.06506492 0.04456445 0.71831894 0.7667398 0.29641297 -0.6959013 0.8306004 -0.3780367 0.3554224 0.52700555 0.08143477 -0.8072171 0.003088927 0.09703232 0.13046208 -0.01805637 -0.44459492 0.5934996 0.23905241
dientes 0.6583437 -0.45214656 0.25450948 -0.20139728 0.36442998 -0.6390514 0.827651 0.051017735 0.06698395 0.33077207 0.6777265 -0.9775232 0.19513167 0.22477339 0.60953444 0.20905441 -0.53317684 -0.45074204 -0.040943295 -0.08232957 -0.27426136 0.14001763 -0.27186567 0.32037538 -0.75126743
árbol -0.2636769 0.5116578 -0.5996561 0.18938738 0.26088017 -0.44741955 0.44952366 -0.5703833 0.18764405 -0.07909282 -0.09766692 -0.5392279 0.4739559 -0.3943136 0.4518291 0.47164875 0.21830271 -0.1549447 -0.38084552 0.4476222 0.7751987 -0.42236984 -0.4917965 0.8002015 0.06567032
falda -0.23669201 1.075301 0.10851263 0.38949454 -0.18904427 -0.2132826 0.15496248 0.3401328 -0.025385594 0.46755353 -0.0304206 -0.9610333 -0.2191634 0.56620413 0.46613905 0.13682806 -0.043861896 -1.058874 -0.6708505 0.5148712 0.085845746 0.4557221 0.14910704 0.08898362 0.32154107
tren -0.6322109 0.015880182 -0.02267428 -0.012101701 0.35894826 -0.10360037 0.8597436 -0.06549574 -0.04656364 0.28134263 -0.07821858 0.4320884 0.089619495 -0.8431312 0.8437722 0.53955907 -0.6231677 -0.73504144 0.18284903 0.2722812 0.4870987 1.0268468 0.016563758 0.42407802 -0.21000268
iglesia -0.5266234 0.48044294 0.017214416 0.86659336 -0.71766436 0.044039343 0.19879922 -0.008929628 0.891772 0.320171 1.0222509 -0.07513122 0.37791163 -0.43115017 0.08162537 -0.24339864 -1.2020886 0.040790666 -0.8343502 -0.035086725 -0.122304894 0.2525465 0.2517216 1.040648 0.34434906
bicicleta -0.60369873 0.025766699 -0.060536925 -0.07335096 0.27896708 -0.13579448 0.98015016 -0.22763737 -0.50779974 -0.10883436 -0.45558375 -0.010085757 -0.2788349 -0.03481288 0.29227105 0.56185985 -0.7000097 -1.130555 -0.22055462 0.34273282 0.07591275 -0.05908017 -0.368405 0.7087691 0.39316553
autobús -0.63782525 0.13754931 0.6798046 0.04113733 0.07023356 0.31781217 0.7684237 -0.39516544 0.044298954 -0.22867702 0.6838769 0.24319345 0.15936492 -0.22951157 0.82075816 0.659184 -0.42906532 -0.9701244 0.25994766 0.46000564 -0.17844984 0.513667 0.12188422 0.82887983 0.3748619
flor 0.14191252 0.54059553 0.06294602 0.25186834 -0.4166881 -0.5056348 0.27777714 -0.42478842 -0.38565928 0.112072006 -0.35874766 -1.2344632 0.3184921 -0.2883837 0.9663512 0.36076477 0.039810617 -0.39882988 -0.45954546 0.6711854 0.47187242 -0.5240522 0.2302993 0.126799 -0.08728005
sol -0.2757618 0.6165756 -0.031777006 0.29969046 -0.05795839 -0.51159203 0.81457925 -0.20427069 -0.32644475 0.18424249 0.27471054 -0.39992002 0.37599492 -0.8872912 -0.40265012 -0.2093306 -0.4173062 -0.6183889 -0.304671 0.71410507 0.47575948 -0.28806296 0.20607314 0.14653991 -0.63724387
sombrero -0.7438512 0.47665754 0.13128163 0.2679075 -0.059096687 -0.31020126 0.53925174 0.64177316 -0.13831742 -0.5272156 0.45121598 -0.6508875 0.32333028 -0.038643267 0.46607283 -0.19688287 -0.07720046 -0.52833426 -0.22361632 0.97105354 -0.5461689 -0.5061343 -0.15912732 0.006448708 0.06764986
burbuja -0.77838874 0.077271685 0.32545173 1.0012035 0.09725693 -0.10991239 0.45713907 -0.7653911 -0.87632704 0.4847844 0.29570645 -0.81109804 -0.4703021 -0.4479153 0.34647965 0.044768732 -0.30180553 0.1326494 0.1301846 0.45688066 -0.086756214 -0.09218603 -0.08466474 0.4204199 -0.06592073
queso 0.33155444 -0.035407256 0.35213828 0.44081524 0.19983439 -0.94022864 0.3055851 0.4244735 -0.15148953 0.18117061 0.054573968 0.09133314 0.02052268 -0.5363477 0.61227334 0.2872961 -0.5362684 0.21758723 -0.5847642 0.5714732 -0.8486923 -0.4008796 0.58322704 1.147759 -0.59009695
taco 0.030012034 0.3293275 -0.52304626 0.25859347 0.7717361 -0.21962519 0.25333685 0.10094598 0.044400323 -0.13705571 0.7947167 -0.18393138 0.3379743 -1.0461779 0.20214094 0.49947724 -0.27444652 -0.07020226 -0.41868874 -0.087593436 -1.1144378 -0.31219727 0.042274132 1.0739162 -0.20792225
vestido -0.39623865 1.1593493 0.12123894 0.3056719 0.04030558 -0.3992839 0.29129592 0.6423605 -0.25220594 0.44798538 0.58735234 -0.82451725 -0.3043509 0.5044073 0.3553865 0.08762056 0.0012962812 -0.35700375 -0.26605186 0.2877304 0.1990091 0.07428208 0.08622017 0.549818 -0.060562767
pan 0.11810902 0.91408443 0.1217184 0.48125824 -0.0026958643 -0.5415487 0.082964025 0.021563409 -0.043796234 -0.20512645 -0.14786153 0.2443182 0.4207101 -0.66126627 0.5945865 0.4094036 -0.5314166 0.02963097 -0.6182861 -0.17746218 -0.6974521 0.4152695 0.031852514 1.0994862 -0.4475381
fresa -0.14360853 0.7338162 0.6523351 0.40800375 0.62080204 -0.3189244 0.3313114 -0.16814347 0.5657608 -0.17787245 -0.46512723 -0.4097114 0.12480454 0.06224392 0.31479627 0.66990626 -0.5735518 0.2957019 -0.45731193 0.049344584 0.36222395 0.13923845 -0.15870559 0.7848362 -0.7684119
lentes -0.544701 -0.18063264 0.26827106 0.5003527 -0.11420223 -1.5064857 0.9725418 -0.037516426 0.65182966 0.05155434 0.6337082 -0.85753495 0.21377493 0.29221204 0.23340233 -0.14804232 -0.44631606 -0.75118846 0.18427376 0.014282164 0.22096796 -0.5285731 -0.0021055916 -0.40300822 -0.4441787
chocolate 0.28136164 0.49644357 0.21544598 0.5751705 0.15877733 -0.278002 0.5180725 0.27835894 0.48164752 -0.16221847 -0.030143999 -0.7764822 0.45435485 -0.37592512 0.055700514 0.5582414 -0.64764494 0.11615361 -0.4491073 -0.5545918 -0.47161785 0.49619728 -0.037456844 0.40616593 -0.963869
mono -0.48127192 0.201217 -0.68495566 0.2221923 0.07612571 -0.40591323 0.9079472 0.060460046 0.14411141 -0.30074766 -0.55907685 -0.37959635 -0.16096184 0.014689648 0.9108992 0.5618115 -0.6066604 0.2818659 -0.83592284 -0.09260827 -0.100900576 0.14150858 -0.69905245 -0.05431885 -0.0028187025
papas -0.3840899 0.55947477 0.12414938 0.4340342 1.3954887 -0.43726456 0.23670295 -0.17203614 -0.2760933 -0.19406588 -0.052026056 -0.27428263 0.6605275 -0.43752122 0.5094375 0.13599007 -0.41719934 -0.12032942 -0.26117864 0.9356701 -0.79079294 -0.32090762 0.72782195 0.18884894 -0.61242235
ratón 0.05770862 -0.7937902 0.10599281 -0.18949926 0.48510385 -0.42965564 0.89409316 0.34427026 0.36500847 0.75785166 -0.26574796 -0.4564083 -0.0076392423 0.11655078 1.105601 0.37331074 -0.43140665 -0.13625468 -0.48796234 0.4508463 -0.478327 -0.19065437 -0.19897991 -0.13757722 0.16746584
canasta -0.42027467 0.41967887 -0.027160129 0.033264752 0.09028512 -0.39064115 0.43530166 -0.07080203 -0.49710748 -0.24364348 -0.015896766 -0.15327397 -0.004979317 -0.30756164 0.6503801 0.7092539 0.47336268 -1.1436533 -0.4638737 -0.3963396 -0.8661921 -0.42648122 -0.019128015 0.98807603 -0.15026918
gelatina -0.24639069 0.3854938 0.5775546 0.45359814 0.78636867 -0.5853541 0.06643961 -0.044296205 -0.21871114 0.20266426 -0.030241037 -0.34956273 -0.008817912 -0.42092508 0.47795367 0.06804641 -0.8105398 0.3470158 -0.43215606 0.048706923 0.027054593 -0.4423157 -0.38592952 0.37139186 -0.8100915
luna -0.03696611 0.626244 -0.31589866 0.5961963 -0.53139305 -0.5518348 0.4118004 -0.24330197 -0.40807745 0.7522782 -0.00043620745 -0.6695654 0.3974704 -0.57743007 0.26118276 0.25497746 -0.6401851 -0.44137895 -0.21223986 0.63619924 -0.28438935 -0.032257374 0.49983126 -0.50629056 -0.27015024
cochino -0.062693894 -0.06960119 0.40240481 0.27378663 0.07835163 0.3094487 0.59818006 0.4638165 -0.11459283 0.10703522 0.19859952 -0.32172382 0.11524505 -0.8067417 1.4763288 0.43093392 -0.07181077 0.24257988 -0.9719043 0.010892372 -0.42755362 -0.7474982 -0.05072289 0.025042275 -0.026723856
chile 0.28675678 0.4205861 0.21125521 0.7463049 1.1437485 -0.5425329 0.35768268 -0.15617159 0.50871867 0.14918786 0.74143744 -0.096736975 0.82062095 -0.027529586 -0.15719435 0.6034154 -0.17928047 -0.029271271 -0.29658243 0.8286083 -0.6134623 -0.15698102 -0.11698127 0.5651833 -0.121961795
huevo 0.065912776 0.67722666 -0.3125262 0.8204971 0.5183598 -0.8720691 0.32610992 0.27197415 0.50667256 0.20656022 0.21523835 0.32223484 -0.28105 -0.3666609 0.8192387 0.5691497 0.29058447 -0.2338771 -0.39161995 0.10220422 -0.48027858 0.2177428 0.5749676 0.17673667 -0.36259925
araña 0.3928297 0.1609654 -0.14810419 0.50667906 -0.008894359 -0.3423715 1.1561682 -0.6106302 0.8998147 -0.100809254 -0.45448303 -0.32824612 0.19308935 0.21971828 0.84082043 -0.19251053 -0.72301865 -0.3143576 -0.66936404 0.12210625 -0.61228573 -0.41668433 -0.3399906 -0.4339368 -0.041154083
pies 0.049547225 0.23887952 -0.5400396 0.09581149 1.1027886 -0.47421572 0.6183543 -0.09864655 -0.115177915 -0.0027436935 0.79847014 -0.71050876 -0.027912794 0.41746008 0.60094345 -0.038712177 -0.14097075 -1.5660714 -0.14401813 0.018851642 -0.13029 0.14712524 -0.24854445 -0.18354996 -0.121572815
elote 0.40927172 0.11437229 0.1826357 0.6358066 0.31716046 -0.9434062 0.116142884 -0.281911 -0.10876434 -0.34219855 0.6077876 -0.015777636 0.5925576 0.2595029 0.6566153 0.5054369 -0.30495766 -0.34376818 -0.67072517 0.55618614 -0.3292856 -0.38535398 0.116117805 0.6892772 -0.45862067
triciclo -0.52475286 -0.02398542 0.32217428 0.63617456 0.41468605 -0.5557214 0.6408114 -0.27188304 -0.48507467 -0.23051769 -0.31000015 0.088968314 0.053563997 -0.22002733 0.9043379 0.52504057 -0.49531192 -0.65240854 0.45125726 0.89086705 -0.3128997 0.04801468 -0.5610152 0.3537633 0.6106696
vaso -0.8177697 -0.28931037 0.15691274 0.75077206 0.67227864 -0.37808678 0.4690545 -0.22029008 0.6321027 0.32081336 0.32143694 -0.60584444 -0.22801776 -0.49675572 0.11192783 0.13303444 0.28888276 -0.11808075 0.035020307 -0.033544943 -0.8879683 0.41073695 -0.14782342 0.2953994 -0.8666817
camisa -0.6131068 0.44919538 0.10796748 0.121283025 0.05484652 -0.1930728 0.3478528 0.6050228 -0.16293055 0.63954914 0.1499744 -1.154186 -0.8398694 0.19538094 0.45476085 -0.15454063 0.179551 -0.56966984 -0.8237821 0.1946457 0.051534463 -0.3695596 -0.07894765 0.3052692 -0.34873208
comer -0.036729977 0.093731135 -0.0046630236 0.051181342 0.47863138 -0.6443921 0.21699148 0.012919116 0.16510035 -0.0309913 0.23866491 -0.46583554 0.13633871 -0.17743218 0.5932766 0.6069591 -0.11554511 0.2375519 -0.5077144 0.078334615 -0.5032023 0.076138504 0.10240299 0.49307585 -0.4653779
ojos 0.20351906 0.29157528 -0.19260682 0.07260627 0.3277817 -1.2613841 1.0946833 0.030416844 0.6976346 0.26590067 0.2056511 -0.788304 -0.5415588 0.35361865 0.22824086 0.27611586 -0.32682347 -0.8476311 0.6132602 0.2937347 -0.19016019 -0.30162093 -0.098095946 -0.0111454185 -0.6515833
ejotes 0.30790812 0.29737943 -0.46952355 0.38401946 1.0501959 -1.5560235 0.06052001 -0.34089467 0.15180051 0.06845422 0.56187755 0.060200986 0.2954271 -0.009455984 0.6610124 -0.08474505 -0.40248066 -0.43590152 -0.6455617 0.4575465 0.111948 -0.00025950256 0.11709037 0.3694593 -0.66929734
collar 0.038076926 1.1876096 0.0006152255 0.46826872 -0.03289471 -0.72801274 0.8284374 0.3035027 -0.15467216 0.6723026 0.15290114 -0.62716824 0.37592956 0.6328242 0.7675147 -0.46582082 -0.066467725 -0.38750505 0.27461407 -0.0591758 0.24634078 0.2800858 0.101162866 0.5596847 0.046953678
cocina -0.43265206 0.104918525 0.14832102 0.21608841 0.22880724 -0.71369714 -0.2686826 -0.0906713 0.35598406 0.70321304 0.45327827 -0.30621928 -0.016810145 -0.53184974 0.2112062 0.15093361 -0.3327184 -0.3888972 -0.38098937 0.14224614 -0.885663 0.5280488 -0.14753301 0.25622857 -0.2862128
río 0.20074095 0.14967954 0.11459464 0.95754766 0.54947966 0.39923707 0.7057926 -0.20065884 0.018504845 1.0935194 0.53447413 -0.19555055 0.56887025 -0.11741496 0.44362158 0.30707252 -0.056317355 -0.5993125 -0.7908896 0.53211594 0.71043223 0.43199438 0.07226881 -0.03711171 -0.062256016
espejo -0.043844234 -0.19013493 0.04391267 0.116299994 -0.575207 -0.7386313 0.7804938 -0.12685765 0.70361745 0.3350988 0.16055615 -0.859479 0.0793557 -0.08502013 0.29834324 -0.13376923 -0.57589453 -0.6698119 0.6306407 0.24049889 0.015135827 0.1965787 -0.2758429 0.5180496 -0.57607204
hamburguesa 0.29330572 0.4026818 0.047772177 0.16450188 0.9769466 -0.22312266 0.70864224 0.117064126 0.34875104 -0.4802624 0.2184484 -0.20809701 0.19871122 -0.98295516 0.45928714 0.28524482 -0.6639135 0.2821486 0.047215648 0.42148095 -1.0381432 0.22347029 0.5701781 0.68978274 -0.5745145
plastilina -0.076680034 0.5036574 0.6734414 0.73502666 -0.22669649 -0.7735959 0.50447154 -0.59873074 -0.19042626 0.20968975 -0.12066076 -0.065731384 -0.35688052 -0.77725095 0.53486055 -0.31475243 -0.5793794 -0.5785195 -0.33887282 -0.505313 -0.5478215 -0.5127226 -0.57010645 0.36138538 0.48707253
foca 0.3864184 0.1557645 -0.2505564 0.8703287 0.18741605 0.2756201 1.1285068 0.2352799 0.24049887 0.7459367 -0.017455876 -0.24914683 -0.7726628 -0.72283053 0.06319744 0.28058082 -0.46998057 -0.35710582 -0.5867836 0.29299438 -0.23167114 0.19301234 0.1758168 -0.2798792 -0.41382563
olla -0.6923702 0.07394352 0.33702073 0.085245594 0.60547733 -0.9318091 -0.10457538 -0.19208093 0.15487443 0.7072012 0.1339331 -0.0831034 0.35458356 -0.42386 0.37611574 -0.16943154 -0.3334232 -0.6181652 -0.72928625 0.46483657 -0.56734174 0.9499544 -0.07742965 -0.15042329 -0.71051586
venado 0.2912009 0.24510606 -0.2660914 0.038440153 0.05910132 0.11143826 1.1181505 0.42205194 -0.2605592 0.14505148 -0.23192193 -0.15037532 0.093929976 -0.32759807 0.5377652 0.583508 -0.2517566 -0.1299478 -0.77568096 0.8422529 0.322645 0.06813824 -0.15115869 0.81696707 0.53000224
helado 0.0056949602 0.6120628 0.45517406 0.5598127 0.15440689 -0.6264446 0.2942653 0.33342776 -0.028251305 -0.3280948 -0.25933915 -0.30225658 0.17027849 -0.43338186 -0.07345915 0.928374 -0.25915453 -0.3386683 -0.66390574 0.1526007 -0.21525447 -0.09149594 -0.2868815 0.6280389 -0.9719088
timbre -0.8353381 -0.30501363 -0.15840904 0.567034 0.44801736 -0.030918365 0.52219504 -0.047230553 1.2176379 0.6070228 -0.06644117 -0.8689045 -0.25001183 0.031312622 0.41719255 0.0018359208 -0.85302883 0.11525555 0.19519196 0.9027747 0.6606611 0.5815343 0.33311227 0.65375644 0.27807438
barco 0.17127956 0.140033 0.33523616 0.88765985 0.29552162 0.3571136 1.5372839 0.058810554 -0.21450031 1.1035998 -0.25627157 0.31286585 0.63306254 -0.87849355 0.652948 0.13483785 -0.44148603 -0.7248133 0.2018421 0.19706352 0.517327 0.20162684 0.34320658 0.33611572 -0.30208477
jugo -0.27807385 0.06120082 0.34945455 0.55497 0.78932816 -0.46577933 0.28520015 -0.6689517 0.3555594 -0.045137748 0.104822256 -0.110806346 -0.28833386 -0.32127035 0.3151208 0.731545 -0.062185932 -0.102594286 -0.35034925 -0.06166607 -0.318949 -0.35121408 -0.46666926 0.95176977 -1.2107481
puerta -0.73170537 0.48363626 -0.3038793 0.5657802 0.5631635 0.10308128 0.2549698 -0.28344703 1.1758435 0.76020974 -0.08333476 -0.79466033 -0.1341758 -0.38967773 0.14161886 -0.52356094 -0.20141861 -0.4157093 0.3125945 0.21758789 -0.16867432 -0.31496093 0.16874194 0.6588652 0.0059398306
guantes -0.2077321 0.20541143 0.82783395 -0.31668922 0.26541835 -0.251888 0.7478173 0.45011058 0.55621934 -0.5652997 0.6351461 -0.413149 -0.14607371 -0.23928584 0.50345695 -0.30259004 -0.008440544 -0.7952119 -0.32717332 0.7129954 -0.1712517 -0.2762455 -0.72698385 0.37086126 -0.109312035
muñeco de nieve -0.21900383 0.43982083 0.019716047 0.98366594 -0.14481108 -0.5032671 1.2904643 0.3806984 0.17454179 -0.29445463 0.12029171 -0.093945906 -0.09689707 0.067529514 -0.4980749 0.8337137 -0.0027575535 -0.33199564 -0.35129043 0.5054736 -0.32052895 0.1957302 -0.5447163 0.28853145 -0.3325015
naranja -0.41238374 0.24612625 0.17162412 0.2187592 0.5146831 -0.35117397 0.47507453 -0.5112382 0.2725155 0.0068581156 -0.18790145 -0.566457 -0.11469078 0.20490704 0.13248318 0.33518848 -0.10830823 0.62668717 -1.0692747 0.45086092 -0.29998335 -0.42386857 -0.22157057 0.9247052 -0.5929704
hielo -0.60705256 0.15259106 0.04899253 1.2442586 0.34425464 -0.2038783 1.2006692 0.25233266 -0.08453016 0.379498 -0.1880774 -0.16249608 0.2922669 -0.26947495 -0.6172722 0.44203493 0.09733807 -0.024944754 -0.48245585 0.37857723 -0.2238053 0.42481443 -0.069706574 0.38994008 -0.77549064
globo -0.6814274 0.57351124 -0.054603286 1.2569952 0.04662992 -0.0835211 0.82337224 0.026404586 -0.49165896 -0.22954464 0.0414876 -0.011294449 -0.33129582 -0.100403436 0.70379823 0.08578302 0.055660654 -0.2321268 0.34596393 0.19827166 -0.07493323 -0.37394953 -0.29113638 0.8424986 -0.13522008
torta 0.21484211 0.7364336 -0.082489476 0.2544447 0.8171618 -0.669952 0.15113285 -0.25175688 0.05777648 -0.32017273 0.7871945 0.3288074 -0.14985837 -0.91144586 0.37688306 0.50850886 -0.4048002 -0.37304038 -0.691504 0.024984311 -0.5889555 0.09615844 0.70208895 0.7959863 0.10002625
helicóptero -1.055376 0.1491126 0.0016855967 0.81872374 -0.33522564 0.022006167 1.1602257 0.17974342 -0.29158664 0.052505396 -0.16456595 0.29678696 0.43561706 -0.280075 0.66082656 0.22863846 -0.58554596 -0.2233279 -0.21198234 0.7163661 0.32088885 0.42479217 0.2605511 0.34552902 0.43552852
tienda -0.7982504 0.43191284 -0.49942297 0.48132744 0.6781371 -0.18557006 -0.04271973 0.05137321 -0.08461041 -0.07344733 0.36415654 -0.96949846 0.7127969 -0.12621509 0.6524215 0.15860736 0.13198407 -0.59990805 0.2053607 -0.0034542824 -0.62889475 -0.18299583 1.0035167 1.005551 -0.20533547
pantalón -0.9133933 0.7466195 -7.4669944e-05 0.2905472 0.42032695 -0.37537593 0.14189868 1.0786178 -0.015643552 0.071999356 0.40905204 -0.3621841 -0.55169123 0.04565625 0.3957472 0.028252667 -0.23947456 -0.76995987 -0.7290632 0.26104584 0.08515766 0.45809376 0.08102052 0.09353863 -0.24225464
escalera -1.0581135 0.7166588 -1.0082713 0.39352152 -0.21576788 -0.049108174 0.77252513 -0.753869 0.8676774 -0.35045257 0.37185913 -0.22527836 0.1916271 -0.28218052 0.14527749 -0.30704272 -0.15394194 -0.572053 -0.2696191 0.22168179 -0.2540127 0.2588474 -0.29485664 0.47675255 -0.14997724
calabaza 0.1976917 0.13758148 0.0064428137 0.57842636 0.3919703 -0.8281739 0.015919864 -0.71634233 0.36670792 -0.5052707 -0.06607056 -0.47006667 0.109471224 -0.018633453 0.58792007 0.02060911 -0.42978367 0.13638985 -0.96594614 0.8112123 -0.08284874 -0.1664257 0.61058104 0.7644865 -0.2278443
tambor -0.75822634 -0.2344959 -0.17096898 1.3604914 0.9986896 0.010898981 0.30420032 0.7242036 -0.33868036 0.9207633 0.0981815 -0.21205255 0.19233695 0.083451286 0.38079426 -0.19146284 -0.51920795 -0.13704063 -0.54679614 0.23817624 -0.018367555 0.22060724 -0.4632132 0.7085586 0.6001218
juguete -0.3361449 0.33903193 0.036438886 1.2059356 -0.02225848 -0.20200203 0.89533776 0.2061712 -0.029144142 0.39795068 -0.71957123 0.06053019 -0.26924536 -0.2604872 0.5578275 0.46885148 -0.5888545 -0.53418416 0.40002805 -0.21477024 -0.25164554 0.25301015 -0.5467449 0.33924493 0.4829645
salchicha 0.41495952 1.0640403 0.30499995 0.058000077 0.7191787 -0.22904272 -0.07180166 0.09540932 0.29656947 0.15987577 0.12272842 -0.48002037 0.10876257 -0.8094155 0.82354724 0.13448992 -0.15975471 0.14851008 -0.59394455 0.31969792 -0.6208779 -0.43389577 0.62522787 0.72053546 -0.10001626
mantequilla 0.3572904 0.35135198 0.035169337 0.658704 0.7336994 -0.8745362 0.32983685 -0.3348739 -0.30146217 0.33250898 -0.005214803 0.00773752 -0.541965 -0.657472 0.001838391 0.25636113 -0.6922913 0.07245796 -0.8909587 0.28008932 -0.65571654 0.3416983 0.45538214 0.4949793 -0.35488912
vela 0.052764624 0.55740327 0.19632521 0.8394654 -0.3133296 0.0055702757 0.4530474 0.3148981 -0.05376454 0.7017551 0.14159225 -0.8978257 1.0686119 -1.4365059 -0.34301567 0.15059848 -0.7463008 -0.2918213 -0.53601724 -0.024441728 0.07063237 0.289708 0.15365012 0.37138963 0.25977167
galleta -0.21225642 0.5963598 0.39003763 0.48418033 0.5174889 -0.42445526 0.26665372 0.036820244 0.08482755 -0.4806911 -0.12056256 -0.29892397 0.5831805 -0.47262508 0.25973868 0.72134703 -0.601024 -0.16055763 -0.6865534 -0.60208166 -0.95839393 -0.1083068 -0.13834538 0.22665158 -0.5197057
paleta 0.3689857 0.5807689 0.69396293 0.69020265 0.55344766 -0.13227703 0.49579433 -0.22039051 0.008177034 -0.14140272 -0.58277106 -1.0008241 0.14683168 -0.039055865 -0.1714329 0.74646676 -0.30824137 -0.11385906 -0.9959028 -0.12131952 -0.34337163 -0.06958899 -0.14348218 0.41648284 -0.3734382
ganso -0.26724863 0.03828127 0.22874425 0.9835571 -0.14848192 -0.53050727 0.9100692 0.24503376 0.48955825 -0.045806736 0.0090253735 0.025701331 0.2141043 -0.17171524 0.7265624 0.6186885 0.1335511 0.19588509 -0.5055511 0.14404264 0.11515242 0.19056709 0.26884574 -0.11446347 -0.24623497
mariposa -0.10264437 0.484935 -0.18292738 0.5049814 -0.68709135 -0.72825384 0.9642232 -0.52487636 -0.2050468 -0.097531796 -0.5083367 -0.43431088 -0.2831682 -0.35170332 1.0602927 -0.06124932 -0.21467128 0.049981665 -0.4707375 0.52367 0.55792767 0.11103137 0.3259083 0.24107331 0.14869866
muñeca 0.101405695 0.55025357 -0.003913405 0.90427005 0.009800495 -0.5126966 0.49209103 -0.17072721 0.07659252 -0.10286577 0.19777079 -0.54861987 -0.91185164 -0.057736017 0.7744177 -0.53705543 -0.5777805 -0.10525033 -0.1372267 0.20028712 -0.4693334 0.21006179 -0.56293404 0.0770244 0.48281333
elefante -0.13121219 -0.29488862 -0.7999493 0.46741244 0.66811085 0.4478935 1.1045364 -0.032783333 0.3780785 0.29109547 0.60169554 -0.5590124 0.025700774 0.1825797 0.68181604 0.30705786 -0.5927206 -0.07426908 -0.29678783 0.097740054 0.23527698 -0.19508475 0.02548603 -0.04056674 -0.2962326
pastel -0.094675325 0.5285682 0.7826876 0.61625576 0.11216016 -0.75086945 -0.006617817 0.13317502 -0.16187182 -0.24373628 0.21717076 -0.5132403 0.43038502 -0.26524028 0.3869733 0.6604302 -0.7360176 0.48664537 -0.6516557 0.019795027 -0.35920602 0.033958923 0.19488993 0.492546 -0.44366005
shorts -0.68253946 0.550575 0.08568846 0.2245583 0.39099202 -0.2052751 0.44356224 0.47376287 -0.5356466 0.7580611 0.23810966 -0.17308788 -0.8083376 0.29819205 0.45080388 0.34872448 -0.123098895 -1.0009226 -0.1973793 0.3687823 0.41663164 -0.252992 -0.13662899 0.57599634 -0.35198623
techo -0.62871706 0.79437727 -0.32457516 0.6356512 -0.15090472 0.23899855 0.66250134 -0.037941147 0.78144205 -0.082117096 -0.055341486 -0.58025587 0.3860096 -0.6777302 -0.13165303 -0.5531345 -0.4725292 -0.661399 -0.16502047 0.513933 0.0450885 -0.18900968 -0.62619114 0.122768715 -0.18538663
durazno -0.034228344 0.5600737 0.5032846 0.08769232 0.5026638 -0.63280016 0.20095855 -0.19540574 0.38241738 -0.12974134 -0.057553977 -0.054185856 -0.041150708 -0.05175662 0.8285408 0.6187589 -0.26192906 0.3970786 -0.32319415 0.29278946 -0.1125402 -0.42845297 -0.42140293 1.0301894 -0.43287936
pluma -0.7704051 0.56930065 0.8848392 0.22294739 0.2195431 -0.5646373 0.88784796 -0.17421739 -0.062260617 -0.07067201 0.22178371 -0.7536916 0.26319212 -0.49502742 0.54807425 -0.017310042 0.2965536 -0.1679047 -0.60687923 -0.093265004 -0.037532743 -0.13036981 0.39621127 -0.61560386 0.35306633
refrigerador -0.61510533 -0.46989235 0.33906734 0.57357866 0.011227524 -0.23228654 0.26733404 0.13804372 0.12737802 0.26376152 -0.3168297 -0.35234243 0.43973225 -0.45185435 -0.13732156 0.614987 -0.028917486 -0.37176645 -0.74079466 0.3253877 -0.2911739 0.09368783 0.23705544 0.9583007 -0.8417774
cuchara -0.2919876 0.23649581 0.40687236 0.06288103 0.17142521 -0.74020165 0.20852995 -0.5116364 0.5505583 0.5529221 -0.31314492 -0.1954472 0.44126078 -0.44808623 0.50817746 -0.16781217 -0.49646166 -0.09734412 -0.38794485 -0.0037245564 -0.5517765 0.34998578 -0.11160198 0.004125511 -0.5668435
plumones -0.49465793 0.38012683 0.8758453 0.000786027 0.4488455 -0.010033787 1.0708928 -0.14179985 -0.37576127 -0.5464926 0.17308603 -1.2609442 0.23423952 -0.79679304 0.49080983 0.5540053 -0.031708714 -0.8474109 -0.46023127 -0.6979865 0.36619785 -0.22665632 0.054841124 -0.19966933 0.12100028
radio -0.84457433 -0.4405719 -0.073759496 0.63353544 0.6191906 -1.1424595 0.8906844 0.29505292 0.40105748 0.5870203 -0.05808555 -0.7727437 -0.29966152 -0.11121693 -0.10611365 0.14013305 -0.8952202 -0.170575 -0.091974676 -0.32678947 0.56512177 0.3983814 0.7808065 1.0650834 0.7597285
estrella -0.1788246 0.5139158 -0.7558283 0.4203651 -0.6761354 -0.75071293 0.82853127 -0.056330033 0.08354301 0.5531644 0.012459603 -0.6829963 -0.052432787 -0.40298477 -0.09219299 -0.40117648 -1.1931169 -0.69456655 -0.26597086 0.48413837 0.51778203 -0.08757421 0.47774577 0.02520587 -0.511316
azul -0.4168328 0.4597294 0.32406396 0.3593548 0.13947202 -0.12633432 0.62927294 0.14770451 -0.15687436 0.3318876 0.29753548 -0.48852926 -0.025525963 -0.15430723 0.09533006 -0.11446972 -0.18662366 -0.31655657 -0.20177111 0.2513509 0.12046173 0.13148333 -0.07711969 0.14649583 -0.12199339
dedo 0.111148395 0.13107094 0.8343731 0.29779136 0.96995914 -0.4217175 0.90257496 0.22626291 0.7401633 0.30752233 -0.41722536 -0.78895336 -0.50469714 -0.43295792 0.15909398 0.2564201 -0.45904887 -0.13461588 -0.479091 -0.4085968 0.3290099 0.35868603 -0.7795897 0.31565428 0.6293176
guajolote -0.7601636 0.3499106 -0.26089406 0.068103254 0.304917 -0.6472142 0.7675122 0.26198944 0.35152534 -0.49427515 0.5719866 0.09302263 0.36654988 0.04497966 0.582702 0.6751936 -0.30590633 0.569116 -0.9322015 0.6773884 0.020097869 0.19897206 0.24331969 0.11306896 -0.10500784
pingüino -0.03530923 0.17901939 -0.15981199 0.9973474 0.18816212 -0.06040708 1.3256617 0.42092043 0.31779426 0.14845334 0.34063205 -0.16102594 -0.32040405 -0.58806527 0.0042714216 0.73030573 0.0020275987 0.16867305 -0.6954745 0.47347918 -0.06632793 0.15875894 -0.29341236 -0.39350325 -0.29137826
cubeta -0.24696608 -0.19102465 0.5415271 0.7417384 0.24374619 0.0028198732 0.5576729 -0.4753004 0.2413219 -0.18624328 -0.11325506 -0.7534423 -0.007341632 -0.9095559 0.43079573 -0.5832783 0.31567058 -0.89531195 -0.5843239 0.063695125 -0.44063312 0.73134464 0.16606674 0.09159961 -0.35913342
zanahoria 0.2893398 0.12883197 -0.02733093 0.40579823 1.1328348 -1.1510363 0.36420706 -0.32694042 0.2079458 -0.28245506 0.11849683 -0.29577556 0.173439 -0.2785181 0.24975899 0.29962435 -0.25715092 -0.12111644 -0.37959167 0.5091093 -0.17869018 -0.7588245 -0.04637611 0.5674115 -0.4608884
botella -0.84696746 -0.36888826 0.022592982 0.82167834 0.2740953 -0.11950825 0.22382382 -0.32258874 0.35639265 -0.11595643 0.15573129 -1.2068058 -0.5721391 -0.552877 0.18534403 0.2790072 -0.02553159 -0.46816823 -0.11797454 0.16816817 -0.71403724 -0.20447119 0.169507 0.17563245 -1.2423148
cajón -0.84651756 0.49996683 0.33368495 -0.045571152 -0.24637058 0.0030567097 0.23052815 0.21590087 0.26420358 1.1880405 -0.5942242 -0.743051 0.46577734 -0.42515492 0.3858742 0.3770783 0.061366536 -1.0241615 0.23127005 -0.05875902 -0.252758 -0.016822621 -0.16394746 0.72640175 -0.31526548
refresco -0.6898518 0.037160292 0.52079475 0.805089 0.7052181 0.32438013 0.36242345 -0.22388566 0.18330118 -0.2066635 0.09621182 -0.577023 0.16355059 -0.4116386 0.09886945 0.510071 -0.22711955 0.22577217 -0.28175232 0.51339805 -0.35081372 0.047028404 0.06052365 0.6682517 -1.2756062
pájaro -0.37962866 0.26896605 0.007972957 0.7277398 -0.006885289 -0.28756368 1.2485898 -0.09800129 0.4711432 -0.16385521 0.19389458 -0.17650181 0.2998292 -0.013609294 0.8532797 0.13619171 0.64744526 0.11783581 -0.2338643 0.66123533 0.0984893 0.08918671 0.2272578 0.04422799 0.12543797
payaso -0.3734123 -0.13851646 0.36874753 0.727274 -0.37832242 -0.5466302 0.909038 0.32946047 -0.09724815 -0.29384115 0.2812568 -0.44181988 -0.5746454 0.50034934 0.43829024 0.417909 -0.90270585 0.09122425 -0.16365132 0.050554276 -0.826925 -0.59459615 -0.39606676 0.41696692 0.13270341
columpio -0.39996 0.30124936 -0.3708554 0.67483675 0.28541225 0.5001813 1.1330153 -0.6716348 -0.2381013 -0.20288582 -0.14315332 -0.3920153 -0.45504826 -0.18084536 0.89422345 0.35047498 -0.17651969 -0.35536888 -0.0911872 0.103316635 0.4306261 0.017008346 -0.63552576 0.3882218 0.2566842
bufanda -0.35706902 1.1755571 0.5340948 -0.14786969 -0.24953833 -0.35464934 0.62127393 0.6800687 0.17155682 -0.19402584 0.07834817 -0.40128133 -0.39244676 -0.054930754 -0.085421845 0.180225 -0.3429832 -0.649489 -0.69608444 0.42348936 0.03484967 -0.22225001 -0.57378787 0.45574817 -0.5176727
boca 0.5457904 -0.10941743 0.5082006 0.13409989 0.028352434 -0.3482586 0.7267464 0.025254868 0.6473623 0.3490503 0.3487665 -0.83044755 -0.2131952 0.15658924 0.3555628 0.9264429 -0.13823882 -0.6266659 0.12680578 0.2595798 -0.31672618 0.69669867 0.06574188 0.2676308 -0.3997121
vaca -0.43835476 -0.15898058 -0.56997484 -0.33108655 -0.1481801 -0.12126483 0.7118367 0.30633703 -0.06720211 0.09558214 0.22123416 -0.087030716 -0.25934458 -1.0882815 0.8398637 0.39468583 -0.22669964 0.19896722 -1.1688863 0.48404145 -0.14224745 -0.45776114 0.34509033 0.68173236 -0.5295584
lavadora -0.6782486 -0.73436016 0.35394517 0.4601705 -0.07458276 -0.09182419 0.17833671 0.013570989 -0.16883536 0.22646686 0.40640175 -1.0109729 -0.011831412 -0.6839167 0.3674224 0.20656094 -0.09014536 -0.24013288 -0.65602154 0.0031487257 0.23832577 0.78158206 -0.21676987 0.73855525 -0.19466124
cereal -0.26561868 0.43612152 -0.2927915 0.25568134 0.59179157 -0.5604212 0.007966836 -0.12658583 0.24245963 0.33504003 -0.2314081 -0.19856319 0.70527023 -0.39225575 0.742122 0.34190905 -0.84823525 0.19794685 -0.4950107 -0.48320547 -0.27625188 0.426514 -0.06528971 0.7009331 -1.1772907
trapo -0.43067196 -0.28991625 0.5432637 0.8181085 -0.22779645 -0.64365596 0.34853417 0.04343927 0.423854 0.2917018 1.0154474 -0.6689645 -0.2880932 -0.18956855 0.2812232 -0.35542452 0.50106573 -0.534871 -0.8264972 0.20608355 -0.054422792 0.33413312 -0.21443719 0.34288338 -0.2587453
martillo -0.9734966 -0.034916706 0.028119985 0.2949103 0.41384906 -0.26183176 0.692316 -0.0831081 0.46317577 -0.052349623 -0.08648113 -0.58167946 0.81755805 -0.3155125 0.3577858 -0.86515516 0.19459479 -0.18426536 -0.83969873 0.034578256 -0.3133608 0.3569981 -0.6172445 0.5869408 0.5092841
cebra -0.1787427 -0.04199753 -0.59293586 -0.25191122 -0.0069692885 0.34800988 1.1362265 -0.15149264 -0.21554153 0.7277426 0.12541863 -1.046093 0.023398587 0.39145467 0.5707494 0.19567865 -0.36250934 -0.12324938 -0.87384087 0.28423274 -0.16366957 -0.047138944 0.3814267 0.17818668 -0.041298058
tenedor -0.33389634 0.11201177 0.8746008 0.10094563 0.62028676 -0.9958533 0.16887872 -0.2690296 0.064903565 0.24149378 0.2485531 -0.4691646 0.63876593 -0.3776658 0.8499524 -0.2904923 -0.10474239 0.34093162 -0.09671225 -0.038605165 -0.81952393 0.094204485 -0.18881032 0.52028406 0.020516386
abrigo -0.32348144 0.9732271 0.28328472 -0.21544841 0.1374588 -0.34268048 0.43623188 0.78030336 0.6935366 0.18929254 0.2805305 -0.22268282 -0.39645398 -0.62516177 0.5418521 -0.0658453 -0.2590813 -0.43385467 -0.30686453 0.9020808 0.04501033 -0.035366517 -0.76770955 -0.08897834 -0.27733737
patines -0.30373666 0.30867788 -0.19763623 0.4962652 0.8438528 -0.0150895 1.1304708 -0.24007174 -0.40526038 0.04207304 -0.6403128 -0.032893702 -0.31219992 0.12691459 0.118696235 0.25253376 -0.48044327 -1.4273192 -0.07437369 0.31373766 -0.31776652 0.23967566 -0.31770185 0.2526296 0.25385216
suéter -0.50101805 1.028339 0.24203978 -0.15779465 0.2938274 -0.1483254 0.3159566 0.7857597 0.59255505 -0.013048007 0.17618601 -0.3741095 -0.2632793 -0.2630036 0.16674906 -0.020689089 -0.30236936 -0.62451494 -0.9799668 0.46982875 0.19126953 0.09619267 -0.37504208 0.007240749 -0.55281025
tina -0.5398981 0.27238432 0.6641758 0.38717687 0.092125304 0.079648815 0.19484898 -0.8490143 -0.5252757 0.8206475 0.19373837 -0.85095716 -0.21332635 -0.49606302 0.7371037 -0.044068612 -0.09458235 -0.46584815 -0.31077254 0.5759669 -0.3751695 0.50357985 -0.22352293 -0.29026374 -0.8102654
jabón -0.0016749749 0.046993 0.45512515 0.40442288 0.062278997 -0.05862077 0.17652583 -0.13208227 -0.2769821 0.30215275 1.1177503 -0.92208385 -0.5200084 -0.79872924 0.7833451 -0.17931601 -0.15373035 -0.16741869 -0.14708005 0.18456507 -0.08937523 0.24198464 0.17295763 0.27534255 -0.8226012
verde -0.012863639 0.5037817 0.112041496 0.4042066 0.24840862 -0.23328915 0.31291816 -0.25002438 0.29050097 0.056566283 0.09374373 -0.42615992 -0.15501665 -0.048434377 0.3481514 -0.0684138 0.19636485 -0.41396794 -0.5291856 0.3387137 0.28090787 -0.0642707 0.054171573 0.5430252 -0.1869397
cama -0.6414018 0.6130541 0.11843496 0.29952577 0.04521402 -0.3596141 0.13345231 -0.16071835 0.21527332 0.79365236 0.90229195 -0.5927012 0.30713677 -0.5412977 -0.1356501 0.58713025 -0.639715 -0.09166364 0.02824812 0.5151407 0.007093361 -0.21879348 -0.99765635 0.12277342 0.2575237
plancha -0.8478098 -0.18979307 -0.009691562 0.16142532 -0.33831018 -0.36495697 0.15147598 0.29289207 -0.13921104 0.27202496 0.21588913 -0.6830355 -0.58157873 -0.734196 0.17427123 -0.4283003 -0.23339295 -0.6597113 -1.1590189 -0.0035774831 0.008005024 0.41630927 -0.13777308 0.63721204 -0.17414191
plátano 0.0076275137 0.517951 -0.19830427 0.16690388 0.650695 -0.4433214 0.35519746 -0.37423292 0.45331785 -0.19221567 -0.46066698 -0.17232396 0.10543071 0.069978006 0.64358526 0.36801925 -0.37879807 0.14092095 -0.6811678 -0.055119142 0.008873048 0.10962732 -0.33397335 1.0288984 -0.9177712
hospital -0.54346853 -0.01958795 0.5459908 0.095114924 0.17704849 -0.13318992 1.0096008 -0.2726017 0.17253022 0.72493374 1.1660913 0.28968224 -0.14577465 -0.062083453 0.5085138 -0.47184473 -1.0200217 -0.1542074 -0.27725095 -0.54954374 -0.15124926 -0.4073159 -0.78997993 0.8444791 -0.39019254
circo -0.79357725 -0.13874072 -0.5809392 1.018522 0.022885794 -0.018305998 1.0414165 -0.097083524 -0.13580461 -0.31795663 0.29063207 -0.5214061 -0.014257353 0.5358735 0.28143328 0.6052629 -1.033315 0.2828159 -0.18307213 0.18427959 -0.31835485 -0.66625905 0.26861802 0.45034388 0.20529936
cuchillo 0.003556724 0.06885354 0.6722788 -0.40710366 0.051225804 -0.78110385 0.68105805 -0.47728857 0.29853755 0.5689201 -0.18242604 -0.04433377 0.03295415 -0.22912364 0.33353668 -0.4965589 -0.39151698 0.17906979 -0.7862082 0.35533845 -0.79415977 0.23692012 -0.20782661 0.878966 -0.014963742
tijeras -0.86245066 0.86212957 0.8791466 -0.6389403 0.014229428 -0.6066006 0.8510091 -0.9417078 0.016320674 -0.052284908 -0.14378965 -0.9470362 0.51169837 -0.34445247 0.36175665 -0.32680187 -0.07892276 -0.08053198 -0.8564858 0.025175737 -0.19444813 0.5630329 -0.4014813 0.4729625 0.7500842
pala -0.14060752 -0.50114906 0.18303917 0.416603 -0.36717913 -0.5788627 0.44617936 -0.44885457 0.4610548 0.34524816 -0.18843192 -0.30040956 0.68698514 -0.86659455 0.5447262 -0.72770065 -0.020152437 -0.63651323 -0.9114604 0.81668705 -0.13147825 -0.011579067 -0.46897736 0.44146338 0.028061902
sala -0.50268996 0.5257085 0.1497607 0.4934082 0.0019480481 -0.035762113 -0.18872868 -0.3140561 0.74865746 0.6488155 0.72338265 -0.5910586 0.2931073 -0.14887226 0.16208433 0.5350416 -0.20288834 -0.49088442 -0.14558476 0.7191535 -0.8362927 -0.12132742 -0.45168707 0.26604557 0.77195114
niña 0.059379425 0.75702864 -0.15318389 0.5171751 -0.18530166 -0.5591732 0.5035814 -0.19300593 -0.14442998 0.143632 -0.024497349 -0.9943708 -0.6223075 0.10115319 0.6354395 -0.29346395 -0.9547862 -0.028665965 -0.05059247 0.69084096 0.37985936 0.95597816 -0.058943257 0.14502709 0.08820395
hot cakes 0.021664297 0.6604865 0.11170611 0.38954508 0.1555626 -0.7925661 -0.33863455 0.28384086 0.37492627 -0.18713573 -0.16830029 -0.3594115 0.049788594 -0.5753611 0.52417266 1.1606846 -0.6179276 -0.07549439 -0.64697784 -0.13253872 -0.3934025 0.18961814 0.27678534 0.6417792 -0.48726636
alberca -0.48074132 0.41833782 0.72653204 0.49019977 -0.40757513 0.0027358695 0.74255186 -0.98412186 -0.597439 0.7639743 0.3893141 -0.118330315 -0.5461078 -0.0036932337 0.15648253 0.59512025 -0.0930078 -0.47974035 -0.517019 0.55421716 -0.07675287 -0.17602141 -0.25216272 0.351598 -0.6759755
uvas -0.6966674 0.40944892 -0.09214591 -0.38569194 0.9802622 -1.174927 0.97727865 -0.68584025 0.14769015 -0.5999648 -0.16154028 -0.8635634 -0.20336822 0.23922993 0.41636562 0.77679014 0.3045877 0.09724129 -0.22445183 0.58826965 -0.43284857 0.09004013 0.30177495 0.66618454 -1.036962
hoja -0.54256946 0.127466 0.41437513 0.063697904 0.05454991 -0.68081456 0.5120905 -0.9050449 0.06608968 -0.03648928 -0.1780482 -1.0228304 0.41532233 -0.5474494 0.68916595 0.107008226 -0.15286851 -0.4274377 -0.5777126 -0.47216636 0.6879254 -0.46633804 0.24316406 0.10186902 0.25555074
blanco -0.2397293 0.19181621 0.190927 0.33084577 -0.08987212 -0.4001694 0.7104369 0.52758557 0.23170829 0.25608405 0.58109 -0.15378688 -0.015767837 -0.1511362 0.22162133 -0.07008383 -0.37176815 -0.0015895381 -0.39950818 -0.15250841 -0.05904545 0.23684467 -0.010801104 0.30644915 -0.37789539
tortuga 0.0077502835 0.4410649 -0.34360155 0.668367 0.18965246 -0.11468764 0.8091409 -0.26491407 0.5794392 0.5154515 0.6047367 0.20706435 -0.72563535 -0.4324038 0.1948118 0.18068066 -0.3677575 -0.47186473 -1.3312973 0.042325843 0.38078034 0.58703816 0.45460227 -0.13786818 0.08626106
doctor -0.90174 -0.16936879 0.101769164 0.27416122 0.072961055 -0.50034034 0.96824074 -0.25746846 0.01936461 0.4047897 0.7531588 -0.14237623 -0.7433804 0.2114342 0.28883564 -0.24980155 -0.859535 -0.114086926 -0.5301801 -0.84026575 -0.027187832 -0.5360546 -0.3276312 0.6276042 -0.6047207
osito -0.14593457 1.0816174 -0.1760499 -0.06587055 0.055644225 -0.47246504 0.74098927 0.18204214 0.046318732 0.3335607 0.099466324 0.11872669 -0.3144664 -0.2721658 1.0508708 0.7520514 -0.5785074 -0.20098315 0.27975124 0.14324644 -0.40125817 0.16857687 -0.758693 -0.159311 -0.14836872
bacinica -0.9575537 -0.34434542 0.58110464 0.96809256 0.36231813 -0.45883006 -0.1907893 -0.013569862 0.5407825 0.83107305 0.27996632 -0.49405506 0.057067327 -0.09080287 1.1229583 -0.15083182 -0.8024689 -0.08690871 -0.24437568 -0.4221307 0.10070377 -0.07694628 -0.5689002 -0.21923625 -0.42982554
escoba -0.12309473 -0.31021824 0.47750738 0.82388544 -0.41818222 -0.24043839 0.19541308 0.030755522 0.42095232 -0.1398841 0.011433594 -0.6434604 0.055914313 -0.5520738 0.56225383 -0.3320072 0.20034876 -0.49293253 -0.74728733 0.23556957 -0.40138224 0.61375326 -0.30156496 0.7440546 0.13721366
animal 0.061225515 0.30696315 -0.4199473 0.10447368 -0.025068996 -0.16007732 1.0205998 -0.044868927 0.35135335 0.30166838 -0.079085164 -0.3683628 0.08965709 -0.2918262 0.87343884 0.26284274 -0.08923043 0.31615937 -0.7400142 0.17302844 -0.054354705 -0.23151608 0.16900408 -0.12582824 -0.13463442
melón -0.05191252 0.367828 0.24172318 0.6555876 0.8921253 -0.5117326 0.037590366 0.18075915 0.44245854 0.47559988 -0.0944719 -0.19272944 -0.094868585 0.2758788 0.31548336 0.5643783 -0.16356246 0.14079683 -0.69614035 0.023711326 0.27098662 -0.3156076 -0.32058722 1.2073913 -0.49106604
babero 0.15327153 -0.17124096 0.02248039 0.37933078 0.32544 -0.0265402 -0.23235065 0.5999958 -0.22423796 0.5799478 0.11631797 -0.9692036 -0.58108854 -0.59025055 0.91870594 -0.0075451615 -0.4713203 -0.6176321 -0.46382254 0.27370957 -0.7982604 0.105568394 -0.7583183 0.22707108 -0.34636524
avión -0.7199277 0.38468176 0.40926954 0.7907829 -0.40682685 0.13358949 1.2842878 0.1353496 0.27699652 -0.37588283 -0.16232644 0.528046 0.16107307 -0.48773012 1.0495274 0.15264009 -0.39701465 -0.46790832 0.09601085 0.40376297 0.45606184 0.31401137 0.14092182 0.4681201 0.061877344
silla -0.89670914 0.10079073 -0.62446505 -0.023450324 0.07082603 -0.5568727 -0.017893355 -0.34273905 0.286955 0.68462414 0.5233765 -0.5925333 0.2620225 -0.102973625 0.26354358 0.60900176 -0.2125009 -0.6535782 -0.21009816 0.2498353 -0.5115072 -0.2523288 -0.9563191 0.2938607 0.31309572
pelota -0.43080533 0.5715954 -0.06767705 1.2049955 0.46175337 0.01973023 0.830172 0.0069322945 -0.7037491 -0.044173915 -0.21228105 -0.26181757 -0.46438658 -0.13364264 -0.039443776 -0.10607268 -0.27728108 -0.88925254 -0.30197367 0.09359468 -0.11704072 -0.4687295 -0.278891 0.36932033 0.20462203
plato -0.6833082 0.13661118 0.09243091 0.6445321 0.6430258 -0.81504077 0.23286836 -0.12862487 0.41283762 0.52850926 0.4201124 -0.096949525 0.3913826 -0.42357272 0.47913027 -0.19929442 -0.0339811 0.15621972 -0.05642054 -0.2102787 -0.8382935 0.5076449 -0.2763736 0.21791661 -0.3689214
rana 0.39500192 0.21169586 0.39832607 0.7891925 -0.07827719 -0.050120723 0.771693 -0.75647604 0.54185164 0.6166481 -0.15867347 -0.2682204 -0.43758884 0.4126884 0.81901985 0.6648628 -0.1964135 -0.40275732 -1.3342435 0.2683736 -0.11267214 -0.42883056 0.28035313 -0.40557757 0.039897483
búho -0.21355374 0.509154 -0.6075112 0.48848033 -0.19999886 -1.2597681 0.92894864 0.40693724 0.59286934 0.71043956 0.33646703 -0.32423243 0.5689082 -0.043075148 1.0219244 0.20002662 0.09127344 -0.14274122 -0.16336273 -0.4063411 0.6617368 -0.76928824 -0.13532056 0.05948186 0.069000125
jirafa -0.27942967 0.59040135 -0.8875998 -0.10151302 -0.30553296 0.5783372 0.9618662 -0.20378186 0.23738468 0.2664053 0.20194297 -0.5839943 -0.43137473 -0.12584423 0.87613463 0.5852226 -0.42059493 0.10491343 -0.7328877 -0.002094877 0.17097722 -0.65084386 0.10917096 0.6632444 -0.29200247
bandera 0.5382492 1.085219 0.56875396 0.8446704 0.025815887 -0.3296196 0.9596557 0.42721802 0.8529321 -0.30896688 1.21656 -0.2472932 0.0372459 -0.23307532 0.48587316 -0.04000014 0.34596974 -0.16860904 -0.3886775 0.5591291 0.11982518 -0.78936577 -0.07460564 1.0644295 0.5718797
taza -0.6422927 -0.02045857 0.11931778 0.43562776 0.18615438 -0.74821925 -0.045628794 -0.28875688 0.26595083 0.44436595 0.1853951 -0.34205037 0.045804363 -0.37255332 0.44426173 0.08609332 -0.30878565 -0.23126872 -0.4573902 -0.22723614 -0.746179 0.5723524 -0.23881398 0.0772652 -0.89657533
pollito -0.4384435 0.3956776 -0.5190095 0.622201 0.20565593 -0.7024798 0.6832682 -0.028819187 -0.2249568 -0.0049394825 0.111400075 -0.04747396 0.31447646 -0.39011955 1.0481571 0.19384937 0.3301754 0.27121803 -0.28800145 0.6320987 -0.39771938 0.13725978 -0.060110077 -0.142587 -0.1853642
café -0.09975638 0.46605915 -0.35905448 0.11135205 0.059374027 -0.14506853 0.258729 0.15941326 0.37161463 0.2710797 -0.27792037 -0.32252863 0.16747369 -0.35055515 0.5928666 0.43735522 -0.16880858 -0.33306396 -0.4715012 -0.28903443 -0.428952 -0.13354394 -0.3218489 0.42264274 -0.06780785
leña 0.16423517 0.511498 -0.11063767 -0.4270943 0.44252428 -0.5635865 0.47099984 0.15839298 0.13841246 0.75798166 0.022291556 -0.36352432 0.8055303 -1.3064951 0.07111237 -0.033473596 0.34757957 -0.62223905 -0.5928721 0.5954183 -0.02557185 0.38880572 -0.08692972 0.8366447 0.02954594
espagueti 0.27214587 0.6010483 0.5511569 0.4108693 0.38711545 -0.7857122 0.5210963 -0.0957916 -0.056766838 0.7227637 0.4922336 0.062755235 0.17407998 -0.36815858 0.30994955 0.07479337 -0.005732689 0.59718156 -0.23347253 0.4890768 -0.27366942 0.20201328 0.32917058 1.1380705 -0.4284483
toalla 0.019234385 0.17684986 0.73751754 0.7919619 -0.23570809 -0.27047604 0.06814151 -0.36982292 0.10912431 0.7017907 1.0029773 -0.7005306 -0.26329195 -0.13414036 0.30449307 -0.1654741 -0.038336422 -0.760901 -0.78520787 0.6922332 0.20236857 0.52841806 -0.7824055 0.12114933 -0.68007773
lavabo -0.30452505 -0.30478385 0.21373065 0.3347137 -0.13788328 0.013114024 0.18503806 -0.29449725 0.3588801 0.62128437 0.82920384 -0.7176185 -0.061258543 -0.27347952 0.71213144 -0.21008496 -0.37578917 -0.47490594 -0.010087821 -0.019760419 0.032744948 0.69910944 -0.34135696 0.5320534 -0.48103288
pijama -0.9418583 0.77376276 -0.3257428 0.065169804 -0.15914366 -0.7187109 0.18163456 0.2992296 -0.22659652 0.3456536 0.76623267 -0.92833835 -0.10750226 -0.17643137 -0.35352415 0.46283266 -0.45414606 -0.43503264 -0.5239554 0.5130614 0.10720916 -0.19706382 -0.20477398 -0.032920856 -0.14618906
pasta de dientes 0.48292005 -0.007744465 0.32111216 0.27240035 -0.06795861 -0.2949721 0.7653642 -0.10482192 -0.033678222 0.19365084 0.8974591 -1.0944103 0.21501988 -0.08694306 0.028075699 -0.032965645 -0.3755727 -0.5634732 -0.17818405 -0.41602615 -0.06913194 0.49734604 -0.2818324 0.749204 -0.9380674
teléfono -0.6501681 -0.3278439 0.59115404 0.2828601 0.7485281 -0.41265357 0.47631314 0.38986257 1.0010107 0.3559415 0.45405358 -0.84721655 -0.12590735 0.09313706 0.49540195 0.39618134 -0.49763274 -0.3531485 0.20859805 0.18102857 0.41155592 0.6937142 0.6599756 0.5564194 0.71331924
resbaladilla -0.64774346 0.31132293 -0.56010634 0.30392566 -0.18850505 0.20233592 0.90377104 -1.2728581 -0.26332265 -0.28110355 -0.122932605 -0.28692508 -0.6312645 -0.43345755 0.31751725 0.37035266 -0.62552154 -0.36711603 -0.19285415 0.3773097 -0.3914446 0.20142958 -0.53592056 0.80184996 0.004118499
lápiz -0.73007566 0.8444364 1.003308 -0.26713872 0.21497361 -0.58044314 1.2697155 -0.39805496 0.34477267 -0.02591581 0.36531892 -0.7137064 0.740131 -0.7162139 0.29149425 0.032471992 -0.051493183 -0.010385473 -0.31015942 -0.6914867 0.39235002 -0.16568157 0.2418485 0.1513143 0.13606279
labios 0.5960928 0.24060279 0.25529152 0.042454563 0.57506555 -0.8567766 0.7115921 -0.054830093 0.22975253 0.043522645 0.34422863 -1.2778504 -0.17292091 0.11783364 0.56871355 1.2423599 -0.06876119 -0.64153093 0.37019047 0.25298947 -0.109611675 0.51406014 0.06439967 -0.12206889 -0.4922438
cobija -0.30828694 0.74909085 0.8152926 0.170961 0.19164693 -0.5501435 0.011564377 0.27842563 0.27860034 0.5297465 0.6555877 -0.60754794 -0.15206857 -0.7623012 -0.12711255 0.5714745 -0.72694844 -0.46097302 -0.22117682 0.8356568 0.3500145 0.032312743 -1.0274535 -0.06533011 -0.18056361
aspiradora 0.14040375 -0.51737744 0.28164053 0.8070065 -0.5939726 -0.09156481 0.09761661 0.3127922 0.7249385 -0.10501349 0.32917997 -1.0428467 0.10017056 -0.6448878 0.72373277 0.07879178 0.0253917 -0.6392823 -0.4829577 0.08023598 0.14835705 0.34576374 -0.16363323 0.771137 0.25522327
pañal -0.11081054 -0.1700031 0.75046676 0.8675721 0.0054362933 0.10474211 -0.112549745 0.40536752 0.32188082 0.63122046 0.38389808 -0.24082573 -0.15287918 -0.029480113 1.3204358 -0.28472018 -0.42137137 -0.35127243 -0.7858627 0.12800863 0.09120093 -0.51464266 -0.36743513 0.25728136 -0.39035532
cepillo 0.11728442 -0.37669313 0.32312092 0.3251998 -0.13495474 -0.69610703 0.5968425 0.013583397 0.13121033 -0.007366064 0.5642002 -1.1840202 0.3776024 -0.16894138 0.43370974 -0.14558336 -0.3005141 -0.11568206 -0.025772411 0.013675476 -0.23041527 1.0262289 -0.731313 0.74764884 -0.62201846
cepillo de dientes 0.14709896 -0.26428905 0.559859 0.234016 -0.14731728 -0.5355363 0.67824703 -0.01533675 0.13761032 0.25942945 0.5744838 -0.6219057 0.17458928 0.047881704 0.2397188 -0.11607071 -0.5439855 -0.3305559 -0.17524117 -0.25065053 0.044705022 0.7555863 -0.48925343 0.91888136 -0.876597
horno -0.6795498 0.40057212 0.27844056 0.016486865 0.5738824 -0.36151907 0.37135577 -0.021242473 -0.25278595 0.026691962 -0.030674532 -0.22469619 0.32998422 -0.80499226 -0.23677528 0.4924617 -0.100005716 0.031509124 -1.2123141 0.75554764 -0.8078479 0.99928206 0.16097277 0.5067309 -0.4554357
peine 0.09826716 0.12596035 0.36348596 0.16477217 -0.18947707 -0.48004732 0.6577118 0.4275824 -0.28642324 -0.2044468 0.34138453 -1.390521 0.12668248 -0.21207099 0.62863094 -0.67996806 -0.26541448 0.036689326 -0.01423651 0.5160744 -0.22617619 0.5737823 -0.60112107 0.715378 -0.033504307
sandía 0.10333451 0.47350824 0.3673877 0.254772 1.0257287 -0.31184486 0.11454586 -0.2507243 0.26622579 0.18401141 -0.09304402 -0.7597872 -0.27134573 0.19445916 -0.13005729 0.642008 -0.094105065 -0.044558194 -0.87086165 0.5944468 -0.11396386 -0.16418941 0.1541905 0.8236326 -0.5505518
palomitas -0.36799976 0.2766567 0.3882659 0.24781486 1.0089563 -0.4965924 0.38890582 -0.57565325 -0.14972554 0.17064777 -0.0617832 -0.8073552 0.34943712 -0.074849546 -0.22558665 1.0705246 -0.07023836 0.12644571 -0.6482524 1.169191 -0.9498322 -0.04933745 0.80163735 0.51167667 -0.34155524
rojo -0.6178316 0.76064014 0.36379558 0.40547645 0.23634414 -0.18081048 0.3872172 0.3583141 0.15235965 -0.16189547 0.27503344 -0.21208283 0.20116031 0.009281314 0.29194662 0.3937364 0.175343 -0.31460407 -0.1419509 0.23357403 -0.16642928 -0.20993453 -0.349983 0.5529635 0.23932452
shampoo -0.2063385 0.16279055 0.44959155 0.41053733 -0.13210239 -0.21849298 0.050671857 -0.29976478 -0.46860135 0.111860864 0.97906023 -1.199364 -0.20930961 -0.1862406 0.9142316 -0.4122697 -0.3479077 -0.15089712 0.08174535 0.28247407 -0.0277352 0.53505343 -0.16878963 0.6255155 -0.7380795
sofá -0.68051237 0.44615954 0.09568627 0.110644005 0.0057280385 -0.30854458 -0.08746612 -0.06561823 0.45105502 0.8940126 0.78348184 -0.38959315 0.27321595 0.09259542 0.19355722 1.2922869 -0.041257776 -0.7603874 -0.118248805 0.59029955 -0.2220311 -0.30594894 -0.5958132 0.6160366 0.5497905
lámpara -0.46983257 0.34317625 -0.1429584 0.24970564 -0.18356325 -0.1805743 0.51313746 0.34125972 0.33225688 0.44722646 -0.15747981 -1.4522439 0.61499554 -1.0737422 -0.37754074 -0.094942845 -0.607308 -0.49352968 -0.4693428 0.14994958 0.06926735 0.016357947 -0.015395548 -0.103983656 0.28996775
gallina -0.78824866 0.45055234 -0.1691349 0.4101031 0.121086024 -0.66333723 0.34999907 0.35311612 0.097740054 -0.019979814 0.11700102 -0.1326933 0.19878562 -0.5630543 0.92493105 0.37226832 0.11970343 0.4040697 -1.0061449 0.28318286 -0.019318456 -0.24286169 0.17854111 -0.30527237 -0.16445902
rico -0.13395573 0.41189453 0.19483696 0.63413745 0.4440344 -0.53269744 0.1293918 0.19110687 0.1254948 -0.008826125 0.39156777 -0.06627457 0.14221704 -0.27825552 0.2763081 0.45657602 -0.41649777 0.22768296 -0.28077477 0.2664127 -0.19879535 0.14406383 0.06364718 0.63917696 -0.8529106
sillón -0.8042453 0.50110435 0.033386067 0.032814708 0.08696825 -0.4026059 -0.115639366 0.05410655 0.72817016 0.8069351 0.4097816 -0.42333564 0.26402837 -0.07494116 0.120821014 0.9682838 -0.007944642 -0.59116614 -0.18351895 0.5211507 -0.22938211 -0.40542284 -0.69064564 0.5447672 0.2537079
abeja 0.17649089 0.18947695 0.6477492 0.93995 -0.5073553 -0.42719683 0.4645235 -0.68163633 0.55934405 0.19890022 -0.44354284 -0.5460121 0.17127551 0.1138898 1.2745602 -0.0943609 -0.69227797 0.16877423 -0.11534141 0.30384135 0.24342673 -0.50694466 -0.18609321 0.21807554 0.15950972
crayolas -0.48367172 0.3224615 0.7307623 0.32228106 0.14171927 -0.49936038 0.9767121 -0.8223172 -0.2889798 -0.3987544 0.15237452 -1.3267318 0.32783937 -0.7046122 0.3441106 0.40459257 -0.28824773 -0.24084702 0.03245781 -0.4591351 0.06420335 -0.0766039 -0.31376407 -0.20416315 0.4564879
librero -1.3167608 0.11574481 0.25389016 -0.047690347 -0.092808425 -0.5361816 0.9611491 -0.3789503 0.71113616 0.7511733 0.10158676 -0.17532906 0.47223455 -0.20271076 0.37281036 0.38546282 0.12832348 -0.60942703 -0.16159709 -0.6672224 0.027670246 -0.26896203 0.20306338 0.29837307 0.1524486
cuna -0.100841604 0.76389694 -0.25071302 1.207049 0.30617306 -0.47118372 -0.2892289 -0.14711316 -0.07061197 0.5893574 0.5027049 -0.76231027 0.12180489 -0.72111654 0.918049 0.6691989 -0.9804827 -0.35562575 0.33013088 0.36381203 0.3771101 0.120980434 -0.5955154 -0.4644747 0.110683106
alimento 0.09145222 0.24809188 -0.114847876 0.45576578 0.6627703 -0.5797497 -0.08276507 -0.014252187 0.06582062 -0.103276975 0.19087686 -0.15286295 0.26529253 -0.5346906 0.61500853 0.36644265 -0.3770806 -0.09019334 -0.5682467 0.022460928 -0.6169735 -0.24255894 0.5195106 0.7044392 -0.60654134
feo -0.41056842 -0.084680885 0.27389506 0.36927626 0.31321183 -0.08463557 0.49368677 0.36075506 0.15806405 0.08145098 0.3151249 -0.16272986 0.23315997 0.15934107 0.6626833 0.4232922 -0.5849296 0.16027164 -0.48328277 0.38885006 -0.35015485 -0.2063708 -0.25814506 -0.117599845 -0.3230939
chupón 0.72953427 -0.17090888 0.33668998 0.95948434 0.41929787 -0.14890237 -0.15999861 0.46440887 0.2283635 0.098331764 0.21583362 -1.1457956 -0.24640165 -0.36681023 1.0113645 1.1175154 -0.9383427 -0.7793069 -0.050834727 0.24745531 -0.54039764 0.30930188 -0.38365364 -0.22269818 -0.07158966
llave -0.725528 0.3864431 0.23398905 0.20692833 0.024841966 0.3678121 0.37247974 -0.11276739 1.2253901 0.72195774 -0.31826228 -0.3685214 -0.31710148 -0.74806434 0.6991214 -0.22154959 -0.4807022 -0.4697681 0.3019289 -0.15240717 0.2698724 -0.36663088 0.05224257 0.9872509 -0.185668
campo 0.04063019 0.048087016 -0.5439294 -0.020950926 -0.04460336 -0.43753892 0.6675755 -0.25187322 -0.03347966 -0.027415922 -0.06429723 -0.22118862 0.49907672 -0.07593277 0.7416184 0.08257921 0.03294758 -0.4016819 -0.6608902 0.6255277 -0.17427143 -0.17132486 0.22038002 0.44113672 -0.041482743
rosa -0.08017445 0.53813714 0.5512712 0.31466347 0.1563146 -0.15835892 0.17009391 0.05338739 -0.14820206 -0.07331351 0.08884577 -0.85980004 -0.27418393 -0.19432496 0.54924375 0.16072446 -0.45173413 -0.23913041 -0.2529671 0.37873396 0.21000123 -0.21039927 -0.1339522 0.035595533 -0.22340947
almohada -0.74667895 0.88737476 0.18327527 -0.0036756876 -0.26032445 -0.66826 -0.11134984 -0.23821817 -0.0354581 0.99481666 0.76964563 -0.82756233 0.5480235 -0.27492175 0.10050865 0.8231538 -0.28786626 -0.19881195 -0.38511974 0.7695511 0.03670896 -0.11359287 -1.052751 0.3197557 0.15448034
reloj 0.013543999 0.7073565 0.05822068 0.73990047 0.8101306 -1.0851064 0.54800874 0.2905904 0.5767548 -0.1901038 0.38682872 -0.6570875 -0.31142882 -0.09041377 0.101631455 -0.79841894 -0.70321393 -0.33748624 -0.28641 0.5057919 -0.106127456 0.31516084 0.40184045 0.0049712765 0.9947951
persona -0.4508754 -0.00273711 -0.105513975 -0.043369524 0.34533694 -0.49424487 0.4837411 0.04057927 0.56074345 0.33586267 0.46520573 -0.9129876 -0.63171464 0.13060799 0.27355263 0.4870104 -0.12272077 -0.57844186 0.28260484 0.37140974 0.054222163 0.4539676 -0.32280272 0.15721208 0.03387335
cámara -0.26946154 -0.124139816 1.3432431 -0.18751483 -0.35672435 -0.09472469 0.88321686 -0.25500357 0.1311688 0.7576317 0.072208434 -0.8958675 -0.26936594 -0.43017223 -0.45377928 0.56751424 -1.3567944 -0.66851115 0.07199602 0.57936895 -0.27987292 -0.40131664 -0.04473497 0.5976186 0.31920168
bonito -0.18401313 0.4108975 -0.2439797 0.113767065 0.16769102 -0.30550697 1.0582949 0.23396946 0.10223207 0.06582893 0.24716952 -0.2709224 0.097366005 0.13644151 0.7227605 0.81439954 -0.03733751 -0.086300634 0.06999656 0.32658747 0.14767222 0.42308372 -0.15376614 -0.048048683 -0.19156891
negro -0.75124896 0.56007844 0.23416448 0.13700093 -0.17082278 0.10181807 0.8732529 0.67020977 0.015293131 -0.30833152 0.2032399 -0.5900221 0.14185868 -0.0895151 0.5572056 0.2148711 -0.17228684 -0.035274435 -0.22522114 0.12613705 0.008122228 0.28260383 -0.12165603 0.018181058 -0.27843073
ropa -0.89283806 0.27551773 0.12762459 0.14587049 0.021225145 -0.43025264 0.14207812 0.78010434 -0.021998206 0.26794156 0.39359856 -0.61805004 -0.20720264 0.116127625 0.3799579 -0.3156937 -0.001088237 -0.76768535 -0.38908997 0.010041468 -0.17127684 0.095752604 -0.22130443 0.6494706 -0.14279991
caliente -0.24985813 0.6540419 0.17850082 0.08273986 0.05360159 -0.30652952 -0.052034058 0.071269885 0.050374452 -0.03717881 0.39147913 -0.31473586 0.15520756 -0.85877985 -0.011068528 0.31806102 -0.35765243 -0.39917567 -0.6682045 0.46315145 -0.20596454 0.17660034 -0.3690024 0.24413902 -0.57148147
calor -0.4110607 0.8303612 0.4157221 0.26313418 0.19972312 -0.12401989 0.25483838 0.32172623 0.05673106 0.26433834 0.20119773 -0.5133663 0.18984713 -0.3333046 -0.4527868 0.22121322 -0.09674403 -0.5898892 -0.65323895 0.7138163 -0.058555994 0.09058706 -0.27636936 0.21631022 -0.606104
mamila -0.2443848 -0.18889296 -0.033319063 1.1590885 0.21545324 -0.49299157 -0.12890899 0.100812085 -0.039746664 -0.33253744 0.077920295 -1.0020443 -0.5352515 -0.6563525 0.72218096 0.89826995 -0.7555452 -0.03587957 0.044502925 0.103271626 -0.79395336 -0.18617971 -0.16458976 -0.038439468 -0.16993926
trabajo -0.25604758 -0.40017578 0.25067428 -0.004503579 -0.024474692 -0.15584159 0.51723355 0.34430197 0.20680197 -0.08761765 0.3313461 -0.57989514 0.24335054 -0.4269123 0.49066398 -0.055922195 -0.0011109124 -0.9761841 -0.28871888 0.028646084 -0.09637239 -0.0030636834 0.22253965 0.63389206 0.27119684
maceta -0.094314516 0.062309362 -0.1331746 0.023726828 0.21192873 -0.3331598 0.34410074 -0.8664315 0.086104885 0.07148969 -0.072558045 -0.2574083 -0.019565962 -1.2772738 0.7088739 -0.13715218 -0.22387151 -0.5055368 -0.5825962 0.8269293 0.35134268 -0.4168854 0.07919571 0.19377367 0.013703897
limpio -0.3587883 -0.22967087 0.31793806 0.6410153 0.025359143 0.1796201 0.30764684 -0.002919125 -0.09532844 0.5956232 0.5268377 -0.67291045 0.05705878 -0.33300382 0.71950644 -0.4438229 -0.10186965 -0.15458441 -0.41465774 -0.014565611 0.0336007 0.19422106 -0.61587834 0.3591587 -0.22055979
manguera 0.2981024 -0.111683875 0.12732442 0.3980037 0.021099076 0.0315577 0.36692795 -0.3434476 0.7983125 0.11493684 -0.17718492 -1.1497922 -0.1966144 -0.741324 0.441457 0.08918471 0.45487705 -0.36305463 -0.31677935 0.52986693 0.49186188 -0.29283127 -0.39280266 1.2581381 -0.24556051
frío -0.22381566 0.42583007 0.30538467 0.54027396 0.48234522 -0.21161017 0.5498549 0.52612716 0.11136735 0.25742725 0.11990865 -0.40934607 -0.13639744 0.079646125 -0.077808075 0.43438852 -0.18962038 -0.2517428 -0.5842054 0.46981156 0.13862307 -0.08005645 -0.3784517 0.0009937697 -0.522051
bat -0.35476294 -0.11318042 -0.12892137 0.866939 0.4667357 -0.4766091 1.0667603 0.14023185 -0.80377626 0.66356885 0.114047706 -0.45197913 0.07512141 -0.14323565 -0.26977417 -0.7081142 -0.11175921 -0.61769927 -0.5144608 0.15780404 -0.58437896 -0.30450055 -0.739709 0.8450656 0.5702186
amarillo -0.14091414 0.14423668 0.69442713 0.36816505 -0.04560222 -0.44789255 0.8456246 -0.08822913 -0.06016741 -0.39786267 0.22780576 -0.038552333 0.0070853312 0.14732991 0.66532046 0.22552148 0.004045626 0.18363932 -0.15937513 0.43621534 -0.1901683 -0.0066015893 -0.14212313 0.784526 -0.17838073
juego -0.6047091 -0.0496181 -0.2946177 0.8507428 0.18848257 -0.5697263 0.7677081 -0.2623159 -0.617279 -0.20051685 -0.18365496 -0.1520567 -0.4396774 -0.00705802 0.42542747 0.38411525 -0.26582965 -0.39648238 -0.1436179 0.107163146 -0.43324447 -0.5963331 -0.4939471 0.40649137 0.17384171
carriola -0.20841557 0.104978204 0.26221234 0.654441 0.15188606 -0.3324952 -0.113429636 0.021923078 -0.19900106 0.09224657 -0.35159975 -0.22679517 -0.22602248 -0.6660977 1.135053 0.26380393 -0.9435242 -0.7818949 -0.039614 0.41414383 -0.21210435 0.59219974 -0.2315398 -0.12997276 0.5831653
madera -0.5731159 0.39885318 -0.08344257 0.3251122 -0.08151954 -0.40050092 0.77439696 -0.30522484 0.47494975 0.70989645 -0.32062402 -0.35300872 0.6771501 -0.5338639 0.1659662 -0.41521683 0.27432063 -0.44582057 0.08726378 -0.039305042 -0.094611675 0.09245183 -0.28520843 0.606516 -0.0032369099
roja 0.19325793 0.7068185 0.56590617 0.4108756 0.17394727 -0.109009944 0.10600959 -0.19304667 0.011452956 0.35264143 -0.46480706 -0.77325034 -0.19191104 -0.50195014 0.33577904 0.044155195 -0.08053958 -0.62078446 -0.6328036 0.17852592 -0.15636826 -0.30091766 0.24842784 0.07958997 -0.16591594
sucio -0.5026018 -0.41195858 0.42361817 0.53579956 0.3957871 0.4627546 0.10081239 0.55816793 0.07311277 0.65815264 0.58771014 -0.59253585 0.101375 -0.19973184 1.0002055 0.11907095 0.030949278 -0.3161435 -0.27751544 0.07250094 -0.15292174 0.19569 -0.124321945 0.45494932 -0.14314489
correr -0.2814589 -0.085349195 -0.214689 -0.060615763 0.6348452 0.56741303 0.7212483 -0.12543254 0.1300989 0.19063643 -0.020074513 -0.29757178 -0.21983825 0.3717682 0.85746366 0.28051633 -0.70367604 -0.68461734 0.021414367 0.64253443 -0.081143126 0.0833583 -0.013050835 0.44548878 0.19347605
diversión -0.37625602 0.25667244 -0.045167264 0.76313037 -0.037079666 -0.12686212 0.9039536 -0.405718 -0.32557705 -0.000970448 -0.17885 -0.08894364 -0.6152855 -0.19253878 0.06286684 0.59270185 -0.73856574 -0.5833825 -0.10951379 -0.0022263848 -0.2931289 -0.19977699 -0.1361455 0.27202573 0.36166033
fiesta -0.85121506 0.22505924 -0.08710373 0.8444893 0.29045781 -0.6764695 0.338263 0.3125038 -0.57867885 0.47178593 0.35656193 -0.33537343 -0.14012828 0.41173208 0.17541395 -0.04398901 -0.15364456 -0.02032368 -0.16918391 0.21526562 -0.57644725 -0.028569443 -0.15968028 0.4211902 -0.48513967
herramienta -0.21815076 -0.05405046 0.053159013 0.18830326 0.22548407 -0.4828888 0.6591487 -0.18082759 0.41600484 -0.122254685 0.09236033 -0.9242079 0.16791752 -0.90954673 -0.051406574 -0.7030582 0.113858946 -0.473087 -0.7381744 0.06385606 0.022848055 0.46866357 -0.5122467 0.49205205 0.61558795
mujer -0.0697394 0.9974387 0.2619253 -0.036562 -0.0942461 -0.8127746 0.27106872 0.33830485 0.11898847 0.053702097 -0.041716363 -0.9605966 -0.2959002 0.3276071 0.60341513 0.16041195 -0.35527998 -0.5185597 0.15976168 0.5930062 0.033553198 0.3036852 -0.2682395 0.12608595 -0.505819
miedo -0.20611216 0.008895719 0.1899266 0.20195805 0.02044532 0.007015779 1.0229782 -0.56364936 0.08853472 0.031545375 0.61584395 0.11773623 -0.15731786 0.5227411 0.7212305 0.065169275 -0.86617476 0.22051743 -0.59904635 0.43201122 -0.5174299 -0.13414834 -0.12649754 0.10091038 8.140004e-05
mamá -0.5470483 0.2905857 0.2605076 0.5661977 -0.045814216 -0.4531285 -0.39584532 0.5519646 0.5439824 -0.14526261 0.1405124 -0.44984308 -0.46469083 -0.5226198 0.67641735 0.1073106 -0.9341034 -0.117150776 -0.28415528 0.3382335 -0.3000147 0.5776853 0.05545624 0.1333446 0.14810586
amor -0.151772 0.502237 -0.1466232 0.33669135 0.04906533 -0.55442935 0.42261845 -0.16282088 -0.55340225 0.21616633 0.16919705 -0.6153202 0.2221835 -0.11396368 0.85207725 0.42147896 -0.39948347 0.072809815 0.23559332 0.8521503 -0.30906942 0.21201466 0.00048686535 -0.1906738 0.05175122
baño -0.18780366 -0.23075894 0.4958231 0.19641344 -0.2204059 -0.36860618 0.48255852 -0.12157543 -0.30416733 0.7589758 0.40586784 -0.7662792 -0.0074739293 -0.19677362 0.262545 -0.33647236 -0.4532308 -0.24222198 -0.15263034 0.44997212 -0.28828245 0.41756594 -0.45604372 0.2666544 -0.6385042
blanca -0.4726221 0.13368203 -0.18320322 0.22662278 -0.2273179 -0.15821621 0.17698514 -0.29069597 0.089396805 0.7798068 0.15683758 -1.2093924 -0.21023425 -0.6812044 -0.016422285 0.23574099 -0.099838726 -0.16957705 -0.7645027 0.3971083 -0.22411983 -0.20233278 0.40238833 -0.14083341 -0.32269046
lindo 0.18447486 0.40187466 -0.19075508 0.2099869 -0.004102793 -0.45357323 0.8243555 0.71531564 0.12008353 0.2180836 0.16198535 -0.52801764 0.060802657 0.3087422 0.8495203 0.3067191 -0.16316447 -0.10424621 0.13134107 0.37324739 -0.2936809 0.37537336 -0.35091853 0.22349147 0.07384077
fruta -0.3687328 0.1251734 0.13795103 0.24863768 0.5675093 -0.60716903 -0.013110047 -0.3942321 0.22733042 -0.33763504 -0.3221941 -0.47170737 0.23767339 0.13926089 0.62028563 0.41286355 0.027214264 -0.065106444 -0.6536553 -0.05575312 -0.27321497 -0.071846925 0.05278675 1.2277693 -0.66556114
sabor 0.297517 0.6932953 0.27641743 0.39069933 0.9024727 -0.62072426 0.35223505 -0.36820275 0.16020589 0.0006678012 -0.0055202255 -0.25547972 -0.0032659657 -0.31016356 0.17347421 0.887649 -0.27062544 -0.051574513 -0.50712246 -0.23466362 -0.029370015 -0.009261268 0.122902416 0.6037803 -0.6465279
color -0.0734236 0.55076313 0.61301345 0.32266802 0.09923764 -0.5745217 0.71706724 0.12511715 0.020059237 -0.2667551 0.1198119 -0.6402997 -0.15182863 0.22804986 0.30300924 0.35679615 -0.19277185 0.18020649 -0.28308064 -0.18074122 0.055053458 -0.9367728 0.12672874 0.7334588 0.02857731
ruido -0.6456628 -0.68718326 -0.17931831 0.54095656 0.14988875 -0.18998373 0.6186728 0.35005742 0.2770046 -0.0751368 0.033710096 -0.10320912 0.028911768 -0.28120282 0.5839539 0.259674 -0.5541616 -0.17611437 -0.29535568 0.26684937 0.18762085 0.48743093 0.23238169 0.6898149 0.49960235
amigo -0.5684088 0.24257296 0.09972729 0.169134 0.5455334 0.06371872 0.8223502 -0.32763988 0.31260613 0.09148781 0.3340656 -0.43476838 -0.047412675 0.1820069 0.4476633 0.6746644 -0.46615347 0.42594537 0.0990875 -0.043638278 -0.18848202 0.064264044 0.3007077 0.35083035 0.20979539
plástico -0.24220125 0.054556534 0.5286021 1.105648 0.18253922 -0.015378583 0.22204967 0.38474467 0.36390394 -0.13755533 -0.40449044 -0.7327381 -0.5032489 -0.26036027 0.79784495 -0.21651442 -0.11688344 -0.5026046 0.11199699 0.11048563 -0.6856666 -0.17415133 -0.37748784 0.10485938 -0.22281629
divertido -0.55030227 0.010444285 -0.27215648 0.7181266 -0.13656786 -0.10520742 1.0597085 -0.0045633796 -0.45351154 -0.12057459 -0.135993 -0.08019458 -0.42973253 -0.011055264 0.5228469 0.65559393 -0.6070295 -0.06304589 -0.07747795 0.5913288 -0.3134869 -0.15248989 -0.63931465 0.3979637 0.32777086
suave 0.25727528 0.5936843 0.2647735 -0.1893343 0.13557585 -0.80590755 0.0943065 -0.14847721 -0.023958994 0.1732238 0.3470384 -0.4879741 -0.32663462 -0.6300264 0.35551286 0.37476927 -0.62431103 -0.03160538 -0.3699058 0.5693751 -0.13665897 -0.19318156 -0.90470254 0.27699503 -0.050790563
vida -0.35267246 0.09117257 -0.022095256 0.38489097 0.51207733 -0.25165516 0.18163212 -0.51767117 -0.41995504 0.55070156 0.17078784 -0.6104439 0.27174726 -0.973378 0.43417364 0.6255341 -0.33024132 -0.38254824 -0.21326782 0.18610968 0.69001293 -0.3185322 0.09659461 -0.033771474 0.2704594
gris -0.040853024 -0.105041735 -0.50006807 0.19065803 -0.085459106 0.20592828 0.5345312 -0.08766321 0.18158045 0.41908652 0.045213707 -0.44598386 0.075075775 -0.46957165 0.7496522 0.08077982 -0.30183092 -0.61418694 -0.58235663 0.26952073 -0.14476225 0.300975 0.15429778 -0.13359441 -0.025929566
lavar -0.06360981 -0.40492472 0.5404936 0.15022641 0.09104416 -0.34046146 0.17394346 0.11548661 0.19396652 0.19421165 0.575384 -0.9878802 -0.11884341 -0.44609463 0.68804204 -0.40305567 -0.17448562 -0.56359047 -0.44478753 -0.0044287737 -0.052527927 0.6654917 -0.77417463 0.44638377 -0.53308547
negra -0.3600857 0.35936967 -0.08008382 0.10231172 0.1109581 0.047470957 0.42542377 -0.30954218 0.49668622 0.58635056 -0.35220313 -0.7320867 0.0027656113 -0.0144909 0.22156362 -0.2626616 -0.15428197 -0.85813934 -0.8626993 0.24404371 -0.42729107 -0.045083605 0.14247994 -0.25596747 0.23474015
limpieza -0.030945813 -0.40493673 0.8669204 0.33185714 -0.2340316 -0.07278792 0.25804716 -0.24737872 -0.026257068 0.2218361 0.6783866 -1.0579511 0.06941613 -0.46469802 0.7402494 -0.1413801 -0.008876959 -0.6876028 -0.16111931 0.17502724 -0.027011104 0.51705605 -0.47118706 0.47526196 -0.3757685
bosque 0.25275967 0.37732768 -0.74126923 0.30382875 0.0114283115 -0.1293639 0.71538156 -0.23459156 -0.1755233 0.56421787 -0.0059150113 -0.39899638 0.75153655 -0.2948955 0.8252599 0.24340573 0.23297462 -0.33102363 -0.5222821 0.54892945 0.35362726 -0.036316715 0.025652954 0.38949484 0.23956296
hombre -0.5497987 0.45285687 -0.11389149 -0.103594206 -0.0049641132 0.39651015 0.600381 0.28720254 -0.08025134 -0.37656885 -0.14336798 -0.61814946 -0.10011899 0.13129489 0.6636314 0.11461025 -0.7746097 -0.42968282 -0.31894675 0.33420983 -0.42605335 -0.13598675 -0.18926878 0.10298809 -0.52983326
delicioso 0.41600838 0.46244806 0.23686814 0.43077788 0.44385296 -0.56570065 0.30461168 0.41222075 0.037138227 0.044362642 0.21841073 -0.28245938 0.36380202 -0.49239632 0.4336624 0.59465635 -0.67611897 0.27141115 -0.3845003 -0.33081737 -0.48173794 0.07377749 0.01692639 0.91558766 -1.0110835
nieve 0.031201882 0.40859225 -0.0763809 0.49623728 0.017160509 -0.06044759 0.8986375 0.32346424 0.3488375 -0.08708151 -0.4396714 0.039600894 0.1161754 -0.2966655 -0.1981069 0.5268551 -0.35488257 -0.60770553 -0.7516578 0.46105054 -0.12323257 0.09089742 -0.6649608 0.16152605 -0.47683176
bonita 0.1747324 0.4181371 -0.4344939 0.44325036 -0.4407429 -0.25270167 0.33195034 -0.41495064 -0.12431257 0.48250327 -0.16990899 -1.0807964 -0.4202549 -0.21748607 0.54587144 -0.0408526 -0.5965548 -0.45041335 -0.32440233 0.48352057 -0.021324877 0.17304136 0.37174344 0.032435857 0.251709
peligro -0.06706931 0.4922197 0.08450792 -0.25437286 0.052901797 0.45004916 1.2329313 -0.7001207 0.6603983 -0.096405275 -0.11461261 -0.13198698 0.4992171 0.14608997 0.43370098 -0.11832378 -0.6488312 0.06403442 -0.28599212 0.42769077 -0.6734064 0.29952046 0.1504553 0.5672047 -0.07916989
granja -0.35852608 -0.037842132 -0.31672168 0.12636347 -0.17899013 -0.6219468 0.59665877 0.42459422 0.047737364 -0.23833932 0.1507971 0.013786447 0.3074889 -0.6810342 0.87639326 0.35025877 -0.1535711 0.12759474 -0.69024795 0.7668793 -0.24569663 -0.2160941 0.19193798 0.06627433 -0.33562404
crema 0.3774659 0.25819305 0.1843943 0.5927404 0.11152309 -0.9959088 -0.029238638 -0.21696043 -0.045872796 -0.2694993 0.1765919 -0.40098298 0.04213014 -0.16438033 0.44939902 0.17001715 -0.46989623 0.15985534 -0.5661045 0.35389134 -0.16614921 0.37798235 -0.06535064 1.1156993 -0.70048165
luz -0.28093776 0.1383538 0.21982336 0.5589633 -0.63077056 -0.20921695 0.3768088 -0.17956617 0.46750724 0.02820694 -0.017891679 -0.65363675 0.39095306 -0.9076096 -0.32754156 -0.060071178 -0.88774985 -0.6491306 -0.29615647 0.15929525 0.18629795 -0.016394403 0.41355464 0.41336197 -0.32588014
asco 0.34237516 -0.20858963 0.21001323 0.29135588 0.55562717 -0.36341074 0.20903392 -0.34379485 0.6699997 0.35810527 0.19433433 -0.02689429 0.06192553 0.58190686 0.7959159 -0.042493634 -0.774651 -0.4185537 -0.99604416 0.35509238 -0.24286526 -0.6175724 0.1878403 0.21679872 -0.27840573
hambre 0.32301605 0.39735982 0.024625285 0.47295412 0.6755485 -0.49849343 -0.09959975 0.009169598 0.10822397 0.08415696 0.27911207 -0.32211158 0.18290508 -0.6403407 0.56055975 0.59625685 -0.6025305 0.08527291 -0.38461366 -0.07986729 -0.9787735 0.14906734 -0.082474105 0.3316016 -0.37446135
dormir -0.52380514 0.5658159 -0.15761745 0.044105127 -0.10090595 -0.8116271 0.10150777 0.01337024 0.4603991 0.7425344 0.46652192 -0.43882644 0.06764289 -0.3852762 0.5369617 0.89020693 -0.43413612 -0.47798556 0.25143266 0.14938335 0.23004326 -0.25681806 -0.43770945 -0.24278864 -0.22891416
redonda -0.24340513 0.3806377 0.116278976 0.81055635 0.04686385 -0.22767358 0.2670854 -1.1229357 -0.13785648 0.18294789 0.022262326 -0.46592185 -0.04104553 -0.35809475 0.083652064 0.1620148 -0.2829105 -0.43382648 -0.77946234 -0.2823628 -0.52311254 0.17542423 -0.022776851 -0.06620241 -0.3343486
noche -0.20203419 0.62526053 -0.415181 0.49697822 -0.5535839 -0.51940405 0.2841823 0.0149454335 -0.2543106 0.55797905 0.4934021 -0.9209869 0.56721485 -0.16950332 -0.17749518 0.550698 -0.71601456 -0.0017752325 -0.2430101 -0.10201517 -0.104520954 -0.2512098 -0.18917851 0.24917358 -0.5226883
tela -0.18814024 0.80730236 0.645275 -0.069928065 -0.23896839 -0.4274724 0.18941027 0.3873944 -0.07663884 0.32307705 0.5383925 -0.67088634 -0.62229025 -0.3361089 0.42691177 -0.15226343 0.20198327 -0.60045636 -0.93372387 0.6266999 0.35906968 -0.02487705 -0.46443018 0.41548905 -0.029435493
carro -0.65292674 0.15109718 -0.05438534 -0.12609299 -0.036142435 0.4033095 0.4447318 -0.11024004 0.3361142 0.025320757 0.042693857 0.2122346 -0.07676257 -0.52887404 1.2129512 0.10248404 -1.04098 -0.5754658 0.08485648 0.16242896 -0.07219521 0.33610463 -0.1167473 0.47614115 0.07539989
morder 0.55156875 0.015054435 -0.07523892 -0.14723684 0.31364152 -0.47622278 0.17688979 -0.12047267 0.28688475 0.355981 0.24103177 -0.66545194 0.1408193 0.4794162 0.7135241 1.3340243 -0.4508677 -0.3308392 -0.37656024 0.35787672 -0.46613905 0.06427838 -0.04939298 0.4135582 -0.11271856
fuerte -0.22431214 0.005634731 -0.44335717 0.5521284 0.6583192 0.29974395 1.0392784 -0.1324306 0.33771402 0.5828559 0.15314855 -0.39777446 0.56293494 0.2731208 0.56048816 -0.022887403 0.058968782 0.17902707 -0.4117048 0.14316957 0.10655821 0.39928156 -0.34678993 0.3596821 0.24137469
largo 0.25285247 0.71086913 0.34871235 0.028565334 0.45096603 -0.12771995 1.0530137 0.2626323 0.15158544 0.6317643 0.23231895 -0.36799148 -0.10579511 -0.04793119 0.54628354 -0.15743622 -0.07266441 -0.15279822 -0.0728021 -0.13445878 0.7934432 0.61112744 -0.13176452 0.5594238 -0.12784821
aire -0.32998046 0.40435654 0.31539354 1.0644268 -0.24187353 -0.15165803 0.9236415 0.04923725 0.034797285 -0.56068 0.17599143 -0.27006432 -0.123407915 -0.59787536 0.76487607 0.09474502 0.30439967 -0.4910071 -0.07049351 0.52075005 0.7269656 -0.428529 -0.06775172 0.18998067 0.28763017
rápido -0.53177357 -0.21596877 0.2692796 0.13953964 0.43142137 0.36578956 1.159807 0.16234529 0.08653821 0.26239678 0.070300266 -0.06833503 0.13254918 -0.14461395 0.7435911 0.34797144 0.0950285 -0.34493035 -0.34111294 0.6663513 0.2827265 0.55482316 -0.15636922 0.37227985 0.5614946
parque -0.35563767 0.3989193 -0.36899647 0.63349307 0.33792326 -0.20122227 0.69342154 -0.39491186 -0.6471931 -0.24883975 -0.6112178 -0.35868824 -0.29112402 -0.15997882 0.7335463 0.12800896 -0.25952554 -0.17332323 -0.07086362 0.8867675 0.09405257 -0.15186527 -0.2762147 0.46754485 0.056550168
postre -0.07295815 0.54630286 0.48677903 0.5276523 0.89521873 -0.78416866 0.010034898 -0.25000703 0.053812306 -0.08940565 -0.31616008 -0.42211512 0.3663435 -0.11187715 0.27186608 0.5013317 -0.56622994 0.30838606 -0.7094844 -0.028353138 -0.48069015 -0.081177026 -0.046502307 0.66854906 -0.43379974
limpiar 0.12197057 -0.3868504 0.7287588 0.5301378 -0.32239562 -0.34161764 0.5864119 -0.0016447591 0.4907355 0.03371985 0.7370607 -0.782078 0.075166196 -0.5062951 0.6078951 -0.5133612 0.07810707 -0.44171482 -0.2252545 0.3394859 -0.0073023983 0.5518829 -0.42520565 0.4089695 -0.6679158
tierno -0.09815244 0.30574268 -0.2364007 0.5878251 0.14416488 -0.65046287 0.76275575 0.24442406 0.027261227 0.18174359 -0.07933894 0.20565635 -0.09229598 -0.039774146 0.79802454 0.8600983 -0.43480805 0.13643642 -0.34814212 0.51966435 -0.31554276 0.04496114 -0.46870622 -0.23844004 0.008078586
piel 0.07942625 0.4500287 0.23534249 -0.31744248 0.4801614 -0.17689583 0.4080873 0.50882316 0.658957 0.28122398 0.2670728 -0.39328092 -0.22037365 0.15475957 0.7276084 0.28569832 -0.13912328 -0.43724146 -0.60552704 0.2361332 -0.2772383 -0.16039403 -0.7336043 0.182234 0.3340032
cubrir -0.4699793 0.76610893 0.30911398 0.05797394 0.10807706 -0.033388566 0.20820831 0.6518627 0.22702636 0.09164652 0.5277738 -0.8658721 -0.24937771 -0.16106741 0.20942555 -0.19673765 -0.38500348 -0.6680992 -0.61256886 0.57869786 0.12553146 -0.02059757 -0.95422316 0.029835517 -0.2738854
alegría -0.10848191 0.4062925 0.6175402 0.6970198 -0.14596742 0.14670767 0.70918244 -0.88320595 -0.27375922 -0.017084567 0.16654347 -0.780078 -0.48239774 0.052989304 0.1270679 0.9163648 -0.52255774 0.17603588 -0.14376882 0.31517828 -0.45764476 -0.23849615 0.15091336 0.32268026 0.20886679
infancia -0.3547189 0.29523507 0.1615946 0.7928069 0.08985172 -0.25926986 0.8832832 -0.5846456 -0.6807348 -0.14225638 -0.20421955 -0.29272303 -0.5805843 -0.520902 0.66799754 0.39401 -0.5169657 -0.46429464 0.31359664 0.15171826 -0.28412953 0.42480987 -0.6628853 -0.09286524 -0.035752982
accesorio -0.420269 0.73342156 0.63099414 0.090738036 0.24206066 -0.74669087 0.5204195 0.7976476 0.16955394 -0.26265568 0.3864769 -0.95445967 0.25098088 0.2064652 0.46897438 -0.67049104 -0.13308564 -0.6655223 -0.047540884 0.35179687 -0.103618234 -0.063080005 0.25056878 0.13862135 0.26114753
protección -0.68863684 0.80112314 0.076787755 -0.11854211 0.37014672 -0.33781877 0.4151609 0.5435137 0.5869676 -0.234472 0.17694983 -0.26713166 0.2205975 -0.0116615025 0.5147402 -0.43972334 -0.5478304 -0.7315842 -0.05104002 0.6025231 -0.24055494 -0.4800165 -0.41085356 -0.16795515 -0.59247047
jugar -0.38380507 0.38208616 0.027523212 0.8697795 0.08165625 -0.37841696 0.8953334 -0.3479508 -0.72034323 -0.19783881 -0.21543825 -0.1635368 -0.6645503 -0.27190804 0.22400197 0.17562817 -0.27276054 -0.76961744 0.041802756 0.083735906 -0.49675578 0.07414669 -0.71377695 0.6231282 0.47417054
cielo -0.54144263 0.6314347 -0.30792308 1.1043444 -0.5005773 -0.11218413 1.1279569 -0.18334481 0.24843909 -0.1330905 0.23195654 0.1554358 0.29996085 -0.54650307 -0.04622737 -0.12262744 -0.28422177 -0.33026275 -0.1987648 0.36747518 0.16324183 0.115772754 0.27826202 0.16627075 -0.33971462
basura -0.32513195 -0.42743254 0.09377871 0.5505222 -0.042257506 -0.3751228 -0.090188935 0.1846732 0.24476959 -0.16059732 -0.062122256 -0.73099935 0.2312908 -0.32905188 0.5619775 0.32033995 -0.42752802 -0.7264052 -0.49644157 -0.6536136 -0.5694577 -0.2882863 0.51123255 0.63519865 0.08577314
muerte 0.3767105 -0.053649582 0.24823694 0.037009824 -0.5386539 -0.24670537 0.94381076 -0.22240429 0.0656763 1.0062916 -0.03773874 -0.26586673 -0.008378445 -0.124369055 0.6073344 -0.1590682 -0.20179904 -0.5235954 -0.39805713 0.3036331 -0.673813 -0.096957535 -0.12201875 0.021408208 -0.7648172
utensilio -0.78408104 -0.07825075 0.36815357 0.15158816 -0.051723924 -0.7715661 0.39591223 -0.46208486 0.46574327 0.12822899 0.29386288 -0.6447494 0.34068254 -0.20293824 0.10769766 -0.4422206 0.24547116 -0.2271907 -0.52901495 0.1253208 -0.792967 0.96306133 -0.21484882 0.54540837 -0.09599815
poner -0.6857454 0.5556553 0.13461429 0.2554309 0.26223186 -0.08881463 0.38821873 0.5698977 0.20028713 0.33166835 -0.17197366 -0.60887015 -0.08552756 0.37672156 0.52061045 -0.33384886 0.11358131 -1.0432024 -0.30638584 0.30153036 -0.31379578 -0.16258882 -0.23431529 0.1037492 -0.366403
gente -0.4708983 0.36283237 0.26390502 -0.11509686 -0.12894428 -0.010180599 0.14074628 -0.2568929 0.8354421 -0.013456748 0.73809564 -0.44116843 0.017559454 -0.12248049 0.43466595 0.17025848 -0.64173734 -0.49927193 0.10964445 0.44302195 -0.13214095 0.49394876 0.04277117 0.68416667 0.55642605
larga -0.07632881 0.62594634 -0.40736574 0.012639541 -0.17896184 0.22013548 0.16548961 -0.3077479 0.6311005 0.1263935 0.06450958 -1.1196316 -0.31586757 -0.23159054 0.16662678 0.22503737 0.021433271 -0.7308006 -0.42335188 0.11466363 -0.5486029 -0.44722173 0.01971781 0.5603205 -0.1680883
cuarto -0.6783897 0.33230364 0.27295628 0.64257056 -0.012230087 -0.23049273 0.080813825 -0.03813568 0.68351406 0.59538233 0.20836617 -0.9306288 0.35806066 -0.7228005 0.11421133 0.06970169 -0.42484435 -0.5928554 0.38675585 0.1344341 0.2569917 0.17137648 -0.54801625 -0.12531696 -0.29860675
cena -0.2658716 0.62558633 -0.11779975 0.5110196 0.32342866 -0.73203754 0.05730341 -0.08881253 -0.03168735 0.41691607 0.075545415 -0.15945257 0.6514312 -0.92897356 0.1734817 0.3209623 -0.67580986 0.29007614 -0.48929557 -0.13817286 -0.75552094 0.16805801 0.2879617 0.21686916 -0.59811413
sopa -0.2265697 0.24014123 0.2004261 0.665723 0.5468943 -0.94561017 0.0178586 -0.45010453 -0.04832571 0.27179202 0.50946414 -0.031258766 0.10552041 -0.32706845 0.70135796 -0.28513378 0.13228944 -0.07874315 -0.700214 0.496452 -0.47762254 0.2393536 0.12958682 -0.008511207 -0.49702135
camino -0.21179311 -0.08590496 -0.60664046 0.0449543 0.31757995 -0.2467642 0.46739733 0.041184653 0.09764711 0.12433254 -0.038532127 0.15528697 -0.057899974 -0.30961883 0.7469985 0.11720811 -0.7466711 -1.1830062 -0.4286722 -0.02949186 0.20089613 0.7260334 0.37714186 0.42996216 0.48189467
sabroso 0.3983973 0.520215 0.5214303 0.7293126 0.5716124 -0.48826632 0.30240345 0.16695836 0.28634903 -0.077759586 0.058323663 -0.0204794 0.30888063 -0.26220053 0.36573443 0.8144018 -0.49630883 0.21129768 -0.46904635 0.067320466 -0.45909443 -0.3269455 0.13746765 0.83835256 -0.8047258
viaje -0.42802116 -0.22130843 0.577788 0.50542855 -0.6218493 0.18914059 0.8946085 -0.04046988 -0.33785307 0.17770103 -0.042820666 0.29020673 0.2787204 -0.24480349 1.2592777 0.34040332 -0.1410938 -0.5549238 -0.08386476 0.13961428 -0.059870403 0.075223744 0.02672578 0.754539 0.00092813245
libertad -0.45677593 0.3071362 -0.10077385 0.3908658 -0.2075768 0.24000543 1.3725271 -0.03154098 0.08710986 0.17773908 -0.23495303 0.077894114 0.2439699 -0.03543291 0.60323936 0.39148986 -0.052785013 -0.841976 -0.087817684 0.48490015 0.6102831 0.042163435 0.43176556 0.35308072 0.11196022
instrumento -0.7500804 -0.337332 0.6462988 0.6478084 0.12554844 -0.81025386 0.19051549 -0.04812018 0.39305657 0.484206 -0.17299722 -0.24570891 0.7117361 -0.39296964 0.6970543 -0.33400896 0.0047000893 -0.20886157 -0.5547672 -0.06117843 -0.41030875 0.3273254 -0.15876094 0.15658271 0.48494682
pequeño -0.21923351 0.33992898 0.22682267 0.3802581 0.8509071 -0.58221805 0.75193024 0.3432943 -0.23396708 0.37087566 -0.554753 -0.33773008 -0.19185632 0.19216199 0.9630637 0.36894307 -0.12532635 0.06835003 0.19316907 0.5384795 -0.07974209 0.11560347 -0.3035562 0.098402336 0.42287603
vestir -0.76786196 0.83009124 0.15053877 0.3110657 0.06753818 -0.13373055 0.18647255 0.7823578 0.042093012 0.28005904 0.6908075 -0.61334103 -0.3610446 0.21393728 0.28715122 -0.093303666 -0.0011895447 -0.88844454 -0.64734596 0.43026617 0.10610877 0.05078319 -0.26405245 0.1855233 -0.36330482
chico -0.24255599 0.8289325 0.20511413 0.06211437 0.49716982 -0.07295279 0.3430906 0.55131924 -0.16738488 0.35446343 -0.25297126 -0.17669563 -0.22420058 -0.122927114 0.8406974 0.79868495 -0.33439407 -0.50309163 0.06083489 0.38103712 -0.32827285 -0.19248907 -0.6018122 -0.0039649107 -0.26030537
amarilla -0.4904306 0.6480563 -0.57227665 0.22245915 -0.2310048 -0.6451564 0.060653415 -0.47374612 -0.18719092 -0.003346989 -0.24577667 -0.7248534 -0.5362112 -0.3668364 0.36460486 0.2998578 -0.57765317 0.09280183 -0.8029411 0.4308392 0.26809335 -0.2609697 0.24705511 0.32893357 -0.45132095
comodidad -1.0944201 0.56542146 -0.24846388 0.21244116 -0.06020296 -0.4813749 -0.103891365 0.080512494 0.3331306 0.7276747 0.69445306 -0.56073815 0.064595826 0.055082515 0.0071231485 0.68786067 -0.11794263 -0.96737474 -0.31825575 0.16108243 0.19289604 -0.08240893 -0.53010607 0.24480888 0.05773694
transporte -0.19449154 -0.3455716 0.19811662 0.12943144 -0.10629651 -0.13287145 1.0908793 0.09499259 -0.14133188 -0.06410383 -0.06935827 0.34436202 0.3673099 -0.16649614 0.90652406 0.5691163 -0.18625489 -1.0981796 0.12179996 0.2070413 -0.04561 0.34147257 0.056620613 0.8097494 0.0337398
pollo -0.49254242 0.5761068 -0.14065838 0.18469858 0.5670129 -0.49623734 0.8936649 -0.0007228855 -0.24714103 -0.26454198 0.461487 0.19365005 -0.21704346 -0.8625791 0.7131463 0.4488265 0.39594984 0.39705107 -0.6024877 0.14101113 -0.43587735 0.18332712 0.48080093 0.30595964 -0.5476382
jardín -0.09314807 0.014036154 -0.04836657 0.69038796 -0.2481173 -0.2829742 0.4764372 -1.2646589 0.39025342 0.12379068 -0.28554848 -0.5580951 -0.3105112 -0.4591571 0.47119474 0.042237483 -0.16426536 -0.13634372 -0.22833383 1.0989114 0.65344995 -0.1900323 -0.160642 0.7084036 0.08707361
mamífero 0.15751474 0.39431015 -0.6478284 -0.32041362 0.056702852 0.19290148 1.0604129 0.28656268 -0.007849933 0.633467 0.39799526 -0.33914486 -0.19012916 -0.17360774 0.88391984 0.6606761 -0.35978228 0.052199688 -0.90674424 0.19198047 0.013255094 0.05735185 -0.21406883 0.002831811 -0.20590486
malo -0.20436734 0.45787036 0.2596642 0.37199634 -0.027066356 0.0051986547 0.9341472 0.060222525 0.45859432 0.36117485 0.8876648 0.3398289 0.29193804 0.23815964 -0.053341866 0.19234826 -0.8279709 0.4772769 -0.4733387 0.21774472 -0.75450104 -0.010169341 -0.20371091 0.7165671 -0.5751563
viejo -0.6797322 -0.5651383 0.1700327 0.02470289 0.3007904 -0.54881895 0.43656585 0.25127068 0.68628144 0.5074033 0.20171025 -0.08961956 0.5777214 -0.2688505 1.0244615 0.41679028 0.014389991 -0.65852106 0.015669996 -0.064027235 0.530274 -0.025664546 -0.38398674 0.28257382 0.06710291
linda -0.0013116526 0.9182598 -0.13814756 0.5509085 -0.42357627 -0.30522296 0.24933137 -0.67005557 -0.046156697 0.38522413 -0.025050715 -0.74278766 -0.9530338 -0.04680201 0.5800717 0.3693966 -0.45669475 -0.33226997 -0.5851735 0.48910722 0.037095398 0.09634982 0.37212923 -0.20736066 0.097520374
yo -0.13400757 0.06429504 0.07035144 0.5008214 -0.40083805 -0.5614143 1.1907097 -0.07846486 0.3588871 0.5138972 0.15802135 -0.140385 -0.42733407 0.110219926 0.33128378 -0.110037535 -1.1508245 0.008018119 -0.16626419 -0.32109082 0.3346584 -0.26231655 -0.31100282 0.045903705 -0.20805968
