niño -0.96080714 -0.12669212 0.095299505 0.11623891 0.17893185 -0.30174863 0.48523927 0.26273677 -0.44901404 0.5000985 0.17215276 -0.077425815 -0.26034 0.3294722 0.54520583 0.30523032 -0.12988405 -0.5493038 0.37602136 -0.42447108 0.096289046 0.00076575327 -0.30543232 -0.08849323 -0.5505178
calle 0.03662413 0.1420751 0.12292361 -0.11528397 -0.45935282 0.58741385 1.2215977 -0.29813033 -0.09691913 0.0046225423 0.31020364 -0.29021758 -0.28060982 -0.25407314 0.73016024 0.28291872 -0.6193028 -0.98305017 0.94086766 -0.15156734 -0.2613824 0.20812477 0.21942523 0.35433376 -0.44404817
computadora -0.5213345 -0.0037093062 0.22306053 0.87596595 0.38288084 -0.68003106 0.35270557 -0.14530207 0.4226716 0.9584035 -0.19838336 -0.743598 -0.10964596 0.08324596 0.18197384 -0.17759295 -0.9888612 -0.63945436 0.3762968 -0.15076001 -0.18868093 -0.324551 0.3389275 0.4328585 0.5641521
dinero -0.952009 0.042390935 0.7352474 0.22706468 -0.3141354 0.5184 -0.13391536 0.14041546 -0.0461082 0.70962745 0.04051403 0.23059791 0.28542078 -0.33533335 0.82145315 -0.3584902 -0.25064415 -0.8646686 0.3405245 0.3844689 -0.0056781718 0.41788954 0.8598415 0.84381527 0.11938066
dulce -0.689593 0.9235538 0.37858725 -0.0893247 -0.132327 -0.13571146 0.18240277 0.098610274 -0.29101592 0.50221276 0.3146926 -0.4447695 0.24458514 0.107003026 0.39793772 0.57299364 0.03325916 -0.24509911 -0.6002484 0.31449226 -0.43842095 0.2136856 -0.8433366 0.24396051 -0.48828778
camión -1.0322386 -0.3750942 0.5186584 0.41528416 -0.13614011 0.21504556 0.76637757 -1.0245408 -0.220737 -0.019690366 0.33355463 0.052516453 -0.088339 -0.29267058 0.7045767 -0.27444848 -1.0398242 -0.3702473 0.61410135 0.29328346 -0.1638201 0.07579688 -0.1099546 0.6915337 -0.28158757
agua -0.5062354 0.6857642 0.16983676 0.49553716 0.41174954 0.043738015 -0.17529377 0.16688639 0.037356216 -0.20351082 -0.42829245 -0.6533193 -0.12836798 -0.6976732 0.7872288 0.077209644 -0.5772826 -0.40218598 -0.21238114 0.14432201 -0.19087024 -0.27972397 -0.42388067 0.030916687 -0.60357857
reja -0.43021697 0.106019504 0.21405937 0.298357 -0.5231549 0.13473307 0.6373144 -0.31232893 0.80541635 -0.007737218 -0.22098725 -0.5483344 -0.6413665 0.5011167 0.5227224 -0.29914352 0.041090116 -0.35489795 -0.63770103 0.12731926 0.5018523 0.0036476231 0.059939276 0.6131802 -0.9908557
casa -0.056229576 0.32649654 0.11143111 -0.014951006 -0.1616551 -0.067933984 0.42581788 0.114670075 0.51476645 -0.100809634 0.27044305 -0.47521123 0.109753326 -0.44068998 0.1737534 -0.034394957 -0.28737918 -0.8685897 0.5822863 0.2930847 0.3126342 0.45025802 -0.46384928 0.5913828 -0.5788571
caballo -0.6989116 -0.32632306 -0.5566196 0.4498392 -0.1115371 0.29141676 0.6783749 0.105633065 -0.12004119 0.026139237 0.3155997 -0.69216233 -0.6672093 0.5764808 1.3791804 0.27104065 -0.09842915 -0.022776768 0.3532324 0.26552185 -0.001164993 -0.12520427 0.28051543 0.107789226 0.06853943
piedra -0.27741483 0.89373946 -0.5397336 -0.3092061 0.33336073 0.756714 0.9218385 -0.050778054 0.1264891 0.57620084 -0.3242782 -0.7989808 -0.055764116 0.08172662 0.7053871 -0.5158818 0.217622 -0.74766123 0.37988794 -0.09013946 0.1522675 -0.13540043 0.10033244 0.33207753 0.07826614
tierra -0.21231657 0.73019034 -0.24678509 -0.15500806 0.13987829 0.5803137 0.3794586 -0.17163344 0.67357194 0.16097738 0.3021919 -0.6637547 0.21110627 0.0024769243 0.5815562 -0.06769955 -0.9851778 -0.6697284 0.07179039 0.3521547 0.31038305 -0.5264389 -0.0021623536 -0.19285074 -0.35731268
bolsa -0.8192909 0.4865053 0.09794461 -0.014662655 -0.62539035 -0.0063388566 0.11217361 -0.42094475 0.42444718 0.40328702 0.16741814 -0.025094982 0.23895842 0.17379332 0.68915343 -0.35639498 0.15881318 -0.86274076 0.3936932 0.23266727 -0.39783633 0.72255576 0.8389076 0.26854762 0.06575761
playera -0.8639064 0.57397777 0.116845846 -0.09405233 0.138676 -0.6395377 0.20879999 0.38515204 0.17732486 -0.0829786 0.2886208 -0.16097878 -0.5106312 -0.25394848 0.17175424 0.38684666 -0.63970596 -1.1250577 -0.18703766 0.30070606 0.42308587 0.7248716 0.28569975 -0.29889885 -0.46902213
policía -0.7462535 0.39274177 0.5089691 0.028494708 -1.0318438 0.22754201 1.4675539 -0.06290452 -0.24972627 0.5181912 0.90245336 0.15218934 -0.62690073 0.35476676 0.25324833 -0.92675847 -0.39564273 -0.28421155 -0.16675906 0.18401524 -0.3745426 0.36998487 -0.105291344 0.24322872 -0.36379093
escuela -0.6062282 0.24588782 -0.03888495 0.19342661 0.0055108764 -1.0058563 0.725217 -0.79287046 0.19502673 0.6327046 0.6420201 -0.23177429 -0.03335771 -0.44465372 0.2740823 -0.028968036 -0.26334822 -0.59645885 0.59035385 -0.5903001 0.11760642 0.045150135 0.5147101 0.4791801 -0.2785208
colores -0.35293615 0.8456647 0.06865284 0.3188865 -0.27284715 -0.7877279 0.6275661 0.36992937 -0.3032895 -0.004627381 0.12854044 -0.457117 0.4607718 0.035965484 0.87063116 0.26686108 -0.26687762 -0.3381487 0.25315133 -0.61784565 0.32585514 -0.12213763 0.3608136 0.02553376 0.23439923
televisión 0.18229775 0.29141435 0.8903218 0.84036964 -0.4295336 -0.6235155 0.20812812 0.2173713 0.39048204 1.0564215 0.39492354 -0.39560342 -0.352618 0.013701571 0.20791528 0.17229755 -0.8303108 -0.92600065 0.30384278 -0.1157457 -0.385654 0.05710415 -0.030824084 0.86778903 0.46350577
burro -0.5294768 -0.42710903 -0.6604842 0.24927673 0.09891361 -0.07304094 0.274902 0.067036994 0.56112707 0.40864772 0.575691 -0.064159766 -0.54667985 0.30250862 1.0594301 -0.35382903 -0.3742096 -0.1004138 0.6197131 0.28667507 -0.28631574 -0.18882003 -0.05181947 1.0098294 0.12888871
mano -0.6225756 0.63749975 0.26914912 -0.24740593 0.14471738 -0.52124554 0.7611054 0.039279602 0.28265548 0.79647493 -0.44375265 -0.27265427 -0.41623646 -0.13082853 0.42312682 -0.46392807 0.010486261 0.0806764 0.65646106 0.3088798 -0.15468171 0.2622758 0.2508459 0.363327 0.3503444
pelo -0.5615707 0.24305785 0.08760565 -0.3885385 -0.36686844 -0.109728016 0.08745792 0.36573848 -0.6442212 0.8361037 -0.27429304 -0.5083268 -0.11004535 0.35271344 1.4307467 0.096789956 -0.21640527 0.120211296 0.06653803 0.5874924 0.46237454 0.20414722 0.11951522 0.08316092 0.22662969
grande -0.21724084 0.37064105 -0.1393034 0.17434622 -0.12597461 -0.017173698 0.68180704 0.031854115 0.36789626 0.01615772 0.22914077 -0.14549084 -0.089376 -0.15947993 0.3223336 -0.0637822 -0.30308068 -0.39095354 -0.061127752 0.2966867 0.12374491 0.30806556 -0.15847495 0.4365826 -0.1512924
bebé -0.9938349 0.01884225 0.18550998 0.014061308 -0.14821309 -0.13923472 0.18408911 0.10449565 -0.15162793 0.9920287 0.712843 -0.65601856 -0.05957689 -0.060533416 0.60371727 0.4041938 0.22957522 -0.21890153 0.35461926 0.23420745 0.28484637 -0.20053087 -0.56518096 -0.36767215 -0.3455887
calzón -0.96352154 -0.0394355 0.2136199 -0.42924124 0.35449487 -0.36392835 0.08581121 0.6961756 0.52739227 -0.030371737 0.20769714 -0.7161132 -0.8292398 0.37846097 0.6814386 0.06945689 -0.2617211 -0.5101658 -0.10138555 0.5648121 0.08580234 0.93540615 -0.47857258 0.028460264 -0.33086634
león -0.79453665 0.031010078 -0.7930994 0.22904438 -0.6558886 -0.17395748 1.4217995 0.11077625 0.30922014 0.53009206 -0.47383907 -0.1927644 0.014181741 0.19362634 0.61645746 0.51158893 -0.33017054 -0.1642337 -0.4124946 0.26967064 -0.45143077 0.15545835 -0.12475753 0.03325535 0.2355774
conejo -0.207937 -0.27049688 -0.27774522 -0.26959437 0.5543263 -0.37240192 0.9282318 0.12397719 0.28950512 0.6373554 0.07895694 -0.22898044 0.12571998 0.41708323 1.1636122 0.36678857 -0.32288787 -0.019986447 -0.08714771 0.5821337 -0.26952326 -0.29028752 -0.29815868 -0.1337919 -0.26326057
oso -0.8936302 0.23364943 -0.41365364 0.12138024 -0.27783927 0.13003086 0.91267586 0.45660874 0.81679225 0.6116273 0.09268387 0.071676575 -0.3050251 0.12911168 0.6609837 0.87086076 -0.27093673 0.16410823 -0.027873736 0.36514032 0.4020507 0.2870263 -0.7135295 0.05825568 -0.054660004
carne -0.15282312 0.5821727 -0.35669985 0.028597716 0.1402397 0.04775436 0.7397083 0.37058425 0.08305816 0.4144258 0.35611466 -0.55395794 -0.06117875 -0.34139156 0.74536604 -0.19341767 0.00799928 -0.0014072295 -0.6052561 0.5698033 -0.88279045 -0.41129306 0.41141278 0.5327258 -0.32779345
moto -0.7840916 0.27076638 0.49389398 0.45153236 0.11905608 0.47111222 0.9619915 -1.0125905 -0.12829171 0.09829389 -0.06684138 0.0632356 -0.64462054 0.39098886 0.8740846 0.21350636 -0.7832592 -0.32864043 0.718527 0.15903527 0.113801114 -0.22428356 -0.39254555 0.3904562 0.09665457
mueble -0.3771802 0.30197003 0.24986514 0.67604434 -0.183724 -0.2007967 -0.1746452 -0.16270813 0.6992759 0.20601508 0.55388683 -1.2335349 0.072748125 0.005578211 0.38164228 -0.0059965476 -0.25731114 -0.5569125 0.4263068 0.17849688 0.5708202 0.58911914 -0.20574456 0.7777883 0.1739365
cara 0.1498216 0.83542895 0.21579243 -0.5278164 -0.593544 -0.7803349 0.12421362 -0.071127824 0.0184403 0.6504481 -0.24939735 -0.5186419 -0.17660192 -0.34024835 1.1179273 0.41850322 -0.11072919 -0.49678263 0.81000656 0.03106751 -0.50334394 0.6329698 -0.22748896 -0.17110653 -0.5003653
bicicleta -0.9188345 0.26920933 0.12788954 0.4217288 0.1745239 -0.32568458 0.6128302 -0.448535 -0.47876218 -0.14720188 -0.0538294 -0.21822846 -0.5661914 0.73103774 0.42281651 0.29071596 -0.7147613 -0.8143158 0.9746273 0.09312678 -0.21075894 -0.27069157 -0.06459329 0.14127882 -0.19904895
familia -0.2543176 -0.032276668 0.50485915 -0.086682394 0.15138061 -0.42784688 1.0629872 -0.30513808 0.43366188 1.1044433 0.28969678 -0.1385061 0.41823217 -0.4116099 0.3376153 0.79955393 -0.32487008 -0.61977744 0.24308427 0.33543465 0.294001 0.3023555 -0.45506725 0.33425358 0.23969388
botas -0.3558628 0.111290894 0.121571295 0.706828 0.7750604 0.573167 0.2748017 0.56809837 0.18561402 0.10113675 0.10527627 -0.1604583 -0.22376037 0.70621514 1.0238222 -0.17700824 -0.4208724 -1.0395869 0.1650218 0.1657992 0.08135263 0.64380854 -0.21660963 -0.17625004 0.08005973
mesa -0.13748944 0.7362452 0.19604118 0.43276036 0.39697263 -0.1083973 0.19817281 0.19383022 0.67160755 0.5456545 -0.04061096 -0.9716533 -0.3830051 -0.6184814 0.37792957 -0.060524326 0.33067784 -0.33983326 0.3508995 -0.32000187 0.14178196 0.30701384 0.04246451 1.1182432 -0.15457357
planta -0.30671257 0.45168787 -0.43884224 -0.066844985 -0.5741811 -0.22103648 -0.018238131 0.45829517 0.28685516 -0.10239752 0.679288 -1.1950803 0.40872473 0.3237597 0.57851046 -0.4428069 -0.5527193 -0.90041363 0.13527898 -0.0043601794 -0.041272875 -0.575435 -0.37914783 0.13331962 -0.3817388
pescado -0.26544592 1.029694 -0.17163616 0.9902342 -0.28100714 0.39087537 0.2841196 0.41962752 0.42139974 0.14660458 0.08033947 -0.00032922614 -0.114321716 -0.79022014 1.1784695 0.28741717 -0.3842587 0.030343544 -0.3148258 0.36405393 -0.7118017 -0.43948945 0.07065259 0.007290086 -0.03050994
ardilla -0.40966383 -0.052177913 -0.06169036 -0.6823216 -0.26090878 -0.21996564 0.6753124 0.30280462 0.6585579 0.4378912 -0.59672904 -0.25882336 0.029763738 0.6287482 0.6083882 0.44828433 -0.7495622 -0.58948237 0.4086274 0.37261355 -0.36619318 -0.3857459 0.040191874 0.27324754 -0.31965
tren -1.10258 -0.10789569 -0.053281557 0.4462783 -0.19848296 -0.075688206 0.4901272 -0.1331494 -0.01621118 -0.021627078 0.49236342 -0.02949495 -0.2747566 -0.39963308 0.38711902 0.30919483 -0.83375245 -0.21379471 1.0602014 1.1888272 0.11883175 -0.3744812 -0.17374033 0.34326002 -0.28019187
gorra -0.5142526 0.38758695 -0.06488873 0.41940993 -0.011965982 -0.28717956 0.6387659 0.66719013 -0.10111731 0.105435185 0.52940875 -0.13105224 -0.71687186 0.6736877 0.6532241 -0.32097128 -0.18945576 -0.39539316 -0.1117926 0.21050443 0.3905616 0.83611673 0.62262213 -0.25640655 -0.62273794
caja -0.71976143 0.58242613 0.4392948 0.26939237 -0.84177864 -0.20959562 0.04285166 0.11483202 0.69831675 0.28595278 -0.53685284 -0.28295976 0.11273326 0.24847403 0.18302427 0.5193677 -0.022045577 -0.37220323 0.035004918 0.15422106 0.06431852 0.6200688 0.46692148 0.89062566 -0.55889195
papas -0.22840817 1.1348162 0.7643105 0.07470502 0.13116269 0.119422525 0.6499995 0.007999834 0.022133114 -0.016720654 0.92380214 0.033065774 0.35722378 0.45681018 0.6347421 0.045336768 0.15595789 -0.6087244 -0.31836885 0.57078755 -0.56288517 -0.30842626 0.48255634 0.29155552 -1.2314687
cocodrilo -0.3996613 0.32139155 -0.20989986 0.4023628 -0.29520953 0.46465448 0.6342935 -0.19940457 0.9386472 0.47329587 -0.18072326 -0.0905596 -0.21120895 0.06520575 1.0027529 0.12095526 -0.720829 0.008246259 -0.3866951 0.59392947 -0.6875533 0.55552083 0.15119949 -0.33120763 0.05440693
hipopótamo -0.70166093 0.031417616 -0.29342264 0.4695203 -0.33601967 0.52217436 0.9935429 0.4392815 0.5907468 -0.044375665 -0.029546596 -0.47778845 -0.28854448 -0.16733374 0.776918 -0.15283076 -0.5170023 -0.24578886 -0.5887121 0.28494704 -0.85297656 0.10758255 -0.33956778 -0.07097098 0.18298288
zapato -0.5911236 0.55139196 0.06311546 0.25334015 0.7104127 0.43571052 0.6164746 0.02559179 0.45412105 0.12509032 0.106024645 -0.04201466 0.080963224 0.2532574 0.6345138 -0.2057135 -0.34603688 -0.6034362 0.4143038 0.34242544 0.07383462 0.9670614 0.0475837 -0.15795343 0.19839805
tigre -0.61728394 0.29741576 -0.9237053 0.5508581 -0.22984862 0.09525764 1.3313372 -0.14147156 0.17809418 0.45763287 -0.53915995 0.14487074 -0.19775894 0.45687136 0.79301053 0.0668809 -0.306821 -0.25347143 -0.64685804 0.13091055 -0.3877241 0.22599888 -0.35627857 0.115167916 0.04457563
perro -0.5346248 -0.38938877 0.19870284 -0.4508066 -0.4903607 0.08701312 1.217994 0.31506616 0.026186068 0.3434251 -0.35258707 0.18025708 -0.07222356 0.105541736 0.87034553 0.6122625 -0.0042408565 -0.73692054 -0.33004925 0.3715872 0.025575863 0.31324908 -0.15586 0.23808703 -0.40068
gelatina -0.7619312 1.0585729 0.4592209 -0.0817036 0.33300775 -0.18068987 0.21275154 0.316076 -0.16558947 0.5061556 0.4895691 -0.12262372 0.11897444 -0.2913893 0.58903325 -0.1934935 -0.40469262 -0.021088982 -0.8264607 -0.2053339 0.06157031 -0.28403202 -0.71255463 0.25154224 -0.46383312
cacahuate -0.7559676 0.70526457 0.058800112 0.6328225 0.0033734273 -0.2470388 0.073020026 0.3020348 -0.16925415 0.25087413 0.18617596 -0.55169207 0.37127006 0.6879181 0.22195025 -0.033620205 0.015353701 -0.24282205 -0.3632906 0.6106479 -1.0937726 -0.3567415 -0.24719487 0.40929252 -0.63794655
iglesia -0.27382198 0.21413201 -0.27690384 0.32930723 -0.9290972 -0.014625085 0.81441385 -0.0483623 -0.4492645 0.94224197 0.42734128 -0.13749777 0.2931373 -1.2587594 0.46599236 -0.57706875 -0.7993367 -0.5746022 -0.18355556 0.15867239 0.11893035 0.49449444 -0.5481909 1.1713612 0.1508369
víbora -0.25362477 0.5065364 -0.18533076 -0.07695697 -0.2542308 0.17761192 0.75541323 -0.53048176 0.9901921 0.6424436 -0.789081 -0.23881924 -0.52657497 0.5167322 0.5523026 0.19472118 -0.30007052 -0.87126875 0.012360521 0.60029227 -0.7453853 -0.051323153 -0.27645123 -0.105349 -0.20011622
flor -0.45281744 0.43199557 -0.04371758 -0.42709255 -0.747091 -0.18879515 0.26894495 0.44586277 0.333498 -0.0034176137 0.14845052 -0.9453985 0.1789121 0.26344287 0.8884745 0.18092737 -0.32153305 -0.93920785 -0.36101884 0.26659602 0.14800416 -0.63441914 0.42312992 -0.19954029 -0.032571543
mono -0.8667323 0.14964777 0.2895168 0.12482999 -0.019041583 -0.2846869 0.36466455 0.66204566 0.33800915 0.4525385 -0.40375668 0.036420923 -0.41288304 0.89786714 0.8969505 0.24464206 -0.13386065 0.11312043 0.3262497 0.31155828 0.106672905 -0.7166635 -0.47401205 0.48205623 -0.04363264
botón -0.7103929 0.15808478 1.0753491 0.7680328 -0.0762901 -0.78580505 0.1678724 0.0722182 0.011228323 0.80164224 -0.08936638 -0.17008954 0.010572824 0.34028977 0.26475936 0.013440032 -0.5628977 -0.45589566 -0.4753708 0.8441937 0.7453357 0.6808585 0.36971018 0.3682224 0.24123573
canasta -1.2437692 0.2913635 -0.23278606 -0.23349556 0.41369018 0.03862209 0.18991968 0.06959284 -0.043029908 -0.18257025 0.21890391 -0.1368696 -0.10090354 0.48075345 0.42565325 0.22608902 0.13579193 -0.8937633 0.30289873 -0.02446357 -0.40237713 0.20114069 0.6600857 1.2212471 -0.43722942
autobús -1.1198438 -0.1002721 -0.089147605 0.3121034 -0.24464518 -0.10972773 0.6644946 -1.1301045 -0.042560056 -0.54428107 0.31462294 0.09809435 -0.045587018 -0.4934051 0.99644655 0.24720736 -0.5018491 -0.7631008 0.59407425 0.24531814 -0.10861591 0.28703383 -0.22356032 0.32924497 0.015895553
lobo -0.28620067 0.020041456 -0.4504308 0.3815832 -0.04650856 0.5219131 1.2371811 0.4774238 -0.09393994 0.86638886 -0.17923945 -0.28422436 0.04070307 0.3324761 0.92382157 0.4545198 -0.30900535 0.14645125 -0.33039564 -0.020739026 -0.049179513 0.33763885 0.017772455 0.045473192 -0.33125308
sombrero -0.5945942 0.40431485 0.015568049 0.034102846 0.11966856 -0.0025271242 0.8572052 0.59320426 -0.26606977 -0.19106598 0.70246536 -0.043755278 -0.26302466 0.64699095 0.9353592 -0.46950826 0.013832484 -0.28324866 -0.17551629 0.32147962 0.5694875 0.48270884 0.47276068 0.06919429 -0.31954518
calabaza -0.2947621 0.7843285 0.084609546 -0.5229355 -0.19321164 -0.31168053 0.32376346 -0.09284046 0.35167617 -0.074746706 0.22133762 0.19399248 0.791862 0.18549904 0.66060627 -0.54983497 -0.63682026 -0.6512937 -0.3983432 0.5956261 -0.37601012 -0.395654 -0.28928512 0.5065158 -0.8940488
plastilina -0.8387601 0.84233004 0.1622836 -0.21784407 -0.2355578 -0.6736815 0.25243366 0.17686166 -0.23714098 1.290615 -0.058333594 -0.09144952 -0.50759834 -0.2972596 0.30858606 -0.3345758 0.21439853 -0.6922986 0.06579439 -0.6223907 0.23356616 -0.47064927 0.08223817 0.62729806 -0.24772078
borrego 0.15390463 -0.13070773 -0.41306645 -0.19006784 0.19901398 -0.02181022 0.56780076 0.9339287 -0.26570246 0.80149096 0.47638828 0.028422847 -0.41187713 0.2733163 1.2233031 0.006676034 -0.20236564 -0.21042438 -0.18517466 0.5673681 -0.010944166 -0.018686596 -0.46021587 0.78821456 -0.14577153
gato -0.52792645 -0.10830552 -0.24488902 0.29147574 0.038681168 -0.028046539 0.75345665 0.4519985 0.6155512 0.86787707 -0.5871704 -0.036552846 -0.194376 0.12449663 1.146826 0.48062012 0.33369783 -0.22121355 -0.27419475 -0.44402757 0.070252426 -0.0102542285 -0.5094046 0.46377328 -0.0428506
pato -0.24324326 -0.08059021 0.14458713 0.441594 0.3436148 -0.026929345 0.73128283 0.33547047 0.90245366 0.2165763 -0.053713378 0.057000976 -0.22350588 -0.4335203 1.3741024 0.21840347 0.46441343 -0.2638268 -0.3386513 0.45252988 0.1930131 -0.28031418 -0.19710366 0.09621751 -0.29343706
tienda 0.106757894 0.34061417 0.9480236 0.27575627 0.0402136 0.374626 0.23598774 0.10911804 -0.011393371 -0.025964255 0.53889894 -0.4403709 0.38976914 0.21868533 1.0560579 0.2450584 0.115498565 -1.1247649 0.31500298 0.31614247 -0.4101787 0.09012701 0.97668326 1.1506722 -0.48667112
palo -0.03144897 0.590102 -0.12656994 0.1701906 -0.09626229 -0.24053662 0.59875125 0.39650223 -0.10127953 0.38337913 -0.5378247 -0.8474292 -0.15899546 0.22995736 0.21232966 -0.43300706 0.28398004 -0.44593093 -0.18977578 0.8834001 0.026852624 -0.01933752 -0.391071 1.0804703 0.010638172
mercado -0.3983263 -0.15240875 0.3664997 -0.1330145 -0.015971115 0.07273295 0.47975037 0.08972865 0.046514 -0.21836548 0.21278489 -0.4199218 0.39379534 -0.43067685 1.1450334 -0.16391423 -0.25896087 -0.8222363 -0.15923412 0.028642014 -0.78440744 0.74489623 0.7747724 0.95377135 0.06259644
tractor -0.69710296 -0.027638895 -0.2383776 0.23166192 -0.05932946 0.46364605 0.50655293 -0.6977773 -0.0055278456 0.07529424 0.6260478 -0.1303701 0.2950875 0.47069624 0.7931832 -0.9481628 -1.2468348 -0.52453274 0.34932792 0.5348262 0.31233862 -0.23804209 -0.28139848 0.57772315 -0.10610998
foca -0.34478414 0.43258655 -0.35382336 0.8030518 -0.31515682 0.06550857 0.53281164 0.9857532 0.35052106 0.6851886 -0.43346867 -0.06754674 -0.58605796 -0.40388885 0.29313305 0.38362235 -0.5111162 -0.15695977 0.36032248 0.6899983 -0.36714116 -0.021215526 0.11126721 -0.2176178 -0.76549613
libro -0.4312907 0.14864638 -0.04853052 0.7763354 -0.040689174 -0.9546581 0.61162156 -0.09135175 0.8753335 0.57223207 0.32024226 -0.5316777 0.33107546 0.057721905 0.61672866 0.057564672 -0.6271557 -0.09086625 -0.1492635 -0.90726256 0.6362967 0.1767696 0.34178767 0.31431147 -0.19217546
vestido -0.7926803 0.80753016 -0.016266588 0.057107437 0.11018313 -0.2417164 0.11871648 0.35789245 -0.13164702 0.2295544 0.2668727 0.0026319842 0.16329046 -0.02020263 0.76010954 0.16000742 -0.13272405 -1.2049168 -0.3812649 0.4298113 0.30693665 0.8673981 0.16766338 -0.5208845 0.32874152
huevo -0.50151265 0.7094307 -0.27562946 0.28326562 0.59152657 -0.5182619 0.018532135 0.040143132 0.8297258 0.15732197 0.007046254 0.28697282 0.3149733 -0.1763385 1.0453318 0.7580991 0.44199088 -0.38635397 0.17579335 0.63102263 -0.5203839 -0.23210733 -0.028360482 0.65581644 -0.24541508
venado 0.0017234413 0.09218194 -0.54021513 0.33760104 0.0039947745 0.07818936 1.0135201 0.19044481 -0.42894742 0.42774108 -0.3529531 -0.19173382 -0.12465006 0.5372511 1.080171 0.44873422 -0.47829705 -0.46921965 0.07107808 0.8189136 -0.11022387 -0.5628278 0.04143002 0.35417143 0.35516798
leche -0.45553213 0.51062226 0.18885665 -0.026276866 0.1847612 0.016200846 -0.74451596 0.13627587 0.17320728 0.59204686 0.26498067 -0.27123046 0.04718975 -0.070564575 0.9849892 0.6168992 -0.42148054 -0.2498821 0.09295749 0.018685792 -0.3396026 -0.16142488 -0.28721705 0.7640625 -0.9595159
araña -0.4909606 0.7992942 0.20380697 0.3367541 -0.4136754 0.08362128 0.68609875 -0.15294614 1.1770933 0.92086023 -0.30818003 0.046849445 -0.31750414 0.69855833 0.8935971 -0.5472864 0.053926807 -0.31842998 0.3115752 -0.4146168 -0.2617025 -0.45569167 -0.2647575 -0.414573 -0.29833543
chocolate -0.94612694 0.94549054 0.00963826 -0.0205154 -0.21315001 -0.03707386 0.10256346 0.46313152 -0.055925187 0.28988668 -0.25358874 -0.6499254 0.58143204 -0.0959127 0.53264093 0.49690247 -0.4256755 0.65314573 0.114539474 0.22317792 -0.6322637 0.40075657 -0.4371962 0.5986339 -0.84482867
juguete -1.030376 0.151913 0.3965896 0.7557114 -0.32588667 -0.27879235 0.49631393 0.19321737 -0.17504223 0.6437899 -0.48407063 0.21133858 0.033942025 0.11803646 0.2152705 0.34256092 0.26297054 -0.49916685 0.8480575 0.15439744 0.5468147 -0.053675406 -0.4020053 0.51370895 -0.33913693
ventana 0.60400295 0.58508354 0.19306386 0.9402247 -0.49654263 -0.5087635 0.5590654 0.019870222 0.4331272 -0.28305727 -0.206895 -0.21155888 0.17442481 -0.056816418 0.9178662 -0.28652126 -0.34004337 -0.7040187 0.25712776 0.058140915 0.51914936 0.18493971 -0.06613829 0.103545606 -0.7506363
comida -0.32018593 0.37306923 0.107196614 0.003068874 0.21849057 0.047627483 0.099475525 0.09146527 0.2057953 0.516688 0.23482844 -0.16456226 0.20612948 0.09884808 0.7165067 0.302209 -0.11493634 -0.13221021 -0.47774255 0.4423082 -0.39411876 -0.19880228 -0.008647733 0.6403985 -0.6870285
camisa -0.7355162 0.2712151 -0.051728986 -0.122394435 0.21128538 -0.46114114 -0.024987001 0.720618 0.15041858 0.16530277 -0.09762929 -0.23220165 -0.7525146 0.05069722 0.5002303 -0.12988475 -0.5454863 -1.2638662 -0.6291431 0.40997514 0.16109467 0.6691205 0.023567433 -0.15564162 -0.17617156
árbol -0.50072134 0.57056147 -0.40331978 -0.041815355 0.0009965088 -0.29483503 0.4217467 0.10131064 0.41479477 -0.31051326 0.24523628 -0.8067369 0.108679056 0.71929246 0.36671188 0.1409264 -0.3862478 -0.7479694 -0.11583165 0.011779179 0.55190384 -0.5232503 -0.38956097 0.7222781 0.0869112
burbuja -0.6836085 0.52337456 0.75027204 0.30345646 -0.23134959 -0.58671224 0.4273907 0.8045348 -0.44722942 -0.1912168 0.12582137 -0.41278702 -0.1326673 -0.8201523 0.45318228 -0.4440355 0.1299494 -0.80576783 0.17117482 -0.017365683 0.15874982 -0.38921332 -0.0709483 0.013435176 -0.61508596
brazo -1.1960987 0.6883694 -0.24942943 -0.47956127 0.5468308 -0.85934204 1.2080046 0.23039387 0.19528307 0.24756303 -0.1299158 -0.34948188 0.061972365 0.044310976 0.21561587 -0.5522256 -0.19600748 0.102323584 0.5590758 0.1545286 -0.15203439 0.749162 -0.46243107 0.33115244 0.3076899
taco -0.043520633 0.6869323 -0.15180711 -0.03510213 0.3325235 0.20385258 0.8111922 0.23201138 0.11151946 -0.03569515 0.71614647 -0.1931327 0.1908006 -0.5010768 0.9100919 0.18803461 0.10710777 -0.043264404 0.027499864 -0.04821003 -0.882035 0.13625234 -0.34290916 1.4474406 -0.5438477
lentes 0.031221284 -0.017298346 -0.13852924 0.5856374 -0.1393061 -1.2527452 0.0631394 0.37893668 0.45203656 0.4568214 0.36419547 -0.3424496 0.16962625 0.4662003 1.4333832 -0.5677013 -0.4471615 -0.35523573 0.41151312 -0.7574018 0.020017194 0.46406683 0.08636009 -0.17009139 -0.5805091
globo -0.81866306 0.60243446 0.25638485 0.67466295 -0.25601903 -0.24997337 0.2820717 0.35731986 -0.5749159 -0.25819972 -0.047285773 0.403116 -0.06391077 0.04483602 0.7297504 -0.014212765 0.52400386 -1.2317842 0.18177989 -0.0070119174 0.35743913 -0.31209603 -0.35616758 0.6824784 -0.1549236
aretes -0.21702656 0.3878547 0.2460044 0.011012641 0.07761601 -0.4598505 0.36684966 0.47843227 -0.12984891 0.765628 -0.11407786 -0.4741185 0.98500144 0.59459454 1.2589835 -0.8350478 0.22515014 -0.57029766 0.6436655 0.06477417 0.040477134 0.6554423 0.18340558 -0.18306051 -0.034232736
chile -0.115038104 0.7654243 0.004891315 0.90107507 0.11953882 -0.35617188 0.7735588 -0.102024205 0.3288082 0.083895996 0.8645469 -0.21455963 0.33835468 0.14386217 0.2581175 0.17886157 0.20449084 -0.39198643 -0.74781406 0.6326755 -0.6685523 0.2558898 -0.837667 0.46557343 -0.6754131
hamburguesa -0.093090564 1.010459 0.4836182 -0.25065023 0.075564004 -0.14276725 1.0489933 -0.04056799 -0.19321533 0.20706403 0.2798437 0.22860976 0.34325716 -0.51656514 0.8788523 0.27918503 -0.03376107 0.08653694 -0.21562308 0.50211096 -1.1388575 0.28071043 0.17379466 0.78263 -0.7873267
muñeco de nieve -0.16941243 0.66313785 -0.03857016 0.9998817 0.39509007 -0.13986829 0.7380219 0.7910681 -0.5221526 0.2776028 -0.09677294 0.30137137 0.051114265 0.5158057 0.64979845 0.4928388 -0.0797777 -0.08869988 0.30531695 0.07242263 0.39524862 0.23088177 -0.589903 0.60413164 -0.58109057
mariposa -0.5101318 0.6444101 0.039580278 -0.18610087 -0.9503394 -0.40327567 0.38272786 0.38288397 0.334721 0.13829555 -0.094320975 0.23366594 0.21195012 0.31867415 1.0619856 -0.093282335 -0.25084493 -0.56589454 0.26791394 0.567416 0.5265605 -0.8840837 0.29119432 -0.2085035 -0.34556907
helado -0.5695728 1.3021924 0.10183717 0.05965161 0.44574663 -0.057972513 0.02794325 0.5522637 -0.47188944 -0.15122479 0.21077375 -0.18884706 0.08517844 0.29522166 0.7700755 0.6312618 -0.69274235 -0.05551621 -0.31991065 0.0635876 -0.0685614 0.08761946 -0.33397454 0.48343906 -0.5326991
cochino -0.7055629 -0.17025541 0.26036704 -0.3159721 0.15811127 0.40282512 0.9082954 0.6496398 0.3785526 0.659793 0.25064233 0.09293226 -0.29773054 -0.5513894 1.1186754 -0.13401805 -0.044452872 -0.14356197 -0.65615284 0.29458594 -0.3197044 -0.46502808 0.394171 0.5127802 -0.04507779
vela -0.13117322 0.63641495 -0.84505874 0.52341855 -0.30291337 0.013672732 0.311287 0.2692405 -0.6539737 1.0271683 0.18018527 -1.18705 0.49198633 -0.6211163 0.38251257 0.4785427 -0.7994613 -0.42505288 -0.12846872 0.26270854 0.6586771 0.15870374 0.3401779 0.60352224 -0.22572488
helicóptero -1.149489 0.067911826 0.33408394 0.89233136 -0.5908821 0.29677287 1.0564466 0.124831624 -0.11185931 0.06368294 0.21550708 0.34725678 0.32518908 0.2327732 0.46868214 0.03645287 -0.4989644 -0.46338573 0.6246774 0.51271737 0.75833017 -0.5588352 0.16965461 0.26974714 -0.10061941
pan -0.89427894 1.2563401 -0.53964734 -0.07910637 0.10138406 0.23931651 -0.0285718 -0.10083933 0.15460813 0.54257184 0.24849504 0.2728127 0.21996598 -0.33879298 0.64869374 0.36416614 0.12202963 -0.11495615 -0.094507456 0.3815024 -0.15135717 -0.09392794 -0.1777522 1.0991181 -0.29554278
muñeca -0.7488287 0.65867764 0.029820168 -0.22799899 -0.3334293 -0.41178086 0.5291647 0.4391515 0.20173109 0.91497004 0.13133125 0.09094364 -0.2333402 -0.24809416 0.30254948 -0.3929507 0.55371916 -0.8839357 0.9300246 0.3437578 0.024604058 0.1359331 -0.52833134 -0.15389751 -0.10508051
triciclo -1.0540495 0.006185167 0.22188252 0.27787828 0.095166616 -0.027341263 0.9231465 -0.64238816 -0.59270304 0.11403841 0.5894414 -0.16057125 -0.05039596 0.094311684 0.84099406 0.3643454 0.32191736 -0.70831656 0.8761827 0.0690019 0.46788627 -0.35262036 -0.61948323 0.014681083 -0.45840225
jugo -0.28426233 1.1388142 0.41983902 0.41301072 0.67012 -0.21899088 -0.25093648 -0.19127661 0.16749911 0.033220515 -0.31301668 -0.08357471 -0.17376786 -0.24986985 1.0922787 0.12116644 -0.407336 -0.3498333 -0.35816553 -0.3263739 -0.4326005 -0.09849862 -0.78809434 0.73253417 -0.5431703
cajón -0.6798084 0.4649054 0.5767472 0.20510352 -0.4946494 0.194022 -0.22092104 -0.14693783 0.74633366 0.24905053 0.049207844 -0.8924904 -0.028973851 -0.0073977034 0.4535753 0.43945298 -0.3939476 -0.6603602 0.22871807 0.3009633 0.93200785 0.7941306 0.45768967 0.69087857 -0.2521095
naranja -0.3724542 0.8194956 0.06941342 0.15068658 0.09664828 -0.5212247 0.18854572 -0.34014624 0.18932734 0.18587092 -0.35614234 0.021537803 -0.23745048 0.2610693 0.6402309 0.18326992 -0.5756876 -0.11418591 -0.9880894 0.18374264 -0.046920136 -0.3913845 -0.5504867 0.8419604 -0.6246338
cocina -0.27103063 0.6451559 0.21102437 0.25992027 0.49277747 -0.05976545 -0.048001774 -0.079653144 0.56750816 0.7455277 0.70019126 -0.4519126 -0.09896954 -0.38310036 0.26042786 -0.13589881 -0.03326047 -0.11887685 0.1885758 0.31139585 -0.07543653 0.53155774 -0.1360435 0.54284525 -0.88254935
dientes -0.6301129 0.08083766 -0.65329933 0.22700153 -0.1662031 -0.33225638 0.060565576 -0.11821411 -0.12570848 0.56463176 -0.0027541625 -0.7212302 0.10324024 0.32336682 1.2439132 -0.12189779 -0.067680985 0.22499506 -0.023230167 0.16355197 -0.7172799 0.6701061 -0.34081 -0.35243136 -0.7525677
pantalón -0.8650514 0.2023539 0.3946974 -0.035378218 0.89554936 -0.2731959 0.09555746 0.39450192 -0.14256294 0.14964783 0.14224021 0.0053835823 -0.16099559 0.13378198 0.77969766 0.222573 -0.6461351 -0.95811874 -0.14067166 0.5381804 0.30160153 0.89130825 0.22719026 -0.25659817 -0.18786666
vaso -0.010876119 0.32716683 0.76085734 0.65771437 0.86571497 0.071179025 0.32397223 -0.31359598 -0.020478116 0.3996595 -0.4287579 -0.44730777 0.21461023 -0.5923535 1.1078832 -0.16349845 -0.21188147 -0.025165338 -0.13230272 -0.14209394 0.09513004 0.5724052 -0.17963651 0.6627633 -0.9397134
guantes -0.03575809 0.6735772 -0.21054818 0.06671027 0.3492554 -0.5542299 0.50976896 -0.4522039 -0.1334187 0.14614502 0.23732017 0.035521843 -0.78198045 0.5358807 1.2152476 -0.52439964 -0.2732828 -0.22533618 -0.08117306 0.5492048 0.3326907 0.7568564 -0.15729107 0.040093772 0.115200624
torta -0.18016714 0.893462 -0.54215235 -0.2074381 0.49506113 -0.51501936 0.71552515 0.031705458 0.29258198 0.19342937 0.70909095 0.3162315 0.3228964 -0.6065734 0.38413775 0.40036917 -0.251249 -0.6356155 0.32791582 0.42138907 -0.8330985 -0.07010758 0.2015477 0.8360915 -0.5633726
mantequilla -0.3429905 1.1416326 -0.124054074 0.445289 0.2986487 -0.47056144 0.06879857 -0.053701233 0.15322277 0.69935226 0.47476947 0.07864509 -0.3949896 -0.24985708 0.38049364 0.4905807 -0.2523455 -0.119182065 -0.020056553 0.58197236 -0.73499227 -0.78440094 0.12428971 0.41269872 -0.9218681
collar -0.7655472 0.5190683 -0.55484945 0.1549465 -0.3893015 -0.25585055 0.17590827 0.56381494 -0.22397807 0.3464596 -0.18165688 -0.44215858 1.0213139 0.42495775 0.789879 -0.20684657 0.06185589 -0.8482396 0.20363827 0.2344993 0.23784563 0.7381844 -0.040313795 0.16418096 0.45902547
ratón -0.85691005 -0.7401278 0.034731135 0.52738774 -0.108513616 -0.24144915 0.21300015 -0.49000725 0.6080641 0.9384763 -0.24693269 -0.21412195 -0.32927832 0.7007164 0.95970154 0.040106293 -0.45712888 -0.23405047 -0.3965292 0.4979927 -0.30991384 -0.13905843 0.018559126 -0.011532413 -0.14242676
queso -0.48864233 0.43789363 -0.5795506 0.4298228 0.4780352 -0.04473728 0.08298503 -0.39773047 -0.3643244 0.39096376 0.93641007 0.16108519 0.14850731 -0.20647274 1.248169 0.3575461 -0.26928627 -0.31112233 -0.8116787 0.21943259 -0.53343064 -0.39631084 0.16791302 0.71845204 -0.59800905
salchicha -0.11970918 0.85972285 -0.06810374 -0.46934575 0.08918918 -0.4499529 0.24801108 0.20227219 0.1728537 0.58288914 0.4205333 -0.034740295 0.06831568 -0.22899622 0.4468035 0.2934174 -0.25843742 -0.60982317 -0.8003134 0.880417 -0.5738138 -0.09514941 0.3394944 0.9847976 -0.1909026
barco -0.55284685 0.46615422 -0.55615205 1.7856249 -0.7656776 0.43155617 0.41295743 -0.105607376 -0.28613374 0.43044215 0.016370015 -0.27131584 0.27528232 -0.5181742 0.6058652 0.10682175 -0.48778465 -0.81321925 0.3770651 0.6631467 0.011439029 -0.48129275 0.20945196 -0.1960626 -0.35649946
ganso -0.49429134 0.02233971 -0.08600106 0.4672292 0.055349886 -0.36336452 0.7035884 0.64535594 0.71661156 -0.10299918 -0.27209216 0.09171197 0.49846193 -0.4506416 0.91736513 0.23953542 -0.15094663 0.09571534 0.21914934 0.47681674 0.31119815 -0.35465816 -0.20751669 0.35993463 -0.47097346
fresa -0.68758154 1.0994442 0.6537491 -0.0338591 0.17052208 0.11486836 0.15296447 -0.0059253885 -0.07360032 0.18788138 -0.13594043 -0.24962221 0.58980775 0.27483845 0.79687494 0.3135772 -0.74887955 -0.10705793 -0.67333984 0.042523067 -0.3015931 -0.113580264 -0.7099417 0.20614439 -0.13189691
sol 0.20908734 1.0645206 -0.392926 0.3238881 -0.16637297 -0.17581101 0.44223848 0.2441338 -0.29244173 0.2692337 0.40827185 -0.25451618 0.004510706 -0.14042409 0.9364042 -0.17975113 -1.0263149 -0.35115597 -0.05490778 -0.12782021 0.73441607 -0.21923728 0.39800453 -0.16868682 -0.41332233
bufanda -0.24938667 0.7683362 0.081970155 -0.14472336 0.33076137 -0.5640406 0.23886374 0.66353136 -0.30609742 0.30000424 -0.022886269 0.024907006 -0.4545047 0.74808174 0.67009354 0.33462784 -0.83665186 -0.47718093 -0.26549312 -0.07854932 0.47007456 0.9142524 -0.004768993 0.6349862 -0.053622026
cereal -1.3459184 1.1559478 0.32603475 0.31737107 -0.15744305 0.424151 -0.31015852 0.3636868 0.70250994 0.2326963 0.43052864 -0.25970834 0.30029076 0.23933631 0.7149339 0.08517376 0.046636514 0.2993709 -0.2603319 0.37857187 -0.5615066 -0.27763548 -0.52353436 0.73951167 -0.52937996
elote -0.53000605 0.64917666 -0.6875725 0.24750637 0.36889333 -0.057799254 0.03756956 -0.14061947 0.02107099 0.16644885 0.60545945 0.13275203 0.59674734 0.3441292 0.90167713 -0.110354245 -0.15671499 -0.86088544 -0.61521477 0.11099947 -0.57738596 -0.24409328 -0.554479 0.33139893 -0.6707789
techo 0.05553333 1.116827 0.05847443 0.22498137 -0.49933785 0.23058562 1.0883611 0.32219562 0.2990765 0.21800807 0.070813 -0.4662523 -0.39186245 0.41323996 0.23482707 -0.6387391 -0.43218756 -0.28224823 0.32181102 0.032823857 0.91036916 0.37302017 -0.19280477 0.26999927 -0.48527378
falda -0.41671 0.618957 0.121454395 -0.027484683 0.104923345 -0.01206133 0.45587757 0.47609037 0.06451675 0.29388365 -0.46638995 -0.38934585 -0.006972862 0.23631646 0.5082819 0.361074 -0.030305346 -1.4485884 0.18679848 0.82011 0.23618133 0.69856757 0.434261 -0.4056398 0.0716332
hospital -1.2266511 0.5044719 -0.23643802 -0.09978246 -0.17018647 -0.26337123 0.57983565 0.10646133 0.38737148 0.42632633 0.5274256 0.15499075 -0.45943084 -0.8577421 0.71324503 -0.86600655 -0.76028675 -0.1297515 -0.15223934 -0.73250127 -0.2633788 0.8247603 -0.82692504 0.15197237 -0.054735344
tambor -0.88753307 -0.49638152 0.2774708 0.61739206 0.7457492 -0.22009186 0.9989228 0.623801 -0.6915683 0.90327936 -0.0722369 -0.5760262 0.32333562 0.16056415 -0.2085201 -0.51316047 -0.22873539 -0.88371813 -0.09655648 0.73691225 -0.060770802 -0.083436444 -0.39006624 0.64412487 -0.4520512
columpio -0.8163782 0.29180077 0.27329716 0.078102276 0.054324966 -0.44980904 0.8954891 0.29988185 0.019928794 -0.23937096 -0.7075378 -0.21731387 -0.3481927 0.08396804 0.73872876 -0.12516065 -0.1380372 -0.57970524 0.7132017 0.024740938 0.31062412 -0.71263444 -0.73476416 0.23323762 0.064579226
pingüino -0.5309141 0.47096825 -0.12342287 1.0901736 0.18152882 -0.28855824 0.7934007 1.2231482 0.37578797 0.19925645 -0.1809574 0.21671322 -0.1824619 -0.11544791 0.56728804 0.39914307 -0.3064039 0.26953852 -0.012924185 0.7543378 0.035880696 0.017893944 -0.41361344 -0.028703645 -0.46309745
manzana -0.9189223 1.0336229 -0.040594924 -0.22709103 -0.033309985 -0.038420107 0.019451942 -0.27688915 0.29663387 0.14550431 -0.02056746 -0.3913262 0.010427174 0.3347566 0.51804346 0.2924019 -0.24072435 -0.60260314 -0.5515194 -0.6228086 -0.52788514 -0.38697278 -0.29848653 0.32228598 -0.9696461
paleta -0.8410266 1.2115964 0.27744028 0.027237555 0.17601985 -0.3514886 0.42133206 0.07673676 -0.35621542 0.4683158 -0.591951 -0.80076915 0.32224572 0.0428238 -0.035983052 0.53213394 -0.41641688 -0.21052003 -0.39548868 0.120043814 -0.52998376 -0.07039357 -0.32993314 0.03583137 -0.6781925
refresco -0.40086645 0.7105595 0.9291352 0.3940504 0.33049485 0.3945713 0.5340553 0.057605974 -0.3669151 -0.30161873 -0.054974806 -0.21172701 -0.10037956 -0.43491784 0.8951422 0.055207897 -0.5876503 -0.13902919 -0.7361649 -0.1921248 -0.19310364 0.31271407 -0.21582057 0.41786146 -1.2245251
niña -0.56704205 0.1660113 -0.06711027 -0.5673204 -0.5542453 -0.8552542 0.46607545 0.5965097 -0.3576663 0.72485244 -0.03358254 -0.17294197 0.34065962 -0.030099003 0.5844167 -0.20004117 -0.25789753 -0.61405784 0.76366436 0.8035349 -0.0022941786 0.02132016 -0.034930404 -0.44725457 -0.71464425
martillo -0.5900569 0.3604383 -0.3322634 0.3791563 0.38101888 -0.114798434 0.86186016 -0.28630084 0.14230688 0.56498253 -0.30986694 -0.86593044 0.09884949 0.26059487 0.31073332 -1.2623823 3.885552e-05 -0.19404113 0.02226581 0.46965423 0.769691 0.39669716 0.25316754 0.91977906 -0.18210614
pluma -0.8990183 0.46938586 0.3961932 0.20476556 0.27092505 -0.99976724 0.53338397 0.09639093 0.506683 0.21176071 0.038544767 -0.39246684 0.11434438 -0.35283837 0.8795964 -0.0067696865 -0.14142524 -0.09730774 -0.0861755 -0.0803852 0.55799603 -0.24719664 1.1254516 0.024034865 0.15913847
río -0.10445857 0.3530043 -0.20136666 0.80718166 0.18192504 0.68931293 0.60113245 0.28190213 0.35603312 0.2046101 -0.29848713 -0.921906 0.19533198 -0.64994544 0.8018239 0.20437457 -0.898271 -0.59625435 0.10986476 0.70986485 0.021629106 -0.17408086 -0.2855104 -0.37624377 0.14296842
elefante -0.7681791 -0.081113316 -0.5174475 0.992671 -0.33751056 -0.04981917 0.92890376 0.44586438 0.58791524 -0.1868837 -0.2193069 -0.5577443 -0.701729 0.25248298 0.51457936 -0.13262698 -0.23633301 -0.39866987 -0.102245584 -0.009883025 -0.6922564 0.0072718174 -0.3711136 -0.013570669 -0.11309277
luna -0.2766779 0.33533052 -0.5493804 0.0032457134 -0.50199306 0.0112153925 0.24880005 0.48555502 0.3393598 0.8199435 0.22255248 -0.37781614 0.3895723 -0.2492801 0.6745634 0.49188992 -0.77091795 -0.5059881 0.11820051 -0.08779951 0.55731785 -0.18758397 0.6677805 -0.2274586 -0.80972004
pies -0.44397405 0.58136684 0.22769327 0.29328454 0.91855764 -0.16855294 0.66451854 0.15556626 0.514745 -0.062171362 0.106821656 -0.9341809 -0.0054419073 0.5748002 0.9492454 -0.19646077 0.34976667 -0.6488577 0.8412555 0.17004949 -0.7631668 0.5322392 0.25013146 -0.66331005 -0.24556965
hielo -0.42656958 0.50446004 0.18853618 1.3498749 0.5547031 0.14766188 0.7075912 0.479011 -0.3852492 0.14282712 -0.58536315 -0.13614579 0.28604463 -0.08935869 0.49541655 0.34347388 -0.48847586 0.09577845 -0.028300498 0.17110991 0.26227978 0.101308696 -0.042900123 0.34380138 -0.9435593
plátano -0.40732813 1.0625836 0.4900723 -0.09433049 0.020053884 0.048200067 0.08325713 -0.12221963 0.11764574 0.07234523 -0.3029862 -0.5401844 0.0149757005 0.67166007 1.0327529 0.13318998 -0.1348504 -0.010602544 -0.26826963 0.26785442 -0.4802059 -0.5284127 -0.9362075 0.77520955 -0.31300604
payaso -0.500276 0.20713443 0.36186638 0.5114149 -0.29212582 -0.43180785 0.21418692 0.349573 -0.57901114 0.7252168 0.35619205 0.5718341 -0.37194625 0.12592503 1.289934 -0.07825383 0.2547649 -0.6389219 0.072993375 -0.42102724 -0.5921374 0.19440264 -0.42083025 0.10996861 0.10982249
circo -0.5203759 0.058837168 0.15811493 1.1133394 -0.87270904 -0.24512133 0.71232843 0.20200199 -0.46473253 0.40946025 0.129765 0.24523629 -0.75479674 0.53934056 0.95727634 0.102785684 -0.34986028 -0.33837688 -0.15571883 -0.52995026 -0.40275347 -0.4940922 -0.11898238 0.5181777 -0.029526204
vaca -0.32802224 -0.504098 -0.68812233 -0.053510793 0.063317016 -0.4883507 0.8015868 0.8106062 -0.04394876 0.19735849 0.58233994 -0.24017474 -0.48007953 -0.16639088 0.65427536 0.21888581 -0.77100027 -0.12944195 -0.37045643 0.7308886 -0.31723765 -0.3919373 0.2253719 1.0020044 -0.90628314
guajolote -0.6780589 0.11338082 0.45990482 0.4242204 0.44642675 -0.4336769 0.9280938 0.55799663 0.58835435 -0.31766593 0.45645678 0.40588385 0.2117725 0.34547076 1.0811594 -0.030194763 -0.20785008 0.07422611 -0.46140113 0.51151884 -0.41765907 -0.36581424 0.028205633 0.36001405 0.051503558
suéter -0.31312728 0.83731145 0.1448235 0.23643604 0.33100614 -0.4031933 -0.0020123294 0.5341892 0.23650944 0.10513373 0.16658589 0.08468148 -0.8403349 0.4154898 0.63418293 0.20823063 -1.037594 -0.23732206 -0.20448785 0.729847 0.3723707 0.7213623 -0.122510076 0.2534655 -0.00027267268
escalera 0.34348974 0.38208812 -0.20025676 0.020137716 -0.09473379 -0.4228535 0.93065405 -0.1707156 0.4196252 0.07603514 -0.19581564 0.028262436 -0.3184493 0.137031 0.6337127 -0.62668216 -0.29715997 -0.97133535 0.6521666 -0.10620657 0.8117408 0.2518615 -0.31186402 0.8734103 -0.55944645
refrigerador -0.661422 0.6240403 -0.13258395 1.0361763 0.2554695 0.53804284 -0.07826238 -0.037769407 -0.034269277 -0.31029385 0.28953364 -0.5506394 -0.040113337 -0.22753574 0.5319604 0.00735695 -0.6212697 -0.033597976 -0.3033724 0.12036307 0.1469717 0.08007816 0.024252985 0.9059094 -0.91677254
plancha -0.5479715 0.14796478 -0.11171218 0.056708347 0.32943505 -0.20824718 -0.25457442 0.2828389 0.0938065 0.5183051 0.31833476 -0.46234438 -0.8465128 -0.71665466 0.6014151 -0.8202599 -0.619301 -0.7085609 0.015283407 0.520475 0.42521822 0.23103794 0.27522132 0.42450872 -0.13324428
pájaro -0.4102778 0.14570825 -0.16605458 0.5219152 -0.15198791 -0.42666644 0.9880871 0.16502292 0.62157595 -0.34415826 -0.35897297 0.22627296 0.49147803 -0.1563988 1.1335713 -0.30508107 0.30627894 -0.4486016 -0.10641061 0.554604 0.6234606 -0.15010838 -0.1068093 0.061413214 -0.21008822
sala 0.05165602 0.47265902 0.17669746 0.43150538 0.03489524 -0.003938348 0.831642 -0.41560486 0.5114707 0.6904242 0.6207688 -0.89830047 -0.14247246 -0.57657963 0.12819277 0.30250192 0.22962388 -1.0493913 0.057488695 0.34637302 0.41386428 0.61708695 -0.45087415 0.23727722 0.11388785
espejo -0.04806646 0.51130414 0.23772661 0.40306786 -0.97915894 -0.3109953 -0.23639965 -0.014738193 0.07673931 0.3322384 0.11815337 -0.6249146 0.20162483 0.28185013 1.0874863 -0.4811492 -0.35041347 -0.2053308 0.7513904 -0.06411566 0.12109462 0.561065 -0.39991742 0.06753426 -0.39400455
babero -0.8366169 0.10847208 -0.29635948 0.21791434 0.049152803 0.45700106 -0.42277277 0.097038575 0.0013775597 1.2864043 0.25742817 -0.13356575 -0.8499966 -0.06186562 0.6043088 0.017503744 0.016518993 -0.83891547 -0.37266558 0.57239383 0.19318189 0.47126684 -0.03822306 0.17223334 -0.9161743
pastel -0.7075787 0.8978566 0.006964802 0.01757475 0.32070833 -0.36772123 0.16055495 0.14426789 -0.35691148 0.59139633 0.5501518 -0.2324993 0.84775543 -0.2192598 0.76725173 0.3285263 -0.39243206 0.23831904 -0.51593655 -0.06491876 -0.193809 -0.15060061 -0.17879598 0.5697157 -0.36185473
cuchara -0.4482814 0.79568356 0.4760295 0.20955642 -0.1597303 -0.06894991 -0.043193772 -0.16215064 0.72354 0.8875082 0.2616809 -0.35805094 0.29547435 -0.059854914 0.43913928 -0.6338089 -0.09564963 0.19168536 -0.26768625 0.3136566 0.14891051 0.040565908 -0.19935732 0.3548661 -0.7097766
ojos 0.24613465 0.35640246 0.13359612 0.5026046 -0.28934285 -1.16505 0.22487506 0.17303522 0.5404704 0.44376987 -0.10616664 -0.38876143 0.27299073 0.81959516 1.2684432 0.26148936 0.12888677 -0.37058562 0.57662904 0.023124747 -0.13087443 0.6676432 -0.47974443 -0.30081916 -0.7129959
ejotes -0.1415207 0.7998669 -0.20019865 0.18315308 0.6491906 -0.38914254 -0.06018089 0.27259707 0.6565731 0.06115473 0.9562871 -0.30650795 0.60366553 0.44408652 0.9682378 -0.3975438 -0.18601221 -0.48121205 0.06150323 0.42883646 -0.9849652 -0.1536096 -0.46267784 0.104708746 -0.82260895
tortuga -0.24803205 0.5042821 -0.9076239 0.40574273 0.15056372 -0.19696707 0.5090042 0.6044826 0.71418417 0.45946732 -0.80051106 0.22861083 0.17460662 -0.834915 0.49444985 0.12938611 -0.9606397 -0.7729317 0.47659042 0.43760625 -0.57379645 0.034013007 -0.17284885 0.3666937 -0.036183357
patines -0.6647982 0.4518126 0.37678015 0.68425196 0.51317924 0.0504408 0.8615746 -0.37049848 -0.35346013 0.35774338 -0.38268805 -0.15285712 -0.3813533 0.61824983 0.27486473 0.4460868 -0.361636 -0.8271319 1.0382535 0.11991552 0.17902139 -0.23559827 -0.103708945 -0.060798895 -0.4518925
puerta 0.18599594 0.31040928 0.67132944 0.2962727 -0.5998938 -0.56712073 0.90947384 0.15535915 0.4858304 0.15776092 -0.24859113 -0.79602474 -0.07913457 0.018976873 -0.06474914 -0.36239472 -0.33355784 -0.8406607 -0.20462129 0.07237257 0.29116163 0.7100462 0.008269152 0.7378946 -0.57406735
zanahoria -0.053892437 0.8920563 0.012032194 0.020454831 0.22075342 -0.7454245 0.4380402 -0.28936476 0.30713552 -0.0863633 0.5789748 -0.19562317 0.4204152 0.6302879 0.8819271 -0.090338364 -0.20957354 -0.13818716 -0.16917616 0.09399275 -0.7461061 -0.37935397 -0.67300653 0.46699828 -0.69976693
hoja -0.9520747 0.7515534 -0.18718818 0.1936665 -0.3421582 -0.8916545 0.23347177 -0.26618698 0.5187871 0.026824951 0.1681501 -0.99105144 0.0043158345 0.15376866 0.42428625 -0.35250083 -0.39807427 -0.600845 -0.05484531 -0.3736751 0.054650024 -0.66490334 0.800898 0.06479344 0.08368722
radio -0.33261123 -0.16853428 1.1815696 0.7847657 -0.3631204 -0.90794986 0.75394213 0.947642 -0.07495592 0.6827371 0.23427233 -0.49570796 0.6513997 -0.033043884 0.45196867 -0.5742613 -1.175126 -0.27156532 0.8745938 0.18725486 -0.4264202 0.049558427 0.20678112 0.8634221 0.37626845
durazno -0.71381164 0.72526985 0.07356531 -0.16566518 0.37535214 -0.19394587 0.25424486 -0.5543081 0.019383423 0.32062095 0.31390527 -0.19808035 0.31623402 0.29259357 1.1343642 0.5119665 -0.09118211 -0.09051208 -0.93100387 0.15898967 0.056373905 -0.17039047 -0.7177758 0.47289708 -0.0033640298
olla -0.599442 0.51734084 0.553495 0.44619974 0.916797 -0.1362181 -0.2435815 -0.24862985 0.53655237 0.7226003 0.5517763 -0.17411186 -0.054169506 -0.09860875 0.48286945 -0.54298687 -0.32335517 -0.036089364 0.16693096 0.6705028 0.16922969 0.17112912 0.3710694 0.35786873 -1.1558237
bacinica -1.1448456 -0.6373835 0.7318396 -0.15645213 0.26685286 -0.32707545 -0.00082314824 0.32692292 0.3973283 0.7674275 0.2737762 -0.8168348 -0.04600867 -0.26843286 0.59840447 -0.57089776 -0.57149625 0.10453737 0.10455149 -0.1344082 0.3608323 0.105780035 -0.8301347 0.70633024 -0.7733359
plumones -1.420674 0.69220346 0.21804841 0.12132098 0.20362656 -0.833574 0.8200567 -0.06481791 -0.13896532 -0.15392298 -0.3274089 -1.2960402 -0.0715941 -0.13326094 0.7599093 0.4829205 -0.55143803 0.010551828 0.4260973 -0.5320158 0.16737978 -0.13951518 0.9814116 -0.15334924 0.06544732
botella -0.14835861 0.17457022 0.5981389 0.20171109 0.38383952 0.08440923 -0.1316361 0.43828604 -0.057292026 0.26371494 -0.55737036 -0.61639017 -0.13642769 -0.28748006 0.9880088 0.0054392302 -0.3989018 -0.70201606 -0.22039804 -0.53501564 0.031931683 0.051834498 -0.028851623 0.60619575 -1.6269026
avión -1.2727491 0.45625916 0.19946055 0.45513055 -0.62903476 0.20256372 0.98748624 -0.32757244 0.24579847 -0.3750795 0.27889845 0.70080286 0.13058513 -0.3026597 0.9516904 0.02667204 -0.38297296 -0.32406288 0.8141929 0.30562228 0.8143096 -0.20592679 -0.18922116 0.17742208 -0.37424
lavadora -0.7615804 0.30812895 0.4883284 0.53214175 0.16669044 0.056946773 -0.23356418 0.40479505 -0.017101761 -0.19260572 -0.018683346 -0.9080486 -0.42389885 -0.60976166 0.68093824 -0.862789 -0.4569217 -0.14521648 0.5304085 0.7169264 0.12717459 0.10914994 -0.013847161 0.6765499 -0.14078891
galleta -1.0108724 1.2629925 0.2026416 0.08599711 0.48241618 0.26957875 0.2556222 0.26676783 0.14508507 0.6332766 0.32308203 0.21218202 0.27590138 0.20144537 0.39071068 0.33405775 -0.22427954 0.15529115 0.032161724 -0.358576 -0.33794615 0.35218766 0.002368333 0.64756036 -0.5363612
tenedor -0.5695635 0.54248613 0.36882985 0.15913656 0.24947229 -0.4405621 0.33042228 -0.6560884 -0.040516272 0.85065854 0.62175065 -0.6745964 0.19417676 -0.03390126 0.75737274 -0.7553338 0.59448344 0.1818364 -0.30668217 0.16432652 -0.16738358 -0.028832056 0.21198995 0.44931623 -0.49153113
cuchillo -0.14180984 0.65472716 -0.121153265 0.34127182 -0.01126255 -0.37174568 0.28365567 -0.9178382 0.16081081 1.4502684 -0.011233204 0.032056484 -0.36548537 -0.019038426 0.657006 -0.41418126 -0.21659465 0.33261803 -0.21198693 0.3696552 0.0369737 -0.15519024 -0.053663973 0.6795042 -0.37803686
pelota -0.75108063 0.7650928 0.11885468 0.53678584 0.21900254 -0.45652604 0.65753895 0.5908794 -0.6274036 0.17879283 -0.3177778 -0.00039121805 -0.47627082 0.36251843 0.018382102 -0.1518761 0.17084834 -1.180547 0.46141726 -0.015847327 -0.097934775 -0.19482432 0.102086306 0.23647627 -0.3447078
resbaladilla -0.08927994 0.49396136 0.18467098 -0.04610075 0.24002673 -0.57652706 0.8435341 -0.22194664 -0.33956158 0.10226325 -0.35228366 0.019404856 -1.0008166 -0.047635227 0.8159113 0.23921585 -0.37396145 -0.9018533 0.7282582 -0.009951299 0.16401745 -1.0010648 -0.54452103 0.4009104 -0.5173357
doctor -1.3065491 -0.10069583 -0.3679738 0.30606142 0.15369095 -0.89669657 0.43638444 0.48857576 0.049145192 0.4768374 -0.15411486 0.17701153 -0.24788296 -0.29490912 0.3678076 -0.5499959 -0.61031574 -0.47594142 -0.34750488 -0.8789134 -0.19662851 0.50660056 -0.5841725 0.42749333 -0.6203979
bandera -0.03640606 0.84818935 -0.48690972 0.35857388 -0.5376625 -1.5262921 0.69888645 -0.12029394 0.31880304 -0.18707606 0.30884334 0.30205873 -0.087859586 -0.29858136 0.8448066 -0.19491972 -0.02089537 -0.9610886 -0.42545962 1.521982 0.036112525 0.43562642 -0.52173907 0.68434393 0.48420784
dedo -0.8324871 0.6305308 1.0371711 0.25837025 0.3394069 -0.58411 0.6117093 0.113090836 0.19167003 0.9080852 -0.36153224 -0.85908777 0.044486463 -0.17717843 0.26419997 -0.26824093 -0.4743691 0.062107667 0.34896597 0.5583244 -0.25400236 0.099868014 -0.4717369 -0.2054255 0.73960227
estrella 0.046360437 0.75207543 0.011727945 0.05340305 -0.7965667 0.013779273 0.3259236 0.82011056 0.23794475 0.8494503 0.1551492 -0.123048775 0.2980696 0.0688993 0.9813388 -0.18671334 -1.4708283 -0.5176452 0.5599815 -0.47187805 0.68062025 0.07391499 0.19869556 -0.24869928 -0.4659569
pala -0.28334793 0.2780701 -0.7672006 0.098040834 -0.08925911 -0.1978741 0.1913555 -0.52261674 0.30060694 0.5885435 0.16735268 -0.67041993 0.12172113 0.18604186 0.55636054 -1.0753074 -0.6075093 -0.35912955 0.034238696 0.9173312 0.71614885 -0.26741073 -0.07461069 0.56314033 -0.57677853
timbre -0.38806832 -0.7408059 0.32077712 0.41564983 -0.7216819 -1.060294 1.1647171 0.18319227 0.08437237 0.12978062 0.29099137 -0.83316743 0.52502453 -0.31732237 -0.016626418 -0.32579124 -0.77199745 -0.6106982 0.32894626 0.78673947 -0.08774307 0.464124 -0.26019824 0.1870913 -0.7266637
cubeta -0.69326836 0.39067936 -0.37710908 -0.06926881 0.27443492 -0.15731896 0.1717119 -0.40408447 0.3081138 0.10233176 -0.98120904 -0.51435333 0.16837588 -0.7265989 0.5946788 -0.41567048 -0.24433942 -0.6153874 0.11012207 0.5333053 0.19372447 0.21829216 0.58545667 0.4106183 -1.0445979
trapo -0.07498407 0.13495345 -0.11175191 0.36589414 0.516527 -0.36969477 -0.06902225 -0.063626505 0.29711586 0.5013004 -0.27446643 -0.18576543 -0.25650877 -0.8310043 1.1589407 -0.9039905 -0.20802623 -0.68352485 -0.06965423 0.50210357 0.34957996 0.59458494 -0.14430313 0.01020689 -0.46197814
osito -0.8286712 0.30125138 0.05611645 -0.28871042 -0.14507708 -0.32750106 0.7631541 0.4468814 0.37390724 0.6625054 0.19723271 0.09959835 -0.43162712 0.2812056 0.6224641 0.9957011 0.3746513 -0.10609138 0.43546385 0.45302975 0.25714812 0.1313281 -0.66518664 0.19450061 -0.22717716
verde -0.27228382 0.6154349 0.007756153 0.042122375 -0.117347054 -0.33916238 -0.041510858 -0.01328785 0.18853447 -0.1878342 -0.3150258 -0.05832748 0.038727004 0.025240596 0.59672034 -0.26840422 -0.45650655 -0.89386123 -0.25960174 0.36446697 0.07892205 -0.08636451 -0.1583565 0.3865532 -0.14827654
pasta de dientes -0.65218395 0.8046309 -0.5284519 0.3924108 -0.3529505 -0.41388556 -0.2884052 0.0981515 -0.3421936 0.074742325 -0.15491003 -0.7932121 -0.17210117 -0.23060076 0.9855882 -0.32673508 -0.003752725 0.1486922 0.12703907 0.21343283 -0.5864992 0.85433656 -0.33942774 0.07733323 -0.57033044
azul -0.46958733 0.5216073 0.15689927 0.39609057 0.05914576 -0.11646513 0.5067895 0.34671617 -0.16501069 0.13491641 -0.12100994 -0.25379565 -0.15465541 -0.09521929 0.5064961 -0.19206554 -0.18927445 -0.43373704 -0.08653839 0.09740727 0.3350981 0.38300502 0.1048702 -0.08757246 -0.041072037
cebra -0.7716699 -0.06911963 -0.7708775 0.28556436 -0.6502794 0.0490971 0.78453726 0.2537882 0.3299213 0.23601972 -0.27505958 -0.57116324 -0.8141761 0.46454766 0.78384763 0.3636435 -0.2556442 -0.4917318 -0.36116266 0.2952228 -0.5830418 0.05781571 0.20315738 0.14918604 0.18205008
cama -0.20722991 0.8340907 0.40035605 0.29197705 -0.30949193 -0.343006 0.5251048 0.53298134 0.3836107 0.20201093 1.0382156 -0.7876682 -0.5075399 -0.534383 0.6220324 0.35779208 0.11735381 -0.21078084 0.10358346 -0.19366455 0.5610011 0.5115874 -0.55275655 0.3903689 0.2172098
boca -0.4382092 0.18925898 -0.19108242 0.40311274 -0.31894752 -0.4101589 0.052000992 -0.37529734 -0.0049360064 0.5527664 -0.15092634 -0.34283915 0.22173378 -0.14672135 0.94067544 0.6294071 -0.26496527 -0.0916084 0.09209985 0.5420117 -0.37872407 0.96953136 -0.29179594 -0.47483358 -0.77362716
blanco -0.6998294 0.36984175 -0.3471178 0.32946765 0.044378348 -0.21132061 0.21825835 0.45504278 0.1409626 0.19766456 0.08066677 0.13826706 0.009146264 -0.12520598 0.7495871 0.06345003 -0.3091476 0.23674603 -0.081775784 0.18579593 -0.091071725 0.5753348 -0.20390885 0.25380877 -0.24672446
shorts -0.49923453 0.06959662 0.0018104191 0.5200726 0.3930671 -0.7193243 0.2099587 0.21394144 -0.56728506 0.06936542 0.06909882 -0.06869208 -0.40853414 0.16325395 0.55638087 0.40628096 -0.42057863 -1.4835588 -0.17665888 0.44806418 0.15416443 0.41084942 -0.19677174 -0.31010664 -0.16323344
cepillo de dientes -1.091483 0.6715668 -0.51536584 0.593622 -0.16262446 -0.5765118 -0.46808574 -0.17659658 -0.22515905 0.3237599 -0.15313452 -0.38423392 -0.15676771 -0.11678091 0.78955585 -0.61910665 -0.095939696 0.09549761 0.28671867 0.36703873 -0.4152987 0.86106545 -0.43063244 0.079303555 -0.36392856
tina -1.068512 0.30244035 0.41367623 -0.053487252 0.043387488 -0.5109978 0.10778504 0.12681799 0.24062772 -0.04242633 -0.3191855 -0.80323726 -0.62163883 -0.70142794 0.6635186 0.05334621 0.054361098 -0.25764433 0.02301694 0.35769776 0.40455115 -0.2073118 0.2616835 -0.2635347 -1.1341891
búho -0.7321233 -0.43051097 -0.66369796 0.6558995 -0.39633113 -1.215257 -0.12237569 0.7250093 0.89028245 0.3150775 0.10763219 -0.45419222 0.5854094 0.45190316 0.94403714 0.11614941 -0.33764288 -0.28803676 0.14513682 0.1587051 0.20886953 -0.058671284 -0.40192717 0.6927759 0.06546208
melón -0.39141643 0.75757426 0.5203641 0.5628611 0.22273594 -0.20552532 -0.27761382 0.15927793 -0.027911067 0.28196016 -0.1604319 -0.28084505 0.20074365 0.17234811 0.71404594 -0.020558745 -0.3174692 -0.64244276 -0.8394867 0.25695005 -0.5105175 -0.14254041 -1.0359296 0.77469677 0.018616838
comer -0.39190355 0.3593743 -0.06506666 0.034459457 0.34233573 -0.08725158 0.116517775 0.0434857 0.1951535 0.45941865 0.29702199 -0.09858777 0.19059543 0.053856306 0.89471966 0.25851953 0.07708724 -0.080256656 -0.2809955 0.3064659 -0.4616193 -0.07752412 -0.1067943 0.4583794 -0.5719091
pollito -0.84666735 0.07236736 -0.12032204 0.18429546 0.354448 -0.20051199 0.73149127 0.21766298 0.40279326 0.24089068 0.16492274 -0.24416201 0.41855872 -0.050113406 0.90978223 0.2602875 0.7067938 -0.030747868 -0.19369802 0.63450253 0.14553177 -0.6391444 0.112196855 0.16286226 -0.55397093
cepillo -0.5795236 0.4242335 -0.21097882 0.3964341 -0.24028847 -0.5358091 -0.27051997 -0.051831096 -0.68258303 0.3315094 -0.13764115 -0.93704253 -0.16394679 0.081389524 1.0861521 -0.4200499 0.230453 0.22066952 0.38424805 0.77386224 -0.21140167 0.62434393 -0.43556395 0.3139197 -0.6218733
espagueti -0.3407115 1.0474969 0.13267823 0.61477906 -0.08717457 -0.51474166 0.28669378 0.027683953 -0.4276941 0.22024964 0.39279598 -0.17261235 -0.017139839 -0.44389272 0.8421 0.046613492 0.40656915 -0.09024515 -0.73461974 0.9295255 -0.6162595 -0.34654474 0.15789683 0.5767625 0.05392181
abrigo -0.2515835 0.6481777 0.14635555 -0.03707968 0.30057406 -0.36601508 0.5079115 0.45828152 0.35351962 0.478113 0.3800799 0.16554171 -0.5461794 0.44660833 0.74500984 0.067603596 -0.4985231 -0.060972203 -0.217416 0.7816603 0.9289494 0.5115682 -0.4450558 0.051868346 -0.06524777
tijeras -0.43117708 0.9323098 -0.023465388 -0.2967626 0.11434174 -0.75327766 0.68797845 -1.1100932 -0.27957547 0.8824311 -0.17974783 -0.6535802 -0.32343286 -0.016120592 1.016544 -0.3439176 0.16505353 -0.32663265 -0.17536548 0.0004162509 0.76073396 -0.08215367 0.83680916 0.42737657 0.19170982
horno -0.42290556 1.2069519 0.3062394 0.6112037 0.7141608 0.09221571 0.5808609 -0.30646762 -0.0011259943 0.5066262 0.3163817 0.25612214 -0.028646884 -0.09298119 0.2985755 0.32149637 -0.6065171 0.411075 -0.044080287 0.99879676 0.23802099 0.14363803 0.3758081 0.7848927 -1.2519742
alberca -0.43216932 0.6063555 0.28601685 0.6627957 0.13135144 -0.6673426 0.2405876 -0.2096842 -0.1404012 0.07900093 -0.17417464 -0.08620887 -0.7743646 -0.7441402 0.74050224 0.085807584 -0.65809727 -0.8784003 -0.37635928 -0.089081235 0.2585936 -0.42938668 -0.57971644 -0.6148418 -0.74842423
plato -0.73174584 0.30003425 0.33748013 0.50297594 0.5300493 -0.30813503 0.35092747 -0.16151933 0.43173793 0.5368908 0.26163864 -0.3178391 0.5722426 -0.30494592 0.4466808 -0.36288866 0.5197007 0.024661174 -0.20619312 0.085228845 0.061419815 0.19477549 -0.33895493 0.66536677 -0.8105269
lápiz -0.84894025 0.9013908 -0.20211394 0.6839632 -0.3696585 -1.2568395 0.8054475 -0.2904681 0.093134694 0.058335032 0.096185885 -0.6715741 0.34699845 -0.38771045 0.7800628 -0.19198182 -0.14451662 0.09499839 -0.27474633 -0.23505561 0.2821174 -0.06592656 0.96410185 0.33299455 0.4590404
taza -0.528456 0.56966484 0.7168849 0.012341768 0.51898617 0.00849297 -0.36080387 -0.042800058 0.5145577 0.97587377 0.00086636667 -0.20068619 -0.1641229 -0.2817897 0.9023519 -0.16995206 -0.1727263 0.3067279 0.21427111 0.06839877 0.07593269 0.23383853 -0.051531877 0.74928546 -1.0031527
jabón -0.42249563 0.469686 0.34475535 -0.18922181 -0.04487867 0.010590322 0.026040468 0.5826279 -0.012791425 0.092268154 -0.05970366 -0.8192596 -0.6812459 -0.97293836 1.1835093 -0.42341414 -0.25968385 -0.039239053 0.1312713 0.38209456 -0.5174214 0.18853602 0.11546288 -0.15492164 -0.59887445
hot cakes -0.8479388 1.0575162 0.21394445 -0.31858817 0.21995609 -0.025088264 -0.360293 0.28182092 0.27562606 0.6302761 0.7307508 -0.2702481 0.06753501 0.020544754 0.4849749 0.74441296 -0.48213238 -0.22408848 -0.14366904 0.15853794 -0.7454674 -0.12386083 -0.08972837 0.97155935 -0.1821468
animal -0.46518844 0.07016219 -0.344611 0.22978951 -0.3774272 -0.15309323 0.53250754 0.58429533 0.7609331 0.44551283 -0.07775249 -0.1320621 -0.15262066 0.102862455 0.86293465 0.17130944 -0.01249802 -0.016967302 -0.41250813 0.37572035 -0.080675595 -0.5217178 0.09086345 0.38499692 -0.050097216
jirafa -0.6992959 0.046916857 -0.5329409 -0.22579679 -0.831194 -0.269554 0.8824761 0.51244193 0.35625863 -0.33304313 -0.25076425 -0.22713588 -0.5422941 0.26268426 0.59242994 0.6075918 -0.6531379 -0.62383413 -0.41102585 0.056901474 -0.18386582 -0.10952296 -0.4632399 0.8162884 0.05571126
teléfono -0.6804555 -0.5749743 0.77095586 0.46900135 -0.08172582 -0.9124439 0.5401334 -0.10540334 -0.055367768 0.3467883 0.26321742 -0.7900116 0.74613786 -0.17775233 0.49043804 0.12824017 -0.69978267 -0.2689945 0.60703903 0.8021423 -0.40325734 0.79059553 0.070930056 0.41560328 0.21024752
escoba -0.523976 0.48623717 -0.32640406 0.22802444 0.0016136379 0.092781544 -0.19051164 -0.6069111 0.20040983 0.45666575 -0.32527125 -0.38756648 0.0072189574 -0.50265145 0.86349714 -0.76569927 0.17281006 -0.58815616 0.19261514 0.87923735 0.56791645 0.098638624 -0.04413777 0.5808122 -0.39274997
pijama 0.100123115 0.35512954 0.20977226 -0.02014039 0.59195083 -0.38876978 0.31732744 0.9378399 0.20738462 0.50112695 0.5305868 -0.499652 -0.083747424 -0.11877953 0.9941144 0.17939419 -0.45471734 -0.9463198 -0.29072207 -0.33519801 0.7832042 0.3741916 0.15383643 -0.04969296 0.015982911
silla -0.13289061 0.121495515 -0.13582891 0.5076649 0.384753 -0.25561875 0.40515557 -0.12917009 0.4572235 0.5067678 0.64046586 -1.0637255 -0.6442646 0.08323822 0.6193733 0.15839499 0.55706984 -0.91791886 0.07363574 -0.32694376 0.35449696 0.22937378 -0.52066725 0.6209953 0.0521406
uvas 0.020805841 0.68109334 0.68419206 -0.014209208 0.8408235 -0.6315472 0.5543194 -0.014821068 -0.07346899 0.04289447 -0.6171063 -0.42414203 0.6346082 1.0409003 1.6049478 0.4558773 -0.06720155 -0.30093914 -0.6619267 0.05540815 -0.48725662 -0.26642886 0.19902349 0.6388618 -0.9232514
gallina -0.8794345 0.24588351 0.27444777 -0.029208748 0.5539373 -0.19912714 0.6746516 0.46276295 0.74864197 0.072741516 0.26758498 0.2234325 0.22529057 -0.15984955 0.9610777 0.39738786 0.008378379 -0.034764662 -0.53466177 0.42017946 0.32422614 -0.6414136 0.36527133 0.43478432 -0.2926674
librero -0.8825175 0.058453813 -0.13393688 1.0524997 -0.012209648 -0.82812345 0.3266031 -0.30412158 0.8110181 0.3223221 0.42963442 -0.5493241 0.16485725 0.07061341 0.13581559 -0.021788914 -0.30671284 -0.5329352 0.21768756 -0.61140245 0.1553714 0.43271768 0.67474085 0.73727965 -0.21644934
cobija -0.15064315 1.0642786 0.7157186 0.30087546 0.11646244 -0.49650234 0.12783113 0.58865094 0.17933014 0.42377004 0.94196093 -0.90323055 -1.0340521 -0.16737966 0.7667256 0.3896792 -0.32373157 0.02019137 0.23642473 0.51731807 0.44362292 0.3651456 -0.40392098 -0.21671884 0.14973655
aspiradora -0.2385286 -0.026103942 0.11555578 0.028271526 -0.26466548 0.14631088 -0.22496136 -0.083913945 0.16462216 0.5398998 -0.25697368 -0.7955582 -0.08031038 -0.6624822 0.91113716 -0.79201937 -0.045119174 -0.8290106 0.41166666 0.9515445 0.19687629 0.1392077 -0.44701162 0.53643304 -0.125068
peine -0.631788 0.23603377 -0.16523312 -0.29799545 -0.27542543 -0.44206265 0.13580059 0.20140229 -0.71812534 0.43542656 -0.20301613 -0.6464903 -0.079478726 0.15349244 1.2734457 -0.74745226 0.30662268 0.034021486 0.14584693 0.8141444 0.2800803 0.58514374 0.07767652 0.2889734 -0.3520385
lámpara -0.16383395 0.769776 -0.23860359 0.048093293 -0.5031819 -0.32738355 0.47659546 0.18129171 -0.0150158815 0.70860064 -0.040949326 -1.193624 -0.123517476 -0.18726079 0.23026128 0.26542997 -1.1369199 -0.2515869 0.64120054 0.03441119 0.75969297 0.45495272 0.5027302 0.3804019 0.13701463
leña 0.2521179 0.7935262 -0.16301012 0.28125167 0.014169181 -0.099023245 0.22347075 -0.012691119 0.15821141 0.5202796 0.5338991 -0.84034723 -0.36248052 0.27683753 0.40061063 -0.22703664 -0.67033964 0.017697047 0.16390866 1.4152647 0.086024515 -0.2039438 0.44961646 1.0584141 0.049765926
shampoo -0.7325655 0.4347664 0.27414295 -0.29714268 -0.16361831 -0.1279149 -0.25230774 0.55992824 -0.5077722 0.06774653 0.30208442 -0.8493502 -0.32721835 -0.6620461 1.4242986 -0.7520126 0.22832522 -0.26907477 0.15314236 0.37865686 -0.2751014 0.37006226 0.04196896 -0.04962075 -0.5416824
palomitas -0.0147849815 0.72115475 0.771299 0.5943096 -0.0044818902 -0.26625332 0.713046 -0.25210828 -0.010166231 0.39246312 0.5940716 -0.4508179 0.102103926 0.36372015 0.46154395 1.0485065 -0.21646637 -0.3754637 -0.8013106 0.5316516 -0.6656119 -0.38706285 0.4518986 0.2862741 -1.2217948
lavabo -0.51530945 0.14664876 0.28111857 0.22057997 -0.4553888 -0.09837636 -0.021035887 -0.10341265 -0.08704537 -0.036425896 -0.21004651 -0.7964173 -0.36927462 -0.6608539 0.83612305 -0.68295956 -0.25897452 -0.18481596 0.22387543 0.37652707 -0.005749237 0.748796 -0.5604548 0.3350217 -0.49271303
abeja -0.92146564 0.3592121 0.0084515335 0.009013652 -1.0587653 -0.6191443 0.22341888 -0.02395511 0.6495067 0.7657368 0.15876545 -0.2869904 0.25122115 -0.20322013 0.66136515 -0.564183 0.19232132 -0.6663232 -0.30925304 -0.03273256 0.12707207 -0.7192645 -0.6567592 -0.263982 -0.15686078
sandía -0.21805851 0.8669987 0.26175988 0.08329531 0.43995315 -0.50161463 0.23389661 -0.096443124 -0.058436524 0.27505866 -0.25176093 -0.27018 0.19745235 0.34178978 0.33435348 0.244318 -0.5163261 -0.7297854 -1.0441121 0.3390758 -0.51937413 0.028376393 -0.42909667 0.32654023 -0.6938391
rana -0.12717696 0.3846023 0.13402401 0.15958363 -0.32590538 -0.1836976 0.4378075 0.25512004 1.005283 0.74165416 -0.8526102 -0.18376341 -0.054743327 -0.22489126 0.8416914 0.049686246 -0.39708695 -1.1447871 -0.3280294 -0.034980297 -0.7124145 -0.7286388 -0.38412666 -0.29436865 -0.09725625
café -0.6552308 0.5529693 -0.056568053 -0.037632488 0.002835906 0.16554083 -0.0286031 0.38799065 0.3997269 0.468218 -0.026892105 -0.21813363 -0.15087853 0.3441309 0.5770521 0.19923337 -0.1820114 -0.04875521 0.23494074 -0.03926379 0.07775864 0.05074224 0.068536706 0.8685226 -0.016919697
toalla -0.2145001 0.52214736 0.0013141524 0.27977484 0.28403813 -0.46112037 -0.055204485 0.10473285 -0.131607 0.5045004 0.0022369905 -1.068927 -1.1065848 -0.6785959 0.9281256 -0.42830342 -0.45466587 -0.38001218 0.13045137 0.59163934 0.32977402 0.34168074 -0.28370988 -0.56283486 -0.44860533
alimento -0.3706774 0.8270019 0.04125544 0.079571806 0.19350216 0.17927763 0.06365978 0.044190805 0.35052702 0.25957808 0.5719298 -0.14690311 0.41728187 0.0068607116 0.5591884 0.05545004 -0.10697565 -0.39427942 -0.26747343 0.19065906 -0.65377736 -0.23808718 -0.0385689 0.7854503 -0.7708213
pañal -0.97487104 -0.13617997 0.7043734 -0.26148957 0.26534542 0.50583327 0.05337282 0.22849108 0.10259903 0.7035866 0.22206762 -0.6748658 -0.520835 -0.243108 1.0627073 -0.7089285 -0.4672572 -0.5762173 -0.6151676 -0.2048559 -0.014603827 0.19651887 -0.39043722 -0.08536936 -0.01185617
cámara -0.16723913 0.7287208 1.334193 0.38699648 -0.84963316 -1.0014516 0.4517264 0.034105536 0.11071814 0.15204154 0.34951943 -0.48715088 -0.9933258 -0.17091352 0.63776726 0.09293357 -0.9054484 0.016113486 0.9859882 0.08668723 -0.4984406 0.26898405 -0.07404177 0.07810802 0.0019450674
sillón -0.17981169 0.48999512 0.5104323 0.7727208 -0.0063658715 -0.051430058 0.25369787 -0.10626553 0.54492265 0.20167187 0.5891907 -0.99707144 -0.53302467 0.043506972 0.4718993 0.4714202 0.020929066 -0.79812264 -0.06694639 0.018722832 0.36620992 0.5529492 -0.512644 0.55865866 0.49502105
campo -0.20527172 0.19335827 -0.4533795 -0.014595103 0.031698495 0.22912234 0.72338074 0.09568414 0.45674828 0.108286604 0.18134928 -0.11296257 0.08620219 0.6893098 0.8292699 -0.17317015 -0.119217195 -0.6117474 -0.06210646 0.3829992 -0.26996517 -0.4649963 0.27815783 0.31249768 -0.25876698
labios -0.32739177 0.3286555 -0.040756114 0.22051862 0.11309095 -0.48356932 0.14498655 -0.37948227 -0.41290945 0.61114085 -0.12985937 -0.9126261 0.6354056 0.24392156 1.282827 0.88058484 0.20589918 -0.37791544 0.23993626 0.4208161 -0.46300915 0.5924574 -0.09548177 -0.61142355 -0.6932908
llave -0.5532276 0.12227664 0.91126335 0.41557765 -1.0727787 -0.18620522 0.4865045 -0.48818392 0.23015781 -0.11461072 -0.44855574 -0.5916539 -0.23300545 -0.33916497 0.5556748 -0.22937268 -0.631853 -0.57699347 -0.4275891 0.0056928364 0.67559934 0.6865496 -0.31262612 0.81558263 -0.17461391
chupón -0.7323817 -0.06269051 -0.08572429 0.22815518 -0.062153906 0.41927174 -0.07918231 -0.34277633 -0.012699439 1.5432674 0.16875844 -0.64474094 0.1858265 -0.32579643 0.7849492 0.4988217 0.20334668 -1.0005556 -0.04988729 0.31670508 -0.13124616 0.44028494 -0.74483746 -0.46234372 -1.1362376
crayolas -0.87096035 0.47660476 0.17803155 0.0046195798 -0.2567873 -1.1185197 0.9031586 -0.14874233 -0.34725466 0.38406977 -0.24617612 -1.2414745 0.20070988 -0.14232929 0.72673863 0.123099834 0.034303352 -0.11289233 0.3126937 -0.5704954 0.30402973 -0.4719308 0.4460043 0.059461426 0.08611413
sofá -0.258163 0.45313132 0.35350356 0.5889411 -0.02518587 -0.020573497 0.6091598 -0.059606045 0.35604092 0.04269791 1.0501676 -0.9231037 -0.5791988 -0.13299432 0.44078717 0.7065041 0.11771726 -0.906311 0.09093448 0.12609297 0.3776544 0.5240172 -0.49290285 0.5759848 0.48164922
rosa -0.55002344 0.63714856 0.0900371 -0.19268882 -0.10617307 -0.3212719 0.15211914 0.40245342 -0.086232476 0.19605732 0.36400327 -0.42923558 -0.04431085 0.08783845 0.582531 0.15637031 -0.28394645 -0.4743827 -0.19960704 0.1681019 0.15063411 0.09991251 -0.1086483 -0.2858649 -0.14417133
rojo -0.3735051 0.67597336 0.2533238 0.45114172 0.07250984 -0.31938642 0.4927114 -0.14450786 -0.14625262 -0.1742179 0.24047838 -0.11687368 -0.2204815 0.2944249 0.47936723 0.22627172 0.28929743 -0.6610803 -0.08870691 0.48332098 0.30325165 0.33234128 0.08778223 0.5155569 0.21802607
persona -0.2662086 -0.021982778 0.32592767 0.12163475 0.31474409 -0.69939774 0.2713061 -0.12856542 -0.24661009 0.18791093 -0.01795614 -0.84368235 -0.08159152 -0.041448057 0.8810262 0.23312257 -0.11228423 -0.37760666 0.5576095 0.3064436 -0.06836348 0.7583557 -0.3438998 -0.13452198 -0.07361437
caliente -0.041156366 0.8226862 -0.08045278 -0.1860863 0.53743875 -0.08303259 -0.0947505 0.26002672 -0.12730877 0.50385535 0.5377847 -0.18680999 -0.32572168 -0.23421028 0.8108434 0.3779132 -0.59080535 -0.13942805 -0.029073503 0.29705456 0.24661164 0.10262199 -0.08351315 0.52080834 -0.27206632
rico -0.45770633 0.89344203 0.33284295 0.3154744 0.07883306 -0.0150415 -0.18520957 0.34033427 -0.012507602 0.06686161 0.46458578 -0.00244314 0.077113256 -0.10752039 1.0347952 0.1250898 -0.1914791 0.06050622 -0.31809953 0.28069627 -0.47527504 0.015553707 -0.36834648 0.40992087 -0.37130216
bonito -0.55213946 -0.043801248 -0.124772 0.445749 0.109721765 -0.044131123 0.6302843 0.48967656 0.067243636 0.24637993 0.07261753 -0.08403287 0.37702268 0.20216195 0.9831216 0.51648605 -0.00900324 -0.20662446 0.3722419 0.39300865 0.1631725 0.008642261 -0.3219113 -0.10166285 0.13230553
bat -0.7409511 0.36208987 -0.5101728 0.6497528 0.24507473 -0.68386763 0.7203457 0.72566897 -0.6645172 0.67301536 -0.26457995 -0.44759643 -0.5135327 0.46042785 -0.2026199 -0.8609253 0.20426044 -0.6651599 0.3004226 0.44550338 -0.2883122 0.13779591 0.113822475 0.7898209 -0.5097866
almohada -0.35903668 0.8678608 0.50115836 0.064738676 0.010375926 -0.058997724 0.3506626 0.2655954 0.31220135 0.2684381 1.0512661 -1.1335618 -0.69925934 -0.49246326 1.0470282 0.3350538 0.3284397 -0.4482627 -0.26111045 -0.07083322 0.78476226 0.23620227 -0.267821 0.24976234 0.43325314
mamila -0.46232378 -0.018917069 0.38278085 0.16772644 0.11726868 0.19317141 -0.295808 0.3956138 -0.3770331 1.2752124 0.2305401 -0.17652465 0.13917986 -0.3189278 0.9687859 0.5685565 0.06505131 -0.87777054 0.11111542 -0.401324 -0.20430021 -0.32934102 -0.36706015 0.3635042 -0.9907541
cuna -0.861819 0.21297008 0.47187102 -0.07145533 -0.17982364 0.03392738 0.21470216 0.88312715 0.6591543 0.726766 1.0234102 -1.0016013 -0.014869157 -0.36487228 0.7842341 0.49851835 0.00078598544 -0.41289756 0.9143221 -0.01270141 0.27848956 -0.1172797 -0.6771386 -0.38993746 -0.17289425
manguera 0.039927296 0.25422293 -0.06755 -0.48770106 -0.26240763 -0.2630707 0.14808255 -0.33881965 -0.055471994 -0.18729855 -0.6957193 -1.3994272 -0.04085051 -0.14989297 0.96086377 -0.25212282 -0.64240587 -0.82522607 -0.42493755 0.569126 0.25229067 -0.0036515233 -0.68774474 0.7591583 -0.34052545
feo -0.5193788 -0.10698855 0.44864035 0.58642626 0.08902845 0.12190343 0.37589908 0.23876837 0.17501771 0.4726688 0.30522364 0.09794736 -0.39641613 0.12481872 0.8243397 -0.07057419 -0.4643057 0.1188062 -0.44880855 -0.02363983 -0.21126828 0.12015481 -0.37552977 0.32049283 -0.1887245
ropa -0.45268992 0.021464871 0.13555014 0.021501362 0.43188065 -0.02869201 -0.012455527 0.4065794 -0.016841114 0.3307445 0.12823139 -0.124081165 -0.16351588 0.18692555 0.64143866 -0.38195768 -0.2463451 -0.8433013 0.08615112 0.48558635 0.32253972 0.9148326 0.30167657 0.629673 -0.15956537
negro -0.8690303 0.13291821 0.3631789 0.28633407 -0.05832812 -0.19499636 0.57640296 0.47638288 -0.21722576 -0.053322945 -0.13772236 -0.18453039 -0.25346458 0.2613819 0.89340055 0.18621294 -0.101407796 0.08290857 -0.09570537 0.24913377 0.31525508 0.50236154 0.26518768 0.059129767 0.02030959
maceta -0.29705992 0.26304504 -0.68071175 0.07270407 -0.30221394 -0.50202554 0.5295507 0.15459676 0.26570833 -0.16438204 0.5810674 -0.7982777 -0.41918382 0.06644091 0.012724088 -0.17615841 -0.7136074 -0.79186445 0.022406135 0.64326525 0.026685717 -0.76954687 -0.052926842 0.16603942 -0.98219955
trabajo -0.2656676 -0.089523695 0.16999123 0.27967498 -0.023242492 0.11924333 0.26462016 -0.21080159 -0.08058609 0.44885924 0.28227928 -0.55124265 -0.31025216 0.022916866 0.78054726 -0.65057427 -0.31167513 -0.33209723 0.5117787 0.5730358 -0.040723953 0.15810159 0.59901345 0.6716945 0.19702683
frío -0.30943945 0.65035623 0.18579073 0.54582 0.5017327 0.004578365 0.31777525 0.80030346 -0.019884722 0.15091726 -0.23877807 -0.22830707 -0.20358731 0.1910607 0.5865619 0.38485703 -0.517853 -0.44161704 -0.35359585 0.39661103 0.17450629 0.43781704 -0.25013858 -0.24160579 -0.22451755
diversión -0.5689898 0.4134209 0.3585489 0.40693957 -0.08842096 -0.43544075 0.69519496 0.10703787 -0.46420774 0.33425438 -0.08376772 0.047944147 -0.5065365 0.14218812 0.38986403 0.36191532 -0.28708583 -0.8233635 0.6438613 -0.51440406 -0.015234364 -0.40328503 -0.333326 0.33818805 0.0829709
herramienta -0.22704685 0.5795562 -0.15883182 -0.30278587 0.32865632 -0.43876448 0.43729687 -0.35099435 0.03480904 0.53352594 -0.5094728 -0.92332125 0.015089746 -0.21064265 0.5012192 -0.8751649 -0.5528372 -0.36064506 0.484292 0.4287111 0.49269384 0.09709631 -0.0007180431 0.63836336 0.26359415
calor -0.17306325 0.9609472 0.0768265 0.23844284 0.61322254 -0.0024733765 0.21916297 0.24761485 -0.13468955 0.22844 0.3097786 -0.28395736 -0.32760724 0.05731121 0.43948743 0.21556723 -0.73439175 -0.51689553 -0.40620193 0.33733985 0.59314215 0.59625965 0.06951262 -0.115959376 -0.43844554
juego -0.77122265 0.16047727 0.022069745 0.51201385 0.26880717 -0.34202442 0.32784677 0.38592258 -0.3774878 0.41510656 -0.11469107 0.057230968 -0.40700728 0.23318177 0.36299285 0.07211033 0.10417599 -0.97933733 0.2455783 -0.36520097 0.0729582 -0.5173694 -0.4092887 0.48546496 -0.28552374
amarillo -0.83224636 0.5058336 -0.39879864 0.3540391 -0.045028213 -0.3330829 0.26654354 -0.7491871 -0.11983323 -0.17305115 0.14470042 0.16289742 0.114248216 -0.25353587 1.2341803 0.073160134 0.2526528 -0.27432388 -0.43175024 0.2670073 0.082888454 -0.19479567 -0.3121352 0.15724286 0.033376202
carriola -1.2533494 0.20901267 -0.0697277 -0.05043342 -0.086302064 0.13709229 0.27541292 -0.24423021 0.12210878 0.75485116 0.52551055 -0.29747576 -0.026805736 -0.3121335 0.05394975 0.061492417 -0.10760851 -0.8641066 0.9447065 0.39475557 0.26626003 -0.082990535 -0.5951534 -0.15239969 -0.3789255
reloj -0.019024821 1.1076536 0.68785846 0.006584345 0.2726298 -0.71774954 0.46265972 0.2779283 0.14712311 1.0301236 0.08455672 0.5479194 0.87744945 0.04941938 0.7439934 -0.551141 -0.60132176 -0.6535805 0.7699406 0.49075386 -0.22085282 0.42228666 0.13351238 0.3119071 0.6620247
madera -0.21489497 0.69257647 -0.3910048 0.97112346 -0.47018537 -0.5253529 0.14219463 -0.2686686 0.21018142 0.28078663 -0.13140085 -0.7284148 0.1695145 0.24002948 0.2050631 -0.39872932 0.20107076 -0.39995515 0.28498927 0.37705526 0.770065 0.13580228 0.15382043 0.81114024 -0.29931664
fiesta -0.53321004 0.16447723 0.20341083 0.42125493 0.5275545 -0.3047617 0.2255451 0.5595507 -0.42020687 0.30041972 0.20407544 -0.1370614 0.37795246 -0.07721381 0.7157745 -0.3377086 0.288473 -0.8864373 -0.44395992 -0.2787814 0.21080442 0.3055771 -0.26114762 0.1502076 -0.4838514
baño -0.48972017 0.22308394 0.36433864 0.15907992 -0.32868966 -0.60617965 -0.11340722 0.5098635 -0.16184703 0.3688752 0.1485094 -0.8028864 -0.7725256 -0.07568683 0.5015536 -0.6485742 -0.12304068 0.15901083 0.40623662 0.654748 -0.18508877 0.29027373 -0.083870016 0.2530975 -0.8585094
utensilio 0.22211684 0.723196 0.19201717 0.33752578 0.42787957 -0.13260806 0.18866327 -0.60324615 0.14975637 0.8410429 -0.30633017 -0.33889914 0.20272349 -0.12281586 0.99042314 -0.9152569 0.26389974 -0.12193845 0.29647088 0.51015264 0.4650375 0.49742573 0.185318 0.6462442 -0.68818164
limpio -0.65577865 0.1671554 -0.08430319 0.10646639 0.09775952 0.06302429 0.09450505 0.20473859 0.11906287 0.27041182 -0.11720084 -0.60297066 -0.30664408 -0.4115698 0.78079295 -0.9930503 -0.25839806 -0.18965125 0.04652903 0.30837655 0.18851963 0.23683088 -0.35906935 0.049490422 -0.2633134
fruta -0.6986373 0.7431504 0.2966221 -0.118194535 0.0925319 -0.07485238 -0.078797475 -0.26539925 0.2344803 -0.1294392 0.018816598 -0.39961922 0.23676212 0.636472 0.67771184 -0.057081748 -0.17484637 -0.46773806 -0.5738624 0.0028696575 -0.5820205 -0.17782103 -0.13708247 0.8518391 -0.5202407
limpieza -0.76016456 0.34929857 -0.32303038 0.17331994 -0.0563751 -0.2947378 -0.3175527 -0.453789 -0.062340926 -0.052544363 -0.023832275 -0.92094475 -0.51002866 -0.58370614 0.9589262 -0.52063197 -0.03911853 -0.35671127 0.15018208 0.4745553 0.10443647 0.45302767 -0.031265985 0.007337687 -0.4762859
plástico -0.6469305 0.23385166 0.62219155 0.1892245 -0.07547835 0.05670779 0.22503878 -0.0072655324 -0.29184952 0.6843426 -0.4963778 5.1468232e-05 -0.35206679 -0.121801026 0.7027751 -0.16630542 0.5206745 -0.8488956 -0.08911294 0.038857047 0.47656214 0.38012767 -0.24228385 0.20556577 -0.44733897
sucio -0.63373464 -0.52729774 0.62686735 0.0009930055 0.20986132 0.5068776 0.25293484 0.14543091 -0.08614797 0.30160376 -0.42563492 -0.42927098 -0.22388431 -0.44785124 0.93819624 -0.35930404 -0.25985256 -0.47666666 -0.1600858 0.61937606 -0.20813444 0.5209516 -0.12556553 0.4840226 -0.2931288
roja -0.47975516 0.7622558 -0.083074145 -0.23904668 -0.0700995 -0.34610403 0.22291552 0.27152178 -0.115335606 0.4739826 -0.22982188 -0.5002849 -0.14676069 0.097037174 -0.05440122 0.29723805 -0.18581079 -0.99664444 -0.45184794 0.26943332 0.0925788 0.09662321 0.19502297 0.072007865 -0.63992524
blanca 0.0015625387 0.08779804 0.024181833 0.13878113 -0.34846678 -0.42286298 0.107581474 0.51756036 0.4196329 0.4784927 0.09770936 -0.85611975 -0.60224354 -0.26101968 0.38510337 0.5808607 -0.41982993 -0.5309619 -0.47792476 0.12209314 0.024041373 -0.107942924 0.57466674 0.26660943 -0.87384343
lavar -0.6279384 0.111305475 -0.00816661 -0.1086956 0.31045756 -0.3362836 -0.3263917 0.04687318 0.020014014 0.56182 -0.27546856 -0.80055875 -0.62163216 -0.3597952 0.9138728 -0.7452246 -0.2567852 -0.09198217 0.22620447 0.7088694 0.12033931 0.59306514 -0.10897324 0.09644082 -0.6234309
divertido -0.6594384 -0.1326834 0.28138855 0.5295176 -0.00018364405 -0.04811715 0.67682105 0.31505406 -0.51945513 0.43852177 -0.10955656 0.20229809 -0.5789498 0.2807741 0.8717179 0.35232133 0.026143104 -0.5715681 0.5231188 -0.02777691 0.19182111 -0.64388496 -0.6521563 0.24926965 -0.2499827
protección -0.073931515 0.447521 0.29085466 0.05874888 -0.02597698 -0.14339843 0.6707667 0.40411305 0.45906553 -0.021873895 0.72345525 0.05367092 -0.46901584 0.8832286 0.6592331 -0.3457201 -0.32443064 -0.24619353 0.029853445 0.20783883 0.38427588 0.795213 -0.12487856 0.1411319 -0.60269666
bonita -0.34646726 0.6129753 -0.22304146 -0.25740182 -0.92201436 -0.09361228 0.2247791 0.47807345 0.3394749 0.6159431 -0.070882306 -0.4989608 0.034944173 0.05261027 0.30615747 0.10193704 -0.5172682 -0.8686287 0.7161047 0.26314655 -0.04355661 -0.00081459817 0.17385858 -0.2548918 -0.29116905
gris -0.7374317 -0.26750132 -0.40523228 0.045633662 -0.14129113 0.17781046 0.45082217 -0.060669806 0.5366055 0.16312812 -0.33852786 -0.45310143 -0.33171117 -0.16934013 0.5969916 0.12094529 -0.64804053 -0.56756914 0.04365848 0.09941703 0.069311365 0.00035069362 0.19186103 0.12138852 -0.191898
correr -0.7412731 -0.45541432 0.19088826 0.20924775 -0.38444117 0.012485854 1.1767282 -0.48166257 -0.16115035 -0.038505528 -0.1354291 -0.27023298 -0.4734074 0.63060635 0.4842837 0.07778549 -0.45859152 -0.7318574 0.15501471 0.27157575 -0.3542245 0.18991001 -0.21022974 -0.10253229 -0.35398066
ruido -0.453894 -0.48930863 0.3897031 0.5821045 -0.051800035 0.03386445 0.65757155 0.29084098 0.20730814 0.11685502 0.18064444 -0.07679138 -0.034780446 -0.20412266 0.5431675 -0.3030456 -0.5403705 -0.21199596 0.7080958 0.7293783 -0.14347418 -0.34579682 -0.18129767 0.63541764 -0.112906784
sabor -0.5361565 1.259287 0.03513101 0.20838282 0.21292326 -0.25791845 0.080710284 -0.06574441 0.15047975 0.14660217 0.1595825 -0.40634567 0.37213185 -0.14874981 0.6171754 0.4975248 -0.10880528 -0.15094094 -0.36709112 0.07536832 -0.638008 -0.21339817 -0.5229192 0.31215975 -0.4980313
mujer -0.51874614 0.55799764 0.23230994 -0.37246138 -0.25796384 -0.39181358 -0.13640977 0.20007247 -0.118168965 0.30253205 0.15163502 -0.36826196 0.35917497 0.7271947 1.1006423 0.2930542 -0.110368274 -0.7347544 0.016207019 0.42806786 0.3153847 0.60752124 0.06086378 -0.49374694 -0.24721621
suave -0.12392988 0.98502624 0.3113283 -0.48652112 0.12568612 -0.33521867 0.29237062 0.05749901 -0.1377576 0.701036 0.5476437 -0.47271794 -0.55089295 -0.003621243 1.0032576 0.30196947 -0.03194613 0.22759466 -0.07466396 0.41135085 0.23062265 -0.15549703 -0.7083474 0.07948575 -0.039232004
bosque -0.16326609 0.1975181 -0.22992298 0.13602468 -0.41862604 0.4807525 0.56317735 0.36762112 0.3904465 0.21109244 -0.034218125 -0.75998926 0.3186831 0.7285642 0.78476655 0.31154272 -0.2893918 -0.56235987 0.23841569 0.72442615 0.2603233 -0.75294304 0.2838404 0.4233135 0.082717784
lindo -0.6288914 -0.01675832 -0.3351633 0.11607324 0.043445334 -0.019716768 0.45254514 0.17952539 0.08922868 0.75320524 0.0031451872 -0.10715448 0.18340364 0.4301551 1.073343 0.14747807 0.30611625 -0.15478648 0.051860504 0.5744753 0.070840016 0.3604647 -0.2500917 -0.1612283 0.03178341
mamá -0.70409685 -0.050925914 0.40515628 -0.16879927 0.11920589 -0.20508832 -0.14998919 0.08238833 0.037055492 0.9788621 0.54955816 -0.028093133 0.43766597 -0.5542434 0.42130068 0.17343998 -0.40146556 -0.5602267 0.14030258 0.53380626 0.36360472 0.20126386 -0.32502496 0.22486357 -0.42116782
amor -0.46349716 0.19045147 0.2539515 -0.32788 -0.30156466 -0.19109203 0.82588613 0.35369763 -0.14724936 0.41866922 0.6291385 -0.24166939 0.30656555 0.21818767 0.8362688 0.3250215 0.33458972 -0.240185 0.14432593 0.4634449 0.27268025 -0.22026087 0.22936422 -0.30438358 -0.61746156
parque -0.56060207 0.30619976 0.2655142 0.13259678 -0.22297265 -0.30547142 0.76424813 0.28979224 -0.23213468 -0.09580839 -0.10760618 -0.07371806 -0.31709754 0.5963877 0.6455124 0.25513268 0.14269413 -0.7011414 0.42275164 0.3187166 0.28379112 -0.9525832 -0.10888104 0.1265694 -0.5001256
delicioso -0.6805127 1.2959812 -0.030945895 0.15965536 -0.067294426 0.0941554 -0.12356379 0.18221869 -0.23413911 0.2282346 0.41186273 -0.15148667 0.19418383 -0.46142447 1.0872661 0.52436125 -0.18404551 0.33706307 -0.4092965 0.22254863 -0.7069399 0.060237292 -0.28357735 0.611017 -0.3653017
miedo -1.0266231 0.0069709076 -0.10831427 0.28191167 -0.41971222 -0.11751208 0.96295357 -0.08867582 0.30017146 0.3595272 -0.10003682 0.63223827 -0.40400144 -0.24280858 0.73131454 -0.23240802 -0.44497257 -0.3339484 -0.37159657 -0.27916205 -0.43182683 0.058998156 -0.53156334 -0.24812572 -0.15510243
color -0.4572732 0.8292503 0.07552737 0.032906562 -0.16541433 -1.1924553 0.27943408 0.046407573 -0.15166488 -0.08006917 0.11339834 0.12563236 0.18313412 0.26631442 0.8173481 0.21284978 -0.24903053 -0.28550807 -0.58352035 -0.063862644 -0.1377716 0.05324301 -0.22515316 0.3748847 0.22641392
muerte -0.46335667 0.31781378 -0.41198584 0.21713004 -0.8519251 -0.05033333 -0.061363343 -0.071147785 0.8933796 0.8042116 -0.41749704 -0.13040039 -0.13378853 0.12616704 0.76874864 0.1801591 -0.40235585 -0.09389063 -0.06709263 0.390344 0.29383573 0.41435093 0.34036645 -0.21452639 -0.8050868
mamífero -0.6932054 -0.055826902 -0.4624462 -0.068039574 -0.25892308 0.16691467 1.0041595 0.6162713 0.53129 0.4668512 -0.20350543 -0.33192256 -0.5083305 0.46115798 0.7652866 0.7189882 -0.46935162 0.043475483 -0.11508472 0.64138407 -0.41183677 0.069641806 -0.18591467 -0.061141804 -0.15902856
accesorio -0.27776122 0.36594957 0.26342812 0.003516482 0.104902774 -0.6028883 0.31087762 0.27043688 -0.25923184 0.31827044 0.10606805 -0.11029761 0.119274646 0.52244097 1.2245865 -0.4721542 -0.21526144 -0.36855727 0.06714232 0.23018011 0.14645524 0.9774866 0.79414874 0.15431912 0.32307187
transporte -1.1594771 -0.1760246 -0.34103715 0.5642368 -0.32794422 0.25566894 0.3602692 -0.6125751 -0.23846917 -0.025853194 0.40316388 0.12098554 0.0006600976 0.26002118 0.8005717 0.29133803 -0.32589194 -0.44840333 1.0207342 0.37377456 -0.09319045 0.100929685 0.13387442 0.42083517 -0.32039776
postre -0.93944603 1.1726999 0.29785848 0.043024123 0.34476352 -0.16637443 0.2886416 -0.1751084 -0.13999067 0.42136988 0.29574707 -0.4407317 0.31639677 0.2909797 0.26964012 0.27231574 -0.0072307414 -0.112747744 -0.7127815 0.16621973 -0.4086953 -0.23349124 -0.23882186 0.38996992 -0.71106446
dormir -0.27461836 -0.18667722 -0.03669426 0.13934654 -0.13877162 -0.49015215 0.26590675 0.2516943 0.75489086 0.35253102 0.900914 -0.9441909 -0.36758408 0.25772813 0.87118286 0.79152966 -0.08545956 -0.2038034 0.40932983 -0.14787811 0.50452405 0.4015217 -0.28504694 0.058348395 -0.2601218
rápido -0.904401 -0.053621855 0.099405825 0.5855521 0.15651865 0.34261003 0.89306426 -0.34151468 0.07179129 -0.10744219 -0.38581416 -0.060581118 -0.16102745 0.010772341 0.94353956 -0.097830184 -0.45848304 -0.1908743 0.4649777 0.8045105 0.18010423 -0.119496755 -0.13401292 -0.042061474 0.31284907
carro -1.0221124 -0.19619885 0.28145033 0.027899597 -0.75015587 0.30436125 0.684107 -0.4242051 0.10160231 0.10235842 0.3876447 0.17702894 -0.2597194 -0.09097282 0.3932178 -0.11005492 -0.7195164 -0.48666662 0.41341338 0.2922293 0.158346 0.13372159 -0.5017426 0.51380694 -0.17321943
negra -0.3386521 0.4987787 0.07912181 0.31053942 -0.14154033 -0.05322547 0.5802627 -0.2961509 0.6851942 0.49795383 -0.3599271 -0.55436033 -0.5956002 0.21494615 0.05409893 0.13090587 -0.5477278 -0.79022247 0.16442561 0.19991028 0.036050517 0.12032181 0.50247246 -0.02896541 0.006664523
peligro -0.5048374 0.630449 0.02773153 -0.05478526 -0.62388086 0.33178556 1.3719205 -0.7611948 0.205565 0.42252067 -0.4389518 0.3032367 -0.21294414 0.22660814 0.73240924 0.024514163 -0.28000635 0.0022653951 -0.11447337 -0.068989195 -0.2134644 0.15256791 -0.09136969 0.06417884 -0.32983196
alegría -0.082928695 0.45313767 0.88630176 0.0662298 -0.46978182 -0.79786026 0.7355833 0.00033261086 -0.42524657 0.28218472 -0.21604082 -0.20234044 -0.42708123 -0.5011291 0.7850543 0.5961659 -0.15576066 -0.65485024 0.060161725 -0.2031459 -0.415472 -0.46095642 -0.27838486 -0.14157422 -0.12752713
hombre -0.7456383 0.15788472 0.2489921 -0.19887176 -0.08832448 0.4377135 0.6727034 0.116161846 -0.14609541 0.17798464 0.008695146 0.028294902 -0.8879593 0.6209031 0.7646218 0.05539174 -0.39961356 -0.44322038 -0.022209203 0.029221408 0.14578293 0.32632664 0.13736184 -0.04400314 -0.4500722
crema -0.36767304 1.046211 -0.11044049 -0.18763244 0.05085949 -0.45476064 -0.35415927 -0.1590566 -0.32616532 0.19832644 0.3798937 -0.16697356 0.3809299 0.075428315 1.1819298 -0.063625604 -0.08723015 -0.12677139 -0.18409333 0.62312454 -0.70502555 -0.27480483 -0.4071242 0.4205567 -0.5964028
tela -0.18796404 0.42974728 -0.26645997 -0.21969272 0.26875046 -0.71513563 0.04917571 0.29831442 -0.14174873 0.39059383 0.117162466 -0.14200822 -0.9641792 -0.09498844 0.7316483 0.10130748 -0.41141334 -0.98807937 -0.4796345 0.89859104 0.49710524 0.6061037 0.06486853 0.15217316 0.12573501
cuarto -0.38478547 0.6271734 0.73324615 0.37800035 -0.29976997 0.023954477 0.032709386 0.47961816 0.59222895 0.13174991 0.45286483 -1.1872294 -0.13030553 -0.11093602 0.5469612 -0.21557058 -0.36922023 0.010524837 0.6987654 0.13868567 0.7299421 0.63445085 -0.18788947 0.19843467 -0.2113971
piel -0.5075604 0.19839318 0.22560166 -0.20127957 0.534953 -0.18767385 0.7397248 0.055129144 0.46042818 0.7536873 0.3160694 -0.38441733 -0.4218056 0.55615115 0.59035844 -0.030402493 -0.18678845 -0.20832422 0.10416624 0.6178827 -0.042897914 0.4082773 -0.5520607 -0.20255306 0.39889327
hambre -0.5282606 0.58212477 -0.19780852 0.03496352 0.3892986 0.122726396 0.22581175 0.17733307 0.09728512 0.96367085 0.40083057 -0.14582747 0.4922682 -0.21800415 0.35914734 0.112001196 0.13583247 -0.36282766 -0.4196447 0.13834119 -0.6272629 0.03809647 -0.32533273 0.57597536 -0.9179598
tierno -0.67590564 0.00085768866 -0.176054 0.4253568 0.38144803 -0.19431353 0.59234506 0.4761812 0.27217522 0.68599725 0.11799359 0.28921372 -0.055079512 0.47021607 0.89027894 0.5929763 0.29716206 -0.12231006 -0.05906496 0.5028219 0.08300803 -0.46885505 -0.6269944 0.14348295 -0.32648626
infancia -1.0545206 0.19901688 0.37599462 -0.0030143994 -0.16104144 -0.48044422 0.3866621 0.25875422 -0.49851173 0.3906978 -0.07301464 -0.028445693 -0.32075903 -0.44501355 0.42309618 0.41171953 0.20108236 -0.6539155 0.9488893 0.26924816 0.40089956 -0.65250564 -0.3726914 0.12715067 -0.7368664
noche -0.33838707 0.47497183 -0.4912031 0.43297592 -0.48793763 -0.10996944 -0.34873042 0.65187067 -0.1319806 0.8903086 0.25888094 -0.50351286 -0.04554576 -0.26199213 1.011996 0.6118384 -0.22771876 -0.24788064 0.052839756 -0.5623139 0.22861385 0.108457655 -0.11549029 0.25798455 -0.112433225
vida -0.25496998 0.332137 0.25816935 0.38541782 -0.1189208 -0.14543165 0.25538877 0.29453677 0.12874454 0.07096563 0.6147801 -1.0128026 0.16641057 -0.3025553 0.49669328 0.15987855 -0.6307751 -0.6324446 0.3444539 0.07774283 -0.04575039 -0.7886166 0.2712688 0.048195478 0.1650748
amigo -0.76491684 -0.1314926 0.2826427 0.17751296 0.13412969 -0.4522789 1.1331112 -0.10877541 0.14702258 0.26754916 -0.22184429 -0.21076526 0.48565128 -0.12301726 0.27900955 0.5776768 -0.28276807 -0.18312438 -0.18441187 -0.03702596 -0.44472092 0.19971317 -0.14618084 0.20759545 -0.19934586
pequeño -0.828381 -0.23114838 0.66345257 0.15515003 0.1831511 -0.5658522 0.5497613 -0.08534549 -0.16582553 0.59862155 -0.20999935 -0.08505821 0.5201025 0.48356745 0.88080573 0.19206282 0.23418096 -0.5316339 -0.32560802 0.57965463 0.20688736 -0.054770455 -0.3230746 -0.26589954 0.061194316
limpiar -0.29951978 0.46349296 -0.210971 0.39114094 -0.067926235 -0.40561348 -0.14383544 -0.23670657 -0.09341565 -0.06671584 0.020001322 -0.7484893 -0.26694083 -0.4015635 1.2036093 -1.0287492 0.03528953 0.027838852 0.18391563 0.7042563 0.114774406 0.3308541 -0.18582441 0.10011648 -0.67558235
cielo 0.03225529 0.86746395 -0.26888335 0.90139186 -0.55471617 0.21724989 0.7399788 0.4025091 -0.010215621 -0.10320571 -0.0235525 0.25267053 0.39717773 -0.40795606 0.9168274 0.086039335 -0.54874355 -0.3346896 0.1978002 -0.11472427 0.7670139 -0.17121312 -0.08446666 0.21492459 -0.28099832
cubrir -0.3025094 0.75523376 0.085259624 -0.16102035 0.3756203 -0.20166568 0.26865566 0.60236895 0.08159992 0.406418 0.35346588 -0.25900573 -0.9595812 0.37663618 0.7401478 -0.22688015 -0.40668696 -0.4023188 0.008977277 0.40172762 0.6344094 0.71364987 -0.041310236 -0.16980098 -0.107340105
luz 0.0041316934 0.61286443 -0.052002363 0.32418382 -0.69588745 0.11146114 0.19383325 0.244866 -0.061209008 0.27002636 0.5079974 -0.60083723 -0.06516458 -0.4400037 0.4172354 -0.21326926 -1.1255188 -0.20385343 0.4256176 -0.03874489 0.37921745 -0.011242041 0.09605582 0.55698806 -0.35631603
aire -0.4613893 0.67929196 0.07689928 0.22722903 -0.24229802 -0.41096497 0.544414 0.41257706 0.23457223 -0.5444058 0.012588429 -0.00035403916 0.020291766 -0.00442234 0.6842773 -0.3449421 -0.13009304 -0.6737157 0.29216373 0.6724408 0.8747261 -0.53146607 -0.277729 0.11972929 -0.07862358
granja -0.63701767 -0.067872055 -0.23411895 0.09838798 0.3371012 0.11019631 0.55606854 0.31590447 0.5328198 0.09046175 0.59681946 0.11715981 -0.080243856 0.25362453 1.1008532 -0.13002832 -0.08684112 0.08802126 -0.39614746 0.4196206 0.24142835 -0.49791113 0.3045827 0.7353655 -0.32637078
comodidad -0.39091277 0.19731697 0.04367504 0.51733625 0.47272968 -0.21537738 0.21688847 0.19214055 0.5154126 0.14320801 0.86786616 -0.67153484 -0.49859658 -0.3754594 0.5037029 0.14729612 -0.26551872 -1.177398 0.023381721 -0.03128113 0.69183975 0.72452104 -0.23389217 0.14809991 0.24742304
basura -0.8631718 0.1437962 0.17524564 0.013163015 0.2152603 0.19429608 -0.36054426 0.02339096 0.24595863 0.44694185 0.21412371 -0.56974524 -0.20222843 0.0703879 0.47144043 -0.23609982 -0.44601133 -0.6863349 0.2516455 -0.211284 -0.7942818 -0.14724678 0.42470255 1.0079567 0.12346754
largo -0.7209336 0.62885046 -0.15948002 0.19087407 -0.37546867 -0.38665035 0.38230515 0.20773537 -0.25992763 0.19449043 -0.24324556 -0.3715087 0.2943808 -0.088309355 0.63174266 -0.1842916 -0.44906232 -0.16695367 0.08088087 0.89186704 -0.2677302 0.24929568 -0.18958232 -0.38251415 0.61818784
nieve -0.20846748 0.79188746 -0.1488833 0.3903921 0.2966507 0.41049233 0.5494728 0.4933534 -0.20667522 0.4628528 -0.18664238 -0.12987651 -0.18349518 0.6642032 0.42167386 0.28653207 -0.8562147 0.011286498 -0.02300027 0.3673431 0.38905922 -0.05173253 -0.5842281 0.28200054 -0.40980032
asco -0.14523381 0.40327704 0.7414528 0.17765838 -0.25127062 0.1721169 0.3985425 -0.14975594 0.675623 0.5824952 0.2767376 -0.25636846 -0.0952852 0.6043943 0.6928296 -0.6359343 -0.35340613 -0.51902586 -0.4969851 0.0009951122 -1.0976759 -0.12511517 -0.6712948 -0.014535062 -0.17816971
desayuno -0.69355834 1.3461922 -0.07287748 0.14457792 0.34114853 0.016066097 -0.58728075 -0.13007993 0.5584587 0.30225152 0.004254969 -0.38772932 0.06730346 -0.16741699 0.740435 0.13707998 -0.026519686 -0.15369792 -0.097150445 0.046703637 -0.4575757 0.13601506 -0.60545987 0.8739893 -0.427113
paseo -1.0710036 -0.098112464 -0.45678863 0.34838328 -0.06431794 0.33253932 0.6731924 -0.13857634 -0.27302787 -0.1744626 0.28453916 -0.31432837 0.06409193 -0.02366381 0.82617044 0.18038025 -0.438722 -0.58233184 1.1399733 0.4147889 0.09414433 -0.17648298 -0.16412647 0.03576726 0.1885155
instrumento -0.81989753 -0.0362949 0.105604276 0.37596688 0.34809977 -0.5054215 0.25023898 -0.08291611 0.4510809 0.8337215 0.22646716 -0.7153829 0.38453904 -0.20249294 0.21523602 -0.72882855 0.06413115 -0.022940952 -0.05333658 0.508689 0.74754375 -0.22545883 -0.065364964 0.6713817 -0.3711518
fresco -0.07597282 0.8171985 0.2630305 0.9486172 0.44501942 -0.14148204 0.08206315 -0.09310527 -0.17691553 -0.08148543 0.04928495 0.17374739 0.15929638 -0.4639137 1.0071148 0.03642854 -0.5343002 -0.54811406 -0.7217903 -0.108223386 -0.07458322 -0.0717115 -0.6357137 0.11412995 -0.7477091
necesario -1.3286362 0.23840535 0.2602249 0.27571708 0.093754426 -0.4521929 0.26922593 -0.07736738 0.11921916 0.50646865 0.09387501 -0.028809702 0.29797533 0.22192545 0.38704243 -0.5083252 -0.00030856297 -0.06638728 0.5305402 0.30979303 0.032947995 1.075103 0.37354285 0.24307281 0.08394791
libertad -0.38615152 0.3244885 -0.055329084 0.73807114 -0.5241513 0.12668169 0.959306 -0.06228882 0.10504377 -0.2853787 -0.12723891 0.098305464 -0.11924613 0.03933863 0.98001856 0.17303728 -0.2256853 -0.7732588 0.742885 0.4626493 0.3322349 -0.53673387 0.48398566 -0.20437649 -0.0642309
fuerte -0.72165453 -0.11136946 -0.37043053 0.44140697 0.12862502 0.21293373 1.290666 0.12247148 0.3100921 0.36056465 -0.4500508 -0.75235194 0.3079765 0.1698999 0.14512192 -0.36243093 0.018118154 -0.26850554 -0.0026145778 0.22212274 -0.017203469 0.16080484 -0.18182705 0.11903505 -0.20531149
jardín -0.019034779 0.32572702 -0.043652933 -0.03401365 -0.5930193 -0.7627545 0.34600493 -0.14318244 0.19263908 -0.1909996 -0.0046702363 -0.6998471 0.13857651 0.03052551 0.5824269 -0.3927517 -0.62798375 -0.9997129 0.03837414 0.32306546 0.47696215 -1.0411876 -0.66631633 0.12605569 -0.6268673
película -0.30855292 0.039001923 0.44144112 1.2135541 -0.39346763 0.70141625 1.20537 -0.015499788 0.2743413 0.28333807 0.44247353 -0.38451654 0.08242249 0.16828556 0.3419223 0.88299286 -0.6321636 -0.27656755 -0.21869624 0.29558823 -0.20894437 0.17474304 -0.11736107 0.2151707 0.27997804
amarilla -0.4450962 0.517282 0.12921484 -0.58980197 -0.21119581 -0.42580456 0.09786901 0.5154632 0.4939816 0.0077176546 0.049742296 0.16604608 -0.18942538 -0.047495164 0.60307294 0.38712683 -0.7914737 -0.75695074 -0.24358912 0.047754943 0.15167202 -0.6724339 -0.11243425 0.31158412 -0.60828185
cabello -0.43870616 -0.07967606 -0.39429393 -0.17744803 -0.30137923 -0.16832078 0.409073 0.803265 -0.42466697 0.5401049 0.25005844 -0.40335882 -0.3531859 0.16563019 1.3656389 -0.6569643 0.3469465 -0.118074074 0.4154586 0.81122655 0.13808838 0.5394536 0.039961904 0.010660502 -0.078381576
sonrisa -0.7167067 0.6385883 -0.096816175 0.6616649 -0.38452637 -0.4305425 -0.0011883427 0.27758124 -0.5348926 0.5594598 -0.100338705 -0.25291705 0.013180417 0.012511151 0.9928599 0.58011866 0.17838204 0.22316958 0.32065517 0.2073629 -0.56096905 0.7030663 -0.75761306 -0.26599887 -0.4690631
camino -0.59804827 -0.10620547 -0.13296722 0.13273928 0.2584042 0.4182733 0.5994239 0.09836222 0.29880267 0.24573669 -0.097914465 0.0026680506 0.04019441 0.068806864 0.5511209 -0.29799354 -0.99683803 -0.6421867 1.3752966 0.32581443 -0.5316933 0.07792469 0.04481645 0.41899753 0.13514659
azúcar -0.8375164 1.3663316 0.59110034 -0.118580654 0.32064936 0.51379913 0.32874882 0.014097446 0.024353828 0.73492426 -0.28173944 -0.57181567 0.52347094 -0.013363588 0.43202513 -0.14016575 -0.14257054 0.1785972 -0.3487971 -0.16341394 -0.109502055 0.06024572 -0.49400848 0.4152345 -0.5846882
viaje -1.137977 -0.14414766 0.0457051 0.75434124 -0.5015439 0.3467355 0.17984915 -0.6028429 -0.07048195 0.097089835 0.13135935 0.37011668 -0.23392554 -0.3957597 1.0491395 -0.21836308 -0.04455705 -0.8724243 0.3102158 0.49149102 0.22561155 -0.34868094 0.28889516 0.18919607 0.0029149097
antojo -0.4195923 1.038209 0.18692939 -0.38493678 0.12112398 0.03264991 0.6825225 0.25563154 -0.16263187 -0.032198116 0.54014647 -0.1222403 0.6681022 -0.12769948 0.68164086 0.37530127 -0.4232802 0.09811591 -0.38346103 0.1561299 -0.5732848 0.046364747 -0.22155233 0.7497189 -0.8360533
fea -0.38639063 0.60791796 -0.019028157 -0.35720944 -0.76872534 -0.12752466 0.18707804 -0.19494225 0.66059613 0.6107574 -0.44140303 -0.04441297 0.037008695 -0.009292826 0.73754174 -0.51598585 0.29698342 -0.6383323 0.09413726 0.6512117 -0.14099778 -0.24610332 0.20383224 0.009665416 -0.59794486
sabroso -0.5483249 1.1483802 -0.04083057 0.37027758 0.21565138 0.030568626 0.16992986 -0.033909746 -0.16327572 0.19952251 0.36122712 -0.008135307 0.48982882 -0.2693672 0.764081 0.49407095 -0.4237954 -0.1204852 -0.8480028 0.14552689 -0.65554893 0.080947 -0.48041564 0.6843091 -0.43809068
gente 0.041628018 -0.16905776 0.17347364 0.0037642394 -0.37882093 -0.29916334 0.68568236 -0.7533331 -0.057184234 0.48118916 0.4310868 -0.55702335 0.12564228 -0.47803223 0.6540677 0.08246742 -0.43040967 -0.5395195 0.4972095 0.36635175 0.124196425 0.8252509 -0.16050515 0.45809966 0.013803653
gordo -0.69885254 0.1695444 0.32512715 0.36114267 0.5439282 -0.32071203 1.2851716 0.49645156 0.6826126 0.116275586 -0.0060390267 -0.090660185 0.0169205 -0.32072765 0.60335857 0.049137577 -0.32786646 0.42285764 -0.40617484 -0.23251627 -0.34427142 0.18665603 -0.12076551 0.15680209 -0.07329064
jugar -0.85636157 0.6135095 0.011504781 0.044531506 0.0713027 -0.5993726 0.6141346 0.3445799 -0.61100537 0.30729097 -0.300911 0.16802393 -0.42457983 0.12586007 0.2619114 -0.07490993 0.34702423 -0.8571482 0.9858306 0.12100767 0.122484416 -0.2594227 -0.1869524 0.3948978 -0.40046445
olor -0.62251395 0.19523513 0.2368983 -0.1012503 -0.045956653 0.69158506 0.19846289 0.7323813 0.35758245 -0.030071286 0.4590518 -1.1340567 0.009827123 -0.58170855 1.1260993 -0.21846174 -0.3360629 -0.51121736 0.05086351 0.27375585 -0.75090355 0.042265747 -0.029795032 -0.5495711 0.034732074
redonda -0.5910316 0.9001327 -0.049351662 -0.15807496 0.13442029 -0.15491544 0.22998016 -0.037342798 0.29140794 0.41933277 -0.56275856 -0.4073119 -0.109920606 -0.5698561 0.32002228 0.018127419 -0.15201725 -0.5103931 0.38570243 -0.28112692 0.017771909 -0.27680823 0.21217746 0.15384084 -0.86503494
cuerpo -0.48935494 0.7915209 0.47614017 -0.32548565 0.5140107 -0.89323115 0.39932707 0.47119915 0.38308182 0.10998567 -0.6575673 -0.79452044 -0.29045027 -0.19810344 0.7827384 0.010963462 -0.24649431 0.2023479 0.5359657 0.025947388 -0.4456472 0.8806033 0.023174122 -0.12220451 -0.13726155
