niño -0.4187977 0.073505715 0.12422118 -0.02628397 0.11415749 0.22742757 0.2840128 0.31415364 -0.3209484 0.033191293 0.0979631 -0.26723185 -0.063577645 -0.08557321 0.47001103 -0.050428465 -0.17949422 -0.7502799 -0.3041164 -0.23537084 0.05024666 0.17477554 -0.40437117 -0.059369717 -0.16207631 -0.84060943 0.07881329 0.20005949 -0.653298 0.21843502 0.016030163 0.14317189 -0.20786196 0.1993493 0.17175506 -0.17973639 -0.03768063 0.03036405 -0.19217701 0.38305405 0.100013494 0.30565402 0.36535326 -0.008194596 0.20461428 -0.10427913 -0.21793133 -0.25412384 -0.2338803 -0.51462704
calle 0.12928452 0.1882314 0.34626564 0.095858805 -0.36107552 0.2794799 0.7687733 0.3632188 -0.041766245 -0.15727371 -0.24671744 0.04412334 -0.05617161 -0.39721817 0.5198204 0.06537262 -0.4466475 -0.83192384 0.24369094 0.13828966 -0.17984058 -0.042237036 0.40561333 0.27811635 0.30377942 -0.72739494 0.06958828 -0.5753385 -0.4743356 0.12612951 -0.681544 0.27711484 -0.120602846 -0.1801553 0.5722338 0.40379733 0.33001453 0.18533294 0.62681776 0.03722397 0.44452643 0.1801328 -0.13318007 -0.0027172226 0.120389596 -0.29040813 -0.07105531 0.17970979 -0.15102267 -0.2816572
computadora -0.4647914 -0.2514625 0.82332295 0.5037212 0.20378001 -0.5994263 0.41945666 0.37339124 0.017021077 0.4853209 -0.23720531 0.0044336612 -0.423045 0.09918564 0.15616977 0.06801185 -0.10556421 -0.42154992 -0.0024305899 -0.39363283 -0.21651766 -0.14638706 0.34006992 0.49263287 0.70128214 0.33462834 -0.050768007 0.1415576 -0.47932065 -0.24656752 -0.7402236 0.1435144 -0.35266313 -0.121880576 0.0025686757 0.22945932 0.12676014 0.147423 0.19009848 0.102667905 0.12645711 -0.27856565 -0.33016175 -0.47571835 -0.009215709 0.31307933 -0.54791725 -0.25192875 -0.47472382 -0.63052005
camión -0.28964183 -0.30240542 0.36052892 -0.15887398 0.13792944 0.03732513 0.58375275 -0.54643136 0.047821954 -0.25593528 0.38910505 0.35693768 0.0071785413 -0.17874055 0.44060066 0.37448123 -0.92103565 -0.4086045 0.19349633 0.1963506 -0.59881645 -0.11347087 0.05162081 0.40041927 0.23991124 -0.64933705 -0.03610326 -0.12312936 -0.07736998 -0.5491885 -0.65638244 -0.43665275 -0.20999676 -0.006464183 0.23431955 0.17253348 0.18718256 -0.048758987 0.30737838 0.41365105 0.061403878 0.37011996 -0.09361072 -0.07856187 0.29212135 0.16359104 -0.05168396 -0.19191635 -0.32057238 -1.1327747
dulce 0.24197058 0.28393954 0.014107602 0.39758363 0.21751001 0.16793132 0.21379629 -0.034288134 -0.33231845 0.6111895 0.42605326 -0.046056546 0.005390328 -0.24375711 -0.09996435 0.10392834 -0.57038665 -0.29155904 -0.014218271 -0.2469832 -0.17314467 -0.38190338 0.31794363 0.53418034 -0.32044876 -0.4145466 0.4858552 0.11710925 -0.40991277 0.12918666 0.5923102 -0.1755556 -0.40973508 0.031169929 0.21353702 0.14374703 0.23047435 0.6468462 -0.3747912 0.0670344 0.032103457 0.59792566 0.44170207 0.16768114 0.0017097823 -0.032813292 -0.15161364 -0.5964927 -0.39911628 -0.18621196
dinero -0.75278854 0.48000926 0.36697078 -0.060339812 -0.09023122 -0.1316212 -0.13023338 -0.19650221 -0.039464742 0.11937501 -0.055113114 -0.54771763 0.17301457 -0.16716315 0.65879154 -0.20109987 -0.55632305 -0.40531227 0.36551544 0.15513034 -0.19633129 -0.23653007 0.20029578 0.7769818 -0.21768479 0.09563224 -0.14200485 0.2365338 0.16489474 -0.4861306 -0.36040154 -0.07416137 -0.209864 -0.2039358 0.09658752 -0.23270117 0.1447688 0.7533434 0.5757076 -0.010236564 0.12950788 0.33933726 -0.39864954 -0.21611665 0.63993895 -0.4803918 -0.40485522 -0.2954336 -0.1237802 -0.4973757
reja -0.5100494 -0.38141212 0.18188865 0.22611237 -0.23078576 0.119630605 0.47108662 -0.2127327 0.4231897 0.30583495 -0.06138179 -0.3635471 -0.22471376 0.26081464 0.5478101 -0.1382874 -0.500724 0.071967885 -0.36077365 -0.22605062 -0.08983143 -0.06400223 0.08937119 0.6937643 -0.55867314 -0.12165923 0.57577497 -0.3332218 -0.59076047 -0.16822012 -0.080865435 0.3477037 0.18855475 -0.3347091 -0.23207334 0.6558901 0.023096284 -0.24506918 -0.25400904 -0.2991396 0.5030452 0.31229725 -0.6058757 0.30242106 0.6073312 0.1454909 0.15499061 -0.20585954 -0.18180618 -0.16886202
agua -0.15904513 0.051353194 0.8445846 0.39774486 0.47871876 0.4732629 0.22991943 0.10265078 0.28622603 0.07118343 0.046071175 -0.3267598 -0.33694753 0.0035755697 0.39647678 0.057097163 -0.1983987 -0.63682926 -0.2834631 -0.0005156054 -0.06089395 -0.19479707 0.1810319 -0.027159225 -0.46687064 0.4311018 0.31107455 0.12635098 0.10712273 -0.5222951 0.034533516 -0.30215922 -0.54883975 0.2699068 0.28640434 0.3928008 0.17827038 0.27727628 -0.25257182 -0.39883086 0.075210854 0.47317123 0.19084235 -0.07951709 -0.13380551 -0.17603245 -0.032899342 -0.2950115 0.06687481 -0.4268364
casa -0.0300175 -0.019955048 -0.074397795 0.42210972 0.23517536 0.08202753 0.17751482 0.1987489 0.26669216 0.38725024 0.1407165 -0.14075653 -0.082642294 -0.076167785 0.66275686 0.17856105 -0.29448316 -0.72216946 -0.19983363 0.2037958 0.30561334 0.45589834 0.16669407 0.514068 0.30412623 0.051525954 0.14542674 -0.07950408 -0.52072287 -0.5697416 0.026699957 0.07314062 0.20258062 -0.249564 0.43793678 0.73417026 0.10265511 -0.060650695 0.28675738 -0.15126035 -0.054892894 0.62928057 0.218876 -0.22447065 -0.12597878 -0.019658677 0.19776934 0.06764889 0.20619074 -0.29277715
tierra -0.09905974 0.14932373 0.59720665 0.4022672 -0.08076892 -0.032786418 0.65994877 0.23447192 0.2977603 -0.27839518 0.10876745 0.08070159 -0.030738944 0.07359229 0.32909107 -0.18649942 -0.08460196 -0.9757774 -0.008368384 0.5975235 0.12657781 -0.16579568 0.52961767 0.34318185 0.17838739 -0.27774835 0.7580144 -0.19538768 -0.0722493 -0.23621471 0.26258564 -0.22535333 0.2513541 0.27484223 0.090190396 0.1973067 0.10776811 0.46508527 -0.11066292 0.2823895 0.6638501 0.18663661 -0.21187697 -0.19032235 -0.45819128 0.062446356 0.17577115 -0.29908955 -0.026781615 -0.008961498
policía -0.42684624 0.17107837 0.12698182 0.14257388 -0.40519756 0.46843544 0.6156632 -0.4931616 -0.40607452 0.0759968 0.71789247 0.5438163 -0.17133717 0.047212895 0.55623657 -0.11717482 -0.6740377 -0.20532663 -0.0042438586 -0.19019188 -0.5546866 0.038356252 -0.45662957 -0.018666591 0.44853538 -0.66539735 0.427346 -0.18355262 -0.37565133 -0.15578748 -0.5923124 0.22778758 0.09673026 -0.33397692 0.27329096 0.15795721 0.8482913 0.65110993 0.05831922 -0.19214901 -0.016733278 0.4945684 -0.38378906 -0.09295407 0.3043517 0.3003535 0.038387336 0.13210642 -0.5646014 -0.13161941
caballo -0.48345992 -0.42074555 -0.026179222 0.015301799 -0.14160345 0.41156524 0.57123095 0.5447531 0.15353355 0.110810064 0.037074786 -0.14174487 -0.50521487 -0.1645131 0.3954479 0.3110162 0.03328334 -0.3858407 0.06350245 0.2510381 0.14171162 0.12910819 0.21547502 -0.021319818 0.19081637 -0.14144434 0.57303596 -0.2477577 -0.13782236 -0.26884264 0.04296963 0.6997876 -0.6936662 0.15987879 -0.09708773 -0.18692228 0.32626152 0.25960168 0.227574 0.063196875 0.0010035757 -0.04694198 -0.1016997 0.10710294 0.8838288 0.38615453 -0.113581486 -0.6675921 0.22178662 -0.8003569
escuela -0.5832467 0.21439591 0.365944 0.37179187 0.4928195 -0.34762895 0.2841981 -0.0069359704 -0.047506716 -0.004861484 0.4569518 0.32789403 -0.3008713 0.0605533 0.7320416 0.37240863 -0.3568182 -0.44953936 -0.05997776 -0.6584887 -0.118329376 0.27685645 0.11010163 0.29518893 0.25713718 -0.24579984 -0.034379765 0.32612604 -0.7720443 -0.08807524 -0.27179027 0.233893 -0.016365724 0.32363456 -0.039825164 0.6022498 0.18440278 -0.22393447 0.40915057 0.068952024 0.17222022 -0.2238306 0.20504633 0.0042787585 0.2790044 0.0012742779 -0.7619884 -0.1336018 0.025430787 -0.6376458
piedra -0.0073008765 0.1604444 0.33727735 0.07189671 0.21731374 0.49917525 0.24496844 0.3513648 0.072632164 0.14903015 -0.085754156 -0.13098358 0.2890238 0.43338725 0.6855509 -0.66938394 0.01224353 -0.37807518 -0.25093505 0.24871515 0.24830645 0.2456658 0.30583134 0.8734107 0.65340024 -0.59856945 0.46256962 -0.40911615 -0.2811596 0.15062036 0.28294307 0.014517343 -0.6157875 0.065544486 -0.23679654 0.6142192 -0.26681644 0.25655454 -0.124887355 -0.019786334 0.1705827 0.34647986 0.07073914 0.1093471 -0.109821 -0.12615979 -0.5765557 0.31403115 -0.06340482 -0.47061223
colores -0.36689785 1.0438262 0.01888226 -0.07531666 -0.21093048 -0.41840062 0.82298535 0.44212937 -0.34655413 -0.028662544 0.4593048 -0.13749869 0.051644024 0.0926361 0.37805623 -0.19766067 -0.27397928 -0.5211854 -0.42872894 -0.38550928 0.39122525 -0.14248684 0.05850271 -0.003991172 -0.11099801 -0.22334717 -0.22040588 0.11148323 -0.3053937 -0.16444768 -0.27708632 0.15847781 -0.3322623 0.54401124 0.07924521 0.25491565 0.25095654 0.003980729 -0.020077711 -0.14237589 0.13319327 0.07683362 -0.041591443 0.3108045 -0.17648084 0.030315258 -0.58862686 -0.661783 0.013307357 -0.17160349
playera -0.7002352 0.80742633 0.41800848 -0.00415861 0.38005832 0.0876574 0.2808618 -0.08107331 -0.34203792 -0.022144515 -0.039873414 -0.37325096 -0.44812727 0.19536734 0.26984197 0.29361925 -0.4137532 -0.7029721 -0.45795485 0.49916825 0.114536405 0.3762697 -0.049509417 -0.05638579 -0.25860482 -0.3355648 0.25035533 0.5353425 -0.52401304 -0.07837978 -0.13770923 0.25234404 -0.5319557 -0.448534 -0.013919947 0.26121905 0.47232094 0.19578308 0.11303291 0.11612834 0.038821455 0.23618875 -0.08294588 0.2538174 -0.34557703 -0.26449764 0.091605596 -0.38243088 -0.1491957 0.116490014
bolsa -0.46805656 0.36541745 0.23595767 0.04517795 0.09276495 -0.6552364 0.23794225 -0.4242778 0.010507973 -0.23541956 0.095853716 -0.22583243 0.1476035 0.21163502 0.82052225 0.04217242 0.1187932 -0.5331381 -0.18145645 -0.25305718 -0.28885317 0.30444112 0.43438402 0.76622814 0.24161778 -0.34771207 0.18191233 -0.15274407 -0.11783133 -0.45708963 0.2005973 0.22337647 0.21588908 -0.18704456 0.060919836 0.2632358 0.3362193 0.53785664 0.26218876 -0.32013616 -0.57406646 0.31354344 -0.70205635 0.08540617 0.3549612 -0.047267944 -0.49692532 0.10450914 0.16687095 -0.31051594
televisión -0.38672116 0.11498851 0.64536977 0.58570576 -0.38422835 -0.3711039 0.28720146 0.053132962 -0.07097653 0.33270848 -0.08591508 0.1555934 -0.34311998 0.32588327 -0.13506448 0.28671262 -0.2915082 -0.71425843 -0.2117687 -0.28611746 0.1497129 -0.14934376 -0.19523734 0.80402404 0.48788196 0.16546668 -0.051245663 0.2573052 -0.3024857 -0.3252902 -0.4309247 0.60469353 0.35370025 -0.068415284 -0.03853153 0.35523438 0.18764721 -0.04944664 0.64168274 -0.23461771 -0.2662224 0.7192715 -0.07765894 -0.1699616 -0.20981468 -0.044151537 -0.36794972 -0.5374117 -0.9970151 -0.5521467
mano -0.21621883 0.5226477 0.8440566 -0.048945066 -0.15007041 -0.19432944 0.10483567 0.03962417 0.42258754 0.12704153 -0.40398923 0.39874554 0.040331688 -0.26907405 -0.054736007 -0.35684103 0.060579196 -0.096687645 -0.11437057 0.119575165 -0.13345876 0.23359752 -0.22862841 0.3809957 0.13182798 -0.44943178 -0.095585674 0.16380867 -0.31679735 -0.3062877 -0.04003025 0.35675195 -0.35813725 -0.2656064 -0.23500118 0.22137064 0.31345716 0.7617065 -0.05145646 -0.14232942 0.095314726 -0.050251585 -0.40940353 -0.2554692 -0.21042262 0.37698957 -0.2707782 -0.12895322 -0.26680055 -1.0133079
grande -0.13521335 0.20484322 -0.07828887 0.30225113 -0.0676005 -0.11190062 0.22218855 0.12173855 0.57081413 -0.016563958 0.18234867 0.19069171 0.01178893 0.053255726 0.18198398 0.04523834 -0.34441993 -0.4902155 -0.46847305 0.21476042 -0.08101245 -0.021872541 0.08770728 0.2526394 -0.08635178 -0.2696084 -0.023064217 -0.09108743 -0.28035644 -0.33121026 0.12798725 0.049577255 -0.15186642 -0.1341268 0.10842367 0.3662911 0.26528984 0.032406375 0.15643936 -0.17904958 0.44626328 0.17496388 -0.18102145 -0.11122753 0.23388009 0.043659158 0.11423732 -0.13245842 -0.13608152 -0.32293057
pelo -0.4771254 0.15108189 0.36759624 -0.20790777 -0.5546117 -0.09389022 -0.014391728 0.7098017 -0.24418359 0.63717836 -0.09517258 -0.57696176 0.03278689 -0.25222382 0.38481733 0.19505268 -0.6719698 -0.07241548 -0.39059582 0.32967216 -0.20981085 -0.1499685 -0.10329546 -0.12358246 0.14450419 -0.25480407 0.5058223 0.18466134 -0.12043984 -0.12426958 0.4942329 -0.27775085 -0.47681487 -0.18302174 -0.086801544 0.10959529 0.44141802 0.68517184 0.065203495 0.14862011 0.11432554 -0.17357501 -0.47762012 -0.034473382 0.32161665 0.11802879 -0.6784493 -0.079656065 0.15771684 -0.37796474
burro -0.1766816 -0.20542924 0.032316037 -0.23659985 0.34665072 0.24616192 0.6408014 0.09372183 0.24658902 -0.3283348 0.23253043 -0.23071177 -0.5218166 -0.15527509 0.42488733 -0.15643215 0.05882304 -0.16828698 0.28547806 -0.076239325 0.09835762 -0.79094094 -0.1703674 0.44295076 0.48274466 -0.5121073 0.1989577 -0.3649264 -0.26911214 -0.09657577 0.09743786 0.22227092 -0.029633032 -0.6660545 -0.33358198 0.06549762 0.76296234 0.14097564 -0.03690092 0.118083216 -0.14187841 -0.1413762 -0.20898192 0.018404271 0.34196046 -0.26576114 -0.4799272 -0.5291408 -0.4393364 -0.70459163
calzón -0.21344423 0.34785846 -0.055141937 -0.12580857 0.40808922 -0.5792988 0.091790915 0.33446488 -0.4741987 -0.194086 -0.06629561 -0.5608475 -0.32334268 -0.071561545 0.63110435 0.255325 0.051283784 -0.34630013 -0.33308807 -0.056926608 0.122294866 0.27790737 -0.25983772 -0.13193294 -0.22052877 -0.45810282 0.60463846 -0.023190934 -0.16425422 -0.4297233 0.30765522 0.10938206 -0.53638256 -0.59744287 -0.1348826 0.19619866 0.27494162 0.49936092 0.29769504 0.044631116 0.96055114 0.39098096 0.06244178 0.22457638 0.1067288 0.29458407 0.26049843 -0.058043223 -0.7776796 -0.26240534
familia -0.006534332 0.3558494 0.47671667 0.22276753 -0.013780564 0.13465455 0.42245412 0.13626489 0.015543726 0.28831795 0.3790625 0.13781397 -0.17055348 0.14450313 0.4584761 0.6135684 -0.29237086 -0.583663 -0.20666173 -0.10564841 -0.19143035 -0.11550993 -0.45217082 0.54445434 0.3226385 -0.24467087 -0.31774783 0.71866333 -0.21660788 -0.26299402 0.54974073 0.67930067 0.4980324 0.047226597 0.2720568 0.60729915 -0.24748972 0.45784774 0.48548147 0.16554368 0.3688847 0.18219648 -0.13442104 -0.5405505 0.085875235 0.1833029 0.022725035 -0.59821147 0.04719646 -0.4284942
bebé 0.1253103 0.08040101 0.14999461 0.124124095 -0.08886882 -0.2198331 0.44646555 -0.011136579 -0.03124138 0.5942066 0.47407648 -0.48213693 -0.42062372 -0.25894877 0.3595825 0.21347846 -0.3385198 -0.4694395 -0.095597416 0.016370192 0.057428446 0.17167357 -0.7087025 0.0054846387 -0.042662468 -0.6325633 0.1884259 0.038843 -0.5674957 -0.29164997 0.13096955 0.18250187 -0.08099687 0.1216923 -0.11458755 -0.3068569 -0.3262748 0.41264513 -0.42355126 -0.11087883 0.24045762 0.40237293 -0.027749268 -0.15656076 0.2333715 0.09820343 -0.44502804 -0.6854623 0.26191872 -0.5548534
león -0.29964605 0.18014547 -0.3672938 0.22460626 -0.28487232 0.64737314 0.25296262 0.27128354 0.44877863 0.10000249 0.36998293 -0.17567202 -0.07383752 0.39697212 0.51714283 0.14805616 -0.10595757 -0.13841812 -0.58661777 -0.47930604 0.04129914 -0.064401604 0.55816793 -0.0057283724 0.24473985 -0.4455586 -0.24586964 0.24999407 0.16526835 -0.039272033 0.3028604 0.12956306 -0.05692041 0.3465017 -0.36019945 0.435044 0.09233617 0.7192377 -0.005480632 0.060169082 0.11676609 -0.07447401 -0.6478745 -0.19345832 0.4581986 0.3464368 0.020297747 -0.73658556 -0.7753987 -0.7335145
conejo 0.10905821 -0.0203301 -0.14707623 0.10859557 0.32662922 -0.046990007 0.78840166 0.36722177 -0.2755338 0.4164979 0.0012588692 -0.21499068 -0.006001538 -0.26808676 0.79463845 0.12603104 -0.29121205 -0.13207932 -0.48535827 0.16609308 -0.26669213 -0.600488 -0.095086046 -0.030926008 0.5477042 -0.16686374 0.29813993 -0.07929021 0.103573546 0.20345375 0.32402924 0.45262846 0.02845552 -0.13528782 -0.16903213 0.2767687 -0.048394144 0.41835013 -0.22913335 0.34571335 -0.20483631 -0.024310447 -0.70505905 -0.1961624 0.15137647 0.4552933 0.23476328 -0.7296953 -0.29488638 -0.49631906
oso -0.15325385 0.46487045 -0.3231019 0.03006413 0.24220653 0.3976491 0.22552031 0.5449262 0.40769517 0.32101843 0.04877871 -0.32658622 -0.67721117 0.10610324 0.52898765 0.23812184 -0.113339305 -0.07349072 -0.1626968 -0.06558818 -0.07812862 -0.46961233 0.14579727 0.38359287 -0.1322017 -0.88882476 0.09374183 -0.07741902 -0.15923496 -0.42326403 0.7308978 0.018396774 0.27592078 0.11505176 0.037526723 0.15200494 0.1599941 0.45524037 0.064841926 0.36642748 0.42939514 -0.1435301 -0.37026414 -0.52011085 0.035707507 0.3384572 0.034517683 -0.3807841 -0.53314143 -0.22013481
carne -0.13092215 0.024840647 0.15650344 -0.058881953 0.29998356 0.15758814 0.83960515 0.07351497 0.5333502 0.6091649 0.54132456 0.028885873 0.057118647 -0.09256114 0.51840985 -0.32204154 0.271114 -0.38333642 -1.216996 -0.08916979 -0.32991156 -0.29775155 0.5101922 -0.011472546 0.28586477 0.21213725 0.42392328 0.051226642 0.12900628 -0.35302058 0.35754958 0.11767789 0.136634 -0.0949373 0.15503594 -0.16900653 0.4116668 0.42635208 -0.2506128 -0.175934 -0.10694267 0.08310033 0.23317029 -0.01487215 0.4172598 -0.27736518 -0.11072673 0.066991486 -0.16733882 -0.44136125
mueble -0.6972878 -0.102537684 -0.09796719 0.26237243 -0.33405247 -0.58577615 -0.08860874 -0.09153263 0.43956247 0.35461926 0.32842833 -0.7217621 0.27069965 0.24432074 0.32365453 0.371476 0.23488364 -0.5485132 -0.17576332 0.3424371 -0.07629047 -0.22752579 -0.19595915 0.28290042 0.2328089 0.0157723 0.24233522 -0.065595455 -0.50975126 -0.5743351 -0.32059285 0.074864194 -0.23393574 -0.2938359 0.12020052 0.74133825 0.18733387 -0.09800633 0.6698147 -0.23737219 0.20097321 0.38523817 -0.039438065 -0.024841389 -0.36823106 0.027355269 -0.23163764 -0.7381213 -0.047923952 -0.6128712
cara 0.13493368 0.113493256 0.60282785 0.070710555 -0.2574243 -0.45117387 0.49325475 0.1394005 0.40832964 0.03949804 -0.30188364 -0.8574932 0.2876651 -0.37829235 0.32741213 0.24204427 -0.46330398 -0.47393572 -0.22953218 -0.1851029 0.17880908 0.3326654 -0.060993295 -0.077631615 0.05498293 -0.5328817 0.1260669 -0.36768392 -0.57192165 -0.026083192 0.56648016 0.2213302 -0.15335509 0.0860027 0.30103758 0.50957036 0.3773076 0.37336382 0.15212734 -0.5025211 -0.69400156 -0.07000288 0.12465832 -0.058823522 -0.20099026 -0.19197828 -0.44709504 -0.06669049 -0.48565796 -0.4633065
moto -0.16246812 -0.010015158 0.32453102 -0.024271583 -0.07850215 0.34330806 0.82819074 0.059792034 -0.17313859 -0.19208223 -0.08738737 0.15558667 -0.62940043 0.19634238 0.7311001 0.13775732 -0.6743432 -0.31249976 0.42297834 -0.17477344 -0.056198683 -0.39253563 0.05276524 0.28766444 0.21714969 -0.43203303 0.16707356 -0.35169145 -0.21590745 -0.52468497 -0.03613048 -0.19600622 -0.71374816 0.031428732 0.5223319 0.5103243 -0.123562 0.22119735 0.3589042 0.929404 -0.22888117 0.08928774 0.04358632 0.29644766 0.34947458 -0.23088633 0.029692065 -0.10118862 -0.43732 -0.8261577
mesa -0.21390954 0.23500088 0.29689875 0.078466624 0.15984325 0.055254664 -0.14934741 -0.06597671 0.28812942 0.42820427 -0.015364237 -0.26589078 0.061383806 -0.5419617 0.50570655 -0.2499667 0.3568524 -0.29407215 -0.14471044 0.17503686 -0.24569325 -0.40678808 -0.21504742 0.87807816 -0.12340714 0.21319978 0.37676242 0.10928518 -0.5855082 -0.5546593 -0.30440453 0.21588293 -0.21574445 -0.07885516 0.17967796 0.8969375 0.27141643 0.13812353 0.41462362 -0.42122042 0.13493848 -0.41618147 -0.12533881 -0.26919848 -0.19510877 0.00081264693 -0.16847876 -0.2712845 -0.5391203 -0.33041763
cocodrilo -0.28720203 0.09518889 -0.009201915 -0.11791886 0.21790743 0.296275 0.8872514 -0.19124413 0.45282748 0.34995046 0.21817727 -0.24279933 -0.22610122 0.70373124 0.18036065 0.07949405 -0.16796783 -0.4239979 -0.67588073 -0.07791009 -0.26088318 -0.22428103 0.25849324 -0.1157159 0.28204808 -0.13526815 0.20273502 -0.3666393 0.38444757 -0.18843597 0.48068157 -0.052134685 -0.20657332 0.37249705 -0.25585642 -0.07985557 0.13574861 0.5986217 0.45847782 -0.30211398 0.12790218 0.6011882 -0.6424579 0.12628418 -0.016576791 -0.0414471 0.08918524 -0.063505135 -0.4532813 -0.6748997
botas -0.40763798 0.26617232 -0.06359405 0.43704224 0.51336294 0.30781192 0.5521332 0.28686276 -0.26052308 -0.21107705 -0.52801853 -0.51388747 0.08007215 0.16387132 0.2658785 0.11218471 -0.2963677 -0.5512181 -0.25831985 0.091960795 0.1692647 0.21522565 -0.35272795 0.16327302 -0.1371552 0.31429282 0.71175253 -0.49797446 0.14760993 -0.4520549 0.13273033 0.50511926 -0.41986564 -0.013235917 0.20146032 -0.25039956 -0.049387064 0.41787386 0.68865657 0.37477428 0.079654016 0.640377 -0.3160825 -0.15079513 0.056105107 0.06093663 -0.2541006 -0.1559531 -0.29902864 -0.76073605
bicicleta -0.32474092 -0.1762406 0.06412879 0.0077136317 -0.25138187 0.0021672144 1.1625865 0.26015297 -0.2079623 -0.25197592 -0.15620543 0.051758967 -0.22149748 0.37783906 0.6394394 0.31853306 0.074432924 -0.9171682 0.12129034 0.16647437 -0.30878696 0.14794089 -0.23638916 0.4475144 0.061828505 -0.3721627 0.021022765 0.25289342 -0.11792751 -0.02490501 -0.24820824 -0.041267164 -0.76976705 -0.24584045 0.52669084 0.23226835 0.0021211845 0.20513079 -0.1347349 0.44591823 -0.16338214 -0.3255884 0.2849875 -0.10195276 0.17627443 -0.12251811 -0.12507334 -0.04304431 -0.29606155 -0.7045889
papas -0.20540836 0.049719322 -0.061492905 0.00041131035 0.41232198 -0.27626678 0.6631819 -0.029656455 -0.08044851 0.1284296 0.5691611 0.28633735 0.19120303 -0.20853199 0.26426905 -0.42431426 -0.5910222 0.094637826 -0.41963065 0.26449153 0.059608504 0.1201297 0.82916284 0.38704446 -0.33496574 -0.29232973 0.99065936 -0.36291942 0.09707279 -0.23132622 -0.09044796 0.66514945 0.48146904 -0.011368434 0.5893247 0.18664773 -0.0068760337 0.73693496 -0.29968292 0.2594421 0.12075231 0.20487054 0.50626475 -0.09831719 0.21414664 -0.45745665 0.3939314 -0.53646153 -0.41107157 -0.45179102
tren -0.5182411 -0.08755007 0.1158577 -0.29544085 0.45303747 -0.04169078 0.60550463 -0.08339781 0.6545079 0.0559699 0.074640624 -0.20779905 -0.41754282 -0.26213405 0.2319886 -0.2564682 -0.4954193 -0.57246876 -0.12799935 0.51243573 0.041824132 -0.12706876 -0.32945773 0.11672422 0.46931648 -0.8772731 0.24019329 0.18012983 0.054444984 -0.5410235 -0.20796981 -0.46499333 -0.26749492 0.27181178 0.6516577 0.09925996 -0.17573668 -0.072319284 0.2509987 0.5017621 0.08221267 0.14678837 -0.13236916 0.25319803 0.83700806 -0.03278996 -0.153705 -0.53190726 -0.13448215 -0.31662962
planta -0.27546042 0.15134355 0.264453 0.62142754 0.06858996 -0.20819655 0.46923777 0.2282318 0.75336134 0.3778727 0.5078914 -0.5430431 0.4675421 0.055601534 0.5599229 -0.09516076 -0.16641189 -1.1563635 0.07806167 0.210506 0.5464893 -0.2705874 0.03925288 0.13406692 0.18828176 0.025520038 0.40562788 -0.20656699 -0.10836087 0.09528731 -0.38504905 -0.11820938 0.077142276 -0.23195945 0.36014727 0.09592591 0.60557944 0.24729173 -0.3438999 -0.099019326 0.38717997 -0.0038372886 -0.26459637 0.20707734 0.076381646 0.3872515 -0.034970038 -0.30037758 0.12367592 -0.041043688
caja -0.47853035 0.37648445 0.26421306 0.3952412 -0.23524657 -0.18171544 0.21616302 -0.33651462 0.25038666 0.75307953 -0.5150815 -0.41873983 0.17931783 0.43401316 0.56376797 -0.02392869 -0.2534027 -0.53408146 0.05579501 -0.21412437 -0.51517737 -0.14994635 0.36243966 0.582557 -0.5665069 -0.40521768 0.26542932 0.18727393 0.09292933 -0.2733263 -0.084671386 0.32844126 -0.18340826 -0.7066125 -0.16495168 0.6455387 0.1517021 -0.037303958 0.12230286 -0.38814345 -0.31760308 0.314672 0.01561223 -0.07414372 0.27591082 -0.0117519805 -0.2038432 -0.4887044 -0.1233743 -0.13194573
pescado 0.23025599 -0.26889667 0.51808536 -0.004733749 0.09668365 0.32171062 0.85103893 0.21847038 0.17671579 0.7747689 0.13189217 -0.013452917 -0.45796746 0.47447035 0.49053398 0.31759205 0.13663825 0.13746335 -0.7645084 0.12928306 0.008906113 -0.56619614 0.16101913 0.3488017 -0.17678319 -0.29025197 0.4658147 -0.1700527 0.34438163 -0.5779842 0.07840034 -0.17659141 -0.15684193 0.4886626 0.5347735 -0.23441562 0.5807918 0.3195567 0.08930503 -0.52955174 0.19743127 0.21858758 -0.14435704 -0.102470055 -0.0039085876 -0.5624008 -0.20933081 -0.19887264 -0.43370372 -0.1821831
ardilla -0.31742948 0.2989928 0.11278634 -0.10654642 -0.1160863 -0.057848718 0.5083165 0.5200864 0.6099823 0.16528946 -0.47292864 0.04723466 0.06236183 -0.12602796 0.75331247 0.6444544 -0.3917297 -0.7570776 -0.4756577 0.18300806 0.0772504 -0.06724007 0.22886811 0.14803648 0.22571886 -0.18571731 0.008790058 -0.28539196 0.010923909 0.63601744 0.009790741 -0.064165376 0.045019265 -0.5280677 0.0788016 0.41918495 -0.32707044 0.6397839 -0.2090716 -0.021633228 0.017500455 -0.020815426 -0.4726149 0.043382008 0.16203818 0.026265768 0.1137505 -0.27612787 -0.47565895 -0.54558706
cacahuate -0.364265 -0.10334866 -0.31778035 0.49433503 0.06422294 -0.05396178 0.32381663 0.09868941 -0.12964094 0.13758153 -0.005573567 0.05885239 -0.112296976 -0.098249905 -0.10338261 0.3087615 -0.08487666 -0.07919006 -0.08687 0.08169523 -0.08937362 -0.2886483 0.4808631 0.08788065 -0.0054894835 -0.16016798 0.85617423 0.2632985 0.015701504 0.54484177 -0.03774655 -0.115059346 0.15256287 -0.094160065 0.7025225 0.4783863 0.2797734 0.86828 -0.53884196 -0.44230482 0.07838037 0.35455608 -0.26245302 0.046494953 0.43728364 -0.48624605 -0.024688257 -0.5692094 -0.5592921 -0.7294882
gelatina -0.5137737 -0.007867894 0.7537214 0.30230162 0.34789118 0.12804507 0.0898475 -0.03750491 0.011593994 0.7119916 0.09253663 0.12642966 0.15267895 -0.21465944 -0.18038058 0.017575793 -0.5814164 0.05047987 -0.81332505 0.108346656 0.113666356 -0.38032794 -0.102782905 0.3824388 -0.3708896 -0.54980516 0.5249737 -0.3848048 -0.3705478 0.28261122 0.12849967 0.21821734 -0.19428174 0.040068123 0.58127123 -0.042594112 0.47294614 0.45748484 -0.28454047 -0.03698043 -0.10178801 0.23207943 0.45563263 -0.23805608 -0.22531125 -0.16891894 0.11543345 -0.42864826 0.2749973 -0.5114626
víbora 0.37734723 0.059130486 0.31318948 0.03847879 0.0564379 0.24785928 0.58099437 -0.16311744 0.29508936 0.50322276 -0.23909345 -0.26367646 -0.32505122 0.37333167 0.4833299 0.19994053 0.12549698 -0.82196635 -0.36844492 0.16648711 -0.09399407 0.084821746 0.30692768 0.431859 0.26200798 -0.40432823 -0.132717 -0.44068733 -0.08021843 0.18710655 0.23845525 -0.25384516 -0.1998649 0.20471519 -0.31232834 0.48303127 0.10812171 0.7096925 0.025711697 0.48175713 0.2013965 0.14075142 -0.8132161 0.6623655 0.07637488 0.04104722 0.17735673 0.00066337746 -0.95432353 -0.22562759
gorra -0.7020325 0.28666067 0.20191757 0.5615753 -0.09546959 -0.15670471 0.4437998 0.7155033 -0.34710005 -0.008179019 0.12896009 -0.15546502 -0.1482253 0.4917882 0.5457683 -0.1836655 -0.21315296 -0.20808902 -0.08460349 0.08837523 -0.3057247 0.287522 0.03027539 -0.37778687 -0.59569556 -0.5884619 0.6676803 0.19175841 -0.3183143 -0.41462508 -0.08712976 0.5092418 -0.26911253 -0.40540004 -0.10800417 -0.017691417 0.6272969 0.15495142 0.38155526 0.19072811 0.06436686 0.33558887 -0.38990694 -0.04735071 0.44579512 0.01464811 0.22589271 0.19005173 -0.04629074 -0.40323374
hipopótamo -0.055100434 -0.041037776 -0.12414268 0.38132447 0.015830362 0.4827194 0.13861594 0.36744642 0.7605341 -0.0366627 0.28927425 0.09270849 -0.46970588 0.16655351 0.42357498 0.0793828 -0.044499017 -0.32508934 -0.6927778 -0.3097608 0.11754753 -0.24508442 0.37577227 -0.046388958 0.12440806 -0.11931717 0.39162588 -0.2229865 0.14561325 -0.35445148 -0.03453358 -0.0077503277 -0.3209244 0.42417288 0.16190578 -0.20495175 0.31656417 0.5891547 0.43391368 -0.24724084 0.18998629 0.49418965 -0.35678712 -0.06729755 0.2863715 0.4557316 0.00032488193 0.03590668 -0.8780841 -0.6687182
tigre -0.069951035 0.12939751 -0.2297686 0.34937444 0.06467344 0.6471928 0.35247934 0.4014046 0.3116148 0.44407237 0.48506176 0.28876463 -0.2007303 0.6123382 0.3893436 -0.24886511 -0.45136622 -0.25476003 -0.38000202 -0.05172306 -0.11981666 0.1602762 0.23365416 0.052375093 -0.15608366 -0.31923524 -0.41539598 -0.7228233 -0.115134686 0.08985095 0.34437874 0.07249808 -0.7518277 0.008934092 -0.3022599 0.031712987 0.20130041 0.51297474 -0.037212197 0.03125506 0.051948052 -0.05892766 -0.57050425 -0.23990417 0.56848305 0.28281036 0.24825908 -0.45050755 -0.72666943 -0.71678585
iglesia -0.18988176 -0.04527249 0.5505174 0.44354123 -0.48091564 0.24521951 0.31219885 -0.2857781 -0.19525222 0.13361245 0.3724611 0.1238036 0.25274038 -0.27265966 0.73472637 -0.23367593 -0.48999682 -0.4966262 -0.445037 -0.3137967 0.41442373 0.36089548 -0.17850816 0.48479468 0.38838616 -0.087741144 -0.07655737 -0.03527602 -0.1740018 -0.43872547 0.31234708 -0.21750845 -0.2954011 -0.22426622 0.24771874 0.5276983 0.57919365 -0.22569826 0.40063518 -0.38794363 0.51425 0.463252 -0.3170332 -1.3906841 0.27241594 -0.5146703 -0.3280633 -0.186025 -0.7171282 -0.24098581
zapato -0.32897642 0.40651208 -0.13455014 0.17193787 0.48283163 0.24123351 0.3290662 0.35991842 -0.19227973 -0.0753292 -0.043037146 -0.041010298 0.2878024 0.29420578 0.37122184 -0.26619005 -0.33525372 -0.31422207 -0.25771162 0.043828547 -0.58611 0.29340813 -0.1747231 0.25282118 0.13404553 -0.18530925 0.097099744 -0.065660864 -0.0070121335 -0.3654693 -0.09038607 0.4480204 -0.5807612 -0.22160767 0.3158108 0.03804288 0.05100742 0.57300997 0.35984686 0.17142092 0.44595024 0.40591007 -0.73204684 0.38484013 -0.54205525 -0.23815548 -0.23117357 -0.57703894 0.30260286 -0.4033007
flor -0.6019128 0.21984607 0.4683679 0.2932606 -0.34923267 -0.050772388 0.49592853 0.0714714 0.14191684 -0.17876707 0.4089935 -0.4477708 0.022550842 -0.09989384 0.5514429 0.27242884 -0.018958718 -0.55478674 -0.27020144 0.53780293 0.8420102 -0.15222345 0.50090325 0.66547245 0.07077662 -0.49683058 0.64566 -0.079635285 0.11167882 0.07989054 0.27444786 0.27717233 0.26133433 -0.11591357 0.07681008 -0.15616207 0.16970162 0.50615287 -0.044000626 -0.32981023 0.15917291 -0.2146264 0.052127328 0.30334628 -0.100594975 0.65696895 -0.28823978 -0.23163763 -0.36863145 0.09813463
perro -0.20504704 0.59766793 -0.3900452 0.2752428 -0.22695665 0.4762734 0.33531508 0.26721615 0.15130934 0.3512993 -0.0151991965 -0.43270466 0.18320069 -0.13286163 0.74123174 0.28250733 -0.652834 -0.23361048 -0.43439132 0.1097302 -0.6237824 -0.46585292 0.21828566 0.0014386368 0.0571229 -0.55108774 -0.46809673 -0.050069667 -0.25880513 0.1965716 -0.12622036 0.1585605 -0.02712543 -0.4069669 0.006362456 0.08772682 0.03935549 0.5054215 0.15769802 0.16194981 0.45330995 0.473079 -0.06462293 0.17617384 0.6824253 0.3958266 0.04613336 -0.038105484 -0.33379242 -0.35066503
lobo -0.2005824 0.14946729 -0.31661502 -0.17066263 0.11848087 0.62290967 0.53746796 0.71941704 -0.3369525 0.52973485 0.17506991 0.109243 -0.2552588 0.34115112 0.31614107 -0.06409485 0.13991453 -0.23322035 -0.42147547 0.17980395 -0.47489214 0.0016747053 0.89597195 -0.014856932 0.19705717 -0.59639925 0.05356913 0.119087614 -0.17461969 -0.16751781 0.16083512 -0.21628428 0.02765488 -0.07679479 -0.32415417 0.07509676 0.21849626 0.61242086 0.12954943 0.007873584 0.12532635 0.11159788 -0.22516617 -0.39856267 -0.035373803 0.79521316 0.02438648 -0.516429 -0.26962632 -0.6562768
gato -0.43559816 0.26204318 -0.3070858 0.1676525 0.063443206 0.36453927 0.22772214 0.3443334 -0.0140317185 0.6712834 -0.55522305 0.06551214 -0.18966013 -0.08431238 0.84588695 0.25028002 -0.18196398 -0.1703867 -0.26836914 0.03752443 -0.22443463 -0.2996888 -0.06809445 -0.2760514 -0.5270337 -0.15940851 -0.08386255 -0.37526953 -0.14971206 -0.039491728 0.14375989 0.0967043 -0.07701706 0.21473297 -0.54621506 0.35322127 0.4014752 0.49298832 -0.20989808 0.35765278 0.043455217 0.24253368 -0.22565907 -0.5634851 0.0057853055 0.25045326 -0.782886 -0.41492146 -0.54963946 -0.56756884
canasta -0.5735329 0.35301766 -0.00010022371 -0.42743745 0.35151187 -0.21167642 0.47238088 0.05531055 -0.2016525 0.15611683 0.41190726 0.0017899803 0.57360226 0.015250858 0.5249042 0.16954455 0.5663128 -0.6207234 0.047266204 0.20320345 -0.32022706 0.011546764 0.47635996 0.792606 -0.18691492 -0.669923 0.23362845 -0.0066453684 0.08405746 -0.38756678 -0.32420367 0.0070379525 -0.23796242 -0.35663944 -0.11285334 0.123623036 0.056108803 0.04940211 -0.55822515 -0.40544367 -0.12131266 0.1447557 -0.1968862 0.022151152 0.2036014 -0.49376002 0.19248934 -0.041430753 -0.3142979 -0.9635359
mono -0.7161629 0.1623068 -0.015963804 -0.30757314 -0.082231484 0.2401016 0.4550649 0.65804476 0.0053926404 0.19917539 -0.53375 -0.20304579 -0.17594884 -0.036389768 0.67836475 0.40729076 -0.0067079654 -0.05462427 0.03302987 -0.19823448 0.028432675 -0.32164884 -0.3145261 0.00660973 0.2052421 -0.046763986 0.43155232 0.083080314 -0.56021875 -0.11320856 0.38595837 -0.20342201 0.26150912 0.11809937 0.2589448 0.103307374 0.11535903 0.4596707 -0.76516736 0.1138163 0.047889404 0.014118178 -0.26322797 0.16166201 0.2136045 -0.027468245 -0.10309686 -0.22273599 -0.775025 -0.7515804
sombrero -0.6535645 0.41980225 0.23705064 0.69198054 -0.05664183 0.00421805 0.44954464 0.5287346 -0.5516476 -0.28983995 0.30531585 -0.18257295 -0.1633919 0.04270042 0.37047625 0.06894393 -0.10361796 0.018338773 0.24389721 0.45407793 -0.33672374 0.33909133 -0.014961044 0.3839278 0.1526175 -0.42027336 0.4668175 -0.12138902 -0.37646517 -0.3880196 0.12094999 0.7264192 0.07974204 -0.31372705 0.08556814 0.022470303 0.7051082 0.2340315 -0.095702894 -0.13415048 -0.0075193206 0.23229988 -0.46093574 -0.11321158 0.34012592 0.29065415 0.287797 0.11749352 0.24511851 -0.58103937
botón -0.7253083 -0.011521689 0.33338204 0.081428275 0.045176484 -0.77243245 0.048567526 0.020967392 -0.34228462 0.4420621 -0.37633485 -0.36311504 0.020305552 0.55673426 -0.18967186 -0.14358692 -0.8173583 -0.24511151 -0.537733 0.11932438 -0.5029518 0.022886714 0.16425255 0.15191962 0.31230536 -0.16738655 0.019322252 0.67464757 -0.47572201 -0.9459314 0.11710231 0.7358642 -0.1331171 -0.33346084 0.34945747 0.28777942 0.24106745 0.20015945 -0.19326785 0.081589095 0.16702488 0.4130916 -0.2407485 -0.27796504 -0.072556846 0.1253646 -0.4803518 -0.4081532 -0.29625604 -0.11284286
autobús -0.39039528 0.022104831 0.22999015 0.12130382 -0.0009968259 0.1485844 0.24703948 -0.27514586 0.10711033 -0.5379102 0.3602716 -0.0935929 -0.44346988 -0.17774902 0.54504395 0.42520085 -0.61569756 -0.5365677 0.1902094 0.3343221 -0.20809738 -0.17861979 0.49431923 0.37722504 0.34609365 -1.0394353 -0.34192234 -0.036246702 -0.3746731 -0.47997615 -0.10117151 -0.21646631 -0.7564923 0.2841325 0.6079284 0.44121447 0.09783736 -0.24679385 0.32626274 0.17005923 0.11885556 -0.16598834 -0.40244633 0.22890082 0.17353207 -0.2339239 -0.12228794 -0.20490503 -0.16552249 -0.68513167
calabaza 0.13501818 0.14927775 0.35002512 0.35352898 -0.109966785 -0.72545046 -0.0402148 -0.0859891 -0.15492938 0.21501441 0.2107174 0.49402666 0.17700464 0.093618 0.7178745 0.18682031 -0.4247445 -0.5891787 -0.71561617 0.45601255 0.050801102 -0.010730787 0.59030503 0.105595954 0.06267667 -0.12331941 0.2850588 -0.4371111 -0.18810692 0.10204194 0.10291846 -0.34429634 0.31686234 -0.008216554 0.20406695 0.6904523 0.7268307 0.6487689 -0.6892168 0.15933555 0.19513652 0.17109114 0.09899164 0.048510678 0.14847267 -0.005525764 0.33086455 -0.37670383 -0.27573004 -0.3116188
plastilina -0.47794366 0.18300438 0.4655751 0.18392055 0.23236184 0.052969266 0.58167905 -0.24655758 -0.2072498 0.50851184 -0.098990604 0.48104188 -0.0023190393 -0.47138923 -0.13377179 -0.06430846 -0.046760608 -0.42654213 -0.61951596 -0.19249439 0.5554388 -0.2694087 -0.40914172 0.62561285 -0.37868798 -0.61937284 0.037007593 -0.13108319 -0.926782 0.08064358 -0.23082179 0.05618692 -0.10004248 0.16781005 -0.08062549 -0.07531162 0.3495066 0.64710885 0.3477781 -0.29219732 -0.13039593 -0.060184427 -0.02108076 0.41409072 0.068004474 -0.06381137 -0.6194873 0.17379907 0.12838827 -0.8322702
pato -0.2370506 -0.028988212 0.066764615 0.531407 0.42350793 0.47220287 0.4833778 -0.045759685 0.10832503 0.30011362 -0.2150641 -0.37997258 -0.26658645 0.07682765 0.9700596 0.03137285 0.18850005 0.24033356 -0.60764176 0.36477807 -0.18734919 -0.64369875 -0.084128894 -0.07624098 0.18652499 -0.2362641 0.043979246 -0.36218137 -0.4417171 -0.4207421 0.539669 0.4251183 0.00658606 0.33173692 0.18753116 -0.020391634 0.390975 -0.056738716 -0.021492934 0.031166952 -0.12656234 0.62482655 0.026456011 0.17212938 0.14763384 0.3002966 -0.11280738 -0.40554962 -0.48142132 -0.13684954
tienda -0.1277115 0.34376326 0.3529017 -0.7742163 0.5294169 -0.12787095 0.16532199 0.24304144 -0.3812858 0.4621696 0.3752037 -0.2800761 0.2987923 0.10280693 0.4276048 -0.03125677 -0.41544938 -0.8039664 0.2116799 0.3676787 0.20105976 0.05257528 1.0007306 0.75799024 -0.112367585 0.1651476 0.09741784 -0.37995845 -0.108859934 -0.42806214 -0.27310526 0.81692755 0.2755862 0.16071746 0.2848183 0.09993251 0.3099899 0.76677406 0.29113436 -0.111618064 0.29657397 0.28673053 0.22219731 0.10797471 0.41121855 -0.38423678 -0.1484055 -0.3353174 0.0857168 -0.51685303
borrego 0.041946337 -0.05038664 -0.43089458 -0.08657741 -0.24027444 0.12405191 0.20312503 0.83049244 -0.17153516 0.13222899 0.30912974 -0.19960716 -0.089209445 -0.11641626 0.6561064 -0.17287312 -0.3167219 -0.56634015 -0.8413509 0.21508685 -0.21005426 -0.28014448 -0.22582826 0.28906283 0.43353918 -0.27925652 0.21925269 0.13100146 -0.2067324 -0.5019531 0.28716192 0.103751436 -0.0031909228 -0.4146004 -0.6541287 -0.16149455 0.70610267 0.36332595 -0.26495203 0.32928154 -0.080941 0.08231754 0.39297453 -0.10193588 0.033310328 0.035001826 -0.07661978 -0.44901526 -0.36368412 -0.38727203
tractor -0.24813037 -0.21439502 0.44371998 0.08399715 -0.34383035 -0.3937793 0.5539994 -0.3278508 0.13650617 -0.6341914 -0.18870977 0.27604464 -0.098822154 0.2915217 0.50730884 -0.02914718 -0.64946884 -0.71774006 0.16663697 0.5556007 0.037115518 -0.043848295 0.03636965 0.4679494 0.64271784 -0.15098323 0.49307033 -0.41121387 0.14574346 -0.35711938 -0.0018684678 -0.31178078 -0.24712548 -0.022664469 -0.069549344 0.31697232 0.6087934 0.056775477 0.0069376994 0.34685093 0.3956307 0.106167145 -0.047711197 -0.52129346 0.44810286 0.12430691 0.03774613 -0.3514284 -0.116995156 -0.84447163
ventana -0.20298739 -0.06795831 0.22815713 0.3703412 -0.0800946 -0.19618161 1.0528795 0.541726 -0.058566198 0.3484843 -0.30209574 0.09248518 -0.18486622 -0.07185506 0.13290519 -0.33126688 -0.4435868 -0.3097732 -0.1963121 0.5237185 -0.12467148 0.14238296 0.04794728 0.13544317 -0.37374234 0.13600503 -0.37751052 -0.46196806 -0.19704305 -0.35753617 -0.05564 0.21156977 0.038317706 -0.14672206 0.7044764 0.7475816 0.6015876 -0.20830652 0.26293135 -0.54060835 0.4450726 0.19029887 -0.1579183 0.37445796 -0.19814584 0.41299593 -0.36071676 -0.10333942 -0.039206147 -0.24238777
huevo 0.31113502 0.07379901 0.04427268 0.5350664 0.63064826 -0.1294837 0.27389982 0.081630416 0.005474279 0.6033437 0.016007075 -0.22021215 -0.2963901 -0.19220336 0.82206905 0.14230241 0.13881059 0.040204853 -0.05165528 0.10893626 -0.19374959 0.045084514 0.16647443 0.6174355 0.12609142 -0.41962782 -0.116588406 -0.09244033 0.340494 -0.4279116 0.08777697 0.4028446 -0.08600422 0.33284765 -0.00030973853 0.36580998 0.5153376 0.11530054 -0.54903877 -0.07594911 0.0883666 0.27583364 -0.16831346 0.21621713 0.016136939 -0.60528123 0.17464858 -1.0363472 -0.28741086 -0.20958437
mercado -0.25770867 0.15837955 0.35000324 -0.47557962 0.18229055 -0.33706903 0.116552494 0.22007066 -0.14119042 0.4762273 0.42044342 -0.35717022 0.7086723 -0.28924963 0.77922297 0.5363933 -0.26046258 -0.3753619 -0.45364386 0.13933884 -0.2831051 -0.12772119 0.9136887 0.40073153 0.028357424 -0.036993124 -0.18359424 0.0073631443 -0.40009668 -0.41611674 -0.3064764 0.1964293 -0.1778656 -0.08367296 0.6252523 -0.3547639 0.5092431 0.2860058 0.41005275 -0.34564352 0.13064925 0.4496788 -0.2528274 0.22872238 0.2422074 -0.349985 0.09224298 0.43684432 -0.1903759 -0.6545057
leche -0.069272816 -0.5008863 0.7025647 0.104784 0.19644704 0.116389066 -0.14684255 0.09669971 -0.32166684 0.6474689 -0.0013556682 -0.42883888 0.16636473 -0.08900889 0.27792063 0.15775266 -0.030738981 -0.8993738 -0.26184484 -0.101522855 -0.27049696 0.32039315 0.0067817383 0.4267986 -0.15301394 -0.31749305 0.32418868 -0.4106006 0.15065107 -0.31900227 0.24950975 -0.010488733 0.17529112 0.39755633 -0.012721885 0.27475342 0.38871554 0.474994 -0.14885515 -0.30914637 0.0704752 0.30961075 0.46720842 -0.009195044 0.05084278 -0.3725124 0.34056646 -0.97688925 -0.04235225 -0.2522967
palo -0.021714147 0.17364617 0.025130384 -0.2110011 0.017356021 0.27741626 0.09300755 0.20991863 -0.21009643 0.19114508 -0.12436555 -0.043474324 0.103659466 -0.1039677 -0.39511943 -0.43901625 0.39938024 -0.47988528 -0.46412623 0.26161623 0.06256947 -0.4610336 -0.07767182 0.6120058 0.5219378 -0.14279433 -0.19015782 -0.012905177 -0.3341568 -0.20198955 0.21255977 0.09275688 -0.1576884 -0.41462848 0.1156432 1.0203393 0.7068682 0.70668316 -0.30536747 -0.034601968 0.63558346 0.31135932 -0.19724227 0.3004178 0.34312075 0.36064824 -0.24624747 -0.13572803 -0.21006104 -0.43323928
foca 0.28415036 0.05489978 0.16291395 -0.09568679 0.19811425 0.269476 0.7671648 0.38680342 0.2894152 0.29108974 -0.46562248 -0.21716318 -0.7467367 0.25909832 0.29389873 0.24570796 -0.27202082 -0.24827228 -0.5813501 0.23431154 0.26651374 -0.006964796 0.38896576 0.16628353 -0.4448403 -0.54621613 0.5766235 0.59120005 -0.5845347 -0.2691691 -0.23527695 -0.17788242 0.102599226 0.17328383 -0.132099 0.017347297 0.24107924 0.2426977 -0.12713584 -0.49422404 0.09456656 -0.12710267 -0.55747837 -0.5971222 0.102194205 -0.09009216 -0.06706483 -0.27254447 -0.48856348 -0.25679109
vestido -0.7185361 0.5659509 0.09919705 0.42246693 0.3924618 -0.11322388 0.30625618 0.28329247 -0.46182653 -0.1320917 0.4161306 -0.7342926 0.06913927 -0.07446204 0.108363464 0.35812703 -0.28074113 -0.22951616 -0.6763954 0.27652225 -0.17084543 0.4050201 -0.20446557 0.23452093 -0.1163765 -0.22272782 -0.10578282 -0.37444386 0.1631866 -0.39508748 0.16970931 0.36389714 -0.46733516 -0.4313739 0.2731918 0.168538 0.26097742 0.65278244 -0.12646702 0.11157732 0.3087914 -0.21902785 -0.65348864 -0.046655968 0.18544208 -0.2254655 -0.46495995 -0.18735248 -0.14191519 0.15654977
venado 0.04707138 -0.23261979 0.0055666314 -0.02379432 -0.36892515 0.542193 0.48191145 0.8458454 -0.17119499 0.15233994 -0.004793146 0.35348746 0.16127227 0.16310404 0.51768136 -0.20035966 -0.23699416 -0.5282148 -0.741479 0.2141267 0.25646284 -0.34960082 0.3411119 0.5531916 0.22524145 -0.18247534 0.38315603 0.37964743 -0.057505324 -0.26649493 0.38464102 0.09953877 -0.45043528 -0.14600268 0.087904856 -0.26807413 -0.29378864 0.039787546 0.006701836 0.14876454 -0.2004335 -0.14887916 -0.61421704 0.07099758 0.55022734 0.17470035 -0.18849355 -0.59584147 -0.6764118 -0.59775925
árbol -0.7595667 0.4671984 0.13363336 -0.0019029037 -0.06561483 0.023915164 0.5852426 0.36780113 0.29663268 0.41255012 0.58098465 -0.03440506 0.33583605 0.25824967 0.2490809 0.19494373 0.30529422 -0.6692409 0.04221517 0.29174986 0.30294603 -0.41792607 0.14998174 0.09828222 0.21309097 0.13938752 0.33823246 -0.37163883 -0.28324395 -0.20486607 0.15074389 -0.10133472 -0.09994124 -0.2973409 0.29243562 0.5045049 -0.06919917 -0.22365709 -0.7400555 0.004061256 0.29909143 0.11628654 -0.2065339 0.21969646 -0.12054011 0.2958155 0.101226486 -0.3483311 -0.2086269 -0.66186875
araña -0.39286578 -0.20998918 0.033671364 0.0751924 -0.08981223 0.3142102 0.6839207 0.008662544 0.34779978 0.5184645 -0.24440564 0.21507958 -0.35089943 0.16212639 0.6112728 -0.20472659 -0.108036384 -0.43025577 -0.12361822 0.13533023 -0.41950005 0.64284784 -0.030373078 0.47807214 0.261617 0.046081413 0.16834804 -0.4115812 -0.6790606 0.2940988 0.27142918 -0.161405 -0.038040087 0.38479897 -0.09934536 -0.10794486 0.20885059 0.8910322 -0.16792333 0.081986986 0.07030942 0.14322999 -0.62547296 0.45257774 -0.4980998 0.32368514 -0.49603462 -0.31215626 -0.71878976 -0.20395227
juguete -0.38914323 0.10385351 -0.14351049 0.45067188 -0.042559236 -0.1746076 0.5451475 0.06510567 -0.21056221 0.6268008 -0.69269043 -0.28101692 -0.20020518 0.0018989211 0.4602855 -0.061099663 0.07375277 -0.46320552 0.09035016 -0.16854955 0.06986729 -0.21798584 -0.378729 0.43749052 -0.16060516 -0.6374388 -0.2787585 0.2854304 -0.27568972 -0.56962115 -0.19936845 -0.30525923 0.24280718 0.15070851 0.35174724 0.12881316 -0.2287022 0.28069136 -0.066693895 0.28291488 -0.16300225 0.33770654 -0.11410684 -0.23340781 0.55990064 0.09514654 -0.26642942 0.079404436 -0.06785081 -0.89691657
taco 0.16924755 0.22218792 -0.27244616 -0.21097702 -0.049984477 0.304683 0.14049153 0.13269018 -0.027880654 0.14446397 0.41877332 0.41869083 0.3764399 -0.74384785 0.5763943 -0.15451871 0.06432632 -0.65026605 -0.79973227 0.17531922 -0.8328825 -0.25535455 0.28123093 0.67074376 0.12874568 -0.21835704 0.5334699 0.17948519 -0.10833053 -0.15738057 -0.013834741 0.11421351 -0.1546679 0.025297271 0.5769305 0.21403527 1.017854 0.30429462 -0.29906255 -0.35096213 0.17233697 -0.091040134 0.18309332 0.091821745 0.06278517 -0.38603327 0.10597529 -0.6193841 -0.40721604 -0.32745722
chocolate 0.10623873 0.19342735 0.20065631 0.0890658 0.17565359 0.07729265 0.47820774 0.18086256 -0.003062936 0.41084778 -0.31771752 -0.28472558 0.32529786 -0.1041227 0.18045704 0.22650594 -0.2504982 -0.049313325 -0.022724053 -0.6959462 -0.3225815 0.17893209 0.2368595 0.27634314 -0.30404744 -0.27672842 0.49596146 0.030759025 -0.101235695 0.027517365 0.39841115 -0.45739937 -0.4886412 -0.10196965 0.18370128 0.39896536 0.49475595 0.95726657 -0.16147073 -0.5933327 -0.32529446 0.46407145 0.471362 -0.17973639 0.28542924 -0.18069008 0.23176116 -0.87684596 -0.17380463 -0.3458219
aretes -0.1047567 0.41038996 0.12648211 0.17874987 -0.1896287 -0.23229896 -0.049167786 0.3682121 -0.2857707 0.09656482 0.37550682 -1.0628548 0.39116773 0.32067978 0.67511487 -0.6993385 -0.57879096 0.24245968 -0.15105964 0.24883166 0.15373267 0.36114055 -0.0647815 0.349184 0.17246358 -0.5060217 0.25793886 0.047444247 0.15251252 0.2451964 -0.18345079 0.36496153 0.19464085 -0.30657765 0.25909123 0.44683093 0.22493324 0.6386307 0.08396578 0.033340268 -0.3844747 0.041854493 -0.42742065 0.079045914 -0.11255026 0.28787062 -0.68181574 -0.31368235 -0.20138608 -0.8170941
chile 0.004476717 0.05209195 -0.19349658 0.27155936 0.39015523 0.12825976 0.31219843 -0.206297 0.41500008 0.1609181 0.81575406 0.123876564 0.4229489 0.11365361 -0.11724364 0.16516891 -0.33825943 -0.21092297 -0.30494836 0.46432623 -0.4134138 -0.19166498 0.46873257 -0.12279605 -0.537831 -0.08327926 0.17719556 -0.009435425 -0.43881887 -0.054976575 0.48122823 0.27565563 -0.34900182 -0.027282396 0.685029 0.35119897 0.5208939 0.5533045 -0.5242299 -0.054192167 0.083708234 0.2894448 -0.038425963 -0.13314721 0.46061 -0.50210696 -0.48196006 -0.83299816 -0.7490434 -0.23429734
cochino -0.54267603 0.0043127495 -0.05454889 0.112426765 -0.032447442 0.3784145 0.5551508 -0.015823362 0.33106142 -0.12791963 -0.08133701 -0.10958863 0.07477998 -0.44770384 0.8566739 0.045597624 -0.008372678 0.2135111 -0.6958131 0.35171577 -0.5537897 -0.5140593 0.3332855 0.24804038 0.28150722 -0.2573281 0.27295142 0.07283027 0.014354871 -0.20945953 -0.043555718 0.012646383 0.2235568 0.2894916 -0.39061096 -0.5853342 0.72551656 0.83201236 -0.051692616 0.106638655 0.51863766 0.54168814 0.4427612 -0.09768293 0.10486698 0.08278092 -0.22971477 -0.06580544 -0.3874583 -0.5298683
burbuja -0.3665986 0.34252205 0.32727402 0.18316709 0.3680802 -0.2129046 0.32633728 0.027754873 -0.53583133 0.025027342 0.3214355 -0.2784947 -0.46119905 -0.19965278 0.53846353 -0.21883446 -0.30059364 -0.54401994 -0.4816593 0.23757666 0.21348007 -0.40715325 -0.27127334 -0.096619405 0.011954907 -0.020280555 -0.09696036 -0.08822656 -0.75498873 -0.57057154 -0.5738181 0.22592159 -0.23727654 0.32270294 0.64617026 0.56569993 -0.1859814 0.6216784 -0.42813343 -0.5668032 -0.18666524 -0.051642742 -0.06314807 -0.04599724 0.10067119 0.49231216 0.1318859 -0.10835571 -0.26078162 0.052888144
comida -0.078899585 0.05342303 0.12745503 -0.15460221 0.3177615 -0.03256297 0.17072372 -0.0020792035 0.03075995 0.41970557 0.21828692 -0.2116719 -0.006894852 -0.15031362 0.1830676 -0.03456392 -0.053069424 -0.2745392 -0.6030023 0.18252198 -0.24103776 -0.4067453 0.2821485 0.491926 -0.055261575 0.027878527 0.38695478 -0.35156044 -0.06599665 -0.12412198 0.29012313 -0.0858388 0.20428148 0.040204603 0.023792073 -0.005807211 0.18158798 0.48077235 -0.24112633 -0.06610404 -0.06829673 0.17774922 0.090679325 0.19297257 0.43805563 -0.25647083 0.15351005 -0.61827415 -0.35323766 -0.49710986
lentes -0.5014704 -0.04951968 0.17315818 0.6428279 0.38182405 -0.26738238 0.736538 0.41847065 -0.11152132 0.32665455 0.18335494 -0.46332648 0.02608834 -0.08657952 0.4993424 -0.5536879 -0.36446407 -0.17531829 0.48509192 -0.40580922 0.12312196 0.12806426 0.08628061 -0.30594397 -0.3021558 -0.20228916 0.3339128 0.14651915 -0.12720819 0.092205785 0.1739644 0.20796567 0.3545162 -0.17313692 0.18706223 0.12800951 0.8969176 -0.030647185 0.55461955 -0.073872864 -0.13360706 0.060292937 -0.09779742 -0.028594397 -0.47019902 0.6313785 -0.7305151 -0.315859 -0.5676659 -0.8138409
libro -0.954771 0.3901974 0.04742224 0.20656925 0.34638116 -0.47161523 0.39765996 0.42431962 0.13564548 0.43343878 0.34785676 0.013726083 -0.53673756 -0.27715543 0.18827714 -0.41015738 -0.14535995 -0.33493128 -0.14114383 -0.6080863 -0.14784044 0.007676057 0.61059386 0.606791 0.15668291 -0.27006018 -0.1795001 0.15486987 -0.33873224 0.005160284 -0.08483697 0.060895137 0.14122932 0.096448995 -0.014024365 0.181897 0.2920943 -0.38586515 0.39177695 0.21184202 0.8392027 0.14087084 0.025320943 0.17056666 -0.4401731 0.51709217 -0.4935558 -0.513826 -0.15631233 -0.5649355
helado -0.36087462 0.019639377 0.25335264 0.40949908 0.36144054 -0.10251014 0.7413631 0.5772692 -0.24839145 -0.12589988 -0.048761707 -0.14849886 0.23269431 0.03961948 -0.346785 0.27527052 -0.23062682 -0.2348269 -0.38682437 -0.29478619 -0.47855166 -0.2467293 -0.016426522 0.9887209 -0.28922135 -0.43756992 0.5735423 -0.16965522 -0.18641263 -0.28777552 0.45636365 -0.32498205 -0.037160028 -0.18666077 0.44136393 0.08094965 0.4164648 0.34054077 -0.46013024 -0.34386826 -0.18162125 0.15566158 0.4104396 0.4288981 -0.077811055 0.07029439 0.35672367 -0.4503252 -0.27519378 -0.31849366
cajón -0.56646556 0.18575835 -0.038290437 -0.06987394 -0.25898507 -0.5171815 -0.042938147 -0.16347472 -0.08373367 0.6674034 -0.32507318 -0.66665095 0.089757115 0.34427923 0.46139443 0.0845876 -0.3033588 -0.7742711 -0.07114873 0.48951384 -0.36326784 -0.17367035 0.51145184 0.5325541 -0.3028495 -0.42018685 0.5072261 0.05453211 -0.40569946 -0.58667386 -0.20541185 0.020965423 -0.47564638 -0.37720293 0.0024830163 0.6744981 -0.0048479135 0.2582903 0.71532893 -0.0011425584 0.31184417 0.097301684 0.34603673 -0.14081182 -0.16251498 0.1037337 -0.07158295 -0.42680293 -0.061082877 0.119141564
camisa -0.6174394 -0.06616057 0.14234795 0.46447262 0.5332656 0.088999376 0.024682794 0.14338747 -0.31677964 -0.23344287 -0.009468391 -0.7042899 -0.29847237 0.1012746 0.04374497 0.07530923 -0.26124308 -0.61076075 -0.6100531 0.1336456 0.21677415 0.29477584 0.07305197 -0.08294808 -0.1893378 -0.3315313 0.2429608 0.05358139 -0.28920916 -0.75338554 -0.14230852 0.7690667 -0.4401581 -0.78366417 -0.30013043 0.15038455 0.32180166 0.83100975 -0.14057803 -0.0001374894 0.24064572 -0.28316087 0.029065097 0.17383192 -0.22222948 0.19434258 0.099149175 -0.18842977 -0.58226556 -0.2005236
globo -0.7671042 0.029358897 -0.21589802 0.19330786 -0.09193145 -0.10562731 0.3383359 0.11523784 -0.66733736 0.25985897 0.12177807 -0.040570397 -0.35936233 -0.18570569 0.23251966 -0.45861843 -0.3965419 -0.6173833 -0.16755582 0.35851923 0.5542857 0.0069031604 -0.06964727 0.5545591 -0.28128982 -0.5312953 -0.24564812 -0.20816088 0.23341098 -0.83620864 0.01820111 0.22220199 -0.08015743 0.52597624 0.5208071 0.37534723 -0.26783234 0.1997865 -0.65691626 -0.14117199 0.17295316 0.14575076 0.096231125 -0.10785503 0.22435056 -0.2052861 -0.3010769 0.10474025 -0.40818173 -0.5776922
brazo -0.5920533 0.30557734 -0.071326576 -0.4464651 0.55186373 -0.24242671 0.6818556 0.046037875 0.2632958 0.6917638 0.046499535 -0.20126413 0.36324444 -0.34465444 0.09698872 -0.23012024 -0.10502483 0.05845029 -0.12064721 -0.09301801 0.082430564 0.26102275 -0.15347007 0.41766927 0.43855983 -0.5709925 0.01026828 0.30016956 -0.1465973 -0.26551384 0.18855429 0.41787434 -0.5860033 -0.0015266489 -0.041595783 0.54782355 0.27742228 0.65354365 -0.37898737 0.03413247 0.21574613 -0.22448324 -0.5604235 -0.56694704 -0.4252214 0.34731638 0.52886665 0.13797607 -0.17405607 -0.8772474
hamburguesa 0.36315295 0.2628504 0.09854915 0.1381017 0.24135867 0.15407455 0.6483136 0.12359622 0.6185646 0.46482697 0.38760975 0.054584894 0.11513792 -0.53362155 0.25690484 -0.22129191 -0.7342773 -0.056213003 -0.469796 -0.054433204 -1.0181295 0.15868556 0.56063604 0.3955375 0.27915633 -0.4205077 0.3940275 -0.16896074 0.09390609 -0.07420128 -0.10780816 0.37366948 0.055420805 0.12740262 0.3629587 0.35906127 0.49410373 0.38723817 -0.3018906 -0.46900368 -0.007148924 0.13138272 0.74125576 0.07052805 0.35598347 -0.43483412 0.21800761 -0.14780743 -0.6054374 -0.4724822
naranja -0.6134975 0.18238838 0.5321492 0.39927965 0.043995097 0.3670977 -0.11745837 -0.28351963 -0.06199199 0.72176343 0.18970218 0.020784674 -0.087474786 0.33030665 0.16289832 0.09327687 -0.4296092 -0.35980582 -0.45011118 0.20368335 -0.08024453 -0.5448709 0.22945717 0.21460526 -0.26441923 0.16338624 0.40610987 -0.35158145 0.10762091 -0.038172457 0.44825238 0.059872534 -0.19037062 0.112564124 0.14996958 0.5560864 0.5969767 0.052364856 -0.63374144 0.19795589 -0.42500073 -0.20669715 0.14730763 0.21108416 0.2553179 0.11721374 0.38201037 -0.3879044 -0.49037778 -0.7185825
vela -0.15456574 0.063381165 0.62516236 0.6864937 0.02054964 0.32435527 0.79724187 0.23033191 -0.5742027 0.3976369 0.20350574 -0.47667632 0.60134226 -0.2687651 -0.13503364 -0.23783512 -0.29035997 -0.38243365 -0.07976525 -0.24651623 0.21980129 -0.05132143 0.4700178 0.18298095 0.39954945 -0.17447093 0.7062482 0.3356747 -0.4330714 -0.5246021 0.25585544 -0.53540075 -0.149088 -0.17971386 -0.07925286 0.4054094 0.08889242 0.0028881473 0.45009062 -0.65223384 0.7198423 -0.19692114 -0.009779416 -0.6801606 0.20930254 0.06109575 -0.4336384 -0.79807174 -0.4964201 0.18056013
muñeco de nieve -0.15486483 0.14667478 -0.32935825 0.6547665 0.3274303 0.17342645 0.53074414 0.9192652 -0.49127135 0.049678434 -0.2890181 0.09472209 0.14074473 0.2201536 0.06851129 -0.011014369 0.27446917 -0.5172565 -0.38421056 0.010400374 -0.08702148 0.13526307 -0.14138952 0.41122624 -0.19749838 -0.39075518 0.14385287 -0.0075865183 -0.4202227 -0.7348821 0.14090106 -0.29622775 0.08908377 0.45688754 0.40348876 0.42637756 0.4163493 -0.04636792 -0.26809222 0.20134793 -0.62843883 0.3967087 0.059737 -0.41534737 0.27139363 0.47720018 -0.3201496 -0.35217196 -0.32340142 -0.62343997
mariposa -0.736769 0.32612887 0.40616524 -0.078867584 -0.6606462 -0.13734919 0.97829014 0.1773334 -0.082970954 0.39586863 0.18187055 -0.2688975 -0.26563135 0.10581476 0.8369516 -0.27719218 -0.20104302 -0.14011653 -0.2951953 0.43896535 0.563142 -0.015643673 0.4615134 0.15797009 -0.0884875 -0.18858731 -0.39559507 -0.43148565 -0.5331314 0.022807058 0.15194696 -0.18086605 0.29592377 -0.40155253 0.32771203 -0.11490659 -0.05656505 0.6786606 -0.37791398 0.033857193 -0.17058061 -0.32752168 -0.22836834 0.47603878 -0.04788969 0.09053232 -0.041380804 -0.4878515 -0.16669148 -0.1863094
muñeca -0.4253901 0.017796973 0.11293827 0.57295674 0.1756763 0.10446535 0.05513966 0.14501047 0.46823967 0.6464645 0.081967205 -0.23370293 -0.16781761 -0.19076557 0.47157487 -0.36633712 -0.09191042 -0.7181558 -0.13120386 0.006506634 -0.023090223 0.62773097 -0.530914 0.13515265 0.36675036 -0.7124907 -0.07621325 9.077696e-05 -0.6408513 -0.43218392 0.26217547 0.375027 0.11820928 -0.17823462 0.24347728 0.19473839 -0.013892235 1.0333267 -0.3746641 -0.09488476 -0.10915004 -0.3599502 -0.1366813 -0.27559033 -0.023004046 -0.04661065 -0.41207927 0.49962157 -0.16898638 -0.33759198
pan -0.017497221 0.5202919 0.072548434 0.58449614 0.39226508 -0.011903019 0.20098706 -0.079804115 -0.13181424 0.680916 0.043437403 0.30295724 -0.33058754 -0.33734238 0.41522917 -0.06831171 -0.085654795 -0.08038725 0.067333974 -0.09731183 0.015256425 0.060598046 0.1402737 0.80026954 -0.012214638 -0.3835083 0.47513232 -0.53981423 0.25643086 -0.3621973 0.3006657 -0.5572745 -0.085389495 -0.046126347 -0.06770679 0.30054507 0.3800739 0.376083 -0.3682647 -0.5401223 0.15634759 0.07742069 0.24176788 -0.0055231396 0.2460027 -0.94761884 -0.044535697 -0.4728613 -0.33733645 -0.59012526
dientes 0.19434026 -0.39608213 0.12388919 0.091028765 -0.15058519 0.075129166 0.39380467 -0.1847516 -0.1632221 0.55635685 0.3178168 -0.8135696 -0.21438083 -0.045515988 0.24844176 -0.42290708 0.054955307 -0.48962367 -0.31064215 -0.21044241 -0.06972978 0.23044746 0.29323837 -0.3163376 -0.2507988 -0.3878198 0.42837924 0.22784624 0.1725786 0.29546285 0.58050835 0.16208196 -0.35109535 0.19002454 0.07560564 0.02333632 0.6735565 0.54573053 0.42370194 -0.016213674 -0.26604325 0.21815634 -0.45256552 0.11788508 0.10541179 0.17701362 0.09779391 -0.6546452 -0.07148374 -0.97542673
jugo -0.06550118 0.0039305203 0.7512402 0.13997798 0.46381074 0.32360512 -0.11979632 -0.012772623 0.10591199 0.5211526 0.3344603 -0.3353735 -0.122964434 -0.37255746 0.18125868 -0.09874202 -0.15708934 -0.5682222 -0.36086673 0.21237198 -0.58397514 -0.43531978 -0.11977945 0.911547 -0.6610271 0.04738799 0.40770432 -0.275338 0.1155573 -0.14746054 -0.030459652 -0.20315285 -0.3279694 0.36426648 0.8205839 0.34320647 0.5629803 0.19892937 -0.52398735 -0.22271733 -0.12987775 -0.07959979 -0.06170611 0.12034273 -0.26767218 0.021479849 0.07479606 -0.41862494 -0.4411068 -0.37319338
queso 0.07768119 -0.5729716 0.0422667 0.48864737 0.18714558 -0.38633144 0.53567314 0.12609233 -0.43078858 0.17371762 0.67725486 -0.030800374 -0.03247397 -0.15479514 0.3445194 0.18068439 -0.16930127 0.1127436 -0.80388033 0.055018794 -0.6630422 -0.17215595 0.36366022 0.86193097 -0.057305917 -0.48218933 0.30987722 -0.68587005 0.3407472 -0.14774475 -0.08708379 -0.07990534 0.04240936 -0.10275209 -0.08959995 0.25349995 0.42219734 0.5780834 -0.23918205 0.06490268 0.31982896 -0.5015939 0.21429369 -0.053126648 0.18985774 -0.6891817 0.0940801 -0.6603918 -0.32708022 -0.5857404
triciclo -0.27701658 -0.050207566 0.056886416 0.319925 -0.26875392 0.04157205 0.6767369 -0.1761436 -0.17674664 0.029922217 -0.09110106 0.077018805 -0.24440551 -0.07675092 0.24972588 0.278535 -0.15862042 -0.42415804 0.04341083 0.3925439 -0.16493939 0.041719064 -0.30334628 -0.06232494 0.13817713 -1.1983801 0.038133275 -0.22906157 -0.53749555 -0.46744174 -0.29660884 0.3208199 -0.21522921 0.12000131 0.61028093 0.07086871 -0.43103707 0.4324424 -0.26386258 0.20392074 0.22947389 -0.2844656 0.6198721 0.17341295 0.18029514 0.0021406545 -0.41315728 -0.32544178 -0.08276471 -1.1453826
cocina 0.09004252 0.3257078 0.43247542 0.17076488 0.3653972 -0.5254885 0.088254854 -0.049198158 0.32378373 -0.049714833 0.55283064 -0.11538259 -0.27811477 0.1967604 0.17315222 -0.44444823 0.23506023 -0.5304521 -0.5187204 -0.008493139 -0.538648 0.101867005 -0.3744379 0.3474532 -0.2045533 0.045735653 0.43862274 -0.11321182 -0.565711 -0.36391476 0.19037914 0.056180123 0.3273957 -0.24338897 0.33925122 0.44518954 0.30843437 0.43174016 0.43324584 -0.30386946 0.24017406 -0.056919564 0.10560415 -0.27420202 0.15626389 -0.52403367 0.29942438 -0.6625272 -0.20010445 -0.3941543
helicóptero -0.8524899 0.13206993 0.19320436 -0.06411043 -0.18460765 0.17469989 0.6970422 0.03188981 -0.14135042 -0.09195756 -0.22872116 0.2514473 -0.13173668 0.24000356 0.48979986 -0.014135651 0.044486456 -0.34125715 0.21344827 0.5457854 0.062320217 0.10893394 0.10977983 0.19043465 0.04322119 -0.48808655 -0.48236936 0.045922812 -0.1107701 -0.9918384 -0.27652773 -0.40183598 0.100263394 0.16378625 0.57890284 0.14675824 -0.13239412 0.40468413 0.07526421 0.44359344 -0.052374467 0.5356663 0.08701954 0.06930868 0.8786844 0.41847423 -0.3337543 -0.8589783 -0.38191205 -0.29074964
cereal -0.28741476 0.31756204 0.04832872 -0.1505985 0.34381822 0.018617347 0.25916615 -0.41526073 0.0740897 0.7164703 -0.020714337 0.076668814 -0.49378037 -0.029531388 0.40379578 -0.19389959 -0.35350218 -0.29701218 -0.22109851 -0.15223165 -0.09810814 -0.1598083 -0.20853086 0.73627776 0.02300148 -0.14323682 1.1126934 -0.35153455 0.0889296 0.21148576 0.46417373 -0.30795762 -0.34335583 -0.15314443 0.6731394 0.052651715 0.19129269 0.6091699 -0.49445385 -0.64809066 0.11444348 0.5321025 0.30730408 0.1470316 0.24920747 -0.3759505 -0.013273392 -1.1118877 -0.34564367 -0.16718471
guantes -0.0021502932 -0.025644308 0.31969553 0.64342827 0.0033613923 -0.15785791 0.46805906 0.12609352 -0.30236 0.021721724 0.2209849 -0.31601626 0.5516688 -0.1297919 0.29067132 -0.08208909 -0.623416 -0.09812354 -0.00075344305 0.3828587 0.015277683 0.12269103 -0.25125182 0.49958768 -0.3879763 -0.24627385 0.3776486 0.28154066 -0.3425667 -0.7679572 0.39657855 0.39279786 -0.37309957 0.2201814 -0.3274543 -0.010695617 0.60682476 -0.028026836 0.2780702 0.3377107 0.11259087 -0.18979108 -0.7479788 0.19609253 -0.2127635 0.11104694 0.44486642 0.1255505 -0.2928339 -0.84525585
mantequilla 0.25904962 -0.09598858 0.5416171 0.47334337 0.3062095 0.27563554 0.38844594 -0.00043937762 0.0688842 0.8533308 0.20897897 -0.02234234 -0.15735509 0.059909627 0.0475461 0.27564213 0.1534049 0.18062465 -0.56483585 0.21240616 0.11879593 0.16713758 0.115842044 0.36883476 -0.093165636 -0.45492476 0.6028185 0.18763927 -0.07428134 -0.42056978 -0.34304294 0.0034913318 0.3492063 0.49550402 0.035433233 0.28328502 0.37475157 0.7434633 -0.2583369 -0.06638616 0.1407723 -0.37715757 0.3723726 0.27478933 0.17472483 -0.74091166 0.46751133 -0.9214232 -0.6021832 -0.46671456
barco -0.222383 -0.1893288 0.019245952 0.3979251 0.22913344 0.30363825 1.2425463 0.07499884 -0.37648895 0.63257706 -0.24544872 0.082302496 -0.29500103 0.18359436 0.23834875 0.16925971 -0.48518163 -0.26688957 -0.058595326 0.21299562 -0.021831185 -0.4489245 0.40032122 -0.04104242 0.15659736 -0.48341912 0.5911636 -0.1111776 0.21488169 -1.0359508 -0.43463826 -0.733826 -0.2954981 -0.08244731 0.7333803 0.13078237 0.020361768 -0.027142026 0.059059672 -0.7175381 0.31189057 -0.157437 -0.61702394 -0.17528561 0.5008545 0.47911483 -0.8939297 -0.14388733 -0.15521385 -0.29937708
torta 0.30622885 0.27309853 0.057987694 0.20050196 0.90949374 -0.097614594 0.6115222 0.026936334 0.07113208 0.33073807 0.40631366 0.77995926 0.048113823 -0.6144422 0.3048804 0.49334037 -0.2870202 -0.32552695 -0.7109079 0.096384116 -0.018117191 0.0822087 0.26651797 0.51201284 0.20993151 -0.5249283 0.28366083 -0.046981726 0.15419404 -0.28571698 -0.10423274 0.10059527 0.21031645 0.14429678 0.19583121 0.4257308 0.7237361 0.23389702 -0.033003464 -0.013602368 -0.10633063 0.06056182 -0.05708811 0.18057805 0.38270113 -0.78321576 0.0058602397 -0.5263712 0.01769883 -0.47194883
pantalón -0.85274214 0.26823527 0.25231013 -0.05233237 0.51642835 -0.13759989 0.14257415 0.3455395 -0.5458011 -0.3299765 -0.36699212 -0.5502775 -0.23367678 -0.20315899 -0.006121224 0.17105621 -0.40577355 -0.024314005 -0.6622878 -0.038575266 0.036174335 0.3598273 0.25133342 0.12905547 0.11827458 -0.6663758 0.46820953 -0.015861833 0.004637207 -0.5230978 0.2360678 0.5223383 -0.07742145 -0.41747302 0.28402728 0.026984792 0.05669745 0.43116468 0.2619261 0.41750932 0.36782014 0.34572193 -0.25862813 0.014362191 -0.20131846 -0.4123717 0.13102788 -0.24468125 -0.333439 -0.3944939
collar -0.42986825 0.5398783 -0.26261565 0.23562838 0.34619743 -0.22709364 -0.16522041 0.32092246 -0.21156637 0.23185845 0.14991248 -1.0031914 0.4100591 0.60055596 0.2372518 -0.16737181 -0.44024184 -0.2635783 -0.18629526 0.55609995 0.53592354 0.07417927 0.06724826 0.2863203 0.36401856 -0.99089235 0.06815649 -0.15940061 0.04390611 0.02948153 -0.042224374 0.068142526 -0.46577778 0.034797024 0.3175034 0.26962936 0.44881725 0.39420807 0.14625534 -0.2721567 0.16578113 -0.359395 -0.5115306 0.35479763 0.18768951 0.2258994 -0.76522833 -0.16526884 -0.0955398 -0.43078038
salchicha -0.05108683 0.46107495 0.38707396 0.5002044 0.5861028 -0.12671624 0.34804663 0.376599 0.3135591 0.68961245 0.23696908 -0.08028693 -0.16634808 -0.341358 0.113163374 0.13302287 -0.17701057 -0.36032537 -0.3492145 -0.04540439 -0.27771434 -0.38114563 0.5782882 0.38453597 -0.08149019 -0.13916297 0.1255671 -0.18088657 0.28284913 0.05174348 0.2638199 0.10569103 0.20207393 -0.23994763 -0.07472943 0.2487513 0.71240205 0.6780158 -0.10529705 0.33376583 0.43596372 0.3526808 0.5555987 0.24453428 0.8252907 -0.70829725 -0.040012315 0.03876177 -0.08721197 -0.28783828
sol -0.80868655 0.40062872 0.7453499 0.30877268 0.008209782 0.018201554 1.5180731 0.82120496 -0.13731152 0.20002253 0.70832217 -0.3193765 0.10768168 0.03975794 -0.015836794 -0.29811105 -0.39989766 -0.20084198 -0.16982158 0.08807238 -0.16756566 -0.12644385 0.27318686 0.10204884 -0.11206611 -0.029653134 0.115937844 -0.25787508 -0.043399293 -0.044301048 0.09446248 -0.39603567 0.10958454 -0.12397493 -0.05385441 0.4386012 0.3051154 -0.01644879 -0.020006832 0.1466362 0.15063491 0.081296764 -0.08800271 -0.29288286 -0.046045028 -0.2049471 -0.17766988 -0.1859257 0.26115447 0.15270899
vaso -0.14949204 -0.15472434 0.75604624 -0.37207502 0.5515468 0.5690796 -0.0739843 -0.16279481 -0.19756712 -0.15339006 0.09479073 -0.57376546 0.1873927 0.017484447 0.08664094 -0.40822005 -0.10659623 0.06796749 -0.47941244 0.20983222 -0.77237105 -0.12680611 -0.12056358 0.39284667 -0.2761484 -0.13641748 0.121989794 -0.17011519 -0.17444336 -0.56975746 0.05657937 -0.13424748 0.30865926 0.1532501 0.65727055 0.8239067 0.41030383 0.31857774 0.11395626 -0.514748 0.49292472 -0.0030977537 0.103181556 -0.15275942 -0.21671589 0.26895827 -0.32154477 -0.45029607 -0.30187583 -0.7254209
elote -0.015128303 -0.18158962 -0.028752072 0.70270526 0.49543965 -0.5127068 0.6623784 0.034777854 0.09291961 -0.16691627 0.35710794 0.017995916 0.49180493 0.13891052 0.15270999 0.23788877 -0.30842268 -0.6102681 -0.39262024 0.44122997 -0.3644941 -0.33155683 -0.03121147 0.51787776 -0.24651046 -0.015695365 0.2661573 -0.52607244 -0.037374623 0.42932358 0.39227158 -0.1983577 -0.16177613 0.41828737 0.057743568 0.26210552 0.7386075 0.32851285 -0.54152435 -0.07310992 0.29048288 0.33812964 -0.28753713 -0.020766238 0.48462746 -0.4279809 -0.16454248 -0.28879902 -0.035367206 -0.55481684
falda -0.1331948 0.8411928 0.5292908 0.63564783 0.033384684 0.22389422 0.21725897 0.1552894 -0.24809042 -0.012884685 -0.4529193 -0.62699604 0.103588045 0.23211494 0.31026444 0.15920557 0.3209535 -0.31188002 -0.6792633 0.070516616 0.2473334 0.47322378 0.17408998 0.22177114 -0.08990915 -0.46936944 0.3149159 -0.15698884 -0.24059851 -0.39279175 0.03089141 0.3404392 -0.21855749 -0.8676737 0.5884852 0.076652065 0.027749376 0.58162314 0.41492394 0.14484443 0.068771265 -0.11328379 -0.5188586 0.15545925 -0.123790614 0.13682279 -0.30338413 -0.0046449923 -0.591654 -0.06893092
ratón -0.3308944 -0.8162365 -0.04276845 -0.057843518 -0.027686864 -0.2080732 0.2953907 0.06627767 0.13085265 0.21049249 -0.1765636 -0.28304657 -0.43030944 -0.04284996 0.32382527 -0.032920696 -0.53359556 -0.34849286 -0.2816753 -0.19805694 -0.71904266 -0.5067253 0.5094196 -0.03420528 0.3093855 -0.34118915 0.09509113 -0.23624904 -0.2134771 -0.04028432 0.12099071 0.2225169 0.0215044 -0.15779991 -0.29522687 0.0038722118 -0.107782274 0.4359327 -0.17291735 0.32435584 0.4616465 0.07250554 -0.913367 0.18171416 0.09379286 0.1294864 -0.4149915 -0.6779737 -0.73672885 -0.64830995
manzana -0.17074302 -0.08460695 0.50164217 0.11682012 0.22277783 -0.077752605 0.4155742 -0.38707826 -0.21470106 0.43169618 0.41233933 0.10823118 0.10052824 -0.2241327 0.24124059 0.35122082 0.2140577 -0.6494359 -0.6603328 -0.72776103 0.22604966 0.1946925 0.5189375 0.3563071 -0.25080806 -0.34623182 0.7414098 -0.39857927 -0.20136708 0.11434777 0.2229406 -0.07763404 -0.0450241 -0.0060385712 0.4175617 0.39788112 0.10035311 0.03576237 -0.7136693 0.113292344 -0.005693422 0.37600282 -0.12610891 0.2714447 -0.0830042 -0.15873739 0.3550199 -0.4669356 -0.5632644 -0.35905832
ganso 0.013061009 0.3214653 -0.085785694 0.29583156 0.38236028 0.073709 0.76263636 0.31719384 0.22557317 0.185262 -0.57336754 -0.5471677 -0.28973728 0.40528783 0.806063 0.19794609 -0.1165483 0.3737941 -0.25905526 0.13519783 0.525301 -0.4230354 0.27547306 0.33487985 -0.04257295 -0.16707018 -0.23096412 -0.24717093 -0.21788429 -0.3127567 0.18556583 -0.14439808 0.17914583 0.20789474 0.23624933 -0.027548902 0.4389855 0.16040623 0.022866374 -0.11586177 -0.024547394 0.2504985 0.46966526 -0.1112306 -0.029431714 -0.058990017 0.10215144 -0.5563417 -0.099606186 -0.7113093
bufanda -0.39829734 0.72966826 0.15348968 0.08892624 0.4443796 -0.26170462 0.088113286 0.8340333 -0.30489314 -0.0888949 0.09710006 -0.102346025 0.32825905 0.4881378 -0.030708266 -0.01440697 -0.70783424 -0.6146977 -0.58471715 -0.1188972 0.2143536 0.11509306 -0.2401929 0.36784253 -0.50278705 -0.56930465 0.28935802 0.0988464 -0.40261415 -0.4842878 0.34706944 -0.107898116 -0.20314312 -0.24550872 -0.29559818 0.06504225 0.28008226 -0.008860356 0.16478543 -0.03779527 -0.13558581 0.33176836 -0.071920134 0.38760787 -0.065364815 0.09918973 0.12314552 -0.020805698 -0.48035315 -0.48744395
fresa -0.19967203 0.41203994 0.5470603 0.1291287 0.16769658 0.3227921 0.018091202 0.115877554 0.008859414 0.43499413 0.32759896 -0.27269638 -0.39522192 0.404098 0.18090636 0.37780285 -0.64025164 -0.18349242 -0.3170033 -0.3803034 -0.2574387 0.15879498 0.15622273 0.64538795 -0.015845036 0.067000695 0.52755266 -0.4568118 0.04075589 0.091712005 0.33845496 -0.43723184 -0.13673137 -0.14160722 0.6452323 0.18007259 0.3947882 0.5159301 -0.76856947 0.010288196 0.04242001 0.23632705 0.5664342 0.19789752 -0.14090408 0.2378177 -0.124196 -0.14989603 -0.15434413 -0.643409
tambor -0.2663448 -0.0025549792 0.37907866 0.28239447 0.41523287 0.123465076 0.5890604 0.020286264 -0.53981435 0.5232094 -0.31525877 -0.50136864 0.30243987 0.43879575 0.17834398 -0.30162033 0.22905442 0.11936036 -0.50127864 0.4277786 0.20539923 -0.33287987 -0.3915659 0.2530356 0.4651481 -0.22319213 -0.026147569 0.48300588 -0.5964746 0.45083928 -0.38815197 0.065014385 -0.33759823 -0.53797305 0.5740592 0.08829284 -0.13770747 0.30494362 0.09524617 0.25226775 0.5233038 0.76863325 -0.067114666 -0.6888202 0.68243635 -0.13250197 0.2675725 -0.22377707 -0.5356505 -0.83835536
techo -0.63530874 0.18177032 -0.23502903 -0.049710684 -0.3120392 0.17811166 0.9773183 0.46261537 -0.03492977 0.11956309 0.13536942 -0.103666954 0.39424363 0.18789236 0.08592761 -0.31618428 -0.121745504 -0.055133145 0.06753759 0.08400794 0.15480047 0.7004097 -0.17114195 0.548321 -0.086032994 -0.17003801 0.54880244 -0.18775205 -0.85729575 -0.62346256 -0.05717306 -0.11418447 0.18227874 0.31301475 -0.13665321 0.7449983 0.49931777 0.33850124 0.18470304 0.030179549 0.5662092 0.61969537 -0.3108583 0.006015374 -0.062135924 0.18278563 0.07034031 -0.012416524 -0.17781805 0.13048235
columpio -0.8211372 -0.33914158 0.03868933 0.09499788 -0.19131841 0.37610847 0.8683371 0.43976533 0.13442633 0.16377193 -0.0136071 -0.015224986 0.3069597 -0.11838498 0.70007616 0.105934225 -0.2907915 -0.17767677 -0.06647741 -0.1436826 0.32365745 -0.32746425 -0.38517192 0.23234895 -0.026015881 -0.3803202 -0.30361897 0.4398736 -0.30130047 -0.29452538 -0.18384609 -0.05008625 -0.28380433 0.42153135 0.36438608 0.4509083 -0.4737937 0.47144973 -0.42526677 0.12407942 0.12790869 0.2730033 -0.19022112 0.5382176 -0.09451551 -0.02798902 -0.0354581 -0.010933592 -0.26861033 -0.63199455
refresco -0.385278 -0.14314285 0.5114769 0.16931555 0.72563595 0.19380003 0.14401926 0.31202438 0.029031321 -0.015665013 0.28660014 -0.19327945 -0.2603116 -0.4024091 -0.018116822 -0.114594355 -0.85687643 -0.10712164 -0.26444364 0.011751619 -0.6841714 0.10949276 0.43370423 0.6512455 -0.5812998 0.055458456 0.407761 -0.56375915 0.088455394 -0.45160428 -0.067740925 -0.17107013 -0.17579281 0.30396178 0.3847683 0.4736704 0.06033905 0.47906524 -0.30454853 -0.59373665 -0.054432645 0.37735045 0.35028762 -0.12094452 0.17680879 0.5606999 0.19720602 -0.1363966 -0.5746781 -0.33498323
pingüino -0.10312519 0.28285113 -0.32274798 0.36847484 0.3052253 0.2916205 0.4403504 0.79576886 0.7416033 -0.0910129 -0.30351818 -0.38283664 -0.35460278 0.17055394 0.19669445 -0.08388171 -0.26982936 0.14248729 -0.43476352 0.5102312 -0.07742314 0.0063953497 0.27455252 0.42205772 -0.4311984 -0.37278005 0.04502316 0.3576674 -0.6911457 -0.463652 -0.107116826 -0.22166443 -0.15661395 0.5069799 0.23629223 -0.18056904 0.6933822 0.3246567 -0.27006975 0.16864973 -0.283835 0.22131714 -0.26658574 -0.47355932 0.15862648 0.2211117 -0.09880173 -0.57020676 -0.40386036 -0.25431293
paleta -0.118319795 0.38218695 0.4143121 0.73178166 0.4317767 0.11036439 0.37134773 -0.009723701 0.0016159314 0.14030229 -0.14098768 -0.19798101 0.15055014 0.08040003 -0.33551332 0.1978401 -0.080728725 -0.44697598 -0.6461394 -0.46869838 -0.32646996 0.110982984 0.56164813 0.6473973 -0.06373003 -0.15518467 0.36443552 0.30767447 -0.44734818 0.23950282 0.20058109 -0.35934788 -0.32062152 0.07596769 0.33861452 0.33900946 -0.03214388 0.88370216 -0.5302635 0.08901408 -0.31092745 0.40769988 0.5513358 0.4235084 0.12725806 0.3193776 0.13590005 -0.54419833 -0.35812095 -0.42374226
pies 0.18134987 0.2410533 0.4390678 0.1378004 0.018743878 -0.0033803196 0.80128175 0.24625856 0.027039895 0.14899163 -0.059464157 -0.729095 0.22763035 0.119193755 0.8272904 -0.27041122 0.47428182 -0.21500784 0.09525719 -0.06842602 -0.12067164 0.55232686 0.0007536209 -0.09080082 -0.15028611 -0.13778563 0.8059894 -0.00595846 0.4468574 -0.14488982 -0.04753731 1.0696243 -0.38466603 0.056783147 0.474395 0.25251883 0.19120106 0.69353026 0.027205486 0.5055769 0.17856582 0.13658348 -0.4700225 -0.12388536 -0.37913364 -0.18414716 -0.3503093 -0.094453625 -0.43422624 -0.58868647
escalera -0.7135018 0.037376218 0.31088677 -0.19973715 -0.016433854 0.42333758 0.6413967 0.16450694 0.17570983 0.39720547 -0.15354252 -0.0730733 0.18143906 -0.20681271 0.6413773 0.055583056 -0.27992395 -0.22611976 -0.21629763 0.2654492 0.06931055 0.56467855 -0.25443754 0.054061938 -0.06025272 0.13862024 0.003308739 -0.49667645 -0.2816961 -0.27397943 -0.34475657 -0.09215835 0.0758753 -0.081033334 0.07171212 1.5574354 0.41915196 -0.097028404 0.11603062 0.31723532 0.39597985 0.26502812 0.12643729 0.23454227 0.12744433 -0.39876547 -0.4572112 0.33249727 -0.10849941 -0.45192263
hospital -0.6004638 0.006663744 0.016780334 -0.42997 0.53534967 -0.057823412 0.5068669 -0.61544406 -0.043083064 0.46614218 0.5958765 0.13761064 -0.2270856 -0.16131721 0.5815352 -0.29794005 -0.2639887 -0.1824426 -0.39508292 -0.15883037 0.3907339 -0.09760111 0.023366261 0.28516877 -0.31542483 -0.50417733 0.1391857 -0.26341486 -0.5074705 -0.087995425 0.43644693 -0.15279604 -0.7768262 -0.1231637 0.22693396 0.025882347 0.9693949 0.57577944 0.60001403 0.23173456 -0.18148416 0.25933248 -0.16585381 -0.88709915 -0.5272214 0.14657444 0.19831692 0.17387426 -0.3795992 -0.4613306
payaso -0.9117339 0.15910026 -0.37070632 0.27177045 -0.24154377 0.2482103 0.38251266 0.06039666 -0.4397292 0.26385114 0.25546378 -0.8433556 -0.22754152 -0.38508344 0.1880661 -0.35995206 -0.49006537 -0.44441268 -0.02247105 -0.19716251 -0.47631878 -0.05155614 -0.30523184 0.4142012 0.1839622 -0.063079014 -0.105106436 -0.1454213 -0.42579374 0.07198255 0.049117155 0.19433527 0.05183049 0.63264376 0.11499683 -0.11973475 0.5448414 0.35051048 -0.17176491 0.10277677 -0.44613287 0.18316388 0.042541698 -0.35672757 -0.22442718 -0.28728098 -0.37689823 0.04027709 -0.79365015 -0.55896
pájaro -0.205203 0.582327 0.027634777 0.46952996 -0.16981533 -0.16051579 0.45060953 0.34428617 0.40438306 0.16838056 -0.27745754 0.106154926 -0.19544978 -0.022844417 0.8159431 -0.44527745 -0.23644692 0.12227483 -0.31626105 0.45425704 0.092819415 -0.10184616 0.66711015 -0.19397677 -0.031180765 -0.15967782 -0.6527899 -0.5595202 -0.5392424 -0.38296032 0.12306402 0.24780191 -0.2687803 0.025164662 0.5135078 -0.05902308 0.16075692 -0.07093653 -0.5092549 -0.10493802 0.35224438 0.4000747 -0.24858761 0.022663822 0.009848998 0.38421777 -0.23541857 -0.46247917 -0.24294092 -0.6855814
martillo -0.29374465 0.38703883 -0.05173209 0.25501472 0.0966742 0.0008011404 0.02254208 0.031983946 -0.036278106 0.1433893 -0.42007127 -0.06478509 -0.008902457 0.28783944 0.28359818 -0.7601922 -0.2759238 0.19296026 -0.0016558301 0.105707094 0.18788864 0.24275197 0.12767428 0.352227 0.6705334 0.3639987 0.53528965 -0.32555526 -0.8482021 -0.2978468 -0.1660092 -0.014974725 -0.70328015 -0.2122856 -0.111966684 0.71066487 0.29672614 0.28118956 0.13460954 -0.14836562 0.78704005 0.17069572 -0.18515202 0.02503188 0.40862623 -0.023966795 -0.04886129 -0.18273586 -0.10406932 -1.1280186
hielo -0.18048368 0.08466959 0.24806182 0.1934663 0.7498593 0.32273948 0.67180413 0.5992817 -0.34153858 -0.011299083 -0.34153 -0.330027 -0.23553021 0.55389386 -0.092306085 -0.2499621 0.057445314 -0.099367686 -0.6140056 0.17395765 -0.46660268 -0.067375615 0.39804426 0.49709636 -0.41575068 -0.20338824 0.030029185 0.0035927503 -0.06375027 -0.5089543 -0.24614559 -0.45592573 0.11121161 0.0920029 0.58173406 0.6392475 0.021693094 0.42514217 -0.093042634 -0.10789851 -0.19433616 0.17741454 0.20443437 -0.6072164 0.43793857 0.6331369 0.062298756 -0.68496144 -0.09668303 -0.26286784
puerta -0.06624602 0.04384713 0.1809154 -0.5240685 0.05229666 -0.060823184 0.65044004 0.04167901 0.14894745 0.50403064 0.06853073 -0.22959343 -0.19781598 0.28495705 -0.019158648 -0.1395382 -0.46438962 -0.48937774 -0.15569334 0.10093265 0.11721555 0.11064035 -0.059699293 0.8651671 -0.30960637 -0.08508968 -0.28420073 0.060115334 -0.70920336 -0.17306678 -0.31024688 0.81768835 0.12592457 -0.4866209 0.27008605 1.0018276 0.53317493 0.24523056 0.24473312 -0.17896478 0.8644527 0.45238417 -0.09166652 -0.09232423 0.2039425 0.21232016 -0.2564265 -0.28246903 0.16906448 0.09324507
plátano -0.029972766 -0.20052463 0.45864096 -0.25611567 0.002294882 0.06722911 0.16520087 0.05437601 -0.07797903 0.6226666 -0.0034599423 0.03470606 0.02805338 0.16776352 0.16355926 0.40935898 -0.22683506 -0.03467532 -0.3670059 -0.3129659 0.031157669 -0.42543775 -0.22452942 0.4438878 -0.09337687 -0.20154126 0.81564134 -0.46982545 0.20259082 -0.009460297 0.43678546 -0.2952938 -0.102888025 0.20768967 0.50099474 0.8096352 0.41227123 0.4615138 -0.56160194 0.1440563 -0.004322759 0.71156555 0.085642375 0.69767314 0.111554086 -0.07251544 -0.088552415 -0.30101454 -0.37862837 -0.6353143
pluma -0.8716287 0.86937916 0.65685564 0.6389624 0.26222527 -0.74682564 0.4889279 0.05127322 -0.20597175 0.028677931 -0.30160832 -0.18698154 -0.12552346 -0.15047993 0.7917581 0.010135421 -0.08638163 0.2661542 -0.38032514 0.12838162 -0.2029598 -0.121737845 0.45280096 0.38102904 0.009367193 -0.08200138 -0.002341592 0.33746117 -0.28797105 -0.0976769 -0.091441095 0.41005293 -0.358446 0.5851195 -0.16221453 -0.10618844 0.34363163 -0.08031815 0.069601424 0.004642146 0.37441212 -0.21891956 0.03171224 0.15693372 -0.13023642 0.3241957 -0.2912276 -0.5120484 0.16153058 -0.51796615
espejo -0.35482845 -0.25507516 -0.21639822 -0.12989186 -0.40862432 -0.7665828 0.46964943 0.08811903 0.010937318 0.15950549 -0.11545598 -0.45839214 -0.38031736 -0.19514468 0.18716381 -0.21676911 -0.24439195 -0.67399645 -0.19991003 0.19334108 0.17300877 0.32011488 -0.39342803 0.25478554 0.073562436 -0.26652738 0.24053851 -0.3688196 0.042068154 -0.15742446 0.42432353 -0.047569588 0.026737148 0.1625455 0.6430268 0.55845654 0.7988374 0.44650328 0.7054807 -0.64880174 -0.12368058 0.18178283 -0.23555824 0.08961108 -0.09927481 0.46644086 -0.68188083 -0.3670609 0.12189229 -0.33814815
luna -0.5039989 0.21362717 0.5882814 0.5408758 -0.025392717 -0.18484889 0.7499158 0.30009934 -0.10039966 0.6740277 0.19903006 -0.30207112 0.126804 -0.4280519 0.2652523 0.02786395 -0.04441431 -0.41971645 -0.40180847 0.38225415 0.115187325 -0.2251826 0.4818019 -0.018389245 -0.10835935 -1.1356021 0.16913809 -0.29284212 0.015927406 0.12208465 -0.09013058 -0.23284587 0.3071891 -0.10017916 -0.40072787 0.31187367 -0.11932386 0.16200389 0.5485244 -0.15017965 0.17042223 -0.13702032 -0.3195603 -0.053351596 -0.035744313 0.22647709 0.025996719 -0.6994232 0.058687575 0.17243311
niña -0.45056507 0.0016565453 0.4591202 0.18042846 -0.06429788 -0.28681397 0.48646703 0.53170294 0.13620119 0.4791192 0.33479935 -0.65338063 -0.4760005 0.0829541 0.42820933 0.17161164 -0.37979242 -0.18440439 -0.7835912 0.08155665 0.38154933 1.0346651 -0.3571462 0.008529892 0.41220912 -0.79110247 -0.15542682 0.29047254 -0.19710873 0.20104277 0.16770425 -0.1229795 0.31019711 -0.23883326 0.32233596 0.43909103 -0.10150006 0.81574255 -0.02591518 -0.14068018 -0.172403 -0.077208295 -0.25296146 0.16517566 0.32455167 -0.082406275 -0.17978685 -0.038475696 0.29685494 -0.34251085
guajolote -0.36192247 0.5736463 0.22116034 -0.042753782 0.31587735 -0.047431096 0.5878887 0.31781203 0.06375613 -0.16766082 -0.026595376 0.24190482 -0.30982253 -0.34598622 0.55854785 0.05925122 -0.2705242 0.34438947 -0.5186009 0.54201126 -0.20758164 -0.034942124 -0.07282159 0.09903414 0.28051484 -0.006774746 0.10497386 -0.36722058 -0.3849693 0.2767892 0.39092284 0.0006992756 -0.09694726 0.21542923 0.47239277 -0.30903813 0.5774994 -0.27284315 -0.20595078 -0.071120076 -0.013829336 0.4854379 -0.45349473 -0.03753611 0.7218835 -0.27609554 0.03147415 -0.43915048 -0.9108218 -0.61315435
refrigerador -0.33910573 -0.45966783 0.19469252 0.457375 0.106212474 -0.28834304 0.40812066 0.17894478 0.25760278 -0.13525455 0.16963373 -0.3789802 -0.051317267 0.16822803 0.102086775 0.120620795 -0.021816779 -0.22130163 -0.853172 -0.23511656 -0.45723933 -0.026766313 0.41767624 0.6831319 -0.5022838 0.040795945 0.34291548 -0.6416741 -0.21781987 -0.5745045 -0.6335554 -0.5001336 -0.063393265 -0.09548667 0.19068243 0.45859805 0.15075049 0.03342202 0.043797858 -0.045073103 -0.203231 0.23543893 0.2546147 -0.25239182 0.31030822 0.06278552 0.22679062 -0.7538396 0.17327704 -0.5334221
elefante -0.5904231 -0.5490608 -0.21572368 0.3944222 -0.027252398 0.58072525 0.41725245 0.5748456 0.7561789 0.20528394 0.059958488 -0.29156363 -0.6029932 0.57107735 0.3444578 -0.104387954 -0.36016575 -0.27421 0.013936513 -0.32500896 0.08162002 -0.026702913 0.25996023 -0.167899 -0.10391551 -0.30133963 0.31634453 -0.10037899 0.03395803 0.0155286845 -0.24407986 0.6521177 -0.18441433 0.36014685 0.07928116 0.24548544 0.19459915 0.3642327 -0.08050983 -0.40852842 0.5155605 0.17659771 -0.39553696 -0.10316798 0.33822596 -0.0889775 0.14347714 -0.15146369 -0.5864392 -0.56597364
circo -0.6431999 -0.009278374 0.25934294 0.040057316 -0.51888055 0.53595054 0.19003083 0.67319363 -0.5071385 0.5032974 0.3098203 0.03542076 -0.7701231 0.33112675 0.3877201 -0.16850102 -0.5636203 -0.636289 0.2287165 -0.040912893 0.124493726 -0.007923421 0.19474265 0.009228582 0.03307362 0.049732383 -0.1507428 -0.39043415 -0.39440292 -0.08560332 -0.15928671 0.39195573 0.057899565 0.81304365 0.24661838 -0.028712185 0.45544758 0.29536134 -0.20721951 -0.23350021 0.0075499928 -0.22269793 0.12886702 -0.29773054 0.4527428 -0.33904412 0.047158442 -0.36402056 -0.78492785 -0.57071996
sala 0.059824854 0.2633182 -0.006916303 0.5168711 -0.10700653 0.10060316 0.30145442 -0.21650259 0.08285854 0.28126633 0.31548274 -0.1122518 -0.053568173 -0.074964084 0.050687667 0.6457908 0.05296929 -0.36272103 -0.12616564 0.49214333 -0.20288964 0.13578643 -0.010363938 0.54780656 0.16845945 0.030948572 0.17896187 0.034122422 -1.2481524 -0.19818933 0.2501733 0.5432835 -0.07934318 -0.16495657 0.20982656 0.7099273 -0.0020428624 0.35430855 0.5926645 0.17539836 0.5286004 0.25322396 -0.33909914 -0.54020625 -0.28590018 -0.14729218 -0.41670164 -0.39381006 -0.40642342 -0.23372856
radio -0.13800369 0.20549323 0.87237275 -0.28914568 -0.3325912 -0.53115207 0.29476053 0.4776323 0.17186563 -0.02102992 0.30649808 -0.65313333 -0.345654 0.7058904 0.4316623 -0.30475265 -0.8165302 0.02472762 -0.08124614 -0.100993134 0.3388896 -0.044826787 -0.28914693 0.843563 0.68824035 -0.014652701 -0.57885325 0.33821395 -0.39403552 0.03075392 -1.091034 0.2172353 -0.10175964 -0.15056576 0.5434997 0.23974231 0.68234223 0.17939349 0.21643877 0.13621095 -0.14545959 0.6483907 -0.084733844 -0.35537353 0.24218495 -0.06030388 -0.5837879 -0.8664469 -0.9213989 -0.5436311
río -0.21288128 -0.08663693 0.6310713 0.17776504 0.6476711 0.60512644 0.58433616 0.14192618 0.2759859 0.27517724 0.1849714 -0.0034907234 -0.14911683 0.26676068 -0.13213424 0.21715523 -0.1440309 -0.33555093 -0.40078652 0.62646496 0.54965496 -0.5238185 0.49121714 -0.25848237 0.5273042 -0.41929087 0.24861097 -0.13685946 0.15892127 -0.52411777 -0.18365285 -0.14421517 -0.45155537 0.3457259 0.062121667 0.27847165 -0.2621329 0.453554 0.26705062 -0.22382069 0.13387345 0.69702315 -0.6081212 -0.199915 -0.15544079 0.11462533 -0.5159724 -0.49870574 0.014879832 -0.42495537
ejotes 0.33432695 -0.049466815 0.1376879 0.17395417 0.6484431 -0.58001584 0.5210244 -0.008259855 0.031238135 0.22097401 0.58000547 0.035053175 0.24518698 0.46107018 0.9630262 -0.11197989 0.19978921 -0.45016494 -0.27601984 0.47888455 -0.17827488 0.046023075 -0.29052922 -0.0006791221 -0.18559578 -0.040157 0.73121864 -0.12662509 0.1440091 0.41012248 0.14686145 0.05819213 0.060710356 -0.040273648 0.62809706 0.1928995 0.9434203 0.6886129 -0.5270296 0.19080287 -0.059352245 0.03577245 0.08715843 -0.011054889 0.11771261 -0.38978156 -0.2071789 -0.67696774 -0.26392117 -0.3369818
pastel 0.03777211 0.6301515 0.52042013 0.62940264 0.045286227 -0.0962167 0.40035185 0.04707148 -0.5109622 0.1767364 0.34206256 -0.038630717 0.43859103 0.11432243 0.21005972 0.30923516 -0.32830474 0.07669073 -0.50842744 -0.39864627 -0.16465928 -0.2464407 -0.17205267 0.31119502 -0.1665492 -0.051913835 0.2890431 -0.57533133 -0.11156162 0.096990615 0.30439964 -0.19251826 -0.080963366 0.28781983 0.17754082 0.045051184 0.5105406 0.50948346 -0.01803275 -0.5678801 0.44867235 -0.04331466 0.796983 -0.07777116 0.30010086 -0.33845747 -0.048584744 -0.73328334 -0.28826848 -0.6417953
plancha -0.7379734 -0.15684912 0.68189985 0.24468863 0.2439589 0.1891133 0.35192952 0.11786258 0.15807304 -0.20790742 0.18422297 -0.6601148 -0.44448492 -0.6251859 0.0848414 -0.6693363 -0.14408068 -0.1441418 -0.5526774 -0.24380441 0.54927164 -0.09274816 -0.24046668 0.4268402 0.24741445 0.18543127 0.25534388 0.060905047 -0.5172767 -0.47021613 -0.017807618 0.08706366 -0.42746496 -0.79248506 -0.1816884 0.3152846 0.17960894 0.28939822 0.3662979 0.33999968 -0.02939473 0.18423788 -0.18410978 0.20930058 -0.021387294 -0.4097318 0.19813141 -0.4790802 -0.17108154 -0.23870276
suéter -0.57646555 0.21290773 0.14007612 0.05993685 0.41490886 -0.04597213 0.20942055 0.60866106 -0.2235079 0.047904104 -0.055196904 -0.18809927 0.15839668 0.6605276 0.06377041 0.44835228 -0.78833455 -0.06254851 -0.2950507 0.23803285 -0.08255448 0.13938898 -0.40361488 -0.09921503 0.030884942 -0.21261132 0.71581835 0.14429651 -0.28414607 -0.9952621 0.21098666 0.13556582 -0.3509018 -0.0704065 -0.25816765 0.31116396 0.5728737 0.22347604 -0.07840445 0.08396347 0.13449939 0.35954556 -0.22450311 0.30227795 -0.27706963 -0.3902079 0.1347699 -0.21182823 -0.63659114 -0.103872456
tortuga -0.02073074 -0.042267468 0.03983403 0.30695322 0.68088454 0.65054137 0.54207367 0.35217807 0.4205239 0.12302823 -0.050530817 0.2335155 -0.41805854 0.31201032 0.5891493 0.39718452 -0.8347004 -0.5291718 -0.49808916 0.090996936 0.4886037 -0.03719544 0.21795295 0.17478774 0.26309708 -0.36777386 -0.039577544 0.48356524 0.15731122 -0.027685452 -0.2526795 -0.043762583 -0.2612772 0.0053101266 -0.41619626 0.63708407 0.27313226 0.24711251 -0.17844598 -0.4176514 -0.11194704 0.28279558 -0.5960217 -0.49737853 -0.37926042 -0.6692183 -0.24348864 -0.45856348 -0.15207471 -0.34076604
ojos 0.23941106 0.07405898 -0.10054669 0.042686306 -0.17780808 -0.5509962 0.72412395 0.18211396 -0.010589797 0.7287894 -0.36427394 -0.7411608 -0.103679664 -0.04772564 0.39049238 -0.28062907 -0.30692875 -0.45018202 -0.15248142 0.27569735 -0.18805712 0.5494222 -0.093958795 0.1218749 -0.59282327 -0.5226624 0.15750308 0.1618842 0.15912773 0.1730639 0.43655413 0.28915507 0.24519624 0.14534807 0.2661774 0.24635607 0.70595026 -0.026426764 0.2207546 0.25748852 0.018691855 0.09687188 0.04827254 0.21432532 -0.47498715 0.48553494 -0.6636029 -0.3818034 -0.7046666 -0.5718613
vaca -0.20354345 -0.3920127 -0.024476418 -0.23371425 0.16849646 0.48219046 0.7653427 0.20880279 0.23386529 0.18510348 0.13383488 0.0076396116 -0.03592743 -0.1577314 0.6349521 0.15864064 -0.059001908 -0.2188345 -0.9989473 0.48964146 0.09396162 0.2820038 -0.16334467 0.40457556 0.24450524 -0.29350135 0.31129616 0.17221183 0.3212845 -0.25294125 -0.056258786 0.015786361 0.12521462 -0.40306315 -0.6871427 -0.14708544 0.72254485 -0.138079 -0.16312242 -0.50150263 0.4218751 0.01716292 0.53280467 -0.10141503 0.6576671 -0.045122392 0.15327728 -0.48638466 -0.6541917 -0.71125394
babero -0.019017309 0.27871275 0.28364658 0.09549735 0.36872432 0.23262706 0.021639142 -0.42480835 -0.24418804 0.45997128 0.4956252 -0.6107087 -0.22799172 -0.086914316 0.33159283 -0.32553473 0.002559818 -0.67350197 -0.35480943 0.33880982 -0.06259447 -0.00010776915 -0.18485026 -0.24126703 -0.84987575 -0.30201602 0.29183513 0.047252875 -0.7103305 -0.6139161 -0.275973 -0.31613326 0.0032022372 -0.23581006 -0.52198774 -0.44142517 0.48449534 0.5588708 -0.05348867 0.28631634 0.46964538 0.48658568 -0.49119255 -0.020711282 0.27185848 -0.4623686 0.08717583 -0.44157162 -0.17380986 -0.64599645
patines -0.10588333 0.26209313 0.03831288 0.106514916 -0.024350958 0.20704503 0.69439054 0.4089386 -0.49542463 0.041918255 -0.22374983 -0.098364554 -0.49564514 0.37324494 0.33790633 -0.100581214 -0.06323242 -0.76769155 0.028309789 0.35045028 -0.19000183 0.04863346 -0.1974997 0.7036367 -0.24023056 -0.7294984 0.31960827 0.28997368 0.06145041 -0.12781987 -0.72435397 0.020016938 -0.03542056 0.4905736 0.3389638 0.66039854 -0.30014426 0.39441156 0.1953672 0.84053946 0.07789039 -0.114170395 -0.123408906 0.15199725 0.032351304 -0.10838992 -0.113498405 -0.14681184 -0.0675411 -0.76273155
cuchara -0.4270738 0.08220447 0.121303484 -0.053319156 0.21963578 -0.31366748 -0.04602818 -0.4225622 0.26841536 0.28246936 -0.24740495 -0.075976335 -0.1770549 0.369067 0.31381768 -0.63416576 -0.36868477 -0.29440507 -0.7268174 0.2646124 -0.2883198 -0.15189503 -9.7038304e-05 0.504634 0.09666297 -0.2242384 0.75216323 -0.17145394 -0.73917544 0.21878198 0.41965637 -0.49894404 0.17631602 0.15049061 0.56725305 0.21440029 0.32809433 0.5551595 0.4649892 -0.30016586 0.21898778 -0.06008164 0.30605623 0.15833162 -0.073682025 -0.12972917 -0.09294919 -0.35401294 -0.10276304 -0.2395334
zanahoria 0.07227373 -0.3130962 -0.020230224 0.6089528 0.22346605 -0.35825074 0.37615594 -0.11924126 -0.11714813 0.52944225 0.05700227 0.54023385 0.24868616 -0.12349466 0.20808855 0.22307132 -0.37466156 -0.60868776 -0.3143209 0.21445191 -0.10440297 -0.33542082 0.29392853 0.021686057 -0.30211955 -0.056445714 0.77185386 -0.19179584 0.0815122 0.0043545784 0.35867223 0.36587688 0.14386605 0.33255464 0.6077124 0.41990367 0.7434584 0.48495728 -0.61074334 0.48981655 -0.24152666 -0.081228904 0.31442595 0.3686091 0.045575093 0.1416029 -0.20364097 -0.5620014 -0.19521603 -0.7692979
hoja -0.9341929 0.37409598 0.40181047 0.30655363 0.027087599 -0.4108719 0.639309 -0.33485618 0.22055487 -0.0937889 0.53160876 0.102383554 0.09223212 -0.0819854 0.4498361 0.25183463 0.19650929 -0.41908154 -0.03220639 -0.40027526 0.30354518 0.10338152 0.42282656 0.4192844 -0.08732196 0.1430922 0.38325867 0.6445321 -0.24877441 -0.0687749 -0.40901187 -0.29083836 0.02405675 0.17942055 -0.19939929 0.2799681 0.36856705 0.3219479 -0.3065363 -0.115108855 0.31918725 -0.11408237 -0.3618956 0.44713125 -0.10705536 0.5384441 -0.70733887 -0.54169583 -0.1533537 -0.3648696
avión -0.7870994 -0.07284224 0.072883025 0.26262614 -0.33651125 -0.07099771 1.0486913 -0.18965274 0.025152998 0.1479801 -0.34050035 0.47263476 -0.2087356 0.08840962 0.62922937 -0.26739743 -0.03495134 0.065865695 -0.027469303 0.14257406 0.2952328 0.08910642 0.20479181 0.24790028 0.09211637 -1.1629537 -0.56527925 -0.60243154 -0.17561601 -0.95752615 -0.17387632 -0.3502824 -0.30556807 0.0484131 0.7387576 -0.1437281 -0.04185553 0.18229967 0.111567706 0.20831674 0.232106 0.33435386 0.0049714623 0.10955068 0.12953608 0.16329017 0.14131972 -0.35891947 -0.38894954 -0.573256
timbre -0.21362425 -0.45473513 0.5093919 -0.26202792 -0.0041387044 0.33397064 0.697825 -0.021591157 0.262118 0.6069423 0.4538196 -0.51245093 -0.33790684 0.30319023 0.1073704 0.17806317 -0.49836686 0.072547555 -0.096921206 0.24410509 0.23014776 0.99165314 -0.16777135 0.5416958 0.428832 -0.2495105 -0.48147377 0.5199359 -0.87343955 0.14982703 -0.4420445 -0.04628756 -0.1265522 -0.79524606 0.8608292 0.3273748 0.35879195 -0.08242653 0.2921292 -0.18385275 0.24975489 0.5407591 -0.10574821 -0.00045718963 0.37082455 0.3748988 -0.14661413 -0.49878463 -0.51953787 -0.4844275
lavadora -0.013024027 -0.291053 0.31024802 0.13382131 -0.30378744 -0.44482654 0.35667607 0.17448732 0.24476053 -0.3811505 0.19658898 -0.45036495 -0.08028263 -0.34063578 0.40340474 -0.19334783 -0.24866764 -0.2366189 -0.63147223 -0.1368765 0.24005526 -0.17211187 -0.2121617 0.3188114 -0.055358727 0.55104005 -0.012502724 0.02151478 -0.42738926 -0.9218583 -0.64634115 -0.37633058 -0.66146016 -0.32213643 0.053445928 0.25489834 -0.08471402 0.61351895 0.46709582 -0.29797179 -0.08842737 0.4908038 -0.034399945 0.009933381 0.12493023 0.010948979 0.46961346 -0.6880067 -0.16167721 -0.818837
durazno 0.21969035 0.23371615 0.4335332 0.45856836 -0.18607631 -0.04865604 0.26693854 0.060139988 -0.20529562 0.58824897 0.54946715 -0.18426783 -0.117488734 0.23808716 0.31848368 0.5540564 -0.3577294 0.09500281 -0.40110955 -0.3026666 -0.31565434 -0.5071321 -0.06470274 0.6916442 -0.38761187 -0.098072745 0.33434623 -0.60100394 0.11268912 -0.18863414 0.51772165 0.066537514 -0.042707644 -0.09068469 0.25239134 0.1499948 0.27226874 0.21840382 -0.72090966 0.03855919 0.4190382 -0.055908334 -0.20285971 -0.14835992 -0.16217005 -0.13049507 0.09940615 -0.3036498 -0.06468999 -1.0027071
botella -0.455308 -0.28056854 0.8477307 -0.08021846 0.79420793 0.28886223 -0.12959425 -0.005262275 -0.36742106 -0.009099429 -0.023860402 -0.5141461 -0.0026341253 -0.6158378 0.058483183 0.021304118 -0.30088282 -0.3624374 -0.28158495 0.38693178 -0.25369897 0.15900174 -0.0065758363 0.27741823 -0.59222883 -0.40795323 0.43338984 -0.35958463 -0.1070667 -0.16094647 -0.44814336 -0.007395359 0.4629411 0.08386309 0.15029432 0.916601 0.2732075 0.19313022 -0.11093461 -0.8038629 0.018873625 0.47829947 0.079352245 0.045797393 0.16552134 0.5233007 -0.047047433 -0.3187231 -0.2529988 -0.55084586
bacinica -0.67833173 -0.3798978 0.65152913 -0.015747681 0.27053332 -0.3857768 -0.36608335 0.18878926 0.14804132 0.3016672 0.23255911 0.16649483 -0.03996048 0.32606828 0.72005475 -0.12400609 -0.29284075 -0.29705632 -0.26569375 -0.10282901 -0.012891652 -0.35235962 -0.50450414 -0.31638268 -0.33321184 -0.47030437 0.030990839 0.15790413 -0.37790906 0.09324935 0.0965568 -0.2923189 -0.16652754 -0.418578 0.21490078 0.29628617 0.00793528 0.42712635 0.40564376 -0.5694749 0.80117744 0.5945639 0.4724162 -0.21717131 -0.17563623 -0.043808613 -0.19132915 -0.5139129 -0.18965267 -1.0838591
cuchillo -0.013368392 0.28619474 0.5827605 0.22705476 -0.15126877 -0.054937433 0.07730751 -0.43653932 0.03460197 1.0910157 0.29305714 0.09577077 -0.4605425 0.20001175 0.21381135 -0.75608414 -0.14254247 -0.22156762 -0.36585918 0.20134236 -0.47642982 -0.094929606 -0.044393323 0.28027424 0.217137 0.16628574 0.31221083 -0.076826796 -0.15818869 -0.25874195 0.43952903 -0.38777655 0.06788146 -0.0578486 -0.20174986 0.2425465 0.42272106 0.28142446 0.25160858 0.28615177 0.05203143 -0.48527256 0.018932102 0.06671642 0.21978864 -0.12619072 -0.07457296 -0.1214219 -0.45093003 -1.0457807
dedo 0.02560636 0.20746736 0.5940181 0.25716212 -0.0032288544 -0.75871354 0.32469726 0.035147313 0.8315332 0.4742315 -0.19515708 -0.2968802 -0.07437464 0.044739787 -0.16120781 0.05114526 -0.48184925 0.28026992 -0.26553774 -0.30604535 -0.24394317 0.25772607 -0.13738337 0.48593485 0.35063726 -0.13178588 0.121500656 0.26158226 -0.33324778 -0.4560371 -0.14843771 0.054369066 -0.52971566 -0.17326888 0.16380957 0.018861096 -0.0042252433 1.0935867 -0.3777168 0.37102407 0.15753804 0.25998458 -0.08499569 -0.27514818 -0.24307995 0.5937861 -0.40113884 0.1188599 -0.5348781 -0.71009713
tenedor -0.07035313 0.22055593 0.050081193 9.972918e-05 0.2660041 -0.60403246 0.24167934 -0.3186557 -0.22460076 0.42206806 0.5977068 -0.21494453 -0.2574417 -0.052392855 0.27413785 -0.37562376 -0.16675054 0.22275321 -0.56938875 -0.13839053 -0.30110064 -0.10630913 0.14063764 0.4843241 0.33483246 0.26363912 0.539741 -0.11633229 -0.64934695 0.112247676 0.13226841 0.09127065 0.023149466 0.35567498 0.25713173 0.27750897 0.2523928 0.88699377 0.45347753 -0.026530357 0.43852615 -0.15469678 0.117064804 0.47516397 0.22451776 -0.21693647 0.25263804 -0.37161747 0.27692708 -0.9383703
galleta -0.48462376 0.5855355 0.46892205 0.45582873 0.18915468 0.28057924 0.054567434 0.15329327 0.008573909 0.5143215 -0.07061133 0.5028835 0.38887727 -0.1293635 0.086918436 -0.31592497 0.11698498 -0.31858268 -0.13554592 -0.39207044 -0.80020607 -0.1965694 0.19775635 0.54299253 -0.31009212 -0.62387156 0.4616737 -0.20470217 -0.17669486 -0.2111611 0.16232215 -0.1729905 -0.05257692 -0.14353521 0.42730466 -0.013401124 0.24524532 0.4595023 -0.26300707 -0.25892323 -0.4832972 0.43724304 0.24375567 0.086397804 -0.25292212 -0.5306483 0.17111017 -0.81847894 -0.2549042 -0.5725361
estrella -0.6725561 -0.017127378 0.49395767 0.17776598 -0.3497241 -0.51806015 0.6269545 0.9860398 -0.18363024 0.51827127 -0.20948963 -0.07442223 -0.14301348 -0.24238184 0.41380444 -0.21706073 -0.5143694 -0.5134291 -0.56578946 0.11441681 0.40767652 0.547623 0.19909506 0.27923483 0.048034508 -0.51856995 0.17352936 -0.61904687 -0.17860195 0.117271855 -0.49333477 -0.4416567 0.24385339 0.11060634 -0.020726185 0.4876245 0.6215254 0.5466529 0.26869515 0.34919065 0.07659802 0.22068074 -0.27859765 -0.30342066 -0.38088077 0.20616168 -0.3451041 -0.48163384 -0.06487649 0.57390875
olla -0.4355657 -0.10655341 0.9482103 0.16001454 0.662815 -0.23790403 -0.0802548 0.17757441 0.42569414 -0.16128124 0.16579719 -0.10398804 0.2731807 0.18272771 0.46186724 -0.7635699 -0.15935543 -0.09309715 -0.19653447 0.20924821 -0.6255527 -0.10457844 -0.22188886 0.21055265 -0.39697337 -0.09007391 0.390223 0.09976027 -0.43309405 -0.106190726 0.38560468 -0.13741039 -0.14418615 -0.08679896 0.33923703 0.3848276 -0.00035433404 0.5342548 0.38548103 0.18596421 0.2055595 -0.017211504 -0.17108141 0.346309 0.46426734 -0.68790966 -0.15896393 -0.94410855 0.0142322555 -0.3059892
bandera -0.091322705 0.27597618 0.4779869 0.76208407 -0.030936632 -0.15595739 0.30708182 0.48207715 0.26380545 0.18578611 0.17350125 0.5570748 0.44380942 -0.42255232 -0.0017922102 0.12462217 -0.1741956 -0.38704714 -0.17119725 0.5543639 0.50853467 0.1666577 0.25081682 0.48838595 -0.18664011 -0.38578445 -0.9714565 0.4709873 -0.07913421 -0.52562326 0.8814973 0.5089756 -0.3837653 0.08335377 0.28283897 0.5394747 1.2227244 0.22518483 0.052697442 0.114547275 0.8719693 0.049567614 -0.40026963 0.3662181 0.6381645 -0.19397159 -0.002091602 -0.34751156 -0.8124235 -0.5085469
pala -0.0841554 -0.16085564 0.25456962 0.36320227 0.17114729 0.10660804 0.52708215 -0.37920097 0.098574005 0.25836417 -0.18530147 -0.18619229 0.16185352 0.2873111 0.76059574 -0.6475929 -0.63605803 -0.6127963 -0.079240255 0.62554646 0.43775022 -0.1023778 0.110692196 0.56492823 0.44327363 0.50010175 0.5667272 -0.0491522 -0.61529183 -0.2918089 0.32391572 -0.35135478 -0.2176044 -0.36082247 -0.1497639 0.21406005 0.46224293 0.30832234 0.08292574 -0.074783646 0.4615663 -0.34593034 0.070063844 -0.024833621 0.07652996 0.4033911 0.16338752 -0.29325917 0.27810887 -0.6298259
doctor -0.808962 -0.29871595 0.16447392 -0.12596089 0.94609034 0.030457644 0.038828623 -0.16399829 -0.36507666 0.3285566 0.41055012 -0.19994351 -0.31082687 0.09124053 0.33062103 -0.2312009 -0.08586998 -0.5649876 -0.59738106 -0.7671719 0.4767738 0.022388985 -0.038780846 0.21208985 -0.26667792 -0.6028571 -0.35963377 -0.09981973 -0.58796656 -0.03150856 -0.12698439 -0.011485871 -0.39435148 -0.15495199 0.13915549 0.24249938 0.969472 0.13610715 -0.08657179 0.25748056 -0.100661434 -0.078965545 0.07041024 -0.48093736 -0.17813225 0.5332133 0.22551751 -0.11164612 -0.44804293 -0.56715155
